svm_type c_svc
kernel_type rbf
gamma 8
nr_class 6
total_sv 1379
rho -0.035396199773390022 -0.45961436899003077 -0.76603964065607588 -0.86085327741069129 -0.92846551001713151 -0.57632482492070436 -0.73902356207767039 -0.904528534446289 -0.91502606018690569 -0.35167337787505265 -0.78375556759034071 -0.77292452790610755 -0.41124725191321471 -0.65951055793278468 -0.21042129231793497
label 5 6 7 4 8 3
nr_sv 555 567 176 53 18 10
SV
0.40934170055859415 0.12891931310314381 0.011170794331413943 0.047470751149065148 0.39013024351228931 1:-0.433628 2:0.0410959 3:-1 4:-0.767123 5:-0.712855 6:-0.323944 7:-0.568905 8:-0.0117474 9:-0.275591 10:-0.580838 11:-0.569231 
2 0 0 0 0 1:-0.433628 2:-0.123288 3:-0.92 4:-0.808219 5:-0.732888 6:-0.605634 7:-0.660777 8:0.0176211 9:-0.181102 10:-0.616766 11:-0.569231 
0.64912134044415548 0 0.2481286591840986 0 0 1:-0.415929 2:-0.342466 3:-0.88 4:-0.90411 5:-0.809683 6:-0.605634 7:-0.625442 8:-0.0704846 9:-0.11811 10:-0.844311 11:-0.692308 
0 0 0.070123186532977971 0 0 1:-0.628319 2:-0.369863 3:-0.84 4:-0.876712 5:-0.716194 6:-0.605634 7:-0.583039 8:-0.143906 9:-0.149606 10:-0.748503 11:-0.753846 
0.15487392451803175 0 0.0080099973661498305 0.013638493653933768 0.0065104115066809357 1:-0.486726 2:-0.479452 3:-0.28 4:-0.287671 5:-0.803005 6:-0.549296 7:-0.321555 8:0.135095 9:-0.0393701 10:-0.437126 11:-0.353846 
1.1998829549632104 0.066254836503117642 0.26752940539318526 0.040455738553543119 0.042139360322515973 1:-0.823009 2:-0.321918 3:-1 4:-0.90411 5:-0.742905 6:-0.577465 7:-0.625442 8:-0.378855 9:0.322835 10:-0.772455 11:-0.538462 
0.91294982147801318 0.5020881569723189 0.22262485363437765 0.13668163050727511 0.067169908575510737 1:-0.433628 2:-0.328767 3:-0.42 4:-0.90411 5:-0.659432 6:-0.774648 7:-0.837456 8:0.0763583 9:-0.181102 10:0.473054 11:-0.784615 
0.29996289856196506 0.17932066977762651 0.063453274783877162 0 0 1:-0.238938 2:-0.315068 3:-0.64 4:-0.60274 5:-0.452421 6:0.43662 7:-0.0176678 8:0.25257 9:-0.338583 10:-0.341317 11:-0.753846 
0.5885479587488549 0.31973901130866217 0.15136055106162846 0.1271668761771754 0.068307630632079494 1:-0.238938 2:-0.315068 3:-0.62 4:-0.589041 5:-0.472454 6:0.408451 7:0.00353357 8:0.25257 9:-0.322835 10:-0.281437 11:-0.753846 
0.3082529123211119 0.19220135248420692 0.078522900852353139 0.046511555544043987 0.02402496502195349 1:-0.380531 2:-0.39726 3:-0.44 4:-0.890411 5:0.188648 6:-0.577465 7:-0.646643 8:-0.0117474 9:-0.417323 10:0.137725 11:-0.723077 
2 0 0.16471090669812249 0.0074293862273623838 0 1:-0.469027 2:-0.630137 3:-0.38 4:-0.808219 5:-0.766277 6:-0.380282 7:-0.540636 8:0.193833 9:0.228346 10:-0.616766 11:-0.6 
0.21200468305267584 0.32612339990635997 0.16310758174986445 0 0 1:-0.699115 2:-0.630137 3:-0.68 4:-0.931507 5:-0.772955 6:-0.71831 7:-0.879859 8:-0.202643 9:-0.0551181 10:-0.724551 11:-0.723077 
2 0.18787100815219038 0 0 0 1:-0.469027 2:-0.60274 3:-0.52 4:-0.876712 5:-0.772955 6:-0.915493 7:-0.964664 8:-0.0998532 9:-0.149606 10:-0.688623 11:-0.661538 
1.3930095564805174 0.75565311531862356 0 0.24804749787544811 0.031027600656562449 1:-0.415929 2:-0.575342 3:-0.58 4:-0.90411 5:-0.686144 6:-0.746479 7:-0.780919 8:-0.041116 9:-0.322835 10:-0.305389 11:-0.661538 
0.074862278033718727 0 0 0 0 1:-0.628319 2:-0.239726 3:-0.86 4:-0.794521 5:-0.742905 6:-0.549296 7:-0.462898 8:-0.15859 9:-0.0393701 10:-0.748503 11:-0.476923 
0.73810269198773348 0 0 0 0 1:-0.345133 2:-0.267123 3:-0.76 4:-0.808219 5:-0.762938 6:-0.605634 7:-0.243816 8:-0.041116 9:-0.322835 10:-0.60479 11:-0.569231 
0.9073185340628559 0.23837579903823986 0.10700228939223112 0.07051091034432011 0.035677591329786734 1:-0.893805 2:-0.726027 3:-0.5 4:-0.876712 5:-0.69616 6:-0.661972 7:-0.689046 8:-0.173275 9:0.00787402 10:-0.736527 11:-0.753846 
0.99430211056588269 0.6280196260431492 0.1701100690478787 0.084257598598418609 0.041427302201634361 1:-0.522124 2:-0.547945 3:-0.28 4:-0.315068 5:-0.792988 6:-0.690141 7:-0.427562 8:0.135095 9:-0.0708661 10:-0.401198 11:-0.353846 
1.16634863601598 0.78130934264534546 0.27843986898056478 0.19791892064484856 0.058407792230079456 1:-0.380531 2:-0.260274 3:-0.56 4:-0.821918 5:-0.809683 6:-0.774648 7:-0.879859 8:-0.0117474 9:-0.11811 10:0.0419162 11:-0.415385 
0 0 0.11043989029013605 0 0.48140154879850489 1:-0.610619 2:-0.246575 3:-0.96 4:-0.876712 5:-0.873122 6:-0.887324 7:-0.964664 8:-0.0998532 9:0.165354 10:-0.772455 11:-0.661538 
0.55574388223098115 0.36967757455338662 0.12598972228616132 0.099561373210108051 0.052353981537229484 1:-0.451327 2:0.116438 3:-0.14 4:-0.821918 5:-0.659432 6:-0.408451 7:-0.236749 8:0.0176211 9:-0.19685 10:-0.520958 11:-0.753846 
1.5530322285330107 0 0.11729787934315375 0 0.02306762747178728 1:-0.274336 2:-0.767123 3:0.04 4:-0.90411 5:-0.662771 6:-0.690141 7:-0.780919 8:0.00293686 9:-0.19685 10:-0.700599 11:-0.661538 
0 0 0.12506732237662435 0.034419605926937963 0.011903977363066139 1:-0.681416 2:-0.616438 3:-0.54 4:-0.90411 5:-0.819699 6:-0.887324 7:-0.957597 8:-0.15859 9:-0.0551181 10:-0.724551 11:-0.753846 
0.91725638488939021 0.38422660726439639 0.17459900719954241 0.10936097680499524 0.055415417711389109 1:-0.823009 2:-0.739726 3:-0.26 4:-0.931507 5:-0.792988 6:-0.690141 7:-0.363958 8:-0.217327 9:-0.0866142 10:-0.700599 11:-0.753846 
0.12422719021965978 0 0 0.020502589744594544 0.02077230205154491 1:-0.256637 2:-0.260274 3:-0.48 4:-0.890411 5:-0.792988 6:-0.915493 7:-0.879859 8:0.0323054 9:-0.354331 10:-0.508982 11:-0.753846 
0 0 0.066265309560249702 0.0047364981859006486 0 1:-0.292035 2:-0.643836 3:-0.28 4:-0.712329 5:-0.769616 6:-0.183099 7:-0.201413 8:0.0176211 9:-0.275591 10:-0.724551 11:-0.692308 
0 0 0 0.0125826642067715 0 1:-0.451327 2:-0.315068 3:-0.92 4:-0.60274 5:-0.759599 6:-0.323944 7:-0.724382 8:0.135095 9:-0.0551181 10:-0.760479 11:-0.661538 
1.4752022479834486 0.56266594310542117 0.069847453658557712 0.20381971763556297 0.0070101679156349059 1:-0.00884956 2:-0.589041 3:0.14 4:-0.657534 5:-0.806344 6:-0.915493 7:-0.971731 8:0.0323054 9:-0.527559 10:-0.640719 11:-0.630769 
0.5946548197222955 0.34049196972221696 0.15145226646378931 0.08591775382873347 0.041699026361323076 1:-0.486726 2:-0.30137 3:-0.76 4:-0.424658 5:-0.669449 6:0.380282 7:-0.265018 8:0.208517 9:-0.181102 10:-0.473054 11:-0.692308 
1.0694351420743 0 0 0 0 1:-0.433628 2:-0.356164 3:-0.64 4:-0.808219 5:-0.786311 6:-0.549296 7:-0.660777 8:0.0910426 9:0.0866142 10:-0.688623 11:-0.507692 
1.14860640626429 0 0 0 0.036188983276503592 1:-0.256637 2:-0.616438 3:-0.2 4:-0.821918 5:-0.776294 6:-0.492958 7:-0.674912 8:0.164464 9:0.102362 10:-0.628743 11:-0.753846 
0 0.026902540621912316 0 0.010651367601044062 0.0084886071640984904 1:-0.451327 2:-0.219178 3:-0.02 4:-0.876712 5:-0.656093 6:-0.464789 7:-0.250883 8:-0.0117474 9:-0.259843 10:-0.54491 11:-0.723077 
0.892339646894313 0.38392351953729231 1.4824678487633287 0.083030553523736922 0.35203633457243644 1:-0.539823 2:-0.171233 3:-0.9 4:-0.486301 5:-0.752922 6:-0.915493 7:-0.964664 8:-0.0998532 9:0.0551181 10:-0.928144 11:-0.230769 
2 0.043479110362355182 0 0 0 1:-0.486726 2:-0.452055 3:-0.78 4:-0.917808 5:-0.776294 6:-0.71831 7:-0.766784 8:-0.0117474 9:0.0708661 10:-0.700599 11:-0.630769 
2 0 0.54179707981463798 0 0.18525947890407837 1:-0.646018 2:-0.19863 3:-0.86 4:-0.90411 5:-0.786311 6:-0.859155 7:-0.936396 8:-0.0998532 9:0.102362 10:-0.700599 11:-0.292308 
2 1.5787106547534326 0.19821192752203989 0.063281427137292151 0.07031963031765856 1:-0.168142 2:-0.726027 3:0.14 4:-0.849315 5:-0.792988 6:-0.267606 7:-0.583039 8:0.00293686 9:-0.149606 10:-0.449102 11:-0.292308 
2 0 0 0 0 1:-0.451327 2:-0.246575 3:-0.54 4:-0.835616 5:-0.746244 6:-0.549296 7:-0.363958 8:-0.0998532 9:-0.0866142 10:-0.820359 11:-0.661538 
0.47740381731585735 0 0.14428754800828206 0 0 1:-0.451327 2:-0.219178 3:-0.56 4:-0.863014 5:-0.759599 6:-0.521127 7:-0.378092 8:-0.114537 9:-0.102362 10:-0.820359 11:-0.661538 
1.4750251456930288 0.30270555124945542 0.2196334671313179 0.035350546074018302 0.21770679594747999 1:-0.0973451 2:-0.726027 3:0.08 4:-0.780822 5:-0.72621 6:-0.239437 7:-0.45583 8:0.223201 9:-0.149606 10:-0.413174 11:-0.630769 
0.99790183089547646 0.38111840186010926 0.18590630924857604 0.068105206254619591 0.049489894335552752 1:-0.256637 2:-0.60274 3:0.28 4:-0.821918 5:-0.729549 6:-0.774648 7:-0.745583 8:0.25257 9:0.259843 10:-0.60479 11:-0.353846 
0.25134571361012431 0 0.11676509089013157 0 0 1:-0.628319 2:-0.136986 3:-0.76 4:-0.849315 5:-0.752922 6:-0.690141 7:-0.477032 8:-0.15859 9:0.00787402 10:-0.772455 11:-0.476923 
0 0 0.49990219507614969 0.022995552263351239 0 1:-0.716814 2:-0.547945 3:-0.6 4:-0.90411 5:-0.809683 6:-0.943662 7:-0.936396 8:-0.15859 9:0.0551181 10:-0.724551 11:-0.753846 
0.60896945506235189 0.35901003859191388 0.15409789648779479 0.10478555291046016 0.049070540704617027 1:-0.433628 2:-0.575342 3:0.4 4:-0.863014 5:0.509182 6:-0.408451 7:-0.568905 8:0.0763583 9:-0.385827 10:0.137725 11:-0.692308 
0.20702955074933954 0.16554245580724719 0.58393556542481651 0.025700069075968678 0.0066032471972557174 1:-0.504425 2:-0.479452 3:-0.06 4:-0.849315 5:-0.752922 6:-0.43662 7:-0.526502 8:0.0176211 9:-0.023622 10:-0.712575 11:-0.784615 
0.71707793032446587 0.39236143640358512 0.17219994023708221 0.10205541545417389 0.055402340431516504 1:-0.522124 2:-0.246575 3:-0.48 4:-0.876712 5:0.298831 6:-0.577465 7:-0.681979 8:0.00293686 9:-0.338583 10:-0.0299401 11:-0.692308 
2 0 0 0 0 1:-0.59292 2:-0.410959 3:-0.7 4:-0.821918 5:-0.786311 6:-0.492958 7:-0.759717 8:-0.114537 9:0.0551181 10:-0.688623 11:-0.476923 
2 0 0 0 0 1:-0.451327 2:-0.493151 3:-0.48 4:-0.863014 5:-0.833055 6:-0.774648 7:-0.823322 8:-0.041116 9:0.023622 10:-0.628743 11:-0.630769 
0.57240026997050342 0.32286785002616192 0.12890039553102894 0.082823349199215524 0.049742403690989465 1:-0.168142 2:-0.630137 3:-0.12 4:-0.835616 5:-0.682805 6:-0.0704225 7:-0.159011 8:0.135095 9:-0.370079 10:0.0658683 11:-0.661538 
1.2655293399028134 0.34473643334639698 0 0 0 1:-0.575221 2:-0.315068 3:-0.84 4:-0.876712 5:-0.786311 6:-0.802817 7:-0.872792 8:0.135095 9:0.165354 10:-0.760479 11:-0.815385 
0.30951552165120005 0.18216657920386709 0.099901535054896184 0.053586805171501183 0.032440010279618181 1:-0.415929 2:-0.452055 3:-0.48 4:-0.863014 5:-0.776294 6:0.15493 7:-0.0530035 8:-0.0704846 9:-0.228346 10:-0.748503 11:-0.661538 
2 0.53164273880800961 0.2292522854418993 0.13456648914180544 0.066805067620383171 1:-0.292035 2:-0.493151 3:-0.42 4:-0.849315 5:-0.672788 6:-0.492958 7:-0.102473 8:0.0469897 9:-0.700787 10:0.976048 11:-0.569231 
2 0.028850131989642813 0 0 0 1:-0.451327 2:-0.493151 3:-0.48 4:-0.863014 5:-0.833055 6:-0.774648 7:-0.823322 8:-0.041116 9:0.023622 10:-0.628743 11:-0.630769 
2 0 1.8553804814059862 0 0.11253316870143878 1:-0.610619 2:-0.10274 3:-1 4:-0.712329 5:-0.699499 6:-0.802817 7:-0.879859 8:-0.0558003 9:0.11811 10:-0.724551 11:-0.292308 
0 0.050823337287869745 0 0.012243093663389567 0 1:-0.575221 2:-0.479452 3:-0.5 4:-0.849315 5:-0.806344 6:-0.943662 7:-0.886926 8:-0.0851689 9:-0.19685 10:-0.640719 11:-0.753846 
0 0.053146549503168466 1.1239544865657543 0 0 1:-0.469027 2:0.0684932 3:-0.88 4:-0.780822 5:-0.776294 6:-0.887324 7:-0.971731 8:-0.0264317 9:0.023622 10:-0.724551 11:-0.569231 
1.2340778898051943 0 0 0 0 1:-0.380531 2:-0.376712 3:-0.56 4:-0.835616 5:-0.782972 6:-0.690141 7:-0.583039 8:-0.0264317 9:-0.133858 10:-0.784431 11:-0.753846 
2 0 0.78799741103007248 0 0 1:-0.380531 2:-0.376712 3:-0.56 4:-0.835616 5:-0.782972 6:-0.690141 7:-0.583039 8:-0.0264317 9:-0.133858 10:-0.784431 11:-0.753846 
0.29054630597104286 0.074007957149034756 0.026960524136721377 0.0063009368581959596 0.0075515730988812702 1:-0.433628 2:-0.60274 3:0.36 4:-0.890411 5:0.519199 6:-0.521127 7:-0.55477 8:0.061674 9:-0.464567 10:0.173653 11:-0.723077 
0.88625419851219078 0.20191895960505066 0 0.072332908896551515 0.01859112146675837 1:-0.716814 2:-0.30137 3:-0.38 4:-0.890411 5:-0.746244 6:-0.605634 7:-0.590106 8:0.00293686 9:0.133858 10:-0.449102 11:-0.723077 
0.6951406164322097 0.37484441260050172 0.16767284470014956 0.098333341340264807 0.056464686610143568 1:-0.380531 2:-0.0890411 3:0.04 4:-0.849315 5:-0.632721 6:0.0140845 7:0.0388693 8:0.00293686 9:-0.259843 10:-0.568862 11:-0.723077 
0 0.18549092493624791 0.080954331837818666 0.063223786500499063 0.019062239857944755 1:-0.327434 2:-0.315068 3:-0.82 4:-0.821918 5:-0.759599 6:-0.71831 7:-0.279152 8:-0.0704846 9:-0.354331 10:-0.60479 11:-0.569231 
0 0 0.16852642414073712 0 0 1:-0.433628 2:-0.39726 3:-0.62 4:-0.876712 5:-0.692821 6:-0.690141 7:-0.710247 8:-0.0704846 9:-0.291339 10:-0.281437 11:-0.661538 
0.99972597071995861 0.51347138551791571 0.62380189413736375 0.12704073983260397 0.053306555487754717 1:-0.522124 2:0.30137 3:-0.82 4:-0.890411 5:-0.445743 6:-0.746479 7:-0.413428 8:-0.0998532 9:-0.11811 10:-0.712575 11:-0.815385 
0.22955172629849493 0 0.50781563632265736 0.044605537891254779 0 1:-0.522124 2:-0.212329 3:-1 4:-0.780822 5:-0.789649 6:-0.943662 7:-0.95053 8:0.164464 9:0.181102 10:-0.772455 11:-0.753846 
0 0 1.2618269397167907 0 0 1:-0.39823 2:-0.191781 3:-1 4:-0.767123 5:-0.772955 6:-0.71831 7:-0.80212 8:0.105727 9:0.102362 10:-0.760479 11:-0.661538 
0 0 0 0.025476475694781911 0 1:-0.433628 2:-0.479452 3:-0.66 4:-0.90411 5:-0.766277 6:-0.43662 7:-0.321555 8:-0.129222 9:0.023622 10:-0.820359 11:-0.661538 
0.46500926796828468 0.30522232981542713 0.13991994803892588 0.079497014124784077 0.00942464743183998 1:-0.221239 2:-0.315068 3:-0.92 4:-0.863014 5:-0.552588 6:-0.267606 7:-0.40636 8:0.223201 9:-0.338583 10:-0.556886 11:-0.692308 
0.52099570347776269 0.46955492733723248 0 0.13463286945879588 0 1:-0.362832 2:0.657534 3:-1 4:-0.890411 5:-0.769616 6:-0.943662 7:-0.957597 8:-0.0704846 9:0.244094 10:-0.808383 11:-0.230769 
0.44457621810127645 0.050801482996082593 0.53652197225399312 0 0.80869325365694411 1:-0.380531 2:0.657534 3:-1 4:-0.876712 5:-0.766277 6:-0.943662 7:-0.957597 8:-0.0704846 9:0.259843 10:-0.820359 11:-0.230769 
0.10859554644111019 0.8492288675138886 0 0 0 1:-0.734513 2:-0.643836 3:-0.7 4:-0.876712 5:-0.799666 6:-0.859155 7:-0.908127 8:-0.202643 9:0.0708661 10:-0.712575 11:-0.692308 
0.095495767394583445 0.082728670436045093 0.044898880847989403 0.019794868638728154 0 1:-0.39823 2:-0.143836 3:0.12 4:-0.849315 5:-0.646077 6:-0.183099 7:-0.0954064 8:-0.0117474 9:-0.212598 10:-0.60479 11:-0.692308 
1.7320490598770513 1.7033972913076254 0.30360954800319623 0.29869936712350026 0.061079065107140375 1:-0.823009 2:-0.479452 3:-0.82 4:-0.808219 5:-0.876461 6:-0.549296 7:-0.342756 8:-0.46696 9:0.401575 10:-0.640719 11:0.415385 
2 0 0 0 0 1:-0.539823 2:-0.59589 3:-0.28 4:-0.849315 5:-0.769616 6:-0.661972 7:-0.724382 8:0.0469897 9:0.165354 10:-0.628743 11:-0.753846 
0.038788686096829492 0 0 0 0 1:-0.433628 2:-0.39726 3:-0.62 4:-0.849315 5:-0.769616 6:-0.549296 7:-0.279152 8:-0.0998532 9:-0.0866142 10:-0.748503 11:-0.661538 
0 0.05962878026230635 0 0 0 1:-0.327434 2:-0.143836 3:-0.78 4:-0.863014 5:-0.739566 6:-0.577465 7:-0.597173 8:-0.0558003 9:-0.291339 10:-0.413174 11:-0.630769 
0.78291388315946431 0 0 0 0 1:-0.345133 2:-0.184932 3:-0.7 4:-0.876712 5:-0.742905 6:-0.746479 7:-0.674912 8:-0.0117474 9:-0.228346 10:-0.473054 11:-0.661538 
1.4140999297966292 0 0 0.027545400619694429 0 1:-0.699115 2:-0.630137 3:-0.84 4:-0.890411 5:-0.819699 6:-0.943662 7:-0.90106 8:-0.217327 9:-0.0551181 10:-0.700599 11:-0.692308 
0 0.0088098827545792374 0 0 0 1:-0.380531 2:-0.246575 3:0.1 4:-0.876712 5:-0.649416 6:-0.126761 7:-0.0459364 8:-0.0117474 9:-0.322835 10:-0.652695 11:-0.692308 
0.65486084897751518 0.23664582001807904 0.040117009078221043 0.070035947599835752 0.023593093300109329 1:-0.787611 2:-0.232877 3:-0.96 4:-0.876712 5:-0.749583 6:-0.43662 7:-0.378092 8:-0.36417 9:0.259843 10:-0.772455 11:-0.507692 
0.80273424467097809 0.40492724082838971 0.16991327830914621 0.10174172840323767 0.057678587059299763 1:-0.469027 2:-0.493151 3:-0.48 4:-0.90411 5:-0.252087 6:-0.746479 7:-0.420495 8:-0.0117474 9:-0.417323 10:-0.437126 11:-0.723077 
1.1925301055717532 0 0 0.0073053380804759902 0 1:-0.486726 2:-0.342466 3:-0.94 4:-0.876712 5:-0.722871 6:-0.323944 7:-0.342756 8:-0.276065 9:-0.0393701 10:-0.748503 11:-0.476923 
0.47306514480613604 0.2101912838433303 0 0.073814461265178211 0.029883058313895983 1:-0.557522 2:-0.575342 3:-0.16 4:-0.369863 5:-0.806344 6:-0.211268 7:-0.130742 8:0.061674 9:0.0708661 10:-0.532934 11:-0.353846 
0 0 0.1078194964480409 0 0 1:-0.557522 2:-0.575342 3:-0.16 4:-0.369863 5:-0.803005 6:-0.239437 7:-0.137809 8:0.061674 9:0.0708661 10:-0.54491 11:-0.353846 
0.55488926206852407 0.13241763923980193 0.22739812780709309 0 0 1:-0.557522 2:-0.232877 3:-1 4:-0.821918 5:-0.796327 6:-0.690141 7:-0.886926 8:0.00293686 9:0.165354 10:-0.796407 11:-0.723077 
1.318839923744199 0.1352286507333581 0 0.058256948312468929 0 1:-0.469027 2:0.136986 3:-0.94 4:-0.849315 5:-0.739566 6:-0.830986 7:-0.90106 8:-0.143906 9:-0.275591 10:-0.724551 11:-0.630769 
0.64244356007047987 0.32410425327241987 0.15118047974133741 0.091743173328330443 0.043554045374148601 1:-0.504425 2:-0.342466 3:-0.48 4:-0.123288 5:-0.806344 6:-0.0140845 7:-0.187279 8:0.193833 9:-0.00787402 10:-0.808383 11:-0.692308 
0 0.020211473101206801 0 0 0 1:-0.522124 2:-0.356164 3:-0.48 4:-0.136986 5:-0.806344 6:-0.0422535 7:-0.187279 8:0.179148 9:-0.00787402 10:-0.808383 11:-0.692308 
0.31164829679225325 0 0 0 0 1:-0.433628 2:-0.30137 3:-0.04 4:-0.890411 5:-0.706177 6:-0.633803 7:-0.363958 8:-0.114537 9:-0.291339 10:-0.652695 11:-0.661538 
0.89731708125185483 0.48776453018309623 0.21306461791427903 0.1298652222912588 0.068937228208521717 1:-0.486726 2:-0.19863 3:-0.52 4:-0.876712 5:0.161937 6:-0.605634 7:-0.597173 8:-0.0704846 9:-0.590551 10:0.508982 11:-0.661538 
0.09141756725169306 0 0 0 0 1:-0.522124 2:-0.643836 3:-0.58 4:-0.849315 5:-0.772955 6:-0.830986 7:-0.795053 8:-0.114537 9:-0.0708661 10:-0.832335 11:-0.661538 
2 0 0.034455584552315441 0.024911277426215392 0 1:-0.59292 2:-0.479452 3:-0.92 4:-0.917808 5:-0.75626 6:-0.492958 7:-0.696113 8:-0.15859 9:-0.0393701 10:-0.461078 11:-0.661538 
2 0 0.27394312696267764 0 0 1:-0.522124 2:-0.643836 3:-0.58 4:-0.849315 5:-0.772955 6:-0.830986 7:-0.795053 8:-0.114537 9:-0.0708661 10:-0.832335 11:-0.661538 
0 0 0 0 0.056735536103879006 1:-0.575221 2:-0.0616438 3:-1 4:-0.780822 5:-0.813022 6:-0.830986 7:-0.90106 8:0.00293686 9:0.165354 10:-0.724551 11:-0.630769 
1.5093400908393975 0 0 0 0 1:-0.256637 2:-0.328767 3:-0.72 4:-0.794521 5:-0.816361 6:-0.746479 7:-0.745583 8:0.00293686 9:-0.291339 10:-0.688623 11:-0.661538 
0.89857170817853171 0.48653654672300439 0.2132367211619785 0.12534382753632015 0.062474741204611613 1:-0.238938 2:-0.328767 3:-0.02 4:-0.849315 5:-0.138564 6:-0.380282 7:-0.265018 8:0.0469897 9:-0.401575 10:-0.173653 11:-0.723077 
1.6957320254841322 0 0 0.0057490383025418984 0 1:-0.610619 2:-0.328767 3:-0.6 4:-0.876712 5:-0.782972 6:-0.71831 7:-0.583039 8:0.0323054 9:0.259843 10:-0.700599 11:-0.723077 
0.59835504678535567 0.24173584872193454 0.26911222451967287 0.045551319454924841 0 1:-0.238938 2:-0.739726 3:0.14 4:-0.849315 5:-0.669449 6:-0.295775 7:-0.441696 8:0.0323054 9:-0.181102 10:-0.760479 11:-0.6 
1.2539579254424229 0 0.15272995271229739 0 0 1:-0.504425 2:-0.630137 3:-0.04 4:-0.849315 5:-0.766277 6:-0.633803 7:-0.568905 8:0.0469897 9:-0.0551181 10:-0.736527 11:-0.753846 
0.3076573912136924 0.27141918284459665 0.032027086525751113 0.078583273362684905 0.042793452003591755 1:-0.415929 2:-0.479452 3:-0.34 4:-0.849315 5:-0.759599 6:-0.605634 7:-0.0318021 8:-0.0117474 9:-0.275591 10:-0.736527 11:-0.661538 
0.042930198519644913 0 0 0 0 1:-0.415929 2:-0.493151 3:-0.36 4:-0.863014 5:-0.766277 6:-0.549296 7:-0.024735 8:-0.0117474 9:-0.275591 10:-0.736527 11:-0.661538 
0.42056942227912131 0 0 0 0 1:-0.362832 2:-0.479452 3:-0.3 4:-0.726027 5:-0.782972 6:-0.43662 7:-0.144876 8:0.105727 9:-0.228346 10:-0.652695 11:-0.692308 
0.17898318680260786 0.28821370943402846 0.093479917381310298 0.073768249860535998 0.030531344976616595 1:-0.610619 2:-0.30137 3:-0.76 4:-0.60274 5:-0.709516 6:-0.577465 7:-0.151943 8:0.00293686 9:-0.149606 10:-0.664671 11:-0.661538 
2 0 0 0 0 1:-0.469027 2:-0.410959 3:-0.58 4:-0.821918 5:-0.803005 6:-0.830986 7:-0.844523 8:-0.0704846 9:-0.149606 10:-0.736527 11:-0.6 
2 0 0 0 0 1:-0.469027 2:-0.410959 3:-0.58 4:-0.821918 5:-0.803005 6:-0.830986 7:-0.844523 8:-0.0704846 9:-0.149606 10:-0.736527 11:-0.6 
0.69809572216388383 0 0 0 0 1:-0.433628 2:-0.356164 3:-0.34 4:-0.849315 5:-0.792988 6:-0.352113 7:-0.194346 8:-0.0117474 9:-0.19685 10:-0.748503 11:-0.692308 
2 0 0.19697213068314195 0 0 1:-0.522124 2:-0.369863 3:-0.4 4:-0.794521 5:-0.792988 6:-0.605634 7:-0.65371 8:-0.0117474 9:0.133858 10:-0.688623 11:-0.446154 
0.6263041815196625 0.37123253491801506 0.15659683358593376 0.093173092932105628 0.043791313357843982 1:-0.256637 2:-0.657534 3:-0.04 4:-0.835616 5:-0.716194 6:0.0704225 7:-0.0176678 8:0.0910426 9:-0.527559 10:-0.161677 11:-0.723077 
1.5357751687000745 0.85650777005456291 0 0 0 1:-0.610619 2:-0.479452 3:-0.78 4:-0.917808 5:-0.789649 6:-0.577465 7:-0.696113 8:-0.209985 9:-0.023622 10:-0.449102 11:-0.661538 
2 0 0 0 0 1:-0.575221 2:-0.589041 3:-0.3 4:-0.90411 5:-0.746244 6:-0.577465 7:-0.766784 8:-0.114537 9:-0.0551181 10:-0.736527 11:-0.753846 
2 0 0 0 0 1:-0.433628 2:-0.561644 3:-0.44 4:-0.753425 5:-0.706177 6:-0.521127 7:-0.371025 8:-0.041116 9:-0.244094 10:-0.592814 11:-0.692308 
0.039390157536134396 0 0 0 0 1:-0.362832 2:-0.383562 3:-0.48 4:-0.821918 5:-0.839733 6:-0.239437 7:-0.583039 8:-0.143906 9:-0.11811 10:-0.88024 11:-0.476923 
0.52970563710085661 0.27989013896658599 0.20361777161655714 0.065238016795168358 0.040908572030877458 1:-0.575221 2:-0.493151 3:-0.02 4:-0.356164 5:-0.839733 6:-0.295775 7:-0.187279 8:0.0763583 9:-0.0551181 10:-0.48503 11:-0.353846 
1.2540158482831028 0 0 0 0 1:-0.274336 2:-0.308219 3:-0.68 4:-0.849315 5:-0.702838 6:-0.661972 7:-0.696113 8:-0.0998532 9:-0.370079 10:-0.712575 11:-0.2 
0 0 1.1966608158142236 0 0 1:-0.380531 2:-0.171233 3:-0.56 4:-0.821918 5:-0.799666 6:-0.71831 7:-0.75265 8:-0.0264317 9:-0.023622 10:-0.736527 11:-0.784615 
0.12255930329003778 0 0 0 0 1:-0.486726 2:-0.493151 3:-0.62 4:-0.863014 5:-0.786311 6:-0.746479 7:-0.731449 8:-0.173275 9:0.023622 10:-0.748503 11:-0.6 
0 0 0.067497385618297462 0 0 1:-0.433628 2:-0.438356 3:-0.34 4:-0.794521 5:-0.772955 6:-0.352113 7:-0.024735 8:-0.0484581 9:-0.11811 10:-0.676647 11:-0.661538 
0.6961632018544941 0 0 0 0 1:-0.504425 2:-0.438356 3:-0.48 4:-0.849315 5:-0.702838 6:-0.577465 7:-0.533569 8:-0.173275 9:-0.354331 10:-0.712575 11:-0.692308 
1.9423997950020238 0 0 0 0 1:-0.610619 2:-0.328767 3:-0.92 4:-0.917808 5:-0.84975 6:-0.887324 7:-0.971731 8:-0.239354 9:0.0708661 10:-0.676647 11:-0.661538 
1.5584861317932688 0 0 0 0 1:-0.221239 2:-0.0410959 3:-0.72 4:-0.767123 5:-0.742905 6:-0.774648 7:-0.879859 8:0.223201 9:0.023622 10:-0.640719 11:-0.569231 
0 0 0.32380021262287795 0 0 1:-0.59292 2:-0.452055 3:-0.5 4:-0.767123 5:-0.769616 6:-0.746479 7:-0.780919 8:-0.00440529 9:0.133858 10:-0.796407 11:-0.2 
0.78307883531841571 0.43185065947921975 0.18740993641070688 0.10821283078725757 0.059144241063023621 1:-0.238938 2:-0.294521 3:-0.26 4:-0.890411 5:-0.161937 6:-0.887324 7:-0.60424 8:0.0323054 9:-0.590551 10:-0.0898204 11:-0.723077 
0.42346432336716378 0 0 0.31530795332719225 0 1:0.150442 2:-0.684932 3:-0.04 4:-0.69863 5:-0.739566 6:-0.887324 7:-0.893993 8:0.25257 9:-0.322835 10:-0.760479 11:-0.353846 
0.93818432996709611 0.27452314216535267 0.55145738844831482 0.080747112553574141 0.037424007620976051 1:-0.451327 2:-0.10274 3:-0.16 4:-0.863014 5:-0.732888 6:-0.802817 7:-0.434629 8:-0.143906 9:-0.228346 10:-0.688623 11:-0.661538 
1.8436067097571851 0 0 0 0 1:-0.39823 2:-0.383562 3:-0.54 4:-0.684932 5:-0.796327 6:-0.549296 7:-0.201413 8:-0.0190896 9:-0.181102 10:-0.712575 11:-0.723077 
2 0 0.11653041796676676 0 0.026270729714235393 1:-0.150442 2:-0.69863 3:-0.26 4:-0.821918 5:-0.789649 6:-0.887324 7:-0.95053 8:0.164464 9:-0.244094 10:-0.652695 11:-0.753846 
1.6541101385035135 0 0 0.016395543171363422 0 1:-0.646018 2:-0.212329 3:-1 4:-0.835616 5:-0.789649 6:-0.690141 7:-0.646643 8:-0.0117474 9:0.181102 10:-0.592814 11:-0.753846 
0.94600884796027285 0.52432513121473456 0.22772103231892493 0.13635298016075637 0.06798561943966884 1:-0.451327 2:-0.60274 3:0.52 4:-0.876712 5:1 6:-0.802817 7:-0.724382 8:-0.0117474 9:-0.496063 10:0.113772 11:-0.692308 
1.3732683998607476 0.94468172259939109 0.10458656383534232 0 0.0093610495750253674 1:-0.415929 2:-0.712329 3:-0.54 4:-0.890411 5:-0.782972 6:-0.521127 7:-0.724382 8:-0.092511 9:-0.133858 10:-0.616766 11:-0.723077 
2 2 0 0 0 1:-0.39823 2:-0.452055 3:-0.94 4:-0.890411 5:-0.806344 6:-0.746479 7:-0.795053 8:-0.165932 9:-0.0551181 10:-0.712575 11:-0.507692 
2 0.50774622059099372 0.25837069792742862 0 0.036802853999774801 1:0.39823 2:-0.39726 3:-0.02 4:-0.794521 5:-0.826377 6:-0.887324 7:-0.85159 8:0.443465 9:-0.464567 10:-0.353293 11:-0.230769 
2 0.83615544276951215 0.066483416818819432 0.0057422907775346406 0 1:0.115044 2:-0.657534 3:0.16 4:-0.575342 5:-0.803005 6:-0.549296 7:-0.583039 8:0.362702 9:-0.244094 10:-0.461078 11:-0.476923 
2 0 0 0 0 1:-0.327434 2:-0.184932 3:-0.6 4:-0.794521 5:-0.786311 6:-0.746479 7:-0.773852 8:0.0690162 9:-0.102362 10:-0.628743 11:-0.692308 
0.58400791670919083 0.28137154911346263 0.11920033192643022 0.073154558652920934 0.035994144001331503 1:-0.486726 2:-0.273973 3:-0.64 4:-0.164384 5:-0.746244 6:-0.267606 7:-0.378092 8:0.333333 9:0.00787402 10:-0.473054 11:-0.692308 
2 0.3799256615594187 0.63269786337424638 0 0 1:-0.469027 2:-0.452055 3:-0.76 4:-0.712329 5:-0.816361 6:-0.690141 7:-0.667845 8:0.0323054 9:-0.023622 10:-0.712575 11:-0.784615 
0.52078650496969925 0.32924638206502355 0.14485794443739441 0.073053096914124399 0.035279541380611651 1:-0.0619469 2:-0.356164 3:-0.86 4:-0.657534 5:-0.699499 6:-0.126761 7:-0.540636 8:0.480176 9:-0.102362 10:-0.54491 11:-0.569231 
1.0182515913046366 0.52379958864333187 0.22572964526898825 0.12402276958281443 0.067253245432332409 1:0.238938 2:-0.589041 3:0.06 4:-0.671233 5:-0.689482 6:-0.0985915 7:-0.349823 8:0.604993 9:-0.275591 10:-0.257485 11:-0.753846 
1.0502243825545061 0.53732730489277059 0.23171394194603265 0.137495435215086 0.069096338924229117 1:0.132743 2:-0.890411 3:-0.04 4:-0.849315 5:0.105175 6:-0.859155 7:-0.915194 8:0.14978 9:-0.11811 10:-0.54491 11:-0.353846 
2 0 0.061645616828075449 0 0 1:0.0973451 2:-0.479452 3:-0.08 4:-0.780822 5:-0.796327 6:-0.887324 7:-0.85159 8:0.472834 9:-0.511811 10:-0.628743 11:-0.661538 
1.0577787061772221 0.18912529597083752 0.096718170470869877 0.059435037600202849 0.022541513510073136 1:0.0619469 2:-0.0273973 3:-0.26 4:-0.767123 5:-0.752922 6:-0.295775 7:-0.547703 8:0.179148 9:-0.338583 10:-0.772455 11:-0.538462 
0.46628148952377885 0 0 0 0 1:-0.557522 2:-0.30137 3:-0.88 4:-0.849315 5:-0.762938 6:-0.802817 7:-0.837456 8:0.245228 9:0.464567 10:-0.520958 11:-0.630769 
2 0.24671104720242307 0 0.083919733750176292 0 1:-0.539823 2:-0.273973 3:-0.96 4:-0.808219 5:-0.72621 6:-0.887324 7:-0.823322 8:0.35536 9:0.464567 10:-0.437126 11:-0.6 
0 0 0 0 0.043863535426840933 1:-0.59292 2:-0.246575 3:-0.88 4:-0.835616 5:-0.772955 6:-0.802817 7:-0.809187 8:0.230543 9:0.480315 10:-0.54491 11:-0.630769 
1.8965353488699388 0.67413544547193971 0 0.045462175269552804 0 1:-0.345133 2:-0.19863 3:-0.76 4:-0.767123 5:-0.732888 6:-0.690141 7:-0.844523 8:0.370044 9:0.212598 10:-0.532934 11:-0.507692 
0.87386507266826829 0.41155351901551418 0 0.062370136900183913 0.027605368584978342 1:-0.504425 2:-0.246575 3:-0.76 4:-0.90411 5:-0.419032 6:-0.887324 7:-0.893993 8:-0.129222 9:0.023622 10:-0.748503 11:-0.661538 
0.020194135870708174 0.14968575096760489 0.11226236641093429 0.047609363009657839 0.050245699139169292 1:-0.327434 2:-0.273973 3:0.2 4:-0.835616 5:-0.66611 6:-0.690141 7:-0.40636 8:0.061674 9:-0.275591 10:-0.772455 11:-0.753846 
0.55376025410933505 0 0.88891892608645973 0 0 1:-0.469027 2:-0.315068 3:-0.36 4:-0.821918 5:-0.766277 6:-0.830986 7:-0.660777 8:-0.041116 9:-0.023622 10:-0.772455 11:-0.692308 
0.077832414623833196 0 0 0 0 1:-0.292035 2:-0.520548 3:-0.4 4:-0.712329 5:-0.786311 6:-0.183099 7:-0.0883392 8:0.105727 9:-0.11811 10:-0.760479 11:-0.692308 
2 0.26656164532728527 0 0.02524378419301624 0 1:-0.504425 2:-0.671233 3:-0.42 4:-0.767123 5:-0.749583 6:-0.295775 7:-0.533569 8:-0.0631424 9:0.023622 10:-0.580838 11:-0.2 
0.85225346208601405 0.20071692618604628 0.096105971037768245 0.061849648404061236 0.031913593880611102 1:-0.115044 2:-0.39726 3:-0.54 4:-0.657534 5:-0.699499 6:0.0140845 7:-0.392226 8:0.399413 9:-0.11811 10:-0.616766 11:-0.476923 
0.26368040573743184 0 0 0 0 1:-0.168142 2:-0.328767 3:-0.48 4:-0.657534 5:-0.739566 6:-0.323944 7:-0.427562 8:0.421439 9:-0.212598 10:-0.652695 11:-0.6 
2 0.17992184003570846 0 0 0 1:-0.433628 2:-0.315068 3:-0.9 4:-0.808219 5:-0.776294 6:-0.859155 7:-0.915194 8:0.0690162 9:-0.133858 10:-0.640719 11:-0.723077 
2 2 0.17887416949035206 0.88643532873344655 0.0514849101243956 1:0.00884956 2:-0.561644 4:-0.506849 5:-0.682805 6:-0.887324 7:-0.95053 8:0.164464 9:-0.149606 10:-0.401198 11:-0.0461538 
2 0.4569718928806264 0.23218471941421787 0 0 1:0.079646 2:-0.534247 3:-0.22 4:-0.849315 5:-0.836394 6:-0.830986 7:-0.936396 8:0.179148 9:-0.307087 10:-0.652695 11:-0.661538 
2 0.59242149795788668 0 0.017742863391352032 0.033959021671976251 1:-0.327434 2:-0.39726 3:-0.84 4:-0.835616 5:-0.689482 6:-0.577465 7:-0.731449 8:-0.15859 9:-0.385827 10:-0.772455 11:-0.2 
2 2 0.025503905820326956 0 0 1:-0.433628 2:-0.575342 3:-0.36 4:-0.739726 5:-0.772955 6:-0.211268 7:-0.632509 8:0.0763583 9:-0.102362 10:-0.628743 11:-0.415385 
0.40066478632388602 0.27959694673458246 0.077633277362800596 0.075254370005629068 0.045077466516531231 1:-0.575221 2:-0.226027 3:-1 4:-0.863014 5:-0.816361 6:0.0985915 7:-0.597173 8:0.14978 9:0.354331 10:-0.42515 11:-0.538462 
2 0.28887501336177429 0 0.018930061240553721 0 1:-0.451327 2:-0.253425 3:-1 4:-0.794521 5:-0.739566 6:-0.802817 7:-0.908127 8:0.0763583 9:-0.165354 10:-0.520958 11:-0.723077 
0.97628228005144835 0.56843890973168176 0.23403946615274629 0.14119835469852257 0.070974587514794296 1:0.575221 2:-0.438356 3:0.58 4:-0.465753 5:-0.639399 6:-0.380282 7:-0.498233 8:0.722467 9:-0.307087 10:-0.473054 11:0.415385 
2 1.7471318995474996 0.23980441518790174 0.10632100015659693 0.1147416191989938 1:0.221239 2:-0.60274 3:0.04 4:-0.712329 5:-0.772955 6:-0.211268 7:-0.65371 8:0.472834 9:-0.181102 10:-0.341317 11:-0.2 
2 0 1.0873719728535245 0 0 1:-0.362832 2:-0.205479 3:-0.54 4:-0.849315 5:-0.709516 6:-0.633803 7:-0.469965 8:0.061674 9:-0.291339 10:-0.556886 11:-0.692308 
1.9275265195512836 0.34861378815018773 0.42139868085646282 0.024917325853501673 0.12421763956890114 1:0.292035 2:-0.369863 3:0.32 4:-0.780822 5:-0.799666 6:-0.859155 7:-0.780919 8:0.340675 9:-0.511811 10:-0.724551 11:-0.507692 
2 0.9613964458698302 0.16246243103855734 0.78390256677275016 0.012264432422350501 1:0.39823 2:-0.534247 3:0.26 4:-0.849315 5:-0.803005 6:-0.859155 7:-0.936396 8:0.281938 9:-0.606299 10:-0.353293 11:-0.446154 
2 0.1907314955313261 0.25074575528829562 0.052674394287533496 0.67522287811289905 1:0.0265487 2:-0.376712 3:0.22 4:-0.767123 5:-0.786311 6:-0.71831 7:-0.872792 8:0.45815 9:-0.338583 10:-0.568862 11:-0.815385 
0.92496357029475085 0.2860644986718538 0.020691717878317778 0.027687384360141724 0.021459267605843772 1:0.00884956 2:-0.69863 3:0.04 4:-0.739726 5:-0.509182 6:-0.605634 7:-0.512367 8:0.428781 9:-0.307087 10:-0.628743 11:-0.692308 
0.18574149961432648 0 0.10408501188977053 0 0 1:-0.59292 2:-0.116438 3:-0.96 4:-0.808219 5:-0.829716 6:-0.0422535 7:-0.597173 8:0.0910426 9:0.307087 10:-0.461078 11:-0.538462 
0 0.069094834528531449 0 0.010606606415269648 0.011305222885691283 1:-0.504425 2:-0.410959 3:-0.56 4:-0.821918 5:-0.686144 6:-0.690141 7:-0.533569 8:-0.143906 9:-0.511811 10:-0.640719 11:-0.753846 
2 0.18382596529472078 0 0.010280967554807421 0 1:-0.451327 2:-0.465753 3:-0.44 4:-0.835616 5:-0.749583 6:-0.380282 7:-0.660777 8:0.164464 9:0.0708661 10:-0.508982 11:-0.753846 
0.40072127400583313 0.2059322742190248 0 0.0446405091076797 0 1:-0.327434 2:-0.253425 3:0.22 4:-0.849315 5:-0.66611 6:-0.661972 7:-0.371025 8:0.0176211 9:-0.338583 10:-0.748503 11:-0.784615 
0.63502796732824651 0 0.053669108055618801 0 0 1:0.433628 2:-0.342466 3:0.3 4:-0.808219 5:-0.829716 6:-0.859155 7:-0.865724 8:0.414097 9:-0.543307 10:-0.712575 11:-0.538462 
0.96028003015674068 0.53739320502103005 0.22922979360498341 0.13565351464584197 0.068318702333001094 1:-0.646018 2:-0.157534 3:-0.96 4:-0.0410959 5:-0.632721 6:0.887324 7:-0.166078 8:0.370044 9:0.149606 10:-0.760479 11:-0.538462 
1.065985514545253 0 0 0 0 1:-0.451327 2:-0.219178 3:-0.9 4:-0.753425 5:-0.789649 6:-0.605634 7:-0.85159 8:0.0763583 9:-0.181102 10:-0.664671 11:-0.784615 
2 0 0 0 0 1:-0.20354 2:-0.547945 3:-0.3 4:-0.794521 5:-0.772955 6:-0.380282 7:-0.491166 8:0.267254 9:0.00787402 10:-0.652695 11:-0.661538 
1.3083669186091234 0 0.036388027923398195 0 0 1:-0.557522 2:-0.157534 3:-0.68 4:-0.863014 5:-0.706177 6:-0.605634 7:-0.498233 8:-0.041116 9:-0.165354 10:-0.628743 11:-0.723077 
0.8329818452647284 0.46833936421063849 0.20499427189393429 0.12182244977863763 0.063206810634402269 1:-0.292035 2:-0.171233 3:-0.52 4:-0.219178 5:-0.649416 6:-0.15493 7:-0.0954064 8:0.66373 9:-0.0866142 10:-0.113772 11:-0.723077 
0.86783617136381952 0.33014432881193945 0.15226358689952527 0.086921460556299582 0.050954925037905829 1:-0.575221 2:-0.369863 3:-0.76 4:-0.863014 5:-0.736227 6:-0.0704225 7:-0.166078 8:-0.187959 9:0.102362 10:-0.820359 11:-0.353846 
0.53870802243759919 0.18945402365466035 0.15090256514789935 0.048220295074636252 0.012145243202804013 1:-0.610619 2:-0.109589 3:-1 4:-0.876712 5:-0.819699 6:-0.0704225 7:-0.674912 8:0.105727 9:0.385827 10:-0.580838 11:-0.538462 
0.74754856413141302 0.16750833557390019 0.67092699081613183 0.063222248229193381 0.059759452886567088 1:-0.451327 2:0.150685 3:-0.6 4:-0.849315 5:-0.883139 6:-0.605634 7:-0.618375 8:-0.202643 9:-0.023622 10:-0.868263 11:-0.230769 
1.0123535372648784 0.30080363890597162 0.28634988888211999 0 0 1:-0.20354 2:-0.452055 3:-0.34 4:-0.945205 5:-0.806344 6:-0.774648 7:-0.830389 8:0.135095 9:-0.212598 10:-0.676647 11:-0.723077 
0.031705157060928489 0 0.76581649813655761 0 0 1:-0.433628 2:-0.410959 3:-0.3 4:-0.821918 5:-0.792988 6:-0.43662 7:-0.575972 8:0.0763583 9:-0.19685 10:-0.724551 11:-0.753846 
1.7744187716550563 0.25268395752463468 0 0.0053843286190776952 0.27000557927105218 1:0.362832 2:-0.630137 3:0.26 4:-0.808219 5:-0.736227 6:-0.859155 7:-0.915194 8:0.516887 9:-0.338583 10:-0.808383 11:-0.661538 
0.50930012941281566 0.11675414340848693 0 0.054062536174287426 0.027387477740996383 1:-0.575221 2:-0.315068 3:-0.64 4:-0.917808 5:-0.833055 6:-0.830986 7:-0.689046 8:-0.26138 9:-0.464567 10:-0.676647 11:-0.723077 
2 0.53091013951366284 0.22901322644030239 0.073585295622849711 0.032725404407428688 1:0.39823 2:-0.643836 3:0.2 4:-0.767123 5:-0.769616 6:-0.15493 7:-0.533569 8:0.399413 9:-0.433071 10:-0.520958 11:-0.353846 
2 1.4818733288324339 0 0 0.024334478881241069 1:-0.168142 2:-0.506849 3:-0.42 4:-0.835616 5:-0.616027 6:-0.859155 7:-0.929329 8:-0.0117474 9:-0.244094 10:-0.532934 11:-0.138462 
2 0.8771936362855689 0.14438609860519258 0.083455311144417066 0.048085106028421129 1:-0.575221 2:-0.849315 3:-0.2 4:-0.90411 5:-0.829716 6:-0.43662 7:-0.568905 8:-0.246696 9:0.19685 10:-0.640719 11:-0.169231 
2 0 0.62753927371400464 0 0.0092589963945913893 1:-0.238938 2:-0.356164 3:-0.22 4:-0.808219 5:-0.722871 6:-0.887324 7:-0.886926 8:0.25257 9:-0.00787402 10:-0.700599 11:-0.415385 
2 0 0.011503237236177606 0 0 1:-0.345133 2:-0.321918 3:-0.56 4:-0.767123 5:-0.749583 6:-0.859155 7:-0.908127 8:0.193833 9:-0.181102 10:-0.664671 11:-0.723077 
2 1.8429003233367804 0.19070446254514331 0.81243848962921439 0.062115166809216853 1:0.132743 2:-0.808219 3:0.36 4:-0.773973 5:-0.75626 6:-0.746479 7:-0.865724 8:0.0176211 9:-0.307087 10:-0.664671 11:0.0461538 
0.79066059434322278 0.44134173295017054 0.19545480410599955 0.11517549303366897 0.06556591832218045 1:-0.380531 2:-0.260274 3:0.4 4:-0.821918 5:-0.712855 6:-0.323944 7:-0.130742 8:0.0469897 9:-0.464567 10:-0.760479 11:-0.815385 
1.3624568574092508 1.0063165182986384 0.16329294290712601 0.12096106478497957 0.062094116418920452 1:-0.0442478 2:-0.767123 3:-0.2 4:-0.726027 5:-0.712855 6:-0.746479 7:-0.858657 8:0.546256 9:0.165354 10:-0.305389 11:-0.6 
0.80784923866589953 0.32525171987384033 0.16974978411286207 0.091381806568840096 0 1:-0.274336 2:-0.0410959 3:-0.96 4:-0.958904 5:-0.806344 6:-0.0140845 7:-0.70318 8:-0.246696 9:-0.275591 10:-0.700599 11:-0.569231 
2 1.705901105059626 0.06841708188323295 0.13633831842676492 0.024173774679380287 1:0.486726 2:-0.726027 3:0.3 4:-0.767123 5:-0.729549 6:-0.605634 7:-0.710247 8:0.399413 9:-0.511811 10:-0.664671 11:-0.323077 
2 2 0 1.5005781843633212 0.023039183678231774 1:-0.0619469 2:-0.684932 3:0.1 4:-0.835616 5:-0.833055 6:-0.887324 7:-0.943463 8:0.0323054 9:-0.181102 10:-0.449102 11:-0.323077 
0.90225796360120414 0 0 0 0 1:-0.115044 2:-0.232877 3:-0.52 4:-0.821918 5:-0.749583 6:-0.887324 7:-0.844523 8:0.281938 9:-0.370079 10:-0.676647 11:-0.446154 
2 0.50032457759005811 0 0 0 1:-0.168142 2:-0.794521 3:-0.18 4:-0.849315 5:-0.736227 6:-0.859155 7:-0.929329 8:0.164464 9:-0.149606 10:-0.556886 11:-0.6 
1.9784506677487141 0.26167049432084827 0 0.026492049350015017 0.020196983493289977 1:-0.115044 2:-0.232877 3:-0.52 4:-0.821918 5:-0.749583 6:-0.887324 7:-0.844523 8:0.281938 9:-0.370079 10:-0.676647 11:-0.446154 
0.96616083524646479 0.53692310135316901 0.23408803034323028 0.14041208678081957 0.068376213974165143 1:0.0619469 2:-0.780822 3:-0.22 4:1 5:-0.809683 6:-0.859155 7:-0.879859 8:0.839941 9:-0.401575 10:-0.60479 11:-0.753846 
0 0 0 0 0.063497498201461416 1:0.0619469 2:-0.671233 3:0.18 4:-0.821918 5:-0.532554 6:-0.859155 7:-0.915194 8:0.25257 9:-0.527559 10:-0.137725 11:-0.692308 
1.1502415737452096 0.62193933613295316 0.19467941034549646 0.12043782152669237 0 1:0.0619469 2:-0.671233 3:0.2 4:-0.821918 5:-0.532554 6:-0.830986 7:-0.915194 8:0.25257 9:-0.527559 10:-0.125749 11:-0.692308 
1.9547877991400695 0.075081078350446404 0.33587554233694872 0 0.016177187370193826 1:-0.00884956 2:-0.246575 3:-0.22 4:-0.863014 5:-0.859766 6:-0.859155 7:-0.922261 8:0.105727 9:-0.322835 10:-0.832335 11:-0.507692 
0.72880563427405509 0.26018910774597759 0.12216788924041416 0.08728464982823643 0.045515695490226389 1:-0.539823 2:-0.69863 3:-0.36 4:-0.780822 5:-0.739566 6:0.183099 7:-0.243816 8:-0.041116 9:-0.0866142 10:-0.449102 11:-0.169231 
0.9762617509432796 0.58289143928464227 1.4196218751471983 0.091670428680294139 0.0431498927257737 1:0.380531 2:-0.589041 3:-0.02 4:-0.493151 5:-0.796327 6:-0.492958 7:-0.738516 8:0.135095 9:-0.559055 10:-0.664671 11:-0.661538 
0.87350659796089081 0.48761840117487359 0.2127319683095705 0.12650692347502215 0.061430032054902502 1:-0.309735 2:-0.267123 3:-0.02 4:-0.287671 5:-0.632721 6:-0.0704225 7:0.024735 8:0.604993 9:-0.102362 10:-0.0299401 11:-0.723077 
0.094901233814684988 0.080267306823192233 0 0.063426766028830114 0.013982172342743524 1:-0.469027 2:-0.60274 3:-0.02 4:-0.849315 5:-0.746244 6:-0.577465 7:-0.738516 8:0.164464 9:0.165354 10:-0.628743 11:-0.784615 
0.78431292386820295 0.55725913940473093 0.19877260219332835 0.11883974252139011 0.06428990486240746 1:-0.362832 2:-0.630137 3:-0.02 4:-0.808219 5:-0.709516 6:0.295775 7:-0.102473 8:0.14978 9:0.00787402 10:-0.209581 11:-0.569231 
0.42704795712691301 0.40756236411862179 0.11139819411939317 0.082438837488587463 0.040513294658445068 1:-0.168142 2:-0.616438 3:-0.02 4:-0.780822 5:-0.75626 6:0.0422535 7:-0.0388693 8:0.135095 9:-0.244094 10:-0.736527 11:-0.692308 
2 0.043230335016586935 0 0.046737351002955792 0.068544424789508743 1:0.0265487 2:-0.287671 3:-0.52 4:-0.739726 5:-0.689482 6:-0.211268 7:-0.667845 8:0.428781 9:-0.212598 10:-0.592814 11:-0.538462 
1.6286510621054986 0.99978095977621495 0.14188791098273326 0.056495904980731058 0.028009893206913203 1:-0.522124 2:-0.664384 3:-0.02 4:-0.780822 5:-0.746244 6:0.0704225 7:-0.293286 8:-0.041116 9:-0.023622 10:-0.461078 11:-0.2 
0.079788511545194382 0 0 0 0 1:0.292035 2:-0.643836 3:-0.02 4:-0.753425 5:-0.712855 6:-0.690141 7:-0.745583 8:0.516887 9:-0.338583 10:-0.664671 11:-0.415385 
2 0.35441843264582812 0.03322107544276108 0 0 1:0.292035 2:-0.643836 3:-0.02 4:-0.753425 5:-0.712855 6:-0.690141 7:-0.745583 8:0.516887 9:-0.338583 10:-0.664671 11:-0.415385 
0 0 0 0.023271835342504731 0.012085801826567016 1:-0.0619469 2:-0.30137 3:-0.52 4:-0.794521 5:-0.782972 6:-0.859155 7:-0.809187 8:0.0763583 9:-0.448819 10:-0.712575 11:-0.692308 
1.6042706249316265 1.2781647916826877 0.17862625561270565 0.1398510314708557 0.054343633660878118 1:0.168142 2:-0.479452 3:0.48 4:-0.417808 5:-0.706177 6:-0.887324 7:-0.922261 8:0.399413 9:-0.244094 10:-0.652695 11:-0.138462 
2 0.45895230344080884 0.41325530766259849 0 0 1:-0.185841 2:-0.356164 3:-0.52 4:-0.671233 5:-0.702838 6:-0.464789 7:-0.710247 8:0.281938 9:-0.181102 10:-0.592814 11:-0.630769 
0.95065436355961785 0.53647424637585739 0.33002053747571947 0.13422689866300469 0.068106185495060603 1:-0.929204 2:0.260274 3:-0.52 4:-0.90411 5:-0.873122 6:-0.126761 7:-0.363958 8:-0.511013 9:0.574803 10:-0.652695 11:-0.0461538 
1.0129880635084298 0.64453605558070892 0.0069566997114028266 0 0 1:0.929204 2:-0.280822 3:-0.02 4:-0.547945 5:-0.722871 6:-0.746479 7:-0.879859 8:0.920705 9:-0.716535 10:-0.508982 11:-0.169231 
0 0 0.22592227930724162 0.13877344658973056 0.069642910338924724 1:0.946903 2:-0.280822 3:-0.02 4:-0.547945 5:-0.722871 6:-0.746479 7:-0.879859 8:0.920705 9:-0.716535 10:-0.508982 11:-0.169231 
0.19703205318104369 0 0 0 0 1:0.433628 2:-0.342466 3:-0.02 4:-0.739726 5:-0.789649 6:-0.887324 7:-0.908127 8:0.370044 9:-0.370079 10:-0.712575 11:-0.0769231 
0.6738470955724063 0.31025244170914296 0.13728035877371653 0.079194896945225718 0.033993576027792627 1:-0.221239 2:-0.424658 3:-0.02 4:-0.726027 5:-0.72621 6:0.126761 7:-0.265018 8:0.193833 9:-0.464567 10:-0.664671 11:-0.753846 
2 0.56301930817378187 0.36138505818753264 0 0.040904625699320477 1:0.433628 2:-0.342466 3:-0.02 4:-0.739726 5:-0.789649 6:-0.887324 7:-0.908127 8:0.370044 9:-0.370079 10:-0.712575 11:-0.0769231 
2 2 0 0.59839566207157824 0 1:-0.00884956 2:-0.835616 3:-0.02 4:-0.794521 5:-0.789649 6:-0.746479 7:-0.844523 8:0.135095 9:-0.370079 10:-0.664671 11:-0.384615 
0 0 0.11813595852127715 0 0 1:-0.256637 2:-0.561644 3:-0.02 4:-0.739726 5:-0.762938 6:-0.521127 7:-0.257951 8:0.193833 9:-0.11811 10:-0.676647 11:-0.661538 
0.64807478463849633 0.037886895486863158 0.24099998358229127 0.017007436082132649 0 1:-0.256637 2:-0.520548 3:-0.02 4:-0.726027 5:-0.75626 6:-0.549296 7:-0.265018 8:0.193833 9:-0.133858 10:-0.676647 11:-0.569231 
0 0 0.2092961458098147 0 0 1:0.362832 2:-0.479452 3:-0.02 4:-0.821918 5:-0.742905 6:-0.887324 7:-0.943463 8:0.487518 9:-0.291339 10:-0.868263 11:-0.630769 
1.7445786751927848 0.032200715395177645 0.069727750745530823 0.006709577552913331 0.17817816983603543 1:0.256637 2:-0.493151 3:-0.02 4:-0.821918 5:-0.762938 6:-0.887324 7:-0.936396 8:0.45815 9:-0.291339 10:-0.88024 11:-0.753846 
0.39190646191968931 0 0 0 0 1:-0.522124 2:-0.164384 3:-0.52 4:-0.863014 5:-0.679466 6:-0.521127 7:-0.321555 8:-0.0264317 9:-0.181102 10:-0.688623 11:-0.723077 
0 0 0.079267475011826807 0 0 1:-0.221239 2:-0.547945 3:-0.02 4:-0.767123 5:-0.759599 6:-0.43662 7:-0.512367 8:0.267254 9:-0.0393701 10:-0.712575 11:-0.6 
0.49834234411806988 0.23369417230861392 0.20656593115643196 0.07815613102478533 0.36022416397925822 1:-0.0619469 2:-0.493151 3:0.16 4:-0.643836 5:-0.72621 6:-0.774648 7:-0.738516 8:0.516887 9:-0.133858 10:-0.700599 11:-0.815385 
0.80737315473254534 0.45355515080553027 0.19278514895031015 0.11501122124122395 0.061699201774831937 1:-0.238938 2:-0.349315 3:-0.18 4:-0.0410959 5:-0.752922 6:-0.183099 7:-0.272085 8:0.428781 9:-0.165354 10:-0.712575 11:-0.723077 
0 0 2 0 0 1:-0.451327 2:-0.0205479 3:-1 4:-0.767123 5:-0.769616 6:-0.859155 7:-0.943463 8:0.0910426 9:-0.11811 10:-0.772455 11:-0.723077 
1.7967015503663406 0.19889152419945724 0.14942503846321617 0.075576024019669175 0.024837567049956669 1:-0.256637 2:-0.835616 3:0.08 4:-0.780822 5:-0.762938 6:-0.323944 7:-0.639576 8:0.208517 9:0.023622 10:-0.748503 11:-0.753846 
1.6031648336833868 0.26889378366768468 0.043988959731034422 0.11748576292563799 0 1:0.522124 2:-0.643836 3:0.1 4:-0.753425 5:-0.769616 6:-0.887324 7:-0.929329 8:0.546256 9:-0.622047 10:-0.748503 11:-0.692308 
2 1.381781410059381 0 0.036168055247765771 0 1:-0.362832 2:-0.630137 3:-0.24 4:-0.917808 5:-0.846411 6:-0.746479 7:-0.837456 8:-0.0998532 9:-0.181102 10:-0.508982 11:-0.569231 
0.9474801667677718 0.36509196095823637 0.14678597913865521 0.11047781616614692 0.11530543138771432 1:-0.115044 2:-0.342466 4:-0.808219 5:-0.776294 6:-0.239437 7:-0.540636 8:0.414097 9:0.19685 10:-0.712575 11:-0.6 
2 0.37471328697608736 0.028762033667923782 0 0 1:0.20354 2:-0.534247 4:-0.753425 5:-0.632721 6:-0.915493 7:-0.922261 8:0.546256 9:-0.385827 10:-0.556886 11:-0.446154 
2 0.72633160486465909 0 0 0.043399755366781798 1:0.185841 2:-0.657534 3:-0.18 4:-0.808219 5:-0.746244 6:-0.859155 7:-0.929329 8:0.281938 9:-0.448819 10:-0.437126 11:-0.723077 
0.55563916958893167 0 0 0 0 1:-0.362832 2:-0.39726 3:-0.54 4:-0.657534 5:-0.779633 6:-0.633803 7:-0.30742 8:0.105727 9:-0.149606 10:-0.652695 11:-0.692308 
0.62160956153284297 0.45635843679304933 0 0 0 1:-0.0442478 2:-0.369863 3:-0.56 4:-0.863014 5:-0.772955 6:-0.774648 7:-0.816254 8:0.0763583 9:-0.385827 10:-0.736527 11:-0.661538 
1.0207739204775244 0.56129595356915984 0.39724794307609851 0.12053462662254776 0.076080342836260167 1:-0.610619 2:-0.219178 3:-1 4:-0.356164 5:-0.626043 6:-0.43662 7:-0.632509 8:0.414097 9:0.133858 10:-0.532934 11:-0.446154 
1.3894898605258379 0.25214299683050256 0.44722440096557403 0.086818150867467969 0.049469960272136182 1:-0.256637 2:-0.342466 3:-0.42 4:-0.821918 5:-0.712855 6:-0.887324 7:-0.936396 8:0.281938 9:-0.023622 10:-0.808383 11:-0.784615 
1.3498157182429005 0 0 0 0 1:-0.469027 2:-0.226027 3:-0.54 4:-0.808219 5:-0.669449 6:-0.464789 7:-0.448763 8:-0.0704846 9:-0.259843 10:-0.664671 11:-0.723077 
0.91621661247059005 0 0 0 0 1:0.0265487 2:-0.780822 3:0.08 4:-0.753425 5:-0.689482 6:-0.887324 7:-0.908127 8:0.281938 9:-0.19685 10:-0.640719 11:-0.661538 
1.1672834296642873 0.34573420837482227 0.11974777933832079 0.073059411612794611 0.037883866010937656 1:-0.415929 2:-0.684932 3:-0.58 4:-0.863014 5:-0.796327 6:0.267606 7:-0.321555 8:-0.0704846 9:-0.165354 10:-0.700599 11:-0.661538 
1.1909260514738866 0.27207903326735777 0 0.053853113001474252 0.15306286540642927 1:-0.274336 2:-0.0136986 3:-1 4:-0.931507 5:-0.823038 6:-0.352113 7:-0.809187 8:-0.217327 9:-0.165354 10:-0.736527 11:-0.6 
0.071168420672829219 0.17174724814522913 0.070162526601042954 0 0.026163495827760411 1:-0.115044 2:0.0410959 3:-0.44 4:-0.794521 5:-0.752922 6:-0.183099 7:-0.00353357 8:0.14978 9:-0.212598 10:-0.760479 11:-0.692308 
0 0 0 0.039187291136305064 0 1:-0.132743 2:0.0479452 3:-0.46 4:-0.808219 5:-0.759599 6:-0.15493 7:-0.0176678 8:0.135095 9:-0.212598 10:-0.760479 11:-0.692308 
0.647278523462544 0.52435410888811351 1.2977261066609713 0 0 1:-0.0619469 2:-0.424658 3:-0.1 4:-0.808219 5:-0.803005 6:-0.577465 7:-0.759717 8:0.325991 9:0.023622 10:-0.652695 11:-0.692308 
1.3129592702661974 0.69620016742786628 0 0 0.019249805565722897 1:-0.522124 2:-0.246575 3:-0.9 4:-0.630137 5:-0.682805 6:-0.859155 7:-0.90106 8:0.0469897 9:0.0393701 10:-0.640719 11:-0.476923 
0.9648456076627967 0.5352826086209489 0.23630381782994692 0.13754256488148953 0.06871048257241133 1:-0.079646 2:0.0410959 3:-0.5 4:-0.780822 5:-0.692821 6:-0.0422535 7:0.0530035 8:0.604993 9:0.0551181 10:-0.592814 11:-0.138462 
0.9667145303434761 0.53930031631014685 0.23412872845399038 0.13940669975553405 0.071793648679157551 1:1 2:-0.671233 3:0.3 4:-0.0958904 5:-0.719533 6:-0.408451 7:-0.540636 8:0.105727 9:-0.622047 10:-0.389222 11:1 
0.56218547331053903 0 0.040239263144909755 0 0.016011751000488832 1:-0.292035 2:-0.520548 3:-0.06 4:-0.794521 5:-0.792988 6:-0.830986 7:-0.837456 8:0.14978 9:-0.464567 10:-0.844311 11:-0.661538 
0.63084968974541822 0.21222441221042063 0 0.072219827920370475 0.028624407559223197 1:-0.0973451 2:-0.410959 3:-0.66 4:-0.726027 5:-0.749583 6:-0.464789 7:-0.667845 8:0.516887 9:-0.370079 10:-0.664671 11:-0.692308 
1.5999967545228104 0.52581441376336757 0.14881788055666564 0.018509267361032415 0.056868797858719934 1:0.079646 2:-0.575342 3:-0.22 4:-0.821918 5:-0.686144 6:-0.802817 7:-0.816254 8:0.25257 9:-0.76378 10:-0.796407 11:-0.630769 
2 0.30612750273978001 0 0 0 1:-0.486726 2:-0.589041 3:-0.38 4:-0.90411 5:-0.772955 6:-0.605634 7:-0.745583 8:0.135095 9:-0.102362 10:-0.628743 11:-0.815385 
2 0.067976336950882815 0.054444037281107985 0 0 1:0.327434 2:-0.616438 3:0.04 4:-0.849315 5:-0.732888 6:-0.605634 7:-0.660777 8:0.45815 9:-0.543307 10:-0.60479 11:-0.446154 
1.1082368215828957 0 0 0.0059234658308872151 0 1:-0.150442 2:-0.356164 3:-0.72 4:-0.849315 5:-0.759599 6:-0.323944 7:-0.70318 8:0.179148 9:-0.370079 10:-0.724551 11:-0.6 
1.0301042858780205 0.37779261568547456 0.33068896102047662 0.065812148639657495 0.046225432872635072 1:-0.0442478 2:-0.164384 3:-0.14 4:-0.808219 5:-0.843072 6:-0.605634 7:-0.823322 8:-0.041116 9:-0.354331 10:-0.712575 11:-0.2 
2 0.62803426965114328 0 0.017658726702320399 0.012217911284520995 1:-0.59292 2:-0.616438 3:-0.52 4:-0.780822 5:-0.762938 6:-0.183099 7:-0.724382 8:-0.143906 9:-0.181102 10:-0.700599 11:-0.507692 
0.81632107901488027 0.44429426762386304 0.19238319173404872 0.11372509312338537 0.063215659777475591 1:-0.079646 2:0.534247 3:-0.32 4:-0.849315 5:-0.776294 6:-0.126761 7:0.024735 8:0.164464 9:-0.354331 10:-0.760479 11:-0.661538 
0 0 0.12082902990891137 0 0 1:-0.362832 2:-0.164384 3:-0.58 4:-0.890411 5:-0.792988 6:-0.887324 7:-0.95053 8:-0.0117474 9:-0.275591 10:-0.772455 11:-0.661538 
2 2 0 0 0 1:-0.168142 2:-0.60274 3:-0.22 4:-0.821918 5:-0.826377 6:-0.690141 7:-0.823322 8:0.223201 9:-0.181102 10:-0.616766 11:-0.446154 
0 0 1.1030396702549108 0 0 1:-0.292035 2:-0.0684932 3:-0.78 4:-0.808219 5:-0.759599 6:-0.690141 7:-0.823322 8:0.14978 9:0.0393701 10:-0.820359 11:-0.538462 
0.866426018210947 0.35475558669860074 0.16887493010904586 0.092978643809268124 0.046960736010619376 1:-0.345133 2:-0.0958904 3:-0.8 4:-0.767123 5:-0.769616 6:0.239437 7:-0.427562 8:0.208517 9:0.165354 10:-0.760479 11:-0.507692 
2 0.26413954076412399 0.56761882173130007 0 0.02065725946779615 1:0.0973451 2:-0.808219 3:-0.1 4:-0.671233 5:-0.839733 6:-0.464789 7:-0.696113 8:0.0469897 9:-0.385827 10:-0.748503 11:-0.630769 
2 0.2886444889353601 0.15433834364907376 0.092142434186171449 0.16292487372447761 1:0.539823 2:-0.575342 3:0.16 4:-0.863014 5:-0.806344 6:-0.605634 7:-0.759717 8:0.516887 9:-0.496063 10:-0.808383 11:-0.815385 
1.0937643208598262 0.527794361717838 0 0 0.051533487084159425 1:-0.309735 2:-0.534247 3:-0.38 4:-0.815068 5:-0.779633 6:-0.126761 7:-0.632509 8:0.164464 9:-0.0708661 10:-0.748503 11:-0.569231 
0.60577705670549442 0.25488375480525832 0.10945238182788948 0.066656231426572288 0.027301678849163569 1:-0.079646 2:0.178082 3:-0.36 4:-0.808219 5:-0.779633 6:-0.0422535 7:0.0318021 8:0.164464 9:-0.19685 10:-0.820359 11:-0.692308 
1.5804357922903927 0.37720846695987653 0.84383437290805219 0.050844951885820985 0 1:-0.380531 2:-0.0958904 3:-0.54 4:-0.767123 5:-0.843072 6:-0.887324 7:-0.936396 8:0.0176211 9:-0.00787402 10:-0.724551 11:-0.107692 
1.2843685928539244 0.30558024047453919 0 0 0 1:-0.557522 2:-0.273973 3:-0.64 4:-0.876712 5:-0.806344 6:-0.661972 7:-0.759717 8:0.0176211 9:0.102362 10:-0.676647 11:-0.784615 
1.5219565564420445 0.17441501351568606 0.1136331936257185 0 0 1:-0.20354 2:-0.287671 3:-0.54 4:-0.69863 5:-0.722871 6:-0.661972 7:-0.773852 8:0.428781 9:-0.149606 10:-0.688623 11:-0.6 
0 0.021685738222030196 0.43122016804313074 0.025357998529135829 0 1:-0.451327 2:-0.260274 3:-0.92 4:-0.90411 5:-0.90985 6:-0.915493 7:-0.978799 8:-0.0998532 9:0.0393701 10:-0.832335 11:-0.692308 
1.358069095006859 0.49382462323497373 0.190904978460958 0.21987919843025322 0.063603619363349392 1:-0.380531 2:-0.643836 3:-0.04 4:-0.876712 5:-0.51586 6:-0.887324 7:-0.922261 8:0.105727 9:-0.11811 10:-0.137725 11:-0.692308 
0.71530778639992165 0.41114250070575198 0.34937173625840962 0.11158754459402419 0.049033511337095284 1:-0.185841 2:0.0958904 3:-0.52 4:-0.767123 5:-0.749583 6:-0.690141 7:-0.385159 8:0.428781 9:0.165354 10:-0.748503 11:-0.569231 
0.74787220395726117 0.18952927114155591 0.085522766588912641 0.046222864408506863 0.020046314237367888 1:-0.292035 2:-0.493151 3:0.02 4:-0.849315 5:0.368948 6:-0.577465 7:-0.60424 8:0.14978 9:-0.543307 10:0.00598802 11:-0.815385 
0.74456831962544334 0 0 0 0 1:-0.221239 2:-0.506849 3:-0.36 4:-0.739726 5:-0.759599 6:-0.43662 7:-0.180212 8:0.223201 9:-0.0866142 10:-0.652695 11:-0.692308 
0 0.057129040552225917 0.10382402441039981 0 0 1:-0.150442 2:-0.321918 3:-0.44 4:-0.684932 5:-0.749583 6:-0.521127 7:-0.533569 8:0.472834 9:-0.102362 10:-0.760479 11:-0.6 
0.9176093945673105 0.49253406934639105 0.18472430851172952 0.12681691794639671 0.25924389334446762 1:-0.327434 2:0.253425 3:-0.7 4:-0.30137 5:-0.796327 6:-0.71831 7:-0.660777 8:0.311307 9:-0.00787402 10:-0.808383 11:-0.538462 
0.85943805598501344 0 0 0 0 1:-0.504425 2:-0.493151 3:-0.62 4:-0.712329 5:-0.782972 6:-0.577465 7:-0.780919 8:-0.041116 9:-0.00787402 10:-0.784431 11:-0.353846 
2 0.44452731149385744 0.17811806846383793 0.11058157178929828 0.061858084028126252 1:0.0619469 2:0.239726 3:-0.14 4:-0.739726 5:-0.772955 6:-0.43662 7:-0.448763 8:0.237885 9:-0.496063 10:-0.712575 11:-0.476923 
0 0.15271766867557698 0 0.053583214262022991 0.017540958538235472 1:-0.238938 2:-0.390411 3:-0.32 4:-0.712329 5:-0.729549 6:-0.577465 7:-0.250883 8:0.428781 9:0.00787402 10:-0.664671 11:-0.661538 
0.63874678569005161 0.080844687713733376 1.2489241351849689 0.040413230357551976 0 1:-0.274336 2:-0.219178 3:-1 4:-0.684932 5:-0.759599 6:-0.661972 7:-0.809187 8:0.340675 9:-0.023622 10:-0.856287 11:-0.692308 
0.37825533768346015 0 0.2587170182549634 0 0 1:-0.0619469 2:-0.150685 3:-0.44 4:-0.767123 5:-0.779633 6:-0.43662 7:-0.498233 8:0.164464 9:-0.149606 10:-0.784431 11:-0.569231 
1.1401920037473141 0 0.020846398942057739 0 0 1:-0.39823 2:-0.575342 3:-0.28 4:-0.808219 5:-0.789649 6:-0.746479 7:-0.70318 8:0.105727 9:-0.0551181 10:-0.844311 11:-0.692308 
1.236064732844101 0 0 0 0 1:-0.469027 2:-0.534247 3:-0.78 4:-0.767123 5:-0.776294 6:-0.690141 7:-0.696113 8:-0.0117474 9:-0.259843 10:-0.712575 11:-0.507692 
0.86003610060652602 0 0 0 0 1:-0.327434 2:-0.39726 3:-0.92 4:-0.849315 5:-0.766277 6:-0.746479 7:-0.886926 8:0.105727 9:-0.244094 10:-0.868263 11:-0.630769 
0 0 0 0.0073229604241556029 0 1:-0.557522 2:-0.260274 3:-1 4:-0.589041 5:-0.752922 6:-0.549296 7:-0.724382 8:0.105727 9:0.133858 10:-0.748503 11:-0.661538 
1.2385452285860103 0.34649796839407399 0.46360237461026665 0.011828478733997836 0 1:-0.327434 2:-0.39726 3:-0.92 4:-0.849315 5:-0.766277 6:-0.746479 7:-0.886926 8:0.105727 9:-0.244094 10:-0.868263 11:-0.630769 
0.33166126606215263 0.067683155693852193 0.03850310933817417 0.02912166205355788 0 1:-0.238938 2:-0.506849 3:-0.52 4:-0.732877 5:-0.72621 6:-0.0422535 7:-0.293286 8:0.193833 9:-0.433071 10:-0.760479 11:-0.753846 
2 0 0 0 0 1:-0.469027 2:-0.589041 3:-0.84 4:-0.753425 5:-0.759599 6:-0.605634 7:-0.70318 8:-0.0117474 9:-0.259843 10:-0.688623 11:-0.507692 
0.98170576927808995 0.53464113441570593 0.2373438315538669 0.13491901802113856 0.067790736258453832 1:-0.557522 2:-0.739726 3:-0.4 4:-0.821918 5:-0.863105 6:-0.0140845 7:-0.144876 8:-0.0558003 9:-0.685039 10:0.54491 11:-0.661538 
2 0 0.45460412467579575 0 0 1:-0.221239 2:-0.260274 3:-0.66 4:-0.712329 5:-0.782972 6:-0.887324 7:-0.95053 8:0.105727 9:-0.133858 10:-0.736527 11:-0.384615 
0.68645099042428437 0 0 0 0 1:-0.681416 2:-0.383562 3:-0.96 4:-0.876712 5:-0.816361 6:-0.915493 7:-0.964664 8:0.0176211 9:0.133858 10:-0.580838 11:-0.661538 
1.6022840775203857 0 0 0 0 1:-0.681416 2:-0.383562 3:-0.96 4:-0.876712 5:-0.816361 6:-0.915493 7:-0.964664 8:0.0176211 9:0.133858 10:-0.580838 11:-0.661538 
1.0257349603624744 0.53591494737277101 0.2285201621064045 0.1366301623442544 0.071926833587280206 1:-0.132743 2:-0.410959 3:0.32 4:-0.808219 5:0.252087 6:-0.690141 7:-0.780919 8:0.193833 9:-0.322835 10:-0.592814 11:-0.630769 
0.97095501431861986 0.47717342093989112 0.39533415799498756 0.1216650051646444 0.75954654705492464 1:-0.238938 2:0.0342466 3:-0.74 4:-0.650685 5:-0.746244 6:-0.915493 7:-0.943463 8:0.370044 9:0.102362 10:-0.772455 11:-0.0461538 
0.18761228488856893 0.029209581897648853 0 0.035718954248136273 0.025104326171452591 1:-0.575221 2:-0.547945 3:-0.32 4:-0.753425 5:-0.766277 6:-0.577465 7:-0.533569 8:0.164464 9:0.275591 10:-0.676647 11:-0.661538 
2 0 0 0.006484339792190358 0 1:-0.451327 2:-0.39726 3:-0.6 4:-0.849315 5:-0.789649 6:-0.774648 7:-0.766784 8:0.267254 9:0.165354 10:-0.652695 11:-0.723077 
0.40824861498473747 0.3568571686030505 0 0 0 1:-0.451327 2:0.157534 3:-0.8 4:-0.835616 5:-0.66611 6:-0.71831 7:-0.886926 8:-0.0851689 9:-0.181102 10:-0.796407 11:-0.661538 
1.8175701339681629 0.14044401043366955 0.046460644941106577 0.03795293223770075 0 1:-0.221239 2:-0.219178 3:-1 4:-0.794521 5:-0.746244 6:-0.492958 7:-0.773852 8:0.311307 9:-0.0393701 10:-0.676647 11:-0.723077 
2 0 0 0 0 1:-0.663717 2:-0.321918 3:-1 4:-0.863014 5:-0.823038 6:-0.774648 7:-0.915194 8:0.0469897 9:0.133858 10:-0.616766 11:-0.753846 
1.0388777489489982 0.10301622979077982 0.13880291429930802 0.069842633412744437 0.022921652433449721 1:0.238938 2:-0.60274 3:0.16 4:-0.739726 5:-0.719533 6:-0.323944 7:-0.328622 8:0.493392 9:-0.385827 10:-0.760479 11:-0.507692 
0.35598053387460799 0.10998801650214195 0.087963264745445191 0.026900452373133984 0.046431023518060124 1:0.150442 2:-0.630137 3:0.08 4:-0.753425 5:-0.722871 6:-0.43662 7:-0.328622 8:0.472834 9:-0.385827 10:-0.784431 11:-0.661538 
1.1661642555090372 0 0.20018015550481827 0 0 1:-0.292035 2:-0.712329 3:-0.2 4:-0.767123 5:-0.762938 6:-0.577465 7:-0.561837 8:0.138032 9:-0.11811 10:-0.820359 11:-0.692308 
1.7487665963473742 0 0 0 0 1:-0.345133 2:-0.273973 3:-0.8 4:-0.726027 5:-0.742905 6:-0.549296 7:-0.759717 8:0.168869 9:-0.133858 10:-0.736527 11:-0.661538 
1.2208053309356075 0 0 0 0 1:-0.469027 2:-0.424658 3:-0.74 4:-0.780822 5:-0.716194 6:-0.352113 7:-0.575972 8:0.142438 9:0.023622 10:-0.664671 11:-0.692308 
0.62854607949244679 0 0 0 0 1:-0.345133 2:-0.273973 3:-0.8 4:-0.726027 5:-0.742905 6:-0.549296 7:-0.759717 8:0.168869 9:-0.133858 10:-0.736527 11:-0.661538 
0.24873541502912938 0 1.8627358175289763 0 0.040854459898194403 1:-0.380531 2:0.0273973 3:-1 4:-0.821918 5:-0.759599 6:-0.746479 7:-0.823322 8:-0.0469897 9:-0.19685 10:-0.796407 11:-0.569231 
0.19319442120705965 0 0 0 0 1:-0.256637 2:-0.589041 3:-0.58 4:-0.780822 5:-0.732888 6:-0.0985915 7:-0.420495 8:0.198238 9:-0.291339 10:-0.772455 11:-0.753846 
1.0664665443436063 0.012363080314905737 0 0.023898131545163615 0.013861902038693011 1:-0.221239 2:-0.369863 3:-0.5 4:-0.739726 5:-0.789649 6:-0.774648 7:-0.30742 8:0.133627 9:-0.228346 10:-0.712575 11:-0.6 
0.91784039114335936 0 0.82660792012984652 0 0 1:-0.168142 2:-0.267123 3:-0.48 4:-0.849315 5:-0.719533 6:-0.887324 7:-0.795053 8:0.0734214 9:-0.19685 10:-0.892216 11:-0.630769 
1.3238298061640794 0 0.64129893081251244 0 0 1:-0.256637 2:-0.356164 3:-0.64 4:-0.726027 5:-0.742905 6:-0.690141 7:-0.519435 8:0.0734214 9:-0.370079 10:-0.748503 11:-0.692308 
0.2045107853065446 0.18590580339326684 0.11944329293548445 0.047844108807550745 0.026275777314414391 1:-0.486726 2:-0.342466 3:-0.36 4:-0.753425 5:-0.69616 6:-0.661972 7:-0.349823 8:0.367107 9:0.11811 10:-0.652695 11:-0.661538 
1.2944359926992257 0 0 0 0 1:-0.415929 2:-0.178082 3:-0.98 4:-0.863014 5:-0.786311 6:-0.830986 7:-0.816254 8:-0.0293686 9:0.023622 10:-0.748503 11:-0.630769 
0 0 0 0.0096133581392047023 0 1:-0.150442 2:-0.226027 3:-0.48 4:-0.794521 5:-0.766277 6:-0.380282 7:-0.0318021 8:0.135095 9:-0.149606 10:-0.736527 11:-0.692308 
0 0.17322128582273899 0.030770666486777631 0.041927207241612065 0.021443870969254115 1:-0.132743 2:-0.383562 3:-0.46 4:-0.808219 5:-0.766277 6:-0.380282 7:-0.024735 8:0.138032 9:-0.165354 10:-0.736527 11:-0.692308 
0.23579040875382062 0.19197214244668667 0.41200851751512102 0.043489252241455362 0.34816118331187662 1:-0.539823 2:0.205479 3:-1 4:-0.712329 5:-0.699499 6:-0.830986 7:-0.929329 8:-0.14978 9:0.0866142 10:-0.844311 11:-0.507692 
2 1.2720867893207561 0 0 0.0055531193076977479 1:-0.345133 2:-0.575342 3:-0.4 4:-0.657534 5:-0.776294 6:-0.830986 7:-0.80212 8:0.146843 9:-0.023622 10:-0.664671 11:-0.353846 
2 0 0.0071960609892746611 0.030752505526708156 0.019924342324367034 1:-0.557522 2:-0.452055 3:-0.94 4:-0.767123 5:-0.786311 6:-0.43662 7:-0.392226 8:0.0837004 9:0.19685 10:-0.676647 11:-0.569231 
1.3225278645300318 0.24573124419695852 0.11046256696430889 0.063182192647210172 0.05290764221209153 1:-0.221239 2:-0.0410959 3:-0.9 4:-0.794521 5:-0.769616 6:-0.295775 7:-0.363958 8:0.185022 9:-0.023622 10:-0.760479 11:-0.507692 
0.85162633777340924 0.027789401523413696 0.16086025872447329 0.068372152342430617 0 1:-0.663717 2:-0.534247 3:-0.72 4:-0.794521 5:-0.659432 6:-0.774648 7:-0.780919 8:0.0646109 9:0.448819 10:-0.616766 11:-0.569231 
2 0.27176516906112136 0 0 0 1:-0.557522 2:-0.356164 3:-0.98 4:-0.780822 5:-0.782972 6:-0.464789 7:-0.441696 8:0.0851689 9:0.275591 10:-0.688623 11:-0.569231 
0.58939615467062778 1.1858007342887931 0.37893924507867455 0 0 1:-0.0619469 2:-0.684932 3:-0.18 4:-0.808219 5:-0.762938 6:-0.71831 7:-0.611307 8:0.193833 9:-0.259843 10:-0.796407 11:-0.661538 
0.034524230629350033 0.059377702470693954 0.0080949772703873997 0.031398080920827798 0.016826962333247819 1:-0.292035 2:-0.30137 3:-0.66 4:-0.726027 5:-0.709516 6:-0.43662 7:-0.201413 8:0.164464 9:-0.448819 10:-0.772455 11:-0.723077 
0.2124960850227863 0 0 0 0 1:-0.256637 2:-0.287671 3:-0.66 4:-0.726027 5:-0.759599 6:-0.323944 7:-0.123675 8:0.190896 9:-0.228346 10:-0.748503 11:-0.630769 
2 1.8470583096292292 1.9671270472747053 0 0 1:-0.451327 2:-0.342466 3:-1 4:-0.767123 5:-0.856427 6:-0.830986 7:-0.95053 8:-0.071953 9:0.00787402 10:-0.724551 11:-0.261538 
0.96541269823588849 0.50059962980694439 0.2184686464649889 0.13292689554714657 0.066025359131571662 1:0.0973451 2:0.0547945 3:-0.4 4:-0.767123 5:-0.599332 6:-0.830986 7:-0.618375 8:0.143906 9:-0.606299 10:0.0179641 11:-0.446154 
0.50627037344664261 0.62228270682825393 0 0 0.0058451722247207611 1:-0.274336 2:-0.534247 3:-0.38 4:-0.780822 5:-0.619366 6:-0.352113 7:-0.590106 8:0.0851689 9:-0.433071 10:-0.508982 11:-0.630769 
0.84186885767706532 0.0058790050689244491 0 0 0 1:-0.539823 2:-0.328767 3:-0.84 4:-0.575342 5:-0.766277 6:-0.295775 7:-0.279152 8:-0.0690162 9:-0.19685 10:-0.784431 11:-0.692308 
1.0603964316583645 0 0 0.024388388312036994 0 1:-0.292035 2:-0.410959 3:-0.82 4:-0.671233 5:-0.813022 6:-0.802817 7:-0.922261 8:0.0690162 9:-0.228346 10:-0.868263 11:-0.507692 
2 0.3663532399738606 0.18823913900667213 0.072472224087008971 0.029037697996454968 1:-0.504425 2:-0.438356 3:-0.76 4:-0.863014 5:-0.489149 6:-0.915493 7:-0.957597 8:0.020558 9:-0.181102 10:-0.365269 11:-0.753846 
0 0 0.24513498024648409 0 0 1:-0.522124 2:-0.493151 3:-0.8 4:-0.767123 5:-0.813022 6:-0.915493 7:-0.943463 8:-0.185022 9:-0.11811 10:-0.832335 11:-0.353846 
2 0 0 0 0 1:0.0973451 2:-0.547945 3:-0.34 4:-0.780822 5:-0.709516 6:-0.464789 7:-0.773852 8:0.190896 9:-0.212598 10:-0.54491 11:-0.261538 
2 1.3360764951848869 0.1416343875669914 0 0.083942400971640435 1:0.0973451 2:-0.547945 3:-0.34 4:-0.780822 5:-0.709516 6:-0.464789 7:-0.773852 8:0.190896 9:-0.212598 10:-0.54491 11:-0.261538 
1.2390379050973912 0 0.27576651814289321 0 0.013213242641558393 1:-0.557522 2:-0.184932 3:-1 4:-0.80137 5:-0.803005 6:-0.43662 7:-0.710247 8:-0.082232 9:-0.133858 10:-0.856287 11:-0.692308 
2 0 0 0.037335354146785418 0 1:-0.20354 2:-0.260274 3:-0.7 4:-0.684932 5:-0.716194 6:-0.774648 7:-0.625442 8:0.422907 9:-0.149606 10:-0.748503 11:-0.630769 
2 0 0 0 0 1:-0.575221 2:-0.226027 3:-1 4:-0.863014 5:-0.709516 6:-0.774648 7:-0.886926 8:-0.120411 9:-0.0551181 10:-0.676647 11:-0.6 
0.72483446473681923 0.56328171674169092 0 0 0 1:-0.628319 2:-0.424658 3:-0.74 4:-0.849315 5:-0.786311 6:-0.605634 7:-0.787986 8:0.061674 9:0.370079 10:-0.628743 11:-0.569231 
2 0 0 0 0 1:-0.557522 2:-0.506849 3:-0.44 4:-0.739726 5:-0.813022 6:-0.859155 7:-0.929329 8:-0.00881057 9:-0.212598 10:-0.760479 11:-0.415385 
1.2102811333291157 0 0 0 0 1:-0.557522 2:-0.534247 3:-0.72 4:-0.739726 5:-0.786311 6:-0.605634 7:-0.780919 8:-0.0939794 9:-0.023622 10:-0.808383 11:-0.292308 
1.9331666821370177 0 0.26943987913765916 0 0 1:-0.557522 2:-0.534247 3:-0.72 4:-0.739726 5:-0.786311 6:-0.605634 7:-0.780919 8:-0.0939794 9:-0.023622 10:-0.808383 11:-0.292308 
0.85485423551578921 0.047143125291827619 1.2211761035765307 0.023797562215070751 0 1:-0.256637 2:-0.226027 3:-0.48 4:-0.90411 5:-0.746244 6:-0.577465 7:-0.879859 8:0.00881057 9:-0.0866142 10:-0.832335 11:-0.692308 
1.242420374611017 0 0 0 0 1:-0.752212 2:-0.479452 3:-0.92 4:-0.821918 5:-0.732888 6:-0.661972 7:-0.858657 8:-0.0602056 9:0.133858 10:-0.832335 11:-0.507692 
2 0.087265748431402487 0 0 0 1:-0.646018 2:-0.260274 3:-1 4:-0.712329 5:-0.656093 6:-0.43662 7:-0.823322 8:-0.0866373 9:0.11811 10:-0.640719 11:-0.415385 
2 0 0 0 0 1:-0.557522 2:-0.226027 3:-0.3 4:-0.849315 5:-0.746244 6:-0.774648 7:-0.392226 8:-0.0851689 9:-0.149606 10:-0.652695 11:-0.692308 
0.2143491245230976 0 0 0.011530490799468879 0 1:-0.681416 2:-0.287671 3:-0.58 4:-0.876712 5:-0.769616 6:-0.633803 7:-0.823322 8:0.00146843 9:0.338583 10:-0.60479 11:-0.569231 
0 0 0.23266917346158694 0 0 1:-0.168142 2:-0.575342 3:-0.12 4:-0.863014 5:-0.75626 6:-0.774648 7:-0.886926 8:0.0293686 9:-0.149606 10:-0.736527 11:-0.661538 
0.71345485772471662 0.35788980228813622 0.51767896549205883 0.088822123607741499 0.044005972788038632 1:-0.39823 2:-0.589041 3:-0.36 4:-0.780822 5:-0.772955 6:-0.295775 7:-0.180212 8:0.165932 9:-0.244094 10:-0.113772 11:-0.6 
2 0 0 0 0.015799886323171326 1:-0.486726 2:-0.589041 3:-0.36 4:-0.753425 5:-0.816361 6:-0.830986 7:-0.865724 8:-0.0881057 9:-0.212598 10:-0.868263 11:-0.384615 
1.3541802250947228 0.32791612407168519 0.018313267753993365 0.063944512848179397 0.029614962723575715 1:-0.59292 2:-0.39726 3:-0.94 4:-0.917808 5:-0.752922 6:-0.0140845 7:-0.717314 8:-0.243759 9:0.244094 10:-0.712575 11:-0.323077 
0.92411470713487887 0 0 0 0 1:-0.539823 2:-0.342466 3:-0.92 4:-0.780822 5:-0.786311 6:-0.521127 7:-0.420495 8:0.0837004 9:0.244094 10:-0.736527 11:-0.661538 
2 0 0 0 0 1:-0.185841 2:-0.39726 3:-0.64 4:-0.90411 5:-0.779633 6:-0.746479 7:-0.893993 8:-0.164464 9:-0.354331 10:-0.808383 11:-0.538462 
2 0 0 0.032196447963725845 0 1:-0.539823 2:-0.342466 3:-0.92 4:-0.780822 5:-0.786311 6:-0.521127 7:-0.420495 8:0.0837004 9:0.244094 10:-0.736527 11:-0.661538 
2 0.028536773622754023 0 0 0 1:-0.238938 2:-0.136986 3:-0.72 4:-0.780822 5:-0.752922 6:-0.774648 7:-0.830389 8:0.199706 9:-0.0551181 10:-0.628743 11:-0.353846 
0.96360245231635366 0.53049520461956712 0.23025963304398622 0.13432549755467754 0.074706672006003866 1:0.079646 2:0.0684932 3:-0.32 4:-0.219178 5:-0.66611 6:-0.380282 7:-0.342756 8:0.882526 9:-0.244094 10:-0.580838 11:-0.723077 
2 0 1.753301041063775 0 0 1:-0.539823 2:-0.69863 3:-0.52 4:-0.849315 5:-0.803005 6:-0.183099 7:-0.674912 8:-0.164464 9:0.102362 10:-0.700599 11:-0.476923 
0.88934445945964902 0 0 0 0 1:-0.539823 2:-0.260274 3:-0.94 4:-0.808219 5:-0.779633 6:-0.577465 7:-0.434629 8:0.0807636 9:0.244094 10:-0.712575 11:-0.6 
2 2 0.1802198334376422 1.0734693038854795 0.034757424494055056 1:-0.238938 2:-0.739726 3:-0.28 4:-0.767123 5:-0.853088 6:-0.746479 7:-0.766784 8:-0.185022 9:0.0393701 10:-0.568862 11:0.0461538 
2 0.090322736649031066 0.096838625704681255 0 0 1:-0.539823 2:-0.424658 3:-0.46 4:-0.767123 5:-0.759599 6:-0.690141 7:-0.491166 8:-0.0704846 9:0.023622 10:-0.54491 11:-0.2 
1.1274975544767494 0.40593915478734194 0.20342769188365714 0.11984715741849525 0.054467975483399045 1:-0.876106 2:-0.184932 3:-0.62 4:-0.917808 5:-0.502504 6:-0.830986 7:-0.60424 8:-0.43025 9:0.385827 10:-0.664671 11:-0.2 
2 0.09476125907962385 0.19099918864499971 0 0 1:-0.115044 2:-0.60274 3:-0.26 4:-0.808219 5:-0.736227 6:-0.746479 7:-0.879859 8:0.143906 9:-0.212598 10:-0.724551 11:-0.353846 
2 0.26839122420351652 0 0 0 1:-0.292035 2:-0.520548 3:-0.46 4:-0.808219 5:-0.856427 6:-0.633803 7:-0.844523 8:-0.25257 9:-0.307087 10:-0.437126 11:-0.138462 
2 2 0.044228066968397969 1.2425217968573012 0.035240645164101608 1:-0.292035 2:-0.520548 3:-0.46 4:-0.808219 5:-0.856427 6:-0.633803 7:-0.844523 8:-0.25257 9:-0.307087 10:-0.437126 11:-0.138462 
2 0 0 0 0 1:-0.504425 2:-0.328767 3:-0.98 4:-0.849315 5:-0.792988 6:-0.661972 7:-0.773852 8:0.0881057 9:0.165354 10:-0.616766 11:-0.569231 
2 0 0 0 0 1:-0.504425 2:-0.328767 3:-0.98 4:-0.849315 5:-0.792988 6:-0.661972 7:-0.773852 8:0.0881057 9:0.165354 10:-0.616766 11:-0.569231 
0.56667900535369209 0.7479174830451264 0.8091364604045409 0.050616452918915124 0.18992472522779033 1:-0.646018 2:-0.328767 3:-0.98 4:-0.863014 5:-0.772955 6:-0.802817 7:-0.865724 8:0.0851689 9:0.496063 10:-0.520958 11:-0.353846 
1.2005043289169919 0.28605939836888272 0.62503957091248974 0.016100426536736927 0.013407667132203149 1:-0.716814 2:-0.534247 3:-0.66 4:-0.90411 5:-0.796327 6:-0.830986 7:-0.964664 8:-0.386197 9:0.370079 10:-0.748503 11:-0.0769231 
1.5530101971293961 0.072153997356027316 0 0 0.0082927206820742946 1:-0.309735 2:-0.876712 3:0.04 4:-0.863014 5:-0.739566 6:-0.774648 7:-0.879859 8:-0.0587372 9:-0.023622 10:-0.592814 11:-0.384615 
2 0.59464024825933404 0 0 0 1:-0.39823 2:-0.356164 3:-0.9 4:-0.849315 5:-0.742905 6:-0.690141 7:-0.816254 8:0.0690162 9:-0.023622 10:-0.664671 11:-0.507692 
0.29812533140610065 0 0 0 0 1:-0.557522 2:-0.39726 3:-0.72 4:-0.90411 5:-0.779633 6:-0.830986 7:-0.915194 8:-0.140969 9:-0.165354 10:-0.652695 11:-0.723077 
2 0 0 0 0 1:-0.646018 2:-0.383562 3:-0.96 4:-0.835616 5:-0.656093 6:-0.859155 7:-0.929329 8:-0.0499266 9:0.00787402 10:-0.568862 11:-0.661538 
1.3144689876910638 0 0 0 0 1:-0.309735 2:-0.260274 3:-0.6 4:-0.835616 5:-0.716194 6:-0.380282 7:-0.243816 8:0.0660793 9:-0.385827 10:-0.820359 11:-0.753846 
0.42318074988631738 0 0 0 0 1:-0.628319 2:-0.39726 3:-0.82 4:-0.726027 5:-0.776294 6:-0.830986 7:-0.886926 8:-0.0279001 9:0.133858 10:-0.664671 11:-0.446154 
1.0583555215317837 0.44210807413618652 0.08819700266176686 0.10633727373762548 0.042907879017572287 1:-0.309735 2:-0.69863 3:-0.12 4:-0.890411 5:-0.776294 6:-0.859155 7:-0.957597 8:-0.12188 9:0.228346 10:-0.640719 11:-0.292308 
1.1833664747446413 0 0 0 0 1:-0.539823 2:-0.60274 3:-0.4 4:-0.835616 5:-0.762938 6:-0.0422535 7:-0.533569 8:0.0176211 9:0.102362 10:-0.772455 11:-0.692308 
1.3833945721071512 0 0 0 0 1:0.345133 2:-0.547945 3:-0.02 4:-0.931507 5:-0.789649 6:-0.943662 7:-1 8:0.00293686 9:-0.385827 10:-0.640719 11:-0.384615 
0 0.073157595118315752 0.37487757614860168 0.044805199304191648 0 1:-0.132743 2:0.0136986 3:-0.48 4:-0.863014 5:-0.776294 6:-0.661972 7:-0.844523 8:0.0352423 9:-0.19685 10:-0.652695 11:-0.507692 
2 1.3765086323322171 0.76844513861465824 0.51262976942275462 0.035039425128605139 1:0.345133 2:-0.547945 3:-0.02 4:-0.931507 5:-0.789649 6:-0.943662 7:-1 8:0.00293686 9:-0.385827 10:-0.640719 11:-0.384615 
1.7792931334820559 0.30768575868167791 0 0.065740123100646863 0 1:-0.557522 2:-0.671233 3:-0.4 4:-0.90411 5:-0.772955 6:-0.0422535 7:-0.547703 8:0.00734214 9:0.102362 10:-0.796407 11:-0.692308 
1.2124431239673421 0.08523258514718933 0.083261205450128939 0.049233261635580589 0.033662678761576054 1:-0.451327 2:-0.630137 3:-0.76 4:-0.890411 5:-0.716194 6:-0.492958 7:-0.85159 8:-0.135095 9:-0.338583 10:-0.808383 11:-0.692308 
2 0 0 0 0 1:-0.557522 2:-0.69863 3:-0.44 4:-0.849315 5:-0.766277 6:-0.15493 7:-0.561837 8:0.00881057 9:0.11811 10:-0.820359 11:-0.692308 
2 0 0.19407100557568233 0 0.019445068802847236 1:-0.557522 2:-0.69863 3:-0.44 4:-0.849315 5:-0.766277 6:-0.15493 7:-0.561837 8:0.00881057 9:0.11811 10:-0.820359 11:-0.692308 
0.26547511543213376 0 0 0.035692449606253021 0 1:-0.0442478 2:-0.684932 3:-0.1 4:-0.780822 5:-0.732888 6:-0.464789 7:-0.420495 8:0.337739 9:-0.354331 10:-0.88024 11:-0.692308 
1.8013554927032989 0.22953058475995491 0.14043876734115382 0.051869658938258109 0 1:-0.362832 2:-0.575342 3:-0.42 4:-0.90411 5:-0.769616 6:-0.267606 7:-0.724382 8:-0.124816 9:-0.19685 10:-0.748503 11:-0.415385 
2 0.65478385030994057 0.018262151162937727 0 0.040939046256198361 1:-0.115044 2:-0.479452 3:-0.28 4:-0.739726 5:-0.652755 6:-0.295775 7:-0.65371 8:0.0499266 9:-0.307087 10:-0.580838 11:-0.230769 
0.629274678611351 0.29269469261847547 1.015885105491978 0 0.18435981677785801 1:-0.451327 2:0.212329 3:-0.7 4:-0.835616 5:-0.699499 6:-0.71831 7:-0.816254 8:-0.123348 9:-0.228346 10:-0.820359 11:-0.507692 
0.92093723283284512 1.3517736725942859 0 0 0 1:-0.575221 2:-0.479452 3:-0.72 4:-0.876712 5:-0.779633 6:-0.746479 7:-0.879859 8:-0.0763583 9:0.244094 10:-0.664671 11:-0.384615 
1.8692439267358238 0.4226528159213499 0.46376257887064909 0 0 1:-0.575221 2:-0.465753 3:-0.82 4:-0.835616 5:-0.833055 6:-0.915493 7:-0.978799 8:-0.152717 9:-0.0393701 10:-0.748503 11:-0.353846 
2 1.179388731076598 0.4105999775952362 0.15801683688099299 0.047016333114152375 1:-0.681416 2:-0.0753425 3:-1 4:-0.821918 5:-0.823038 6:-0.239437 7:-0.674912 8:-0.455213 9:0.181102 10:-0.772455 11:-0.0153846 
1.166895462736443 0.33595635740628405 0 0.058273075730024972 0.73291125716420336 1:-0.380531 2:-0.0410959 3:-1 4:-0.561644 5:-0.722871 6:-0.887324 7:-0.943463 8:0.243759 9:-0.023622 10:-0.760479 11:-0.630769 
0.13292545531492261 0.017798170869355822 0.51675634142584248 0.031323183825452981 1.0870328088356929 1:-0.522124 2:0.0821918 3:-0.8 4:-0.876712 5:-0.792988 6:-0.464789 7:-0.646643 8:-0.0234949 9:-0.0393701 10:-0.724551 11:-0.753846 
1.0681355127240588 0.52178612617770948 0.54642527178695621 0.091254552418632146 0.28393392053712035 1:-0.504425 2:0.157534 3:-1 4:-0.821918 5:-0.746244 6:-0.577465 7:-0.816254 8:0.0998532 9:0.322835 10:-0.592814 11:-0.446154 
2 0 0 0 0 1:-0.557522 2:-0.575342 3:-0.66 4:-0.876712 5:-0.766277 6:-0.267606 7:-0.681979 8:-0.0792952 9:0.181102 10:-0.628743 11:-0.384615 
2 0 0 0 0 1:-0.557522 2:-0.575342 3:-0.66 4:-0.876712 5:-0.766277 6:-0.267606 7:-0.681979 8:-0.0792952 9:0.181102 10:-0.628743 11:-0.384615 
0.5285192582885796 0.16596070900009147 0.06802363157689062 0.043280660844900176 0.029290343051024459 1:-0.309735 2:-0.534247 3:0.18 4:-0.931507 5:0.342237 6:-0.577465 7:-0.724382 8:0.020558 9:-0.543307 10:0.209581 11:-0.753846 
2 0.27270741660608971 0.073563261077040004 0.18034764502183626 0.042287824793778128 1:-0.823009 2:-0.335616 3:-0.9 4:-0.794521 5:-0.796327 6:-0.492958 7:-0.865724 8:-0.631424 9:0.291339 10:-0.736527 11:0.384615 
0.2996748779167816 0 0 0.018356643321624271 0 1:-0.469027 2:-0.589041 3:-0.5 4:-0.589041 5:-0.692821 6:-0.239437 7:-0.40636 8:0.140969 9:-0.354331 10:-0.712575 11:-0.784615 
2 0.60737891963393797 0.46756486681396647 0.056959394745016753 0.028189002639846632 1:-0.39823 2:-0.315068 3:-0.3 4:-0.739726 5:-0.752922 6:-0.239437 7:-0.674912 8:0.0176211 9:-0.102362 10:-0.652695 11:-0.261538 
0.46882908037416782 0.24232878365787525 0.094652852050717912 0.062603878058055493 0.02871266127030634 1:-0.486726 2:-0.109589 3:-0.6 4:-0.0136986 5:-0.712855 6:-0.183099 7:-0.392226 8:0.299559 9:-0.275591 10:-0.700599 11:-0.753846 
1.145367895400744 0.73711283685049744 0.24596817631778164 0.13172512261358785 0.062679955039958518 1:-0.292035 2:-0.657534 3:0.3 4:-0.246575 5:-0.772955 6:-0.943662 7:-0.985866 8:0.189427 9:-0.165354 10:-0.700599 11:-0.2 
0.60259162343007278 0.087436747108467675 0.051307743839009066 0.029277883600811863 0.011479942180267077 1:-0.610619 2:-0.506849 3:-0.84 4:-0.876712 5:-0.792988 6:0.0985915 7:-0.590106 8:-0.23348 9:-0.401575 10:-0.808383 11:-0.630769 
0.49027996809573071 0 0 0.21152235648912843 0 1:-0.150442 2:-0.616438 3:-0.06 4:-0.780822 5:-0.749583 6:-0.859155 7:-0.90106 8:0.123348 9:-0.354331 10:-0.796407 11:-0.353846 
0.6340747602624357 0 0 0 0.026836409965408221 1:-0.292035 2:-0.452055 3:-0.24 4:-0.917808 5:-0.719533 6:-0.887324 7:-0.915194 8:-0.0323054 9:-0.275591 10:-0.772455 11:-0.692308 
2 1.0101459200803926 0.11401302337881478 0.29261600353114792 0.057075508606006194 1:-0.699115 2:-0.383562 3:-0.44 4:-0.835616 5:-0.8798 6:-0.661972 7:-0.696113 8:-0.461087 9:0.0551181 10:-0.676647 11:0.353846 
0 0 0.48001928136317146 0 0 1:-0.380531 2:-0.0958904 3:-0.8 4:-0.671233 5:-0.739566 6:-0.915493 7:-0.95053 8:0.245228 9:-0.023622 10:-0.808383 11:-0.661538 
2 1.4364952718072455 0 0.09327814344177239 0.046898548130039956 1:-0.823009 2:-0.260274 3:-1 4:-0.780822 5:-0.819699 6:-0.830986 7:-0.936396 8:-0.634361 9:0.228346 10:-0.700599 11:0.384615 
2 0.042845784819120464 0 0 0.0888996421410536 1:-0.0442478 2:-0.575342 3:-0.34 4:-0.753425 5:-0.722871 6:-0.239437 7:-0.413428 8:0.223201 9:-0.244094 10:-0.580838 11:-0.507692 
0.95282642504026638 0.53559926479985809 0.22817964274657784 0.13467234739093714 0.070103543336591606 1:-0.769912 2:-0.90411 3:-0.58 4:-0.890411 5:-0.889816 6:0.577465 7:-0.0883392 8:-0.509545 9:-0.0866142 10:-0.868263 11:-0.661538 
0.56666928732801947 0.1870156072742738 0.076048225740540876 0.049312766408582703 0.037710472159638089 1:-0.486726 2:-0.60274 3:-0.7 4:-0.616438 5:-0.692821 6:-0.211268 7:-0.378092 8:0.143906 9:-0.370079 10:-0.700599 11:-0.784615 
2 0 0 0 0 1:-0.522124 2:-0.726027 3:-0.54 4:-0.808219 5:-0.819699 6:-0.0422535 7:-0.547703 8:-0.146843 9:0.0866142 10:-0.652695 11:-0.476923 
0.20251135716444865 0 0 0 0 1:-0.345133 2:-0.342466 3:-0.5 4:-0.821918 5:-0.646077 6:-0.774648 7:-0.773852 8:-0.105727 9:-0.354331 10:-0.760479 11:-0.569231 
2 0 0 0 0 1:-0.345133 2:-0.342466 3:-0.5 4:-0.821918 5:-0.646077 6:-0.774648 7:-0.773852 8:-0.105727 9:-0.354331 10:-0.760479 11:-0.569231 
2 2 0 0.34938196523952181 0 1:-0.00884956 2:-0.60274 3:-0.14 4:-0.821918 5:-0.672788 6:-0.71831 7:-0.780919 8:0.0587372 9:-0.338583 10:-0.592814 11:-0.261538 
0.83860741505924263 0.013815743021546919 0 0 0 1:-0.221239 2:-0.0890411 3:-0.52 4:-0.890411 5:-0.779633 6:-0.746479 7:-0.893993 8:0.00587372 9:-0.133858 10:-0.592814 11:-0.507692 
2 0.3089752554161142 0.12405670066583309 0.080071207927451177 0.036926506544861952 1:-0.309735 2:-0.561644 4:-0.863014 5:0.191987 6:-0.605634 7:-0.773852 8:-0.0792952 9:-0.574803 10:-0.0778443 11:-0.692308 
0.99775482970359997 0.36639906042004816 0.15758652391125583 0.074879736268277028 0.041133108098701236 1:-0.0619469 2:-0.424658 3:-0.48 4:-0.849315 5:-0.669449 6:-0.830986 7:-0.618375 8:0.030837 9:-0.685039 10:-0.221557 11:-0.446154 
1.2579001164981529 0.54969471517103552 0.34011939348668296 0.24185313661629165 0.057749239850517553 1:-0.823009 2:0.0890411 3:-1 4:-0.835616 5:-0.903172 6:-0.549296 7:-0.491166 8:-0.502203 9:0.480315 10:-0.520958 11:-0.0769231 
1.8015724598078766 2 0.1089927963485641 0.45889413897699705 0.047599847060830473 1:-0.079646 2:-0.630137 3:-0.14 4:-0.89726 5:-0.813022 6:-0.887324 7:-0.964664 8:-0.30837 9:-0.291339 10:-0.844311 11:-0.0769231 
1.0972556145400565 0.58066204063742743 0.37942557162754259 0.1347474449692854 0.078523870560977066 1:-0.646018 2:-0.0684932 3:-0.94 4:-0.0547945 5:-0.776294 6:-0.859155 7:-0.957597 8:-0.0851689 9:0.228346 10:-0.796407 11:0.169231 
0.57728649976824764 0.39018256402837526 0.1468299679011992 0.11138281022989832 0.059083327763469223 1:-0.628319 2:-0.287671 3:-0.54 4:-0.835616 5:-0.772955 6:-0.71831 7:-0.201413 8:-0.220264 9:-0.023622 10:-0.556886 11:-0.230769 
0 0 0 0 0.22514064393654298 1:-0.663717 2:0.0479452 3:-1 4:-0.808219 5:-0.48581 6:-0.859155 7:-0.957597 8:-0.201175 9:0.291339 10:-0.784431 11:-0.261538 
1.468330510953231 0.26048248789164741 0.65519463000285461 0.088589870286784389 0 1:-0.681416 2:0.0479452 3:-1 4:-0.808219 5:-0.48581 6:-0.859155 7:-0.957597 8:-0.201175 9:0.291339 10:-0.784431 11:-0.261538 
0.93457361770433756 0.37718892021767741 0.15907331153276988 0.10069317909114495 0.047607530959004225 1:-0.0619469 2:-0.150685 3:-0.62 4:-0.328767 5:-0.669449 6:-0.0985915 7:-0.5053 8:0.279001 9:-0.370079 10:-0.736527 11:-0.692308 
1.0280859995490863 0.51167858004588784 0.30110439225139363 0.12013170944355947 0.19168103809182652 1:-0.0619469 2:-0.178082 3:0.1 4:-0.890411 5:-0.585977 6:-0.352113 7:-0.674912 8:0.0939794 9:-0.0393701 10:-0.269461 11:-0.507692 
0.85321570880517561 0 0 0 0 1:-0.646018 2:-0.561644 3:-0.7 4:-0.835616 5:-0.786311 6:-0.408451 7:-0.667845 8:-0.173275 9:-0.0866142 10:-0.652695 11:-0.723077 
1.0194046371113534 0.45159947206450018 0.029766332243096855 0.015455656613607476 0 1:-0.185841 2:-0.534247 3:-0.54 4:-0.767123 5:-0.736227 6:-0.521127 7:-0.498233 8:0.343612 9:-0.354331 10:-0.784431 11:-0.692308 
0.6364877089339751 0.38429341191557048 0.156763450744725 0.10552270698886412 0.046938390197388026 1:-0.486726 2:-0.369863 3:-0.94 4:-0.561644 5:-0.772955 6:-0.267606 7:-0.717314 8:-0.140969 9:-0.559055 10:-0.832335 11:-0.753846 
2 0.4621362645052508 0 0 0 1:-0.221239 2:-0.369863 3:-0.5 4:-0.849315 5:-0.692821 6:-0.802817 7:-0.893993 8:0.118943 9:-0.165354 10:-0.532934 11:-0.630769 
2 0 0 0 0 1:-0.469027 2:-0.575342 3:-0.42 4:-0.835616 5:-0.789649 6:-0.492958 7:-0.575972 8:0.0440529 9:0.0393701 10:-0.628743 11:-0.661538 
1.2902421674427993 0.44333575869779868 0.18097413379523919 0.10804923589030924 0.055476131449146218 1:-0.433628 2:-0.0479452 3:-0.98 4:-0.767123 5:-0.792988 6:0.323944 7:-0.40636 8:-0.0983847 9:0.00787402 10:-0.652695 11:-0.261538 
2 0 0 0 0 1:-0.469027 2:-0.575342 3:-0.42 4:-0.835616 5:-0.789649 6:-0.492958 7:-0.575972 8:0.0440529 9:0.0393701 10:-0.628743 11:-0.661538 
0.30230858701249919 0 0 0 0 1:-0.486726 2:-0.328767 3:-0.6 4:-0.890411 5:-0.786311 6:-0.0140845 7:-0.618375 8:-0.284875 9:-0.433071 10:-0.916168 11:-0.723077 
0.41713052518515409 0.057126947496340251 0 0 0 1:-0.079646 2:-0.657534 3:-0.22 4:-0.780822 5:-0.776294 6:-0.239437 7:-0.583039 8:0.0602056 9:-0.338583 10:-0.688623 11:-0.569231 
2 0 0.050608594207639454 0 0 1:-0.345133 2:-0.39726 3:-0.56 4:-0.794521 5:-0.766277 6:-0.746479 7:-0.434629 8:0.208517 9:-0.00787402 10:-0.652695 11:-0.661538 
0 1.2690439821600794 0 0 0 1:-0.504425 2:-0.410959 3:-0.62 4:-0.876712 5:-0.766277 6:-0.605634 7:-0.80212 8:-0.0484581 9:0.181102 10:-0.580838 11:-0.353846 
0 0 0 0.0082687247703621056 0.015980861321060077 1:-0.504425 2:-0.150685 3:-0.86 4:-0.890411 5:-0.752922 6:-0.605634 7:-0.70318 8:-0.273128 9:-0.401575 10:-0.820359 11:-0.507692 
1.8771664606771377 2 0 0 0 1:-0.504425 2:-0.410959 3:-0.62 4:-0.876712 5:-0.766277 6:-0.605634 7:-0.80212 8:-0.0484581 9:0.181102 10:-0.580838 11:-0.353846 
1.3701849241093673 0 0 0 0 1:-0.486726 2:-0.369863 3:-0.72 4:-0.821918 5:-0.782972 6:-0.267606 7:-0.618375 8:-0.0851689 9:-0.149606 10:-0.688623 11:-0.569231 
0 0 0 0 0.4896849708482095 1:-0.557522 2:-0.178082 3:-1 4:-0.876712 5:-0.629382 6:-0.859155 7:-0.943463 8:-0.0895742 9:0.11811 10:-0.700599 11:-0.569231 
2 0.71246163939857754 0 0 0 1:-0.415929 2:-0.260274 3:-1 4:-0.931507 5:-0.719533 6:-0.859155 7:-0.95053 8:-0.174743 9:0.0866142 10:-0.700599 11:-0.661538 
2 2 0.01553385580987692 0 0 1:-0.433628 2:-0.205479 3:-0.88 4:-0.863014 5:-0.776294 6:-0.464789 7:-0.795053 8:-0.0881057 9:0.0393701 10:-0.568862 11:-0.230769 
0.45560006023963273 0 0 0 0 1:-0.734513 2:-0.287671 3:-0.96 4:-0.794521 5:-0.809683 6:-0.295775 7:-0.717314 8:-0.484581 9:0.149606 10:-0.856287 11:-0.2 
0.71220038595150348 0.34301467263590679 0.14665852656602557 0.090309399918984318 0.050584027276558002 1:-0.486726 2:-0.356164 3:-0.56 4:-0.876712 5:-0.766277 6:0.183099 7:-0.618375 8:-0.277533 9:-0.433071 10:-0.892216 11:-0.753846 
1.4698829761900443 0.27724351316685464 0.12283447021074589 0.070642808681888561 0.035977828780401996 1:-0.292035 2:-0.294521 3:0.36 4:-0.876712 5:0.305509 6:-0.492958 7:-0.646643 8:-0.082232 9:-0.559055 10:-0.0179641 11:-0.723077 
0.38952869987103594 0.16850065273304712 0.12587275293417532 0.061857556756755985 0.07127938733239858 1:-0.079646 2:-0.547945 3:-0.24 4:-0.780822 5:-0.769616 6:-0.0704225 7:-0.575972 8:0.0558003 9:-0.354331 10:-0.700599 11:-0.569231 
1.2992715450890739 0.2045454571825516 0 0.055585835540932563 0.042335975426167828 1:-0.769912 2:-0.534247 3:-1 4:-0.863014 5:-0.782972 6:-0.323944 7:-0.731449 8:-0.444934 9:0.19685 10:-0.760479 11:-0.138462 
0 0.12459177950460518 0.039474194792881792 0.026138507254842947 0.01412950763782061 1:-0.486726 2:-0.369863 3:-0.6 4:-0.849315 5:-0.796327 6:-0.0704225 7:-0.731449 8:-0.284875 9:-0.433071 10:-0.88024 11:-0.723077 
2 1.9100563999342481 0.33102262562053519 0.41233615947434193 0.0054076053033784693 1:-0.575221 2:-0.589041 3:-0.62 4:-0.808219 5:-0.803005 6:-0.521127 7:-0.787986 8:-0.311307 9:0.023622 10:-0.724551 11:-0.230769 
2 1.2627649676391082 0.060348036634340019 0 0.015217302698429953 1:0.185841 2:-0.657534 4:-0.876712 5:-0.739566 6:-0.464789 7:-0.710247 8:0.0675477 9:-0.354331 10:-0.712575 11:-0.353846 
1.3375968918750079 0.68265622337646537 0.17309561763529469 0.16091979117863581 0.067007047580595377 1:-0.39823 2:-0.342466 3:-0.84 4:-0.767123 5:-0.853088 6:-0.943662 7:-0.992933 8:-0.590308 9:-0.244094 10:-0.952096 11:0.415385 
0.92242919180268979 0.45228998914993962 0.18321069776715648 0.11861569840822013 0.064913353646022839 1:-0.575221 2:-0.342466 3:-0.4 4:-0.506849 5:-0.813022 6:-0.464789 7:-0.265018 8:0.331865 9:-0.11811 10:0.00598802 11:-0.446154 
2 2 1.4582395013388028 0.041275193681971092 0 1:-0.469027 2:-0.150685 3:-1 4:-0.863014 5:-0.706177 6:-0.859155 7:-0.957597 8:-0.245228 9:-0.023622 10:-0.688623 11:-0.2 
0.79045947313438569 0.44458653952538318 0.19396555557208917 0.11381776316005568 0.05831077377292055 1:-0.646018 2:-0.30137 3:-1 4:-0.534247 5:-0.729549 6:0.408451 7:-0.4947 8:-0.190896 9:-0.275591 10:-0.856287 11:-0.661538 
2 1.0258514345920329 0.091826395346454592 0.15480450171100951 0.025646128035162544 1:-0.39823 2:-0.780822 3:-0.12 4:-0.876712 5:-0.769616 6:-0.239437 7:-0.561837 8:-0.274596 9:-0.023622 10:-0.60479 11:-0.138462 
0 0.13887524411529606 0.034041138764943302 0.04434788900962798 0 1:-0.469027 2:-0.0821918 3:-0.58 4:-0.808219 5:-0.749583 6:-0.43662 7:-0.561837 8:-0.202643 9:-0.401575 10:-0.868263 11:-0.753846 
1.2265901336513287 0 0 0 0 1:-0.486726 2:-0.328767 3:-0.48 4:-0.863014 5:-0.796327 6:-0.352113 7:-0.420495 8:-0.111601 9:-0.11811 10:-0.760479 11:-0.569231 
1.1061840427347549 0 0 0 0 1:-0.0973451 2:-0.219178 3:-0.36 4:-0.780822 5:-0.746244 6:-0.408451 7:-0.399293 8:0.14978 9:-0.133858 10:-0.652695 11:-0.476923 
2 0 0 0 0 1:-0.486726 2:-0.328767 3:-0.48 4:-0.863014 5:-0.796327 6:-0.352113 7:-0.420495 8:-0.111601 9:-0.11811 10:-0.760479 11:-0.569231 
0.7245588583078113 0.40691867222126687 0.30230856790671179 0.098627603162156144 0.052346130006782524 1:-0.39823 2:0.452055 3:-0.58 4:-0.863014 5:-0.762938 6:-0.633803 7:-0.75265 8:-0.229075 9:-0.0551181 10:-0.832335 11:-0.353846 
1.0746478570140285 0.69853335149742501 0.50979081785411773 0 0 1:-0.0973451 2:-0.260274 3:-0.32 4:-0.767123 5:-0.72621 6:-0.690141 7:-0.420495 8:0.15859 9:-0.181102 10:-0.60479 11:-0.476923 
2 2 0.047915734585682032 0.5338653900531336 0.011633142511407017 1:-0.20354 2:-0.69863 3:-0.16 4:-0.876712 5:-0.846411 6:-0.774648 7:-0.915194 8:-0.434655 9:-0.307087 10:-0.736527 11:-0.0769231 
2 0 0.56386658154531033 0 0 1:-0.663717 2:-0.452055 3:-0.78 4:-0.876712 5:-0.796327 6:-0.661972 7:-0.773852 8:-0.202643 9:-0.0551181 10:-0.772455 11:-0.723077 
0 0.23457192660986084 0.035103863994197529 0.057255766487982446 0 1:-0.433628 2:0.0273973 3:-0.48 4:-0.60274 5:-0.682805 6:-0.15493 7:-0.568905 8:-0.0293686 9:-0.181102 10:-0.844311 11:-0.753846 
1.3642723528932141 0 1.0641818634542253 0 0 1:-0.20354 2:-0.10274 3:-0.56 4:-0.821918 5:-0.776294 6:-0.690141 7:-0.70318 8:0.105727 9:-0.307087 10:-0.784431 11:-0.630769 
0 0.20947393892523222 0 0.012218655439221814 0 1:-0.539823 2:-0.0205479 3:-1 4:-0.849315 5:-0.48581 6:-0.915493 7:-0.964664 8:-0.117474 9:0.023622 10:-0.772455 11:-0.507692 
1.6191679117518529 0.73782582339030423 0.58629786674350581 0.074543906730817816 0 1:-0.752212 2:-0.479452 3:-1 4:-0.931507 5:-0.84975 6:-0.605634 7:-0.858657 8:-0.352423 9:-0.023622 10:-0.856287 11:-0.661538 
1.8044127264666319 0.34444390680146614 0.17863837093958293 0.81010597111432225 0 1:0.221239 2:-0.589041 3:-0.04 4:-0.767123 5:-0.782972 6:-0.802817 7:-0.90106 8:0.240822 9:-0.448819 10:-0.760479 11:-0.2 
2 0.84802496119612147 2 0 0 1:-0.734513 2:-0.356164 3:-0.98 4:-0.835616 5:-0.853088 6:-0.887324 7:-0.95053 8:-0.317181 9:0.228346 10:-0.724551 11:-0.0769231 
0 0.31241076452481037 1.0893009100853155 0 0 1:-0.539823 2:-0.267123 3:-0.94 4:-0.876712 5:-0.779633 6:-0.830986 7:-0.957597 8:-0.148311 9:-0.0551181 10:-0.928144 11:-0.661538 
2 0.46739204665237855 0.78645641091362795 0 0 1:-0.59292 2:-0.383562 3:-1 4:-0.739726 5:-0.769616 6:-0.43662 7:-0.75265 8:-0.249633 9:0.0551181 10:-0.772455 11:-0.261538 
1.5597766492105212 0.099170053957496132 0 0 0 1:-0.221239 2:-0.342466 3:-0.42 4:-0.849315 5:-0.809683 6:-0.126761 7:-0.526502 8:-0.0499266 9:-0.0551181 10:-0.712575 11:-0.507692 
1.4099009672868339 0 0 0 0 1:-0.469027 2:-0.280822 3:-0.94 4:-0.863014 5:-0.752922 6:-0.633803 7:-0.639576 8:0.00293686 9:-0.00787402 10:-0.844311 11:-0.415385 
2 0 0 0 0 1:-0.539823 2:-0.369863 3:-0.94 4:-0.808219 5:-0.782972 6:-0.830986 7:-0.844523 8:-0.176211 9:-0.0393701 10:-0.772455 11:-0.507692 
0.96565765985900509 0.39993761383092663 0 0.0066896656462468547 0.04638836679121984 1:-0.734513 2:-0.726027 3:-0.5 4:-0.876712 5:-0.752922 6:-0.887324 7:-0.816254 8:-0.328928 9:-0.023622 10:-0.868263 11:-0.476923 
0 0 0.24092963332063827 0 0 1:-0.734513 2:-0.69863 3:-0.5 4:-0.876712 5:-0.759599 6:-0.915493 7:-0.844523 8:-0.328928 9:-0.023622 10:-0.868263 11:-0.476923 
0.6543705948886519 0.36198977968783952 0.15906336122113407 0.089196674895797481 0.049331814769225477 1:-0.504425 2:-0.287671 3:-0.66 4:-0.383562 5:-0.479132 6:0.43662 7:-0.349823 8:0.0704846 9:-0.149606 10:-0.796407 11:-0.661538 
1.9950777687085426 0 0.43115335326746818 0 0 1:-0.185841 2:-0.424658 3:-0.38 4:-0.808219 5:-0.66611 6:-0.71831 7:-0.773852 8:0.0161527 9:-0.212598 10:-0.724551 11:-0.230769 
1.6832034650506407 0 0 0 0.073053289465197652 1:-0.345133 3:-0.72 4:-0.780822 5:-0.729549 6:-0.661972 7:-0.660777 8:0.0528634 9:-0.023622 10:-0.748503 11:-0.476923 
2 0 0 0 0 1:-0.433628 2:-0.479452 3:-0.82 4:-0.821918 5:-0.656093 6:-0.746479 7:-0.745583 8:0.0323054 9:-0.307087 10:-0.652695 11:-0.661538 
0.70961015591431187 0.37292442559172756 0.16114687407742651 0.098097290980021623 0.050204288503180684 1:-0.274336 2:-0.0958904 3:0.02 4:-0.890411 5:0.345576 6:-0.690141 7:-0.575972 8:-0.0954479 9:-0.590551 10:0.00598802 11:-0.753846 
0.40038332448123137 0 0 0 0 1:-0.451327 2:-0.136986 3:-0.46 4:-0.60274 5:-0.672788 6:-0.0704225 7:-0.413428 8:-0.0352423 9:-0.212598 10:-0.856287 11:-0.723077 
2 0 0 0 0 1:-0.539823 2:-0.39726 3:-0.48 4:-0.849315 5:-0.762938 6:-0.661972 7:-0.335689 8:-0.14978 9:-0.181102 10:-0.772455 11:-0.538462 
0.57103105950625177 0.22983074363893186 0.57027075240759251 0.077785703499037434 0 1:-0.362832 2:0.0479452 3:-0.6 4:-0.931507 5:-0.752922 6:-0.830986 7:-0.823322 8:-0.334802 9:-0.417323 10:-0.844311 11:-0.507692 
0 0 0.36163839715342788 0.023425758732687534 0 1:-0.610619 2:-0.0273973 3:-0.82 4:-0.876712 5:-0.792988 6:-0.915493 7:-0.865724 8:-0.226138 9:0.00787402 10:-0.856287 11:-0.630769 
0.40193637628951934 0 0 0 0 1:-0.39823 2:-0.342466 3:-0.56 4:-0.835616 5:-0.772955 6:-0.323944 7:-0.300353 8:-0.110132 9:-0.11811 10:-0.808383 11:-0.538462 
1.1360354478097867 0 0 0 0 1:-0.557522 2:-0.130137 3:-0.7 4:-0.876712 5:-0.682805 6:-0.464789 7:-0.448763 8:-0.139501 9:-0.291339 10:-0.796407 11:-0.661538 
0.51240777441194552 0.078576816355088522 0.021594828236142005 0.019092873794283715 0.022520310247353625 1:-0.39823 2:-0.0547945 3:-0.5 4:-0.657534 5:-0.786311 6:-0.0704225 7:-0.441696 8:-0.0293686 9:-0.291339 10:-0.892216 11:-0.753846 
1.7650014486961811 0 0 0 0 1:-0.504425 2:-0.287671 3:-0.86 4:-0.876712 5:-0.706177 6:-0.802817 7:-0.879859 8:-0.114537 9:-0.11811 10:-0.700599 11:-0.630769 
1.4547732991631448 0.56353122584352999 0.22792345669642636 0.099850956466013746 0.080152244083189744 1:-0.646018 2:-0.287671 3:-0.38 4:-0.287671 5:-0.762938 6:-0.830986 7:-0.696113 8:0.0440529 9:-0.0393701 10:-0.580838 11:-0.415385 
1.2862537938008205 0.38523965840832741 0.16156403900927696 0.10074431624251322 0.049873613657114423 1:-0.628319 2:-0.506849 3:-0.96 4:-0.821918 5:-0.772955 6:-0.0140845 7:-0.257951 8:-0.240822 9:-0.433071 10:-0.760479 11:-0.6 
2 0 0.076893733509162857 0 0 1:-0.39823 2:-0.287671 3:-0.56 4:-0.794521 5:-0.72621 6:-0.887324 7:-0.809187 8:-0.111601 9:-0.00787402 10:-0.700599 11:-0.2 
0.53126157954895492 0.2367699950136698 0.32139110660773929 0.020025625310222998 0.007552462781212411 1:-0.557522 2:-0.315068 3:-0.88 4:-0.945205 5:-0.806344 6:-0.887324 7:-0.957597 8:-0.393539 9:-0.322835 10:-0.820359 11:-0.569231 
2 0 0.12684565194384714 0 0 1:-0.39823 2:-0.452055 3:-0.5 4:-0.849315 5:-0.779633 6:-0.492958 7:-0.625442 8:-0.111601 9:-0.11811 10:-0.820359 11:-0.446154 
0 0.11889556615390427 0 0.040731121111992716 0 1:-0.681416 2:-0.383562 3:-0.72 4:-0.589041 5:-0.806344 6:-0.267606 7:-0.526502 8:-0.0279001 9:-0.0866142 10:-0.820359 11:-0.753846 
2 0.085754949202088079 0.96108240579726234 0 0 1:-0.274336 2:-0.239726 3:-0.8 4:-0.90411 5:-0.739566 6:-0.915493 7:-0.964664 8:0.0837004 9:-0.102362 10:-0.616766 11:-0.646154 
2 0 0 0 0 1:-0.522124 2:-0.356164 3:-0.48 4:-0.849315 5:-0.772955 6:-0.549296 7:-0.30742 8:-0.152717 9:-0.149606 10:-0.772455 11:-0.538462 
0 0.13772720103850963 0.071423096570444058 0.043258561949141572 0.018786493192040177 1:-0.415929 2:-0.219178 3:-0.58 4:-0.835616 5:-0.772955 6:-0.0985915 7:-0.0459364 8:-0.0998532 9:-0.19685 10:-0.784431 11:-0.538462 
0.80719049586277924 0.27239397388075354 0.038195228560569464 0.044346721230273313 0.036046905173594608 1:-0.0619469 2:-0.383562 3:-0.5 4:-0.849315 5:-0.692821 6:-0.690141 7:-0.413428 8:-0.0851689 9:-0.527559 10:-0.317365 11:-0.476923 
1.4755492045239362 0.18043725669044008 0.32211115104266236 0.075925501526607014 0.20748811370540088 1:-0.716814 2:-0.369863 3:-1 4:-0.90411 5:-0.823038 6:-0.802817 7:-0.915194 8:-0.041116 9:0.291339 10:-0.389222 11:-0.692308 
1.2071915202800529 0.41190810335151756 0.03815535086025993 0 0 1:-0.0442478 2:-0.726027 3:0.18 4:-0.821918 5:-0.782972 6:-0.943662 7:-0.936396 8:0.370044 9:-0.275591 10:-0.461078 11:-0.630769 
1.465357221767337 0.19531493774371417 0 0.063893376600132668 0 1:-0.433628 2:-0.438356 3:-0.98 4:-0.90411 5:-0.782972 6:-0.943662 7:-0.908127 8:-0.276065 9:-0.338583 10:-0.844311 11:-0.569231 
1.4795466518099154 0 0 0 0 1:-0.486726 2:-0.616438 3:-0.64 4:-0.90411 5:-0.776294 6:-0.352113 7:-0.632509 8:-0.0558003 9:-0.0551181 10:-0.700599 11:-0.692308 
2 2 0.26873046311383253 0.89441470268002032 0 1:-0.469027 2:-0.60274 3:-0.34 4:-0.780822 5:-0.779633 6:-0.859155 7:-0.879859 8:-0.173275 9:-0.11811 10:-0.700599 11:-0.138462 
2 0.15449136151112547 0 0.081527383340355114 0.025626208718999694 1:-0.433628 2:-0.287671 3:-1 4:-0.863014 5:-0.799666 6:-0.267606 7:-0.65371 8:-0.0998532 9:-0.102362 10:-0.640719 11:-0.2 
2 1.3599690899797003 0.1659112527476499 0.10003331548284213 0.052524038302992487 1:-0.415929 2:-0.917808 3:-0.2 4:-0.821918 5:-0.876461 6:0.0422535 7:-0.568905 8:-0.129222 9:-0.0708661 10:-0.281437 11:-0.107692 
2 0 0 0 0 1:-0.504425 2:-0.60274 3:-0.52 4:-0.876712 5:-0.819699 6:-0.521127 7:-0.710247 8:-0.187959 9:-0.00787402 10:-0.652695 11:-0.384615 
0.68088198084337281 0.40140845590994578 0.18123681602812322 0.1107107479665809 0.066628606752905023 1:-0.0442478 2:-0.643836 3:-0.24 4:-0.90411 5:-0.475793 6:-0.267606 7:-0.40636 8:0.331865 9:-0.354331 10:-0.616766 11:-0.969231 
1.2551299171594783 0.49143269861927835 0.52055370451787319 0.11658758889990289 0.061330575463449603 1:-0.610619 2:0.0890411 3:-0.42 4:-0.465753 5:-0.806344 6:-0.605634 7:-0.766784 8:-0.162996 9:0.244094 10:-0.748503 11:-0.169231 
0 0 0.31593467851493023 0.017736043218069101 0 1:-0.575221 2:-0.356164 3:-1 4:-0.890411 5:-0.866444 6:-0.943662 7:-0.985866 8:-0.129222 9:0.0551181 10:-0.832335 11:-0.415385 
2 0 0 0 0 1:-0.59292 2:-0.30137 3:-0.96 4:-0.863014 5:-0.779633 6:-0.521127 7:-0.830389 8:0.0352423 9:0.0393701 10:-0.497006 11:-0.569231 
2 1.4230026499564472 0.41283073831868122 0.15109963808488633 0.031786920752376595 1:-0.59292 2:-0.369863 3:-0.6 4:-0.883562 5:-0.846411 6:-0.802817 7:-0.886926 8:-0.537445 9:0.00787402 10:-0.808383 11:0.0153846 
2 0 0 0 0 1:-0.59292 2:-0.30137 3:-0.96 4:-0.863014 5:-0.779633 6:-0.521127 7:-0.830389 8:0.0352423 9:0.0393701 10:-0.497006 11:-0.569231 
0.78974715633104808 0 0 0 0 1:-0.610619 2:-0.246575 3:-1 4:-0.863014 5:-0.772955 6:-0.408451 7:-0.766784 8:0.0190896 9:0.0393701 10:-0.508982 11:-0.6 
1.3560872436509583 0.20968883409588343 0.072780164814931311 0.058026892208983466 0.02245169093699894 1:-0.59292 2:-0.369863 3:-0.98 4:-0.863014 5:-0.772955 6:0.0985915 7:-0.660777 8:-0.00734214 9:0.0393701 10:-0.520958 11:-0.6 
1.0648968897019719 0.035650665565256978 0 0 0 1:-0.469027 2:-0.493151 3:-0.34 4:-0.863014 5:-0.792988 6:-0.267606 7:-0.441696 8:0.0264317 9:0.0551181 10:-0.700599 11:-0.815385 
1.889435532169953 0 0 0 0 1:-0.327434 2:-0.767123 3:-0.2 4:-0.890411 5:-0.816361 6:-0.802817 7:-0.90106 8:-0.124816 9:0.023622 10:-0.676647 11:-0.353846 
1.558508630572236 0 0 0 0 1:-0.610619 2:-0.356164 3:-0.8 4:-0.890411 5:-0.829716 6:-0.0704225 7:-0.667845 8:-0.15859 9:0.0551181 10:-0.592814 11:-0.6 
0.62815955974638416 0.44173994815602674 0.15128885980366058 0.12673658482169087 0.065300547186602165 1:-0.0442478 2:-0.219178 3:-0.78 4:-0.931507 5:-0.759599 6:-0.802817 7:-0.872792 8:-0.161527 9:-0.779528 10:-0.832335 11:-0.6 
1.122708360646939 0.93721855657973174 0.53660383387465882 0.038091396877162287 0.024259403959321586 1:-0.628319 2:-0.205479 3:-0.84 4:-0.609589 5:-0.816361 6:-0.802817 7:-0.929329 8:-0.519824 9:0.0866142 10:-0.772455 11:0.292308 
2 0.8734946214375644 0.11975842098843477 0 0 1:-0.734513 2:-0.342466 3:-0.84 4:-0.876712 5:-0.803005 6:-0.633803 7:-0.724382 8:-0.516887 9:0.00787402 10:-0.748503 11:-0.2 
1.1995737673909306 0.54072112288664598 0.23394484864886098 0.13449194317349719 0.072133577529832182 1:-0.0619469 2:-0.479452 4:0.767123 5:-0.355593 6:0.323944 7:-0.462898 8:0.81351 9:-0.338583 10:-0.497006 11:-0.876923 
1.1126423143976785 0.6327908456793685 0.10260100555586017 0 0.023107432750795354 1:-0.362832 2:-0.780822 3:0.2 4:-0.712329 5:-0.692821 6:-0.746479 7:-0.886926 8:0.20558 9:0.023622 10:-0.580838 11:-0.323077 
2 1.6173039053874565 0 0.069707367863711261 0 1:-0.380531 2:-0.712329 3:-0.12 4:-0.917808 5:-0.899833 6:-0.859155 7:-0.957597 8:-0.214391 9:-0.0393701 10:-0.664671 11:-0.292308 
1.6473838252347039 0.42864824060211698 0 0 0 1:-0.610619 2:-0.232877 3:-0.58 4:-0.835616 5:-0.806344 6:-0.774648 7:-0.879859 8:-0.208517 9:0.00787402 10:-0.676647 11:-0.415385 
2 0.85120958691884296 0.77267662370830292 0.031319186299523759 0.27286681856304101 1:-0.752212 2:-0.287671 3:-0.9 4:-0.863014 5:-0.819699 6:-0.774648 7:-0.922261 8:-0.281938 9:0.228346 10:-0.461078 11:-0.323077 
1.2798989624317352 0.141685769427076 0.30660060152591612 0.1001084231276048 0.042784170845446098 1:-0.823009 2:-0.424658 3:-0.92 4:-0.890411 5:-0.876461 6:-0.887324 7:-0.95053 8:-0.393539 9:0.543307 10:-0.700599 11:-0.0769231 
0 0.36494908965441081 0 0 0 1:-0.716814 2:-0.273973 3:-0.88 4:-0.90411 5:-0.873122 6:-0.859155 7:-0.915194 8:-0.499266 9:0.307087 10:-0.748503 11:0.0923077 
0 0.048508497038444655 0 0.0065305560533458189 0.0065441107911804741 1:-0.451327 2:-0.424658 3:-0.48 4:-0.863014 5:-0.742905 6:-0.380282 7:-0.00353357 8:-0.0763583 9:-0.181102 10:-0.688623 11:-0.6 
0 0.19331589233684321 0 0 0 1:-0.486726 2:-0.171233 3:-0.92 4:-0.917808 5:-0.786311 6:-0.802817 7:-0.936396 8:-0.264317 9:-0.181102 10:-0.760479 11:-0.630769 
