svm_type c_svc
kernel_type rbf
gamma 8
nr_class 7
total_sv 4261
rho -0.16286419258879792 -0.66948716609577108 -0.87238504453067511 -0.63044214346716665 -0.87863704154162892 -1.0978904434003545 -0.42044101685034685 -0.67309617569334412 -0.63795150388450184 -0.86430693285098514 -0.98329768273424611 -0.64843374007987908 -0.14067185727754403 -0.71317346547728877 -1.0216780433609232 0.27584616619689128 -0.46382085178185339 -0.93830597108277691 -0.6279874690944115 -0.92534896815892087 -0.69741847151552905
label 6 5 7 8 4 3 9
nr_sv 1841 1250 810 173 162 20 5
SV
2 0 0 0 0 0 1:-0.384615 2:-0.627451 3:-0.566265 4:-0.383436 5:-0.78635 6:-0.700348 7:-0.2529 8:-0.46443 9:-0.490909 10:-0.465116 11:-0.741935 
2 0 0 0 0 0 1:-0.519231 2:-0.568627 3:-0.590361 4:-0.969325 5:-0.762611 6:-0.916376 7:-0.429234 8:-0.734336 9:0.0545455 10:-0.372093 11:-0.516129 
2 0 0 0 0 0 1:-0.346154 2:-0.705882 3:-0.614458 4:-0.757669 5:-0.709199 6:-0.686411 7:-0.178654 8:-0.672643 9:-0.145455 10:-0.581395 11:-0.387097 
2 0 0 0 0 0 1:-0.346154 2:-0.705882 3:-0.614458 4:-0.757669 5:-0.709199 6:-0.686411 7:-0.178654 8:-0.672643 9:-0.145455 10:-0.581395 11:-0.387097 
0.35905501025201808 0 0 0 0 0.30034879777609308 1:-0.173077 2:-0.607843 3:-0.518072 4:-0.806748 5:-0.756677 6:-0.804878 7:-0.591647 8:-0.691922 9:-0.0181818 10:-0.488372 11:-0.322581 
2 0 0 0.60257596076058384 0 0 1:-0.538462 2:-0.529412 3:-0.807229 4:-0.803681 5:-0.78635 6:-0.804878 7:-0.410673 8:-0.699634 9:-0.163636 10:-0.418605 11:-0.483871 
2 0.93497516033841654 0 0 0 0 1:-0.384615 2:-0.627451 3:-0.566265 4:-0.383436 5:-0.78635 6:-0.700348 7:-0.2529 8:-0.46443 9:-0.490909 10:-0.465116 11:-0.741935 
2 1.0235457286686263 0 1.2698711472951036 0 0 1:-0.519231 2:-0.568627 3:-0.590361 4:-0.969325 5:-0.762611 6:-0.916376 7:-0.429234 8:-0.734336 9:0.0545455 10:-0.372093 11:-0.516129 
2 0 0 0.076754788609587857 0 0 1:-0.173077 2:-0.72549 3:-0.481928 4:-0.972393 5:-0.792285 6:-0.818815 7:-0.443155 8:-0.742047 9:-0.0909091 10:-0.465116 11:-0.0322581 
2 0.041766377063406558 0 2 0 0 1:-0.519231 2:-0.215686 3:-0.951807 4:-0.984663 5:-0.780415 6:-0.804878 7:-0.582367 8:-0.780605 9:-0.0545455 10:-0.674419 11:-0.483871 
2 0.24014882466629359 0 0.20066853881592508 0 0 1:-0.307692 2:-0.490196 3:-0.493976 4:-0.984663 5:-0.857567 6:-0.89547 7:-0.24826 8:-0.823019 9:-0.272727 10:-0.27907 11:0.0645161 
2 0.37309637844548255 0 0.16415203057677563 0 0 1:-0.461538 2:-0.627451 3:-0.506024 4:-0.978528 5:-0.744807 6:-0.902439 7:-0.382831 8:-0.691922 9:0.272727 10:-0.418605 11:-0.354839 
0.27437174976633344 0 0 0 0 0 1:-0.384615 2:-0.666667 3:-0.614458 4:-0.742331 5:-0.780415 6:-0.623693 7:0.0951276 8:-0.676499 9:-0.0363636 10:-0.348837 11:-0.225806 
0 0.89174401745056864 0.042922926914707893 0 0 0 1:-0.403846 2:-0.686275 3:-0.578313 4:-0.98773 5:-0.744807 6:-0.770035 7:-0.364269 8:-0.772894 9:0.327273 10:-0.488372 11:-0.354839 
0 0.46958045869627296 0 0 0 0 1:-0.384615 2:-0.607843 3:-0.53012 4:-0.751534 5:-0.750742 6:-0.790941 7:-0.387471 8:-0.653364 9:0.2 10:-0.27907 11:-0.193548 
2 0.96932170416020424 0 0 0 0 1:-0.307692 2:-0.627451 3:-0.421687 4:-0.984663 5:-0.774481 6:-0.89547 7:-0.429234 8:-0.834586 9:-0.145455 10:-0.372093 11:0.16129 
1.9550151781429994 0 0 0.56983755617926557 0 0.61085573556017692 1:-0.0961538 2:-0.686275 3:-0.53012 4:-0.699387 5:-0.792285 6:-0.874564 7:-0.382831 8:-0.603239 9:-0.127273 10:-0.27907 11:-0.354839 
2 0.18026429820319642 0 0.60293357442821571 0.074659620730766985 0 1:-0.134615 2:-0.882353 3:-0.590361 4:-0.984663 5:-0.804154 6:-0.965157 7:-0.823666 8:-0.757471 9:0.363636 10:-0.581395 11:-0.290323 
2 0 0 0 0 0 1:-0.307692 2:-0.666667 3:-0.566265 4:-0.955521 5:-0.756677 6:-0.797909 7:-0.577726 8:-0.811452 9:-0.145455 10:-0.488372 11:-0.0967742 
2 1.3813765643940958 0.042151932311452589 0 0.03078834919067578 0 1:-0.538462 2:-0.921569 3:-0.590361 4:-0.972393 5:-0.78635 6:-0.714286 7:-0.49884 8:-0.738192 9:0.272727 10:-0.325581 11:-0.677419 
1.457004548278368 0.050403064586778686 0.87990510488563367 0 0 0 1:-0.384615 2:-0.509804 3:-0.614458 4:-0.981595 5:-0.738872 6:-0.749129 7:-0.401392 8:-0.865433 9:-0.254545 10:-0.860465 11:0.0322581 
1.687433091107954 0.73607747705555804 0 0 0 0 1:-0.442308 2:-0.705882 3:-0.53012 4:-0.941718 5:-0.0326409 6:-0.574913 7:-0.308585 8:-0.745903 9:-0.290909 10:-0.674419 11:-0.548387 
1.6280041940067576 0 0.084343033615683363 0.065943115608081901 0.0096952224423542156 0 1:-0.442308 2:-0.686275 3:-0.53012 4:-0.929448 5:-0.0267062 6:-0.574913 7:-0.313225 8:-0.745903 9:-0.309091 10:-0.72093 11:-0.548387 
2 0 0 0 0 0 1:-0.384615 2:-0.54902 3:-0.686747 4:-0.791411 5:-0.643917 6:-0.818815 7:-0.299304 8:-0.680355 9:-0.254545 10:-0.44186 11:-0.419355 
0.94517884115087392 0 0 0 0 0 1:-0.461538 2:-0.686275 3:-0.674699 4:-0.97546 5:-0.715134 6:-0.783972 7:-0.336427 8:-0.757471 9:-0.0909091 10:-0.209302 11:-0.516129 
2 0.17380225713995912 0 0.025117037660209025 0 0 1:-0.442308 2:-0.705882 3:-0.686747 4:-0.97546 5:-0.697329 6:-0.783972 7:-0.327146 8:-0.757471 9:-0.0545455 10:-0.209302 11:-0.516129 
2 0 0 0.50720569603555066 0 0 1:-0.384615 2:-0.54902 3:-0.686747 4:-0.791411 5:-0.643917 6:-0.818815 7:-0.299304 8:-0.680355 9:-0.254545 10:-0.44186 11:-0.419355 
0.040685758134480908 0.057466900764103247 0 0 0 0 1:-0.346154 2:-0.784314 3:-0.626506 4:-0.969325 5:-0.68546 6:-0.797909 7:-0.238979 8:-0.823019 9:0.145455 10:-0.488372 11:0.193548 
0 2 0 0 0.089072829219352029 0 1:-0.5 2:-0.803922 3:-0.578313 4:-0.98773 5:-0.78635 6:-0.74216 7:-0.540603 8:-0.846154 9:0.0727273 10:-0.697674 11:-0.0645161 
1.276720720044888 1.3850982767382565 0 0.023585437511846288 0 0 1:-0.423077 2:-0.764706 3:-0.289157 4:-0.990798 5:-0.181009 6:-0.749129 7:-0.429234 8:-0.772894 9:-0.4 10:-0.627907 11:-0.645161 
1.1406616656068198 0 0 0 0 0 1:-0.403846 2:-0.666667 3:-0.578313 4:-0.978528 5:-0.821958 6:-0.811847 7:-0.155452 8:-0.857721 9:-0.254545 10:-0.302326 11:-0.0322581 
1.2871906028784383 0.98542979953781995 0 0 0.15812853425653006 0 1:-0.346154 2:-0.745098 3:-0.590361 4:-0.653374 5:-0.79822 6:-0.756098 7:-0.0533643 8:-0.649508 9:-0.327273 10:-0.348837 11:-0.483871 
2 0 0 0 0 0 1:-0.576923 2:-0.784314 3:-0.686747 4:-0.638037 5:-0.768546 6:-0.665505 7:-0.359629 8:-0.61095 9:0.0545455 10:-0.674419 11:-0.709677 
2 0 0 0.21436003847718982 0 0 1:-0.461538 2:-0.411765 3:-0.819277 4:-0.877301 5:-0.792285 6:-0.839721 7:-0.679814 8:-0.769038 9:-0.290909 10:-0.627907 11:-0.290323 
0.75482689051703744 0.30648186475291916 0 0 0 0 1:-0.307692 2:-0.764706 3:-0.566265 4:-0.981595 5:-0.827893 6:-0.707317 7:-0.526682 8:-0.788317 9:0.163636 10:-0.72093 11:-0.387097 
2 0.3303588978282716 0.7163918771580613 0.10893116000090114 0.12431612249216048 0 1:-0.423077 2:-0.72549 3:-0.710843 4:-0.868098 5:-0.507418 6:-0.804878 7:-0.470998 8:-0.691922 9:-0.436364 10:-0.44186 11:-0.806452 
2 0.83526691834857314 0 0 0.032483036693501874 0 1:-0.576923 2:-0.784314 3:-0.686747 4:-0.638037 5:-0.768546 6:-0.665505 7:-0.359629 8:-0.61095 9:0.0545455 10:-0.674419 11:-0.709677 
2 0 0 2 0 0 1:-0.461538 2:-0.411765 3:-0.819277 4:-0.877301 5:-0.792285 6:-0.839721 7:-0.679814 8:-0.769038 9:-0.290909 10:-0.627907 11:-0.290323 
2 0 0 0 0 0 1:-0.346154 2:-0.686275 3:-0.674699 4:-0.97546 5:-0.827893 6:-0.797909 7:-0.475638 8:-0.784461 9:-0.218182 10:-0.44186 11:-0.258065 
2 0.63793613234378355 0 0.3787545126600948 0 0 1:-0.538462 2:-0.627451 3:-0.481928 4:-0.779141 5:-0.721068 6:-0.679443 7:0.0904872 8:-0.672643 9:-0.309091 10:-0.325581 11:-0.677419 
2 0.30445040123611172 0.027724242505425087 0.51582894145636082 0.16222398230693769 0 1:-0.0769231 2:-0.705882 3:-0.445783 4:-0.98773 5:-0.732938 6:-0.95122 7:-0.707657 8:-0.73048 9:-0.581818 10:-0.372093 11:-0.645161 
0.33044337202778146 2 0.56728516494900916 0 0 0 1:-0.423077 2:-0.72549 3:-0.626506 4:-0.97546 5:-0.738872 6:-0.777003 7:-0.512761 8:-0.77675 9:0.218182 10:0.27907 11:-0.16129 
2 0 0 0 0 0 1:-0.365385 2:-0.764706 3:-0.590361 4:-0.527607 5:-0.756677 6:-0.658537 7:-0.271462 8:-0.560825 9:-0.109091 10:-0.116279 11:-0.612903 
1.976404573120198 0.16854763936787487 0 0 0 0 1:-0.326923 2:-0.72549 3:-0.638554 4:-0.766871 5:-0.774481 6:-0.721254 7:-0.0812065 8:-0.634085 9:0.109091 10:-0.44186 11:-0.516129 
2 0 0 0 0 0 1:-0.365385 2:-0.294118 3:-0.253012 4:-0.656442 5:-0.792285 6:-0.651568 7:-0.336427 8:-0.599383 9:-0.272727 10:-0.44186 11:-0.774194 
2 0 0 0 0 0 1:-0.346154 2:-0.392157 3:-0.240964 4:-0.680982 5:-0.792285 6:-0.630662 7:-0.317865 8:-0.603239 9:-0.327273 10:-0.488372 11:-0.774194 
2 0.058740505944564661 0 0 0.01528747013602731 0 1:-0.365385 2:-0.294118 3:-0.253012 4:-0.656442 5:-0.792285 6:-0.651568 7:-0.336427 8:-0.599383 9:-0.272727 10:-0.44186 11:-0.774194 
2 0 0 1.3915999856458243 0 0 1:-0.346154 2:-0.392157 3:-0.240964 4:-0.680982 5:-0.792285 6:-0.630662 7:-0.317865 8:-0.603239 9:-0.327273 10:-0.488372 11:-0.774194 
2 1.4754658049806495 0 0 0 0 1:-0.365385 2:-0.647059 3:-0.650602 4:-0.638037 5:-0.792285 6:-0.581882 7:0.0719258 8:-0.622518 9:-0.418182 10:-0.534884 11:-0.612903 
1.6464250237768767 0 0 0 0 0 1:-0.576923 2:-0.490196 3:-0.204819 4:-0.530675 5:-0.780415 6:-0.832753 7:-0.280742 8:-0.58396 9:-0.236364 10:-0.348837 11:-0.741935 
1.969909406819367 0.006557109572729725 0 0.36120009568094164 0.010394628753913783 0 1:-0.576923 2:-0.490196 3:-0.204819 4:-0.530675 5:-0.780415 6:-0.832753 7:-0.280742 8:-0.58396 9:-0.236364 10:-0.348837 11:-0.741935 
2 1.3133476191448732 0 0 0 0 1:-0.326923 2:-0.901961 3:-0.614458 4:-0.576687 5:-0.750742 6:-0.777003 7:-0.535963 8:-0.603239 9:-0.127273 10:-0.697674 11:-0.612903 
2 0 0 0 0 0 1:-0.365385 2:-0.705882 3:-0.578313 4:-0.51227 5:-0.816024 6:-0.595819 7:-0.24826 8:-0.541546 9:-0.2 10:-0.139535 11:-0.645161 
2 0.42096176082356529 0 0 0 0 1:-0.365385 2:-0.705882 3:-0.578313 4:-0.51227 5:-0.816024 6:-0.595819 7:-0.24826 8:-0.541546 9:-0.2 10:-0.139535 11:-0.645161 
1.8974966171008198 0 0 0.62446021742795188 0.048968818176733209 0 1:-0.480769 2:-0.823529 3:-0.349398 4:-0.757669 5:-0.566766 6:-0.567944 7:-0.285383 8:-0.661076 9:-0.690909 10:-0.604651 11:-0.741935 
1.0113490695759644 2 0 0 0 0 1:-0.576923 2:-0.54902 3:-0.710843 4:-0.917178 5:-0.810089 6:-0.839721 7:-0.37819 8:-0.834586 9:0.0727273 10:-0.488372 11:0.0645161 
0.070522476808223558 2 0 0 0 0 1:-0.384615 2:-0.882353 3:-0.518072 4:-0.966258 5:-0.845697 6:-0.902439 7:-0.647332 8:-0.846154 9:-0.145455 10:-0.534884 11:0.225806 
2 0.52589994519802219 0 1.3411716594531593 0 0 1:-0.403846 2:-0.784314 3:-0.662651 4:-0.865031 5:-0.709199 6:-0.916376 7:-0.364269 8:-0.688066 9:0.0363636 10:-0.674419 11:-0.645161 
0.9983623970100447 0.48268957854740824 0.15952283036485798 0 0.0054521491628430037 0 1:-0.5 2:-0.901961 3:-0.433735 4:-0.969325 5:-0.507418 6:-0.735192 7:-0.308585 8:-0.780605 9:-0.109091 10:-0.674419 11:-0.419355 
2 2 0.03619851812408164 0 0 0 1:-0.442308 2:-0.784314 3:-0.566265 4:-0.984663 5:-0.89911 6:-0.574913 7:-0.37819 8:-0.842298 10:-0.395349 11:-0.0322581 
0.55770370081424003 2 0 0 0 0 1:-0.557692 2:-0.568627 3:-0.325301 4:-0.935583 5:-0.780415 6:-0.69338 7:-0.187935 8:-0.796029 9:0.0727273 10:-0.186047 11:-0.0645161 
0 1.9498584979627911 0 0.38794865996344463 0 0 1:-0.153846 2:-0.705882 3:-0.518072 4:-0.981595 5:-0.893175 6:-0.763066 7:-0.480278 8:-0.811452 9:-0.272727 10:-0.627907 11:-0.129032 
2 0 0 0 0 0 1:-0.173077 2:-0.607843 3:-0.53012 4:-0.960123 5:-0.881306 6:-0.888502 7:-0.675174 8:-0.799884 9:-0.0727273 10:-0.302326 11:0.225806 
0.024623923930991141 2 0 0 0 0 1:-0.211538 2:-0.745098 3:-0.518072 4:-0.981595 5:-0.821958 6:-0.749129 7:-0.545244 8:-0.811452 9:-0.109091 10:-0.255814 11:-0.0967742 
2 0.062029184316083869 0 0.30016238774476112 0 0 1:-0.0961538 2:-0.745098 3:-0.506024 4:-0.886503 5:-0.839763 6:-0.84669 7:-0.582367 8:-0.707345 9:-0.163636 10:-0.27907 11:-0.451613 
2 2 0 0 0 0 1:-0.173077 2:-0.764706 3:-0.518072 4:-0.957055 5:-0.833828 6:-0.881533 7:-0.638051 8:-0.807596 9:-0.272727 10:-0.255814 11:0.0322581 
0 1.4563374229436998 0 0 0 0 1:-0.519231 2:-0.656863 3:-0.554217 4:-0.984663 5:-0.816024 6:-0.756098 7:-0.512761 8:-0.869289 9:-0.490909 10:-0.604651 11:-0.0645161 
0.27306284010929371 0.99770005902173653 0 0 0 0 1:-0.653846 2:-0.843137 3:-0.674699 4:-0.97546 5:-0.792285 6:-0.644599 7:-0.262181 8:-0.819163 9:0.0181818 10:-0.651163 11:-0.322581 
2 0 0 0 0 0 1:-0.403846 2:-0.666667 3:-0.638554 4:-0.892638 5:-0.732938 6:-0.853659 7:-0.50348 8:-0.734336 9:-0.509091 10:-0.627907 11:-0.548387 
2 0 0 0.13759614427965394 0 0 1:-0.403846 2:-0.666667 3:-0.638554 4:-0.892638 5:-0.732938 6:-0.853659 7:-0.50348 8:-0.734336 9:-0.509091 10:-0.627907 11:-0.548387 
1.881714192423092 0.33873606912194021 0.091495394657052753 0.41922290699754439 0.087589566758287885 0 1:-0.153846 2:-0.705882 3:-0.518072 4:-0.788344 5:-0.762611 6:-0.930314 7:-0.689095 8:-0.634085 9:-0.381818 10:0.44186 11:-0.451613 
1.4537808060096034 0.85336191098380743 0 0 0 0 1:-0.307692 2:-0.686275 3:-0.493976 4:-0.588957 5:-0.661721 6:-0.679443 7:-0.12297 8:-0.58396 9:-0.690909 10:-0.534884 11:-0.709677 
1.1440197934603213 0.13062662523898813 0 0 0 0 1:-0.115385 2:-0.627451 3:-0.445783 4:-0.751534 5:-0.768546 6:-0.74216 7:-0.12761 8:-0.603239 9:-0.236364 10:-0.139535 11:-0.483871 
0.60465339311726396 0.38421839000502306 0.26756658344951434 0 0 0 1:-0.365385 2:-0.568627 3:-0.445783 4:-0.972393 5:-0.661721 6:-0.811847 7:-0.424594 8:-0.865433 9:-0.272727 10:-0.255814 11:0.516129 
2 0.79098071079596877 0 0 0 0 1:-0.211538 2:-0.784314 3:-0.457831 4:-0.972393 5:-0.78635 6:-0.89547 7:-0.596288 8:-0.823019 9:-0.254545 10:-0.604651 11:-0.0322581 
0 1.3642251469620728 0 0 0 0 1:-0.403846 2:-0.705882 3:-0.518072 4:-0.788344 5:-0.816024 6:-0.665505 7:-0.341067 8:-0.784461 9:-0.290909 10:-0.883721 11:0.0967742 
0.82178426525708637 0 0 0.21038511116659508 0 0 1:-0.5 2:-0.666667 3:-0.614458 4:-0.849693 5:-0.762611 6:-0.728223 7:-0.225058 8:-0.695778 9:-0.145455 10:0.0697674 11:-0.612903 
2 0 0 0.12780021250074983 0 0 1:-0.5 2:-0.509804 3:-0.626506 4:-0.849693 5:-0.768546 6:-0.721254 7:-0.238979 8:-0.691922 9:-0.145455 10:0.0232558 11:-0.580645 
2 0 0 0 0 0 1:-0.403846 2:-0.627451 3:-0.518072 4:-0.588957 5:-0.756677 6:-0.567944 7:0.0116009 8:-0.58396 9:-0.163636 10:-0.162791 11:-0.483871 
0.3981950441567369 1.0627928695756048 0 0 0 0 1:-0.442308 2:-0.686275 3:-0.506024 4:-0.730061 5:-0.816024 6:-0.672474 7:-0.271462 8:-0.680355 9:-0.272727 10:-0.0930233 11:-0.387097 
2 0 0 2 0 0 1:-0.461538 2:-0.607843 3:-0.662651 4:-0.757669 5:-0.744807 6:-0.630662 7:-0.062645 8:-0.649508 9:-0.327273 10:-0.232558 11:-0.709677 
0 2 2 0 0 0 1:-0.423077 2:-0.607843 3:-0.566265 4:-0.773006 5:-0.78635 6:-0.818815 7:-0.470998 8:-0.780605 9:-0.454545 10:-0.651163 11:0.0967742 
2 0.020933702326297751 0.050857646746595035 0.21490512366935616 0.082395295023857618 0 1:-0.5 2:-0.568627 3:-0.457831 4:-0.911043 5:0.115727 6:-0.484321 7:-0.206497 8:-0.726624 9:-0.454545 10:-0.604651 11:-0.645161 
0 2 2 0.14963643403244814 0.05017199491045958 0 1:-0.423077 2:-0.647059 3:-0.590361 4:-0.592025 5:-0.851632 6:-0.74216 7:-0.419954 8:-0.699634 9:0.109091 10:-0.27907 11:0.290323 
0.63697403446161294 0 0 0.037560727053076837 0.029786152224316707 0 1:-0.557692 2:-0.372549 3:-0.626506 4:-0.990798 5:-0.768546 6:-0.853659 7:-0.2529 8:-0.772894 9:-0.0909091 10:0.27907 11:-0.516129 
0.45841476549418897 0.83093589519475497 0 0 0 0 1:-0.442308 2:-0.901961 3:-0.650602 4:-0.855828 5:-0.750742 6:-0.797909 7:-0.475638 8:-0.718913 9:0.309091 10:-0.651163 11:-0.451613 
2 0.102241929580737 0.057219044621277179 0.30346976896860456 0.047940067247298906 0 1:-0.346154 2:0.186275 3:-0.746988 4:-0.726994 5:-0.637982 6:-0.783972 7:-0.243619 8:-0.614806 9:-0.490909 10:-0.232558 11:-0.645161 
0 0.95982038100042111 0 0 0 0 1:-0.480769 2:-0.784314 3:-0.638554 4:-0.993865 5:-0.79822 6:-0.783972 7:-0.37355 8:-0.749759 9:0.272727 10:-0.604651 11:-0.645161 
1.3525733093794372 0 0 0.6730685860353236 0 0 1:-0.519231 2:-0.186275 3:-0.73494 4:-0.96319 5:-0.780415 6:-0.797909 7:-0.392111 8:-0.77675 9:0.218182 10:-0.255814 11:-0.225806 
1.3238052309167583 0.40707040140247969 0.32224766476470484 0 0 0 1:-0.365385 2:-0.666667 3:-0.614458 4:-0.702454 5:-0.810089 6:-0.554007 7:0.220418 8:-0.622518 9:-0.181818 10:-0.302326 11:-0.645161 
0.0060004128791200633 1.1430409906336469 0 0 0 0 1:-0.5 2:-0.823529 3:-0.614458 4:-0.944785 5:-0.768546 6:-0.728223 7:-0.113689 8:-0.742047 9:0.418182 10:-0.348837 11:-0.451613 
0 0.48445102925146044 0 0 0 0 1:-0.346154 2:-0.705882 3:-0.542169 4:-0.579755 5:-0.709199 6:-0.630662 7:-0.141531 8:-0.58396 9:-0.327273 10:-0.488372 11:-0.677419 
1.1476262840815226 2 0 0 0 0 1:-0.346154 2:-0.705882 3:-0.542169 4:-0.579755 5:-0.709199 6:-0.630662 7:-0.141531 8:-0.58396 9:-0.327273 10:-0.488372 11:-0.677419 
2 2 0 0 0 0 1:-0.346154 2:-0.705882 3:-0.542169 4:-0.579755 5:-0.709199 6:-0.630662 7:-0.141531 8:-0.58396 9:-0.327273 10:-0.488372 11:-0.677419 
2 2 1.4259859638436994 0.11022210957985312 0 0 1:-0.346154 2:-0.705882 3:-0.542169 4:-0.579755 5:-0.709199 6:-0.630662 7:-0.141531 8:-0.58396 9:-0.327273 10:-0.488372 11:-0.677419 
2 0 0 0 0 0 1:-0.423077 2:-0.137255 3:-0.614458 4:-0.613497 5:-0.792285 6:-0.637631 7:-0.0162413 8:-0.61095 10:-0.348837 11:-0.483871 
1.1582653501158722 0.24334889186226966 0 0.191023726805222 0 0 1:-0.538462 2:-0.666667 3:-0.746988 4:-0.541411 5:-0.821958 6:-0.818815 7:-0.303944 8:-0.572393 9:0.381818 10:-0.0232558 11:-0.483871 
1.8111600778547838 1.3145493490665572 0.0075254791369947184 0.25743747141341883 0 0 1:-0.423077 2:-0.686275 3:-0.590361 4:-0.935583 5:-0.774481 6:-0.56446 7:-0.0278422 8:-0.757471 9:0.0545455 10:-0.162791 11:-0.451613 
0.83798073714029764 0.36386197311724733 0.27044801715275224 0.29827919994948288 0.09594114366599199 0 1:-0.557692 2:-0.803922 3:-0.566265 4:-0.957055 5:-0.827893 6:-0.874564 7:0.116009 8:-0.799884 9:0.181818 10:0.325581 11:0.0645161 
2 0 0.18056541049844552 0.23678207946268728 0 0 1:-0.615385 2:-0.686275 3:-0.53012 4:-0.972393 5:-0.732938 6:-0.756098 7:-0.308585 8:-0.765182 9:-0.109091 10:-0.302326 11:-0.580645 
0 2 0 0 0 0 1:-0.5 2:-0.705882 3:-0.53012 4:-0.96319 5:-0.863501 6:-0.853659 7:-0.4942 8:-0.842298 9:0.0909091 10:-0.348837 11:0.225806 
0.88062254017201669 0.87799515222420543 0 0 0 0 1:-0.403846 2:-0.931373 3:-0.578313 4:-0.852761 5:-0.768546 6:-0.763066 7:-0.540603 8:-0.738192 9:0.0909091 10:-0.534884 11:-0.290323 
2 0 0 0 0 0 1:-0.346154 2:-0.588235 3:-0.518072 4:-0.601227 5:-0.78635 6:-0.554007 7:0.0301624 8:-0.591671 9:-0.345455 10:-0.139535 11:-0.483871 
0 0 0 0.090308441784637289 0 0 1:-0.538462 2:-0.686275 3:-0.578313 4:-0.981595 5:-0.827893 6:-0.860627 7:-0.266821 8:-0.842298 9:-0.309091 10:-0.395349 11:-0.16129 
2 0 0 0 0 0 1:-0.403846 2:-0.529412 3:-0.686747 4:-0.763804 5:-0.738872 6:-0.790941 7:-0.206497 8:-0.637941 9:-0.0363636 10:-0.325581 11:-0.612903 
2 0 0 0 0.0090761491234508003 0 1:-0.711538 2:-0.00980392 3:-0.915663 4:-0.800613 5:-0.792285 6:-0.777003 7:-0.36891 8:-0.715057 9:0.127273 10:-0.186047 11:-0.451613 
2 0 0.05964685850809457 0.2311522718276306 0.032540688930936083 0 1:-0.692308 3:-0.915663 4:-0.803681 5:-0.78635 6:-0.763066 7:-0.359629 8:-0.718913 9:0.127273 10:-0.186047 11:-0.451613 
2 0 0 0.34635704137312484 0 0 1:-0.403846 2:-0.529412 3:-0.686747 4:-0.763804 5:-0.738872 6:-0.790941 7:-0.206497 8:-0.637941 9:-0.0363636 10:-0.325581 11:-0.612903 
0 0.67301523025154553 0 0 0 0 1:-0.461538 2:-0.784314 3:-0.506024 4:-0.745399 5:-0.780415 6:-0.658537 7:-0.257541 8:-0.680355 9:-0.236364 10:-0.186047 11:-0.419355 
2 0 0 0 0 0 1:-0.480769 2:-0.607843 3:-0.60241 4:-0.53681 5:-0.738872 6:-0.658537 7:-0.160093 8:-0.587816 9:-0.0909091 10:-0.325581 11:-0.451613 
0 0.56773486602912282 0 0 0 0 1:-0.596154 2:-0.862745 3:-0.626506 4:-0.840491 5:-0.810089 6:-0.644599 7:-0.322506 8:-0.715057 9:0.454545 10:-0.44186 11:-0.193548 
2 0.78517817826563663 0.32164321440131777 0.99499671252140565 0 0 1:-0.519231 2:-0.509804 3:-0.674699 4:-0.981595 5:-0.780415 6:-0.777003 7:-0.229698 8:-0.757471 9:0.181818 10:-0.255814 11:-0.548387 
2 0 0.0095655336388978263 0 0 0 1:-0.442308 2:-0.823529 3:-0.39759 4:-0.953988 5:-0.79822 6:-0.825784 7:-0.475638 8:-0.799884 9:-0.218182 10:-0.465116 11:-0.258065 
2 0 0 0.6992534416537729 0 0 1:-0.134615 2:-0.764706 3:-0.578313 4:-0.990798 5:-0.756677 6:-0.930314 7:-0.698376 8:-0.811452 9:-0.254545 10:-0.627907 11:-0.193548 
0.79749038240132797 0.31493556808805778 0.081421495674600594 0.39456291971600221 0.08051290702120345 0 1:-0.557692 2:-0.352941 3:-1 4:-0.969325 5:-0.679525 6:-0.763066 7:-0.638051 8:-0.834586 10:0.0465116 11:-0.0967742 
2 1.4737069198356991 0 0 0 0 1:-0.576923 2:-0.588235 3:-0.746988 4:-0.978528 5:-0.727003 6:-0.721254 7:-0.262181 8:-0.834586 9:0.0909091 10:-0.511628 
2 0 0 0 0 0 1:-0.326923 2:-0.352941 3:-0.710843 4:-0.809816 5:-0.715134 6:-0.728223 7:-0.285383 8:-0.699634 9:-0.127273 10:-0.55814 11:-0.387097 
2 0 0 0.31857688592367939 0 0 1:-0.326923 2:-0.352941 3:-0.710843 4:-0.809816 5:-0.715134 6:-0.728223 7:-0.285383 8:-0.699634 9:-0.127273 10:-0.55814 11:-0.387097 
2 0 0 0 0 0 1:-0.326923 2:-0.372549 3:-0.710843 4:-0.812883 5:-0.709199 6:-0.728223 7:-0.271462 8:-0.695778 9:-0.127273 10:-0.55814 11:-0.387097 
2 0 0 0 0 0 1:-0.538462 2:-0.54902 3:-0.686747 4:-0.871166 5:-0.833828 6:-0.763066 7:-0.354988 8:-0.780605 9:-0.109091 10:-0.55814 11:-0.225806 
2 0 0 0 0 0 1:-0.634615 2:-0.45098 3:-0.746988 4:-0.812883 5:-0.827893 6:-0.658537 7:-0.271462 8:-0.73048 9:0.0363636 10:-0.0465116 11:-0.354839 
0.48591018925174756 0.5082314770981885 0 0 0 0 1:-0.423077 2:-0.607843 3:-0.277108 4:-0.984663 5:-0.27003 6:-0.721254 7:-0.452436 8:-0.757471 9:-0.327273 10:-0.488372 11:-0.645161 
2 2 0 0 0 0 1:-0.423077 2:-0.666667 3:-0.590361 4:-0.874233 5:-0.869436 6:-0.777003 7:-0.419954 8:-0.784461 9:-0.109091 10:-0.627907 11:-0.16129 
0 1.0397624628669651 0 0.13657015999576783 0.015215279462492919 0 1:-0.557692 2:-0.911765 3:-0.698795 4:-0.917178 5:-0.816024 6:-0.944251 7:-0.721578 8:-0.757471 9:0.490909 10:-0.139535 11:-0.322581 
2 2 0.53487916656175027 0 0 0 1:-0.423077 2:-0.666667 3:-0.590361 4:-0.874233 5:-0.869436 6:-0.777003 7:-0.419954 8:-0.784461 9:-0.109091 10:-0.627907 11:-0.16129 
2 0 0 0 0 0 1:-0.423077 2:-0.607843 3:-0.46988 4:-0.733129 5:-0.869436 6:-0.770035 7:-0.406032 8:-0.711201 9:-0.2 10:-0.674419 11:-0.225806 
0.80199870476815815 0 0 0 0.026163002779762953 0 1:-0.211538 2:-0.647059 3:-0.506024 4:-0.553681 5:-0.816024 6:-0.749129 7:-0.0394432 8:-0.595527 9:-0.563636 10:-0.116279 11:-0.354839 
2 0 0 0 0 0 1:-0.5 2:-0.490196 3:-0.722892 4:-0.825153 5:-0.821958 6:-0.756098 7:-0.37819 8:-0.718913 9:-0.145455 11:-0.354839 
2 0 0 0 0 0 1:-0.480769 2:-0.607843 3:-0.578313 4:-0.546012 5:-0.804154 6:-0.630662 7:-0.136891 8:-0.587816 9:-0.0727273 10:-0.348837 11:-0.483871 
1.6261297341762886 2 0 0 0.72296100429988552 0 1:-0.519231 2:-0.705882 3:-0.60241 4:-0.972393 5:-0.839763 6:-0.909408 7:-0.554524 8:-0.85001 9:0.0909091 10:-0.534884 11:0.0322581 
2 0 0 0 0 0 1:-0.615385 2:-0.627451 3:-0.674699 4:-0.641104 5:-0.78635 6:-0.630662 7:-0.2529 8:-0.61095 9:0.0181818 10:-0.534884 11:-0.580645 
2 0 0 0 0 0 1:-0.192308 2:-0.686275 3:-0.566265 4:-0.972393 5:-0.774481 6:-0.89547 7:-0.443155 8:-0.703489 9:-0.127273 10:-0.255814 11:-0.354839 
2 0 0 0 0 0 1:-0.5 2:-0.647059 3:-0.493976 4:-0.720859 5:-0.792285 6:-0.804878 7:-0.392111 8:-0.649508 9:-0.163636 10:-0.418605 11:-0.645161 
2 0 0 0 0.028230422825082334 0 1:-0.692308 2:-0.588235 3:-0.433735 4:-0.92638 5:-0.744807 6:-0.686411 7:-0.36891 8:-0.772894 9:0.0363636 10:0.232558 11:-0.354839 
2 0 0 0 0 0 1:-0.365385 2:-0.872549 3:-0.60241 4:-0.877301 5:-0.756677 6:-0.783972 7:-0.433875 8:-0.726624 9:0.0181818 10:-0.581395 11:-0.483871 
1.174627742396287 0 0 0.23482611406221801 0 0 1:-0.442308 2:-0.784314 3:-0.506024 4:-0.539877 5:-0.721068 6:-0.491289 7:-0.322506 8:-0.522267 9:-0.127273 10:-0.488372 11:-0.741935 
0.67947527997419455 0 0 0 0.0093308782638604568 0 1:-0.230769 2:-0.803922 3:-0.445783 4:-0.601227 5:-0.744807 6:-0.749129 7:-0.4942 8:-0.580104 9:-0.218182 10:-0.348837 11:-0.354839 
2 0 0 0.60705426278231855 0 0 1:-0.673077 2:-0.5 3:-0.638554 4:-0.941718 5:-0.632047 6:-0.825784 7:-0.447796 8:-0.796029 9:-0.236364 10:-0.325581 11:-0.483871 
1.0449517589261998 0 0 0.48906109552597693 0.032635810113958177 0 1:-0.615385 2:-0.372549 3:-0.493976 4:-0.883436 5:-0.774481 6:-0.745645 7:0.0951276 8:-0.745903 9:-0.0363636 10:-0.186047 11:-0.483871 
1.1139028664920987 0.10545504649738867 0 0.11485415268285551 0.034292290489945428 0 1:-0.557692 2:-0.45098 3:-0.60241 4:-0.984663 5:-0.756677 6:-0.84669 7:-0.257541 8:-0.784461 9:-0.218182 10:0.302326 11:-0.516129 
2 0.592671421401883 0.032968432069079581 0.77345263480260229 0.070833174568731533 0 1:0.192308 2:-0.764706 3:-0.53012 4:-0.97546 5:-0.756677 6:-0.881533 7:-0.336427 8:-0.734336 9:-0.490909 10:-0.534884 11:-0.225806 
2 0 0 0 0.81224048803146498 0 1:-0.5 2:-0.686275 3:-0.614458 4:-0.56135 5:-0.774481 6:-0.637631 7:-0.290023 8:-0.626374 9:0.0181818 10:-0.348837 11:-0.290323 
0 2 0 0 0 0 1:-0.423077 2:-0.862745 3:-0.638554 4:-0.855828 5:-0.756677 6:-0.735192 7:-0.452436 8:-0.726624 9:0.236364 10:-0.604651 11:-0.451613 
0 0.23963953187060527 1.3692971455027865 0 0 0 1:-0.326923 2:-0.72549 3:-0.554217 4:-0.579755 5:-0.679525 6:-0.679443 7:-0.155452 8:-0.587816 9:-0.690909 10:-0.627907 11:-0.677419 
2 1.5025006693366265 0 0.042122877870278255 0.033188637884661212 0 1:-0.576923 2:-0.803922 3:-0.674699 4:-0.972393 5:-0.525223 6:-0.735192 7:-0.37819 8:-0.799884 9:0.4 10:-0.0697674 11:-0.0967742 
2 0 0 0 0 0 1:-0.403846 2:-0.509804 3:-0.746988 4:-0.98773 5:-0.738872 6:-0.74216 7:-0.354988 8:-0.784461 9:-0.272727 10:-0.465116 11:-0.548387 
2 0 0 0 0 0 1:-0.403846 2:-0.509804 3:-0.746988 4:-0.98773 5:-0.738872 6:-0.74216 7:-0.354988 8:-0.784461 9:-0.272727 10:-0.465116 11:-0.548387 
1.9887450686187955 0.18426120421755193 0 0 0 0 1:-0.25 2:-0.588235 3:-0.421687 4:-0.947853 5:-0.762611 6:-0.763066 7:-0.215777 8:-0.769038 9:-0.181818 10:-0.0232558 11:-0.16129 
2 0 0 0 0 0 1:-0.346154 2:-0.627451 3:-0.674699 4:-0.944785 5:-0.768546 6:-0.804878 7:-0.350348 8:-0.749759 9:-0.309091 10:-0.325581 11:-0.612903 
1.9394864222971722 0 0 0.73674653958790015 0 0 1:-0.634615 2:-0.529412 3:-0.39759 4:-0.93865 5:-0.762611 6:-0.89547 7:-0.322506 8:-0.784461 9:-0.0909091 10:-0.0232558 11:-0.354839 
2 0 0 0 0 0 1:-0.346154 2:-0.607843 3:-0.686747 4:-0.634969 5:-0.780415 6:-0.679443 7:-0.211137 8:-0.599383 9:-0.309091 10:-0.302326 11:-0.677419 
2 0 0 2 0.60250825190599955 0 1:-0.288462 2:-0.470588 3:-0.662651 4:-0.723926 5:-0.750742 6:-0.832753 7:-0.313225 8:-0.622518 9:-0.272727 10:-0.27907 11:-0.612903 
2 0 0 0 0.20566509868547736 0 1:-0.346154 2:-0.627451 3:-0.674699 4:-0.944785 5:-0.768546 6:-0.804878 7:-0.350348 8:-0.749759 9:-0.309091 10:-0.325581 11:-0.612903 
0 0.24802299111937201 0 0 0 0 1:-0.442308 2:-0.745098 3:-0.614458 4:-0.852761 5:-0.774481 6:-0.811847 7:-0.392111 8:-0.695778 9:0.218182 10:-0.44186 11:-0.451613 
1.978913856326032 0.31391775920118908 0 0.78401652039224812 0 0 1:-0.557692 2:-0.0784314 3:-0.819277 4:-0.717791 5:-0.869436 6:-0.881533 7:-0.461717 8:-0.668787 9:0.163636 10:-0.418605 11:-0.290323 
0.87727296889012796 0 0 0 0 0 1:-0.326923 2:-0.686275 3:-0.481928 4:-0.957055 5:-0.928783 6:-0.874564 7:-0.721578 8:-0.888568 9:-0.345455 10:-0.209302 11:0.354839 
0.042905627518694686 0 0 0 0 0 1:-0.519231 2:-0.764706 3:-0.518072 4:-0.972393 5:-0.833828 6:-0.770035 7:-0.545244 8:-0.823019 9:0.345455 10:-0.348837 11:0.0967742 
0 0.16715989990389946 0 0 0 0 1:-0.5 2:-0.784314 3:-0.493976 4:-0.929448 5:-0.863501 6:-0.790941 7:-0.656613 8:-0.857721 9:0.0545455 10:-0.55814 11:0.193548 
2 1.7458064622049048 1.2674016114241822 0 0.059787067248098423 0 1:-0.519231 2:-0.764706 3:-0.518072 4:-0.972393 5:-0.833828 6:-0.770035 7:-0.545244 8:-0.823019 9:0.345455 10:-0.348837 11:0.0967742 
0 0 1.8794227107804045 0 0 0 1:-0.423077 2:-0.72549 3:-0.626506 4:-0.825153 5:-0.845697 6:-0.783972 7:-0.2529 8:-0.819163 9:-0.0545455 10:0.0232558 11:0.483871 
0.99698112653163407 2 0 0 0 0 1:-0.519231 2:-0.882353 3:-0.53012 4:-0.981595 5:-0.792285 6:-0.832753 7:-0.50348 8:-0.811452 9:-0.0181818 10:-0.27907 11:-0.258065 
2 0 0 0 0 0 1:-0.346154 2:-0.666667 3:-0.53012 4:-0.437117 5:-0.827893 6:-0.721254 7:-0.322506 8:-0.506844 9:-0.545455 10:-0.418605 11:-0.677419 
2 0 0 0 0 0 1:-0.346154 2:-0.666667 3:-0.53012 4:-0.437117 5:-0.827893 6:-0.721254 7:-0.322506 8:-0.506844 9:-0.545455 10:-0.418605 11:-0.677419 
0.33709804807683752 0.76863596083557362 0 0 0 0 1:-0.326923 2:-0.607843 3:-0.566265 4:-0.628834 5:-0.816024 6:-0.749129 7:-0.392111 8:-0.580104 9:0.0545455 10:0.325581 11:-0.483871 
2 0 0 0 0 0 1:-0.307692 2:-0.745098 3:-0.674699 4:-0.981595 5:-0.810089 6:-0.825784 7:-0.582367 8:-0.784461 9:-0.145455 10:-0.744186 11:-0.419355 
1.9082961762319535 0 0 0 0 0 1:-0.307692 2:-0.745098 3:-0.674699 4:-0.981595 5:-0.810089 6:-0.825784 7:-0.582367 8:-0.784461 9:-0.145455 10:-0.744186 11:-0.419355 
0 0.11038129494432337 0.55118958415636199 0 0 0 1:-0.307692 2:-0.54902 3:-0.662651 4:-0.969325 5:-0.756677 6:-0.783972 7:-0.406032 8:-0.77675 9:0.0727273 10:-0.209302 11:-0.193548 
1.3128534921534345 0.11963118525225343 0 0 0 0 1:-0.557692 2:-0.411765 3:-0.759036 4:-0.815951 5:-0.857567 6:-0.839721 7:-0.406032 8:-0.742047 9:0.0545455 10:0.0930233 11:-0.225806 
2 0.25818024681964324 0 0.79314539978285015 0.014431725848630081 0 1:-0.461538 2:-0.137255 3:-0.46988 4:-0.644172 5:-0.768546 6:-0.637631 7:0.0951276 8:-0.599383 9:-0.0181818 10:-0.255814 11:-0.580645 
1.3666193852351958 0 0 0 0.10906647247475457 0 1:-0.403846 2:-0.686275 3:-0.566265 4:-0.380368 5:-0.869436 6:-0.735192 7:-0.396752 8:-0.599383 9:-0.127273 10:-0.744186 11:-0.0322581 
1.782800992673939 0 0 0 0 0 1:-0.5 2:-0.352941 3:-0.710843 4:-0.588957 5:-0.768546 6:-0.84669 7:-0.517401 8:-0.572393 9:0.309091 10:-0.27907 11:-0.419355 
2 0 0.076672348501068008 0.15842634283557416 0.033151894851279763 0 1:-0.576923 2:-0.431373 3:-0.614458 4:-0.98773 5:-0.738872 6:-0.797909 7:-0.0278422 8:-0.796029 9:0.0363636 10:0.162791 11:-0.419355 
2 0 0 1.3256850350649216 0 0 1:-0.423077 2:-0.529412 3:-0.746988 4:-0.95092 5:-0.792285 6:-0.909408 7:-0.726218 8:-0.765182 9:-0.181818 10:-0.604651 11:-0.548387 
1.1494251558047426 0.66974593181053332 0 0 0 0 1:-0.384615 2:-0.882353 3:-0.614458 4:-0.742331 5:-0.821958 6:-0.637631 7:-0.387471 8:-0.672643 9:-0.0909091 10:-0.511628 11:-0.548387 
2 0 0 2 0.059816287986391201 0 1:-0.423077 2:-0.529412 3:-0.746988 4:-0.95092 5:-0.792285 6:-0.909408 7:-0.726218 8:-0.765182 9:-0.181818 10:-0.604651 11:-0.548387 
2 0.18690365893409863 0.10580534351996884 0.2870287569951876 0.085030232900804345 0 1:-0.0769231 2:-0.431373 3:-0.156627 4:-0.645706 5:-0.821958 6:-0.867596 7:-0.308585 8:-0.568537 9:-0.490909 10:0.186047 11:-0.580645 
0 2 0 0 0 0 1:-0.461538 2:-0.686275 3:-0.650602 4:-0.957055 5:-0.916914 6:-0.881533 7:-0.642691 8:-0.888568 9:-0.0363636 10:-0.465116 11:0.451613 
1.0717328226803964 0 0 0 0 0 1:-0.673077 2:-0.843137 3:-0.73494 4:-0.880368 5:-0.875371 6:-0.804878 7:-0.568445 8:-0.742047 9:-0.0545455 10:-0.674419 11:-0.548387 
2 2 0 0 0 0 1:-0.384615 2:-0.72549 3:-0.662651 4:-0.972393 5:-0.833828 6:-0.811847 7:-0.508121 8:-0.784461 9:-0.290909 10:-0.232558 11:-0.193548 
2 0.1844083883672164 0.075804955145076583 1.2409098024488359 0.088400541901748758 0 1:-0.365385 2:-0.0784314 3:-0.843373 4:-0.966258 5:-0.620178 6:-0.867596 7:-0.276102 8:-0.734336 9:-0.545455 10:-0.162791 11:-0.612903 
0 1.3667550914603943 0 0 0 0 1:-0.519231 2:-0.72549 3:-0.60241 4:-0.966258 5:-0.810089 6:-0.547038 7:-0.280742 8:-0.780605 9:0.0909091 10:-0.209302 11:-0.225806 
0 2 0 0 0.0065582159977146609 0 1:-0.596154 2:-0.45098 3:-0.506024 4:-0.978528 5:-0.774481 6:-0.700348 7:-0.559165 8:-0.823019 9:0.109091 10:-0.325581 11:-0.16129 
0.66194778658989717 0 0 0.22171882606194857 0 0 1:-0.307692 2:-0.588235 3:-0.650602 4:-0.969325 5:-0.78635 6:-0.644599 7:-0.206497 8:-0.749759 9:0.127273 10:0.0697674 11:-0.193548 
2 0 1.2373630185618756 0 0 0 1:-0.307692 2:-0.647059 3:-0.626506 4:-0.785276 5:-0.774481 6:-0.651568 7:-0.220418 8:-0.649508 9:-0.254545 10:-0.465116 11:-0.709677 
0.89574928345572769 0 0 0.46937536940604641 0 0 1:-0.384615 2:-0.607843 3:-0.566265 4:-0.98773 5:-0.845697 6:-0.958188 7:-0.716937 8:-0.892423 9:-0.327273 10:-0.44186 11:0.322581 
0 0.14694431505468181 0.011203913616196402 0 0 0 1:-0.519231 2:-0.784314 3:-0.662651 4:-0.96319 5:-0.922849 6:-0.818815 7:-0.308585 8:-0.861577 9:-0.127273 10:-0.0232558 11:0.0967742 
0 2 0.55847453370589373 0 0 0 1:-0.423077 2:-0.764706 3:-0.542169 4:-0.874233 5:-0.816024 6:-0.825784 7:-0.563805 8:-0.734336 9:0.181818 10:-0.162791 11:-0.129032 
0 0.13935549697610611 0.51782842747610225 0.01041168394235664 0 0 1:-0.634615 2:-0.294118 3:-0.843373 4:-0.803681 5:-0.905045 6:-0.818815 7:-0.238979 8:-0.838442 9:0.109091 10:-0.395349 11:0.451613 
0 2 0 0 0 0.15984355441830359 1:-0.423077 2:-0.705882 3:-0.614458 4:-0.969325 5:-0.89911 6:-0.714286 7:-0.359629 8:-0.873144 9:0.0363636 10:-0.255814 11:0.451613 
2 1.4503575960119655 0 0 0 0 1:-0.346154 2:-0.607843 3:-0.349398 4:-0.506135 5:-0.78635 6:-0.637631 7:-0.113689 8:-0.541546 9:-0.345455 10:-0.372093 11:-0.516129 
2 0 0 0 0.022981776286064813 0 1:-0.423077 2:-0.784314 3:-0.301205 4:-0.582822 5:-0.827893 6:-0.658537 7:-0.280742 8:-0.599383 9:-0.272727 10:-0.395349 11:-0.483871 
2 0 0 0.90666005849012754 0 0 1:-0.5 2:-0.568627 3:-0.638554 4:-0.949387 5:-0.827893 6:-0.958188 7:-0.0672854 8:-0.745903 9:-0.127273 10:-0.0697674 11:-0.387097 
0 0 0.78835799508511539 0 0 0 1:-0.230769 2:-0.803922 3:-0.626506 4:-0.644172 5:-0.738872 6:-0.69338 7:-0.392111 8:-0.580104 9:-0.381818 10:-0.27907 11:-0.709677 
0.5690588877235 0.70677211421541664 0.37790816095448937 0.17105660772387515 0.051856576903474741 0 1:-0.596154 2:0.0588235 3:-0.662651 4:-0.911043 5:-0.821958 6:-0.630662 7:-0.336427 8:-0.861577 9:0.309091 10:-0.488372 11:0.290323 
2 0 0 0 0 0 1:-0.442308 2:-0.627451 3:-0.855422 4:-0.978528 5:-0.810089 6:-0.581882 7:-0.401392 8:-0.807596 9:-0.109091 10:-0.534884 11:-0.354839 
0.58436783055141894 1.7948914649767431 1.0085764692167138 0 0 0 1:-0.230769 2:-0.490196 3:-0.578313 4:-0.96319 5:-0.804154 6:-0.958188 7:-0.266821 8:-0.857721 9:-0.290909 10:-0.55814 11:0.322581 
2 0 0.011346582360611812 0 0.10071887052078819 0 1:-0.307692 2:-0.45098 3:-0.60241 4:-0.97546 5:-0.905045 6:-0.825784 7:-0.786543 8:-0.830731 9:-0.109091 10:-0.744186 11:0.0322581 
2 2 0 0 0 0 1:-0.557692 2:-0.54902 3:-0.686747 4:-0.95092 5:-0.750742 6:-0.818815 7:-0.266821 8:-0.788317 9:0.181818 10:-0.418605 11:-0.225806 
0.17779164875451453 1.9571332083634798 0 0 0 0 1:-0.307692 2:-0.862745 3:-0.493976 4:-0.966258 5:-0.78635 6:-0.672474 7:-0.327146 8:-0.811452 9:-0.490909 10:-0.116279 11:-0.225806 
0 1.8776471039368072 0.22524129450699637 0 0 0 1:-0.596154 2:-0.901961 3:-0.662651 4:-0.960123 5:-0.756677 6:-0.874564 7:-0.679814 8:-0.819163 9:0.290909 10:-0.0232558 11:-0.0967742 
1.3153311545811657 2 0.10437695239789017 0 0 0 1:-0.403846 2:-0.666667 3:-0.518072 4:-0.978528 5:-0.827893 6:-0.860627 7:-0.573086 8:-0.884712 9:-0.436364 10:-0.604651 11:0.0967742 
2 0 0 0 0 0 1:-0.596154 2:-0.529412 3:-0.53012 4:-0.917178 5:-0.376855 6:-0.84669 7:-0.392111 8:-0.757471 9:-0.327273 10:-0.465116 11:-0.612903 
0 2 0 0 0 0 1:-0.557692 2:-0.607843 3:-0.73494 4:-0.96319 5:-0.851632 6:-0.790941 7:-0.50348 8:-0.896279 9:0.163636 10:-0.488372 11:0.483871 
0.66578083682811628 2 2 0.19657024271887302 0 0 1:-0.730769 2:-0.45098 3:-0.975904 4:-0.969325 5:-0.869436 6:-0.84669 7:-0.559165 8:-0.903991 9:0.309091 10:-0.697674 11:0.354839 
0.14023212825126968 2 2 0 1.1204082660316079 0 1:-0.653846 2:-0.784314 3:-0.433735 4:-0.880368 5:-0.875371 6:-0.881533 7:-0.522042 8:-0.80374 9:0.527273 10:-0.465116 11:0.0322581 
0.10796414202354146 1.3624064638377595 0 0.17935028451534982 0.066256457910350314 0 1:-0.5 2:-0.960784 3:-0.578313 4:-0.868098 5:-0.768546 6:-0.797909 7:-0.563805 8:-0.707345 9:0.290909 10:0.325581 11:-0.451613 
0.87119397495409756 1.8339835209118263 0 0 0 0 1:-0.307692 2:-0.666667 3:-0.566265 4:-0.613497 5:-0.655786 6:-0.644599 7:-0.215777 8:-0.595527 9:-0.472727 10:-0.395349 11:-0.677419 
2 2 0 0 0 0 1:-0.307692 2:-0.666667 3:-0.566265 4:-0.613497 5:-0.655786 6:-0.644599 7:-0.215777 8:-0.595527 9:-0.472727 10:-0.395349 11:-0.677419 
1.6795768679456322 0.16956137000842297 0 1.1415618092630497 0 0 1:-0.307692 2:-0.666667 3:-0.566265 4:-0.613497 5:-0.655786 6:-0.644599 7:-0.215777 8:-0.595527 9:-0.472727 10:-0.395349 11:-0.677419 
2 0 0 0.87505853758865459 0.013887646121793922 0 1:-0.423077 2:-0.666667 3:-0.710843 4:-0.878834 5:-0.738872 6:-0.728223 7:-0.062645 8:-0.676499 9:0.181818 10:0.0465116 11:-0.516129 
1.3359958220325963 0 0 0 0 0 1:-0.673077 2:-0.470588 3:-0.578313 4:-0.984663 5:-0.78635 6:-0.916376 7:-0.266821 8:-0.811452 9:0.127273 10:0.0697674 11:-0.387097 
0 1.5457685954332523 0 0 0 0 1:-0.442308 2:-0.686275 3:-0.506024 4:-0.751534 5:-0.839763 6:-0.811847 7:-0.354988 8:-0.688066 9:-0.0909091 10:-0.0697674 11:-0.387097 
2 0 0 0.86122767844613479 0 0 1:-0.423077 2:-0.607843 3:-0.795181 4:-0.592025 5:-0.774481 6:-0.672474 7:-0.290023 8:-0.568537 9:-0.109091 10:-0.325581 11:-0.677419 
0 1.6121295473317359 0 0 0 0 1:-0.5 2:-0.843137 3:-0.73494 4:-0.97546 5:-0.816024 6:-0.728223 7:-0.350348 8:-0.761326 9:0.4 10:-0.162791 11:-0.354839 
1.3727802180870095 2 0 0 0 0 1:-0.519231 2:-0.647059 3:-0.710843 4:-0.797546 5:-0.821958 6:-0.749129 7:-0.243619 8:-0.664932 9:0.4 10:-0.0232558 11:-0.451613 
2 0 0 0 0 0 1:-0.25 2:-0.72549 3:-0.493976 4:-0.960123 5:-0.744807 6:-0.944251 7:-0.638051 8:-0.80374 9:0.0545455 10:-0.372093 11:0.225806 
2 0 0 0.40448985078506983 0 0 1:-0.557692 2:-0.352941 3:-0.710843 4:-0.969325 5:-0.762611 6:-0.902439 7:-0.406032 8:-0.772894 9:0.0909091 10:-0.348837 11:-0.225806 
0.34074615848998985 1.8836198520196918 0.81420665442087881 0.30242921024971187 0.035978098332664209 0 1:-0.346154 2:-0.490196 3:-0.46988 4:-0.889571 5:-0.774481 6:-0.658537 7:-0.37355 8:-0.85001 9:-0.472727 10:0.255814 11:0.387097 
2 0 0 0 0 0 1:-0.25 2:-0.490196 3:-0.674699 4:-0.748466 5:-0.679525 6:-0.74216 7:-0.187935 8:-0.622518 9:-0.327273 10:-0.0465116 11:-0.612903 
2 2 0 0 0 0 1:-0.230769 2:-0.72549 3:-0.542169 4:-0.702454 5:-0.703264 6:-0.818815 7:-0.582367 8:-0.630229 9:-0.272727 10:-0.418605 11:-0.354839 
2 0 0 0.23767807243813674 0.64993016087867794 0 1:-0.346154 2:-0.470588 3:-0.590361 4:-0.638037 5:-0.750742 6:-0.972125 7:-0.87007 8:-0.718913 9:-0.254545 10:-0.604651 11:0.129032 
2 0.13982897440545408 0 0 0 0 1:-0.557692 2:-0.647059 3:-0.385542 4:-0.95092 5:-0.756677 6:-0.58885 7:-0.327146 8:-0.77675 9:-0.345455 10:-0.116279 11:-0.419355 
2 0 0 0 0 0 1:-0.480769 2:-0.607843 3:-0.674699 4:-0.858896 5:-0.816024 6:-0.707317 7:-0.211137 8:-0.703489 9:-0.145455 10:0.0930233 11:-0.548387 
0 0.75091481494415113 0 0 0 0 1:-0.153846 2:-0.72549 3:-0.638554 4:-0.96319 5:-0.774481 6:-0.686411 7:-0.183295 8:-0.761326 9:-0.254545 10:-0.348837 11:-0.290323 
1.6265614197380798 0 0 0 0 0 1:-0.153846 2:-0.705882 3:-0.650602 4:-0.96319 5:-0.774481 6:-0.686411 7:-0.174014 8:-0.761326 9:-0.254545 10:-0.348837 11:-0.290323 
2 0 0 0 0 0 1:-0.326923 2:-0.568627 3:-0.73494 4:-0.822086 5:-0.721068 6:-0.707317 7:-0.262181 8:-0.707345 9:-0.254545 10:-0.697674 11:-0.322581 
0.38940832352495536 0 0 0.60577937340265486 0.03399567211844446 0 1:-0.307692 2:-0.686275 3:-0.73494 4:-0.690184 5:-0.804154 6:-0.832753 7:-0.665893 8:-0.680355 9:-0.745455 10:-0.674419 11:-0.451613 
2 0 0 0 0 0 1:-0.307692 2:-0.647059 3:-0.638554 4:-0.776074 5:-0.762611 6:-0.749129 7:-0.313225 8:-0.645653 9:-0.254545 10:-0.395349 11:-0.709677 
0 2 0.59899706726825441 0 0 0 1:-0.326923 2:-0.764706 3:-0.554217 4:-0.981595 5:-0.833828 6:-0.679443 7:-0.489559 8:-0.811452 9:0.0909091 10:-0.372093 11:-0.0645161 
2 0 0 0 0 0 1:-0.384615 2:-0.588235 3:-0.554217 4:-0.868098 5:-0.851632 6:-0.832753 7:-0.452436 8:-0.780605 9:-0.181818 10:-0.488372 11:-0.0967742 
2 0 0.026262798083537518 0 0.015377675541518655 0 1:-0.442308 2:-0.568627 3:-0.578313 4:-0.97546 5:0.0148368 6:-0.763066 7:-0.299304 8:-0.745903 9:-0.290909 10:-0.255814 11:-0.548387 
1.446643508743108 0.6246552933602475 0 0.55549188031551711 0 0 1:-0.346154 2:-0.686275 3:-0.518072 4:-0.97546 5:-0.78635 6:-0.797909 7:-0.549884 8:-0.834586 9:-0.709091 10:-0.627907 11:-0.0967742 
0.29350249670157358 0 0 0 0 0 1:-0.519231 2:-0.647059 3:-0.409639 4:-0.972393 5:-0.744807 6:-0.777003 7:-0.419954 8:-0.796029 9:-0.509091 10:-0.0930233 11:-0.419355 
1.7647626811637276 0.87877639510159633 0 0.21761896109137982 0 0 1:-0.519231 2:-0.647059 3:-0.409639 4:-0.972393 5:-0.744807 6:-0.777003 7:-0.419954 8:-0.796029 9:-0.509091 10:-0.0930233 11:-0.419355 
1.163624187925667 0.71664291719147299 0 0.075353250697318297 0.043808003642057267 0 1:-0.307692 2:-0.431373 3:-0.578313 4:-0.843558 5:-0.691395 6:-0.930314 7:-0.605568 8:-0.637941 9:0.381818 10:0.0930233 11:-0.129032 
2 2 0.12704654224067921 1.5968159348032867 0 0 1:-0.307692 2:-0.686275 3:-0.518072 4:-0.886503 5:-0.863501 6:-0.95122 7:-0.600928 8:-0.811452 9:-0.327273 10:-0.604651 
0 0 0 0.088912729558968201 0 0 1:-0.230769 2:-0.647059 3:-0.674699 4:-0.960123 5:-0.750742 6:-0.651568 7:-0.136891 8:-0.780605 9:-0.0727273 10:-0.348837 11:-0.0645161 
0.39426275947559886 2 0 0 0 0 1:-0.307692 2:-0.784314 3:-0.638554 4:-0.97546 5:-0.715134 6:-0.783972 7:-0.415313 8:-0.772894 9:-0.272727 10:-0.348837 11:-0.483871 
0.21969775763647645 0 0 0 0 0 1:-0.711538 2:-0.529412 3:-0.855422 4:-0.815951 5:-0.79822 6:-0.860627 7:-0.387471 8:-0.745903 9:0.163636 10:-0.116279 11:-0.225806 
2 0 0 0 0 0 1:-0.384615 2:-0.529412 3:-0.710843 4:-0.828221 5:-0.768546 6:-0.797909 7:0.0162413 8:-0.668787 9:-0.0727273 10:-0.0697674 11:-0.548387 
2 0 0 0 0 0 1:-0.384615 2:-0.529412 3:-0.710843 4:-0.828221 5:-0.768546 6:-0.797909 7:0.0162413 8:-0.668787 9:-0.0727273 10:-0.0697674 11:-0.548387 
0 0.31264363895409403 0.43823320228041907 0 0 0 1:-0.403846 2:-0.686275 3:-0.60241 4:-0.871166 5:-0.816024 6:-0.902439 7:-0.433875 8:-0.749759 9:-0.0181818 10:-0.0232558 11:-0.129032 
1.6674543811186153 2 0 0 0 0 1:-0.557692 2:-0.823529 3:-0.662651 4:-0.880368 5:-0.857567 6:-0.69338 7:-0.345708 8:-0.761326 9:0.290909 10:-0.372093 11:-0.0645161 
0.060334632481903315 0.6104211230735288 0.20242002171070558 0 0 0 1:-0.519231 2:-0.745098 3:-0.60241 4:-0.592025 5:-0.780415 6:-0.54007 7:-0.211137 8:-0.614806 9:0.163636 10:-0.348837 11:-0.225806 
1.40755743423992 0.25226788237181919 0.72678097762953175 0 0 0 1:-0.307692 2:-0.95098 3:-0.590361 4:-0.644172 5:-0.756677 6:-0.616725 7:-0.364269 8:-0.607095 9:-0.2 10:-0.651163 11:-0.677419 
2 0 0 0 0 0 1:-0.596154 2:-0.686275 3:-0.686747 4:-0.641104 5:-0.738872 6:-0.777003 7:-0.419954 8:-0.61095 9:0.127273 10:-0.465116 11:-0.516129 
0 2 0.67241680472631071 0 0 0 1:-0.25 2:-0.627451 3:-0.578313 4:-0.855828 5:-0.875371 6:-0.804878 7:-0.49884 8:-0.811452 9:-0.290909 10:-0.534884 11:0.354839 
2 2 0 0 0 0 1:2.22045e-16 2:-0.627451 3:-0.578313 4:-0.868098 5:-0.88724 6:-0.825784 7:-0.600928 8:-0.765182 9:-0.418182 10:-0.581395 11:0.0645161 
0.61747587094747247 0.86854755321875221 1.6236026830640151 0.18853254954459342 0.065518397545716492 0 1:-0.423077 2:-0.72549 3:-0.554217 4:-0.966258 5:-0.839763 6:-0.749129 7:-0.136891 8:-0.857721 9:0.145455 10:0.162791 11:0.451613 
0 0.59319230411250634 0 0 0 0 1:-0.365385 2:-0.823529 3:-0.542169 4:-0.791411 5:-0.744807 6:-0.672474 7:-0.197216 8:-0.664932 9:0.145455 10:-0.302326 11:-0.483871 
2 0.35167650904878767 0 0 0 0 1:-0.557692 2:-0.882353 3:-0.698795 4:-0.978528 5:-0.774481 6:-0.756098 7:-0.238979 8:-0.792173 9:0.145455 10:-0.44186 11:-0.354839 
2 0 0 0 0 0 1:-0.230769 2:-0.333333 3:-0.686747 4:-0.736196 5:-0.709199 6:-0.777003 7:-0.118329 8:-0.61095 9:-0.236364 10:-0.232558 11:-0.580645 
0 2 0 0 0 0 1:-0.461538 2:-0.607843 3:-0.566265 4:-0.966258 5:-0.827893 6:-0.860627 7:-0.573086 8:-0.842298 9:0.0363636 10:-0.186047 11:0.16129 
0 0.61568134562582144 0 0 0 0 1:-0.442308 2:-0.54902 3:-0.638554 4:-0.953988 5:-0.827893 6:-0.888502 7:-0.438515 8:-0.780605 9:0.163636 10:-0.0465116 11:-0.16129 
2 0 0 0.46733592574398769 0 0 1:-0.557692 2:-0.607843 3:-0.698795 4:-0.806748 5:-0.721068 6:-0.707317 7:-0.109049 8:-0.676499 9:-0.145455 10:-0.581395 11:-0.645161 
2 1.1908739751883322 0 0.83277774093930168 0 0 1:-0.596154 2:-0.588235 3:-0.698795 4:-0.650307 5:-0.715134 6:-0.679443 7:-0.00232019 8:-0.576248 9:-0.0727273 10:-0.55814 11:-0.677419 
2 0 0 0.42896326495730569 0 0 1:-0.596154 2:-0.666667 3:-0.698795 4:-0.671779 5:-0.744807 6:-0.804878 7:-0.276102 8:-0.618662 9:-0.0545455 10:-0.488372 11:-0.516129 
2 1.0445624661674331 0.7067638543071092 0 0 0 1:-0.346154 2:-0.607843 3:-0.638554 4:-0.690184 5:-0.792285 6:-0.58885 7:-0.0116009 8:-0.61095 9:-0.236364 10:-0.348837 11:-0.645161 
2 0 0 0.086654065319422727 0 0 1:-0.557692 2:-0.45098 3:-0.807229 4:-0.822086 5:-0.833828 6:-0.763066 7:-0.12297 8:-0.718913 9:-0.181818 10:-0.0697674 11:-0.387097 
2 0 0 0 0 0 1:-0.269231 2:-0.588235 3:-0.301205 4:-0.481595 5:-0.810089 6:-0.658537 7:0.00232019 8:-0.514556 9:-0.2 10:0.0232558 11:-0.516129 
0 1.9636566612661654 0 0 0 0 1:-0.442308 2:-0.784314 3:-0.590361 4:-0.98773 5:-0.922849 6:-0.860627 7:-0.605568 8:-0.842298 9:-0.0727273 10:-0.186047 
1.5127287904569275 2 0.51447906453702807 0 0 0 1:-0.653846 2:-0.666667 3:-0.686747 4:-0.907975 5:-0.833828 6:-0.888502 7:-0.508121 8:-0.873144 9:0.272727 10:-0.348837 11:0.483871 
0 2 0 0.30579964157868866 0 0 1:-0.346154 2:-0.803922 3:-0.457831 4:-0.883436 5:-0.780415 6:-0.616725 7:-0.271462 8:-0.722768 9:-0.254545 10:-0.0697674 11:0.0322581 
0 1.3457914576052539 0 0 0 0 1:-0.153846 2:-0.627451 3:-0.481928 4:-0.969325 5:-0.845697 6:-0.797909 7:-0.447796 8:-0.826875 9:-0.309091 10:-0.348837 11:0.387097 
0.60779178602888762 1.9584208706988053 0 0 0 0 1:-0.153846 2:-0.627451 3:-0.481928 4:-0.969325 5:-0.845697 6:-0.797909 7:-0.447796 8:-0.826875 9:-0.309091 10:-0.348837 11:0.387097 
1.0822503072687419 0 0 0 0 0 1:-0.576923 2:-0.392157 3:-0.686747 4:-0.935583 5:-0.827893 6:-0.74216 7:-0.174014 8:-0.763254 9:0.254545 10:-0.348837 11:-0.0967742 
0.048171490852172011 0 0 0 0 0 1:-0.25 2:-0.333333 3:-0.626506 4:-0.736196 5:-0.768546 6:-0.860627 7:-0.0162413 8:-0.622518 9:-0.381818 10:-0.0930233 11:-0.612903 
0.80179013351306949 2 0.97049425230041064 0 0 0 1:-0.403846 2:-0.54902 3:-0.590361 4:-0.969325 5:-0.863501 6:-0.853659 7:-0.447796 8:-0.823019 9:0.181818 10:-0.418605 11:0.193548 
0 1.9738727291120119 0.02004277600248083 0 0.025843056738957211 0 1:-0.480769 2:-0.705882 3:-0.60241 4:-0.595092 5:-0.804154 6:-0.839721 7:-0.396752 8:-0.62059 9:0.145455 10:-0.209302 11:-0.225806 
1.9750542849271506 0 0 0 0 0 1:-0.538462 2:-0.666667 3:-0.421687 4:-0.711656 5:-0.792285 6:-0.470383 7:0.0719258 8:-0.636013 9:-0.0363636 10:-0.418605 11:-0.516129 
2 2 0 0 0 0 1:-0.461538 2:-0.666667 3:-0.638554 4:-0.576687 5:-0.744807 6:-0.735192 7:-0.192575 8:-0.580104 9:-0.454545 10:-0.348837 11:-0.645161 
2 2 0 0.080712138330825065 0 0 1:-0.461538 2:-0.666667 3:-0.638554 4:-0.576687 5:-0.744807 6:-0.735192 7:-0.192575 8:-0.580104 9:-0.454545 10:-0.348837 11:-0.645161 
0.70933357724616719 0.059067075412858452 0.043254310446377453 0 0 0 1:-0.615385 2:-0.764706 3:-0.638554 4:-0.972393 5:-0.869436 6:-0.867596 7:-0.777262 8:-0.844226 9:0.309091 10:-0.232558 11:-0.0322581 
0 0.26324929444427314 0 0 0 0 1:-0.384615 2:-0.764706 3:-0.554217 4:-0.957055 5:-0.875371 6:-0.832753 7:-0.410673 8:-0.765182 9:0.0181818 10:-0.0930233 11:-0.290323 
0.83737170069249822 0.32886903096618098 0.12661618206048419 0.36907651335053793 0.11945472229666987 0 1:-0.307692 2:-0.764706 3:1 4:-0.953988 5:-0.922849 6:-0.777003 7:-0.517401 8:-0.824947 9:-0.0181818 10:-0.232558 11:0.354839 
2 1.1112606542983665 0.040540853843225734 0 0 0 1:-0.326923 2:-0.568627 3:-0.493976 4:-0.792945 5:-0.905045 6:-0.658537 7:-0.229698 8:-0.780605 9:-0.418182 10:-0.767442 11:0.0967742 
0 2 0 0 0 0 1:-0.403846 2:-0.764706 3:-0.39759 4:-0.711656 5:-0.839763 6:-0.470383 7:-0.266821 8:-0.641797 9:-0.218182 10:-0.232558 11:-0.290323 
0.68499564453359973 0 0 0 0.096931981167581907 0 1:-0.384615 2:-0.745098 3:-0.590361 4:-0.757669 5:-0.857567 6:-0.797909 7:0.132251 8:-0.684211 9:-0.0909091 10:-0.209302 11:-0.193548 
1.6265985755462939 2 0 0.19415070567021467 0.083636557471166537 0 1:-0.423077 2:-0.72549 3:-0.554217 4:-0.552147 5:-0.750742 6:-0.54007 7:-0.215777 8:-0.528051 9:0.236364 10:0.465116 11:-0.580645 
0 1.718454535154943 0 0 0 0 1:-0.403846 2:-0.803922 3:-0.542169 4:-0.769939 5:-0.762611 6:-0.707317 7:-0.225058 8:-0.664932 9:0.0545455 10:-0.255814 11:-0.419355 
0.6447353415738728 0.12951309397644994 0.12249826305630022 0.099117717201999953 0.054988547364321946 0 1:-0.769231 2:-0.294118 3:-0.951807 4:-0.447853 5:-0.821958 6:-0.749129 7:-0.447796 8:-0.560825 9:0.181818 10:-0.186047 11:-0.290323 
2 0 0 0 0 0 1:-0.519231 2:-0.568627 3:-0.662651 4:-0.865031 5:-0.804154 6:-0.763066 7:-0.262181 8:-0.69385 9:-0.0909091 10:0.0930233 11:-0.516129 
2 0 0 0 0 0 1:-0.346154 2:-0.627451 3:-0.493976 4:-0.969325 5:-0.756677 6:-0.770035 7:-0.415313 8:-0.811452 9:-0.6 10:-0.44186 11:-0.0322581 
2 0.097455274532669153 0.37435214449886522 0.16301540125578129 0 0 1:-0.423077 2:-0.764706 3:-0.566265 4:-0.969325 5:-0.88724 6:-0.965157 7:-0.828306 8:-0.821091 9:-0.109091 10:-0.116279 11:-0.0645161 
0.40054945123752123 0.41684298507340589 0.37313375118439507 0.11725069761509842 0.06127830328143051 0 1:-0.5 2:-0.715686 3:-0.421687 4:-0.95092 5:-0.37092 6:-0.811847 7:-0.559165 8:-0.819163 9:-0.0545455 10:-0.162791 11:0.322581 
2 0 0 1.0742345215788633 0 0 1:-0.134615 2:-0.882353 3:-0.457831 4:-0.972393 5:-0.821958 6:-0.888502 7:-0.587007 8:-0.805668 9:-0.454545 10:-0.209302 11:-0.0322581 
1.4525881032325709 0 0 0 0 0 1:-0.230769 2:-0.588235 3:-0.73494 4:-0.726994 5:-0.721068 6:-0.707317 7:-0.0533643 8:-0.612878 9:-0.345455 10:-0.0930233 11:-0.580645 
1.4635082245609381 0 0 0 0 0 1:-0.269231 2:-0.568627 3:-0.674699 4:-0.693252 5:-0.821958 6:-0.797909 7:-0.489559 8:-0.57432 10:-0.813953 11:-0.580645 
1.6702465750352582 0 0 0 0 0 1:-0.269231 2:-0.568627 3:-0.674699 4:-0.693252 5:-0.821958 6:-0.797909 7:-0.489559 8:-0.57432 10:-0.813953 11:-0.580645 
0 0.3082108402899682 0 0.6108932625427641 0.0496358952952453 0 1:-0.25 2:-0.490196 3:-0.662651 4:-0.680982 5:-0.816024 6:-0.797909 7:-0.49884 8:-0.57432 10:-0.837209 11:-0.612903 
2 1.8163972013591172 0 0 0 0 1:-0.403846 2:-0.686275 3:-0.60241 4:-0.634969 5:-0.780415 6:-0.686411 7:-0.331787 8:-0.568537 9:0.0181818 10:0.27907 11:-0.483871 
2 0 0 0 0 0 1:-0.692308 2:-0.803922 3:-0.710843 4:-0.871166 5:-0.810089 6:-0.804878 7:-0.517401 8:-0.716985 9:0.272727 10:-0.581395 11:-0.548387 
2 0 0 0 0 0 1:-0.230769 2:-0.627451 3:-0.301205 4:-0.674847 5:-0.839763 6:-0.707317 7:-0.294664 8:-0.591671 9:-0.381818 10:-0.55814 11:-0.709677 
0.024423479945815264 0 0 0 0 0 1:-0.326923 2:-0.529412 3:-0.590361 4:-0.815951 5:-0.863501 6:-0.84669 7:-0.522042 8:-0.69385 9:-0.0909091 10:-0.44186 11:-0.419355 
2 0 0 0 0 0 1:-0.230769 2:-0.627451 3:-0.301205 4:-0.674847 5:-0.839763 6:-0.707317 7:-0.294664 8:-0.591671 9:-0.381818 10:-0.55814 11:-0.709677 
2 0 0 0 0.12406642395788881 0 1:-0.538462 2:-0.588235 3:-0.686747 4:-0.616564 5:-0.780415 6:-0.630662 7:-0.0951276 8:-0.601311 9:-0.2 10:-0.55814 11:-0.483871 
2 0 0 0.086792202303200491 0.019026024642488523 0 1:-0.576923 2:-0.392157 3:-0.795181 4:-0.650307 5:-0.780415 6:-0.560976 7:0.099768 8:-0.595527 9:-0.218182 10:-0.627907 11:-0.677419 
2 0 0 0 0 0 1:-0.538462 2:-0.568627 3:-0.686747 4:-0.607362 5:-0.780415 6:-0.616725 7:-0.0858469 8:-0.589744 9:-0.181818 10:-0.511628 11:-0.516129 
2 0.16700341894943835 0 1.7719101046970505 0.10420243825445297 0 1:-0.576923 2:-0.352941 3:-0.939759 4:-0.972393 5:-0.679525 6:-0.89547 7:-0.484919 8:-0.765182 9:-0.109091 10:-0.209302 11:-0.612903 
2 0.26412854787793821 0 0 0 0 1:-0.480769 2:-0.647059 3:-0.614458 4:-0.51227 5:-0.78635 6:-0.707317 7:-0.271462 8:-0.502988 9:0.2 10:-0.44186 11:-0.516129 
1.114762362841083 0.065821391089462153 0 0.36012100338685771 0.47082736691274379 0 1:-0.211538 2:-0.470588 3:-0.710843 4:-0.539877 5:-0.626113 6:-0.707317 7:0.0208817 8:-0.585888 9:-0.436364 10:-0.139535 11:-0.193548 
1.0241118506825466 0.14940876617711391 0.059603648397206888 0.074358791862130985 0.061398175289764434 0 1:-0.326923 2:0.127451 3:-0.759036 4:-0.705521 5:-0.632047 6:-0.818815 7:-0.0580046 8:-0.614806 9:-0.563636 10:-0.162791 11:-0.612903 
2 0.99489173790574215 0 0 0 0 1:-0.442308 2:-0.784314 3:-0.722892 4:-0.828221 5:-0.774481 6:-0.763066 7:-0.49884 8:-0.715057 9:0.127273 10:-0.511628 11:-0.483871 
0 1.5760466013184962 0 0 0 0 1:-0.423077 2:-0.666667 3:-0.542169 4:-0.769939 5:-0.780415 6:-0.84669 7:-0.322506 8:-0.672643 9:0.109091 10:-0.139535 11:-0.290323 
0 0.36083977031362591 0 0 0 0 1:-0.403846 2:-0.666667 3:-0.590361 4:-0.978528 5:-0.845697 6:-0.825784 7:-0.661253 8:-0.871217 9:-0.163636 10:-0.488372 11:0.354839 
0 0.30961661378488853 0 0.16935292305037591 0.065247087440561125 0 1:-0.326923 2:-0.754902 3:-0.626506 4:-0.966258 5:-0.697329 6:-0.777003 7:-0.531323 8:-0.645653 9:0.818182 10:0.0930233 11:-0.193548 
0 2 0 0 0 0 1:-0.576923 2:-0.764706 3:-0.710843 4:-0.96319 5:-0.875371 6:-0.804878 7:-0.554524 8:-0.853865 9:0.0727273 10:-0.418605 11:0.129032 
1.0098804262408927 0.015638721367258131 0 0 0.042126347200526215 0 1:-0.807692 2:-0.490196 3:-1 4:-0.819018 5:-0.88724 6:-0.783972 7:-0.285383 8:-0.738192 9:0.163636 10:-0.0930233 11:-0.387097 
0.28092820792162843 1.1988778030126823 0 0 0 0 1:-0.538462 2:-0.607843 3:-0.60241 4:-0.966258 5:-0.881306 6:-0.84669 7:-0.526682 8:-0.888568 9:-0.0545455 10:-0.348837 11:0.322581 
0 0.63480751567056282 0 0 0 0 1:-0.557692 2:-0.627451 3:-0.60241 4:-0.95092 5:-0.928783 6:-0.832753 7:-0.49884 8:-0.942549 9:-0.272727 10:-0.813953 11:0.451613 
0.84926228074323473 0 0.57009626294603133 0 0 0 1:-0.326923 2:-0.686275 3:-0.650602 4:-0.981595 5:-0.833828 6:-0.756098 7:-0.591647 8:-0.788317 9:-0.145455 10:0.116279 11:-0.322581 
2 0.30364088144382639 0 0.67800446685957383 0 0 1:-0.519231 2:-0.647059 3:-0.746988 4:-0.895706 5:-0.875371 6:-0.84669 7:-0.461717 8:-0.830731 9:-0.381818 10:-0.72093 11:-0.129032 
1.579258766572911 0 0.21992836981731087 0.47880321394855535 0.0098506165916727 0 1:-0.576923 2:-0.607843 3:-0.590361 4:-0.969325 5:-0.347181 6:-0.783972 7:-0.559165 8:-0.807596 9:-0.145455 10:-0.627907 11:-0.290323 
0.88814706714571567 0.94521604665105841 0.0054836050416748596 0.097744368478624652 0.066646336960177507 0 1:-0.538462 2:-0.843137 3:-0.349398 4:-0.97546 5:-0.305638 6:-0.756098 7:-0.531323 8:-0.765182 9:-0.0727273 10:-0.651163 11:-0.709677 
2 0 0 2 0.11975082910818682 0.062339670948898258 1:-0.0384615 2:-0.45098 3:-0.46988 4:-0.960123 5:-0.816024 6:-0.95122 7:-0.480278 8:-0.684211 9:-0.145455 10:-0.395349 11:-0.387097 
0 0.99430501933944115 0 0 0 0 1:-0.307692 2:-0.647059 3:-0.481928 4:-0.834356 5:-0.922849 6:-0.860627 7:-0.461717 8:-0.780605 9:-0.254545 10:-0.232558 11:0.129032 
0.15132427704966778 1.0291011037529489 0 0 0 0 1:-0.423077 2:-0.705882 3:-0.650602 4:-0.644172 5:-0.845697 6:-0.749129 7:0.0533643 8:-0.595527 9:0.145455 10:-0.302326 11:-0.419355 
2 0 0 0.16995057740690381 0 0 1:-0.769231 2:-0.54902 3:-1 4:-0.822086 5:-0.780415 6:-0.714286 7:-0.271462 8:-0.734336 9:0.0545455 10:-0.0465116 11:-0.387097 
0 0 0 0.19606095030504483 0 0 1:-0.653846 2:-0.784314 3:-0.53012 4:-0.984663 5:-0.79822 6:-0.89547 7:-0.730858 8:-0.819163 9:-0.0727273 10:-0.27907 11:-0.258065 
2 0 0 2 0.066033807491692242 0 1:-0.384615 2:-0.588235 3:-0.686747 4:-0.969325 5:-0.792285 6:-0.930314 7:-0.638051 8:-0.799884 9:-0.345455 10:-0.44186 11:-0.193548 
0 0 0.23145154437759891 0.69638331182739432 0 0 1:-0.461538 2:-0.647059 3:-0.650602 4:-0.97546 5:-0.821958 6:-0.923345 7:-0.730858 8:-0.830731 9:-0.4 10:-0.372093 11:-0.0645161 
1.0804037785264851 0.042436450986708701 0 0 0 0 1:-0.423077 2:-0.803922 3:-0.662651 4:-0.757669 5:-0.774481 6:-0.651568 7:0.0812065 8:-0.688066 9:-0.0909091 10:-0.27907 11:-0.193548 
0.52194832383204481 0 0 0.69173238913234081 0 0 1:-0.192308 2:-0.588235 3:-0.650602 4:-0.613497 5:-0.780415 6:-0.832753 7:-0.517401 8:-0.568537 9:-0.0363636 10:-0.651163 11:-0.451613 
2 0 0 0 0 0 1:-0.596154 2:-0.54902 3:-0.638554 4:-0.782209 5:-0.774481 6:-0.595819 7:-0.0858469 8:-0.695778 9:-0.127273 10:-0.604651 11:-0.483871 
2 0 0.40367470767038049 1.1241403675227091 0 0 1:-0.25 2:-0.568627 3:-0.614458 4:-0.969325 5:-0.833828 6:-0.853659 7:-0.466357 8:-0.815307 9:-0.618182 10:-0.744186 11:-0.0322581 
0 2 0.37047842057299318 0 0 0 1:-0.384615 2:-0.686275 3:-0.590361 4:-0.97546 5:-0.869436 6:-0.825784 7:-0.545244 8:-0.888568 9:-0.381818 10:-0.604651 11:0.258065 
2 0 0 0.30750640666639117 0 0 1:-0.25 2:-0.529412 3:-0.253012 4:-0.693252 5:-0.839763 6:-0.623693 7:-0.331787 8:-0.587816 9:-0.254545 10:-0.488372 11:-0.709677 
2 0 0 2 0 0 1:-0.25 2:-0.529412 3:-0.253012 4:-0.693252 5:-0.839763 6:-0.623693 7:-0.331787 8:-0.587816 9:-0.254545 10:-0.488372 11:-0.709677 
2 0 0 0 0.16405349154986257 0 1:-0.480769 2:-0.647059 3:-0.674699 4:-0.622699 5:-0.792285 6:-0.533101 7:-0.0440835 8:-0.630229 9:-0.181818 10:-0.511628 11:-0.354839 
0.022627897032057531 0 0 0 0 0 1:-0.480769 2:-0.647059 3:-0.662651 4:-0.634969 5:-0.780415 6:-0.456446 7:0.00232019 8:-0.624446 9:-0.163636 10:-0.55814 11:-0.354839 
1.9299507576623474 0 0 0 0 0 1:-0.538462 2:-0.470588 3:-0.650602 4:-0.794479 5:-0.792285 6:-0.623693 7:0.0904872 8:-0.672643 9:0.163636 10:-0.232558 11:-0.354839 
1.4777820004617244 0 0 0 0 0 1:-0.519231 2:-0.627451 3:-0.445783 4:-0.657975 5:-0.833828 6:-0.58885 7:-0.0580046 8:-0.614806 9:-0.0363636 10:-0.27907 11:-0.516129 
0.57832029716563882 0 0.93043675475055143 0 0 0 1:-0.480769 2:-0.823529 3:-0.60241 4:-0.97546 5:-0.88724 6:-0.916376 7:-0.582367 8:-0.780605 9:-0.0727273 10:-0.232558 11:-0.322581 
0 1.0387801815585103 0 0 0 0 1:-0.326923 2:-0.686275 3:-0.590361 4:-0.546012 5:-0.756677 6:-0.749129 7:-0.234339 8:-0.568537 9:-0.436364 10:-0.534884 11:-0.677419 
0 2 0 0 0 0 1:-0.326923 2:-0.686275 3:-0.590361 4:-0.546012 5:-0.756677 6:-0.749129 7:-0.234339 8:-0.568537 9:-0.436364 10:-0.534884 11:-0.677419 
0.49837677857976298 0 0 0 0 0 1:-0.557692 2:-0.784314 3:-0.698795 4:-0.895706 5:-0.916914 6:-0.853659 7:-0.522042 8:-0.799884 9:0.181818 10:-0.325581 11:0.16129 
2 0 0 0 0 0 1:-0.596154 2:-0.647059 3:-0.746988 4:-0.634969 5:-0.851632 6:-0.763066 7:-0.336427 8:-0.61095 9:0.0181818 10:-0.511628 11:-0.516129 
2 0 0 0 0 0 1:-0.480769 2:-0.490196 3:-0.662651 4:-0.96319 5:-0.810089 6:-0.714286 7:-0.169374 8:-0.780605 9:-0.254545 10:-0.651163 11:-0.483871 
2 0 0 0 0 0 1:-0.423077 2:-0.72549 3:-0.578313 4:-0.481595 5:-0.821958 6:-0.749129 7:-0.331787 8:-0.526123 9:-0.0545455 10:-0.534884 11:-0.677419 
2 0 0 0 0 0 1:-0.423077 2:-0.72549 3:-0.578313 4:-0.481595 5:-0.821958 6:-0.749129 7:-0.331787 8:-0.526123 9:-0.0545455 10:-0.534884 11:-0.677419 
1.094572897829124 2 1.6715656423955769 0.21533007293587011 0.079821108431945953 0 1:-0.365385 2:-0.901961 3:-0.542169 4:-0.96319 5:-0.780415 6:-0.916376 7:-0.512761 8:-0.792173 9:0.0909091 10:0.581395 11:0.193548 
0 0.80844722831483629 0 0 0 0 1:-0.461538 2:-0.901961 3:-0.638554 4:-0.868098 5:-0.709199 6:-0.686411 7:-0.433875 8:-0.711201 9:0.436364 10:-0.465116 11:-0.258065 
2 0.1219665860685613 0.073403914205941043 0.47361834350277943 0.072501889121214413 0 1:-0.576923 2:-0.784314 3:-0.144578 4:-0.972393 5:-0.151335 6:-0.95122 7:-0.786543 8:-0.784461 9:-0.272727 10:-0.44186 11:-0.419355 
1.3320135912981723 2 0.98725673049653007 0.58762479113428245 0.046099227640583426 0 1:-0.75 2:-0.392157 3:-0.746988 4:-0.966258 5:-0.893175 6:-0.909408 7:-0.707657 8:-0.911702 9:0.418182 10:-0.465116 11:0.451613 
0 2 0.78773849353729464 0 0.051312329454636138 0 1:-0.634615 2:-0.45098 3:-0.590361 4:-0.889571 5:-0.89911 6:-0.867596 7:-0.684455 8:-0.861577 9:0.254545 10:-0.465116 11:0.258065 
0 2 0 0 0 0 1:-0.576923 2:-0.352941 3:-0.746988 4:-0.960123 5:-0.756677 6:-0.811847 7:-0.475638 8:-0.780605 9:0.272727 10:-0.302326 11:-0.193548 
2 0 0 0 0 0 1:-0.307692 2:-0.607843 3:-0.638554 4:-0.855828 5:-0.732938 6:-0.707317 7:-0.294664 8:-0.73048 9:-0.272727 10:-0.395349 11:-0.258065 
2 0 0 0 0 0 1:-0.307692 2:-0.568627 3:-0.638554 4:-0.858896 5:-0.738872 6:-0.700348 7:-0.285383 8:-0.73048 9:-0.272727 10:-0.465116 11:-0.258065 
2 0 0 0.23296330784612465 0 0 1:-0.0769231 2:-0.843137 3:-0.542169 4:-0.91411 5:-0.816024 6:-0.728223 7:-0.37819 8:-0.765182 9:-0.581818 10:-0.604651 11:-0.290323 
0.29437486945157348 0 0 0.27278116697254634 0 0 1:-0.0769231 2:-0.803922 3:-0.566265 4:-0.96319 5:-0.816024 6:-0.84669 7:-0.174014 8:-0.672643 9:-0.0363636 10:-0.232558 11:-0.516129 
2 0 0 0 0 0 1:-0.230769 2:-0.627451 3:-0.590361 4:-0.969325 5:-0.780415 6:-0.825784 7:-0.327146 8:-0.784461 9:-0.4 10:-0.465116 11:-0.193548 
2 0 0 0 0 0 1:-0.557692 2:-0.686275 3:-0.674699 4:-0.717791 5:-0.68546 6:-0.783972 7:-0.336427 8:-0.634085 9:0.0727273 10:-0.418605 11:-0.516129 
0 2 0.1110149144493258 1.4904677653782077 0.63222013472465033 0 1:-0.192308 2:-0.686275 3:-0.638554 4:-0.483129 5:-0.721068 6:-0.714286 7:-0.187935 8:-0.514556 9:-0.4 10:-0.348837 11:-0.612903 
2 0 0 0 0 0 1:-0.5 2:-0.607843 3:-0.481928 4:-0.800613 5:-0.78635 6:-0.595819 7:-0.0162413 8:-0.688066 9:-0.327273 10:-0.465116 11:-0.548387 
0 2 0 0 0 0 1:-0.615385 2:-0.45098 3:-0.686747 4:-0.917178 5:-0.827893 6:-0.735192 7:-0.331787 8:-0.846154 9:0.127273 10:-0.232558 11:0.0645161 
0.51301351364236614 2 0.75354721249423795 0.56380147359618671 0 0 1:-0.461538 2:-0.803922 3:-0.662651 4:-0.917178 5:-0.792285 6:-0.888502 7:-0.61949 8:-0.772894 9:0.272727 10:-0.0232558 11:-0.0967742 
0 2 0 0 0 0 1:-0.615385 2:-0.45098 3:-0.686747 4:-0.917178 5:-0.827893 6:-0.735192 7:-0.331787 8:-0.846154 9:0.127273 10:-0.232558 11:0.0645161 
0.88866216172237589 0 0.055929821172560706 0 0 0 1:-0.134615 2:-0.862745 3:-0.53012 4:-0.978528 5:-0.727003 6:-0.790941 7:-0.364269 8:-0.772894 9:-0.345455 10:-0.604651 11:-0.193548 
2 0 0 0 0 0 1:-0.269231 2:-0.843137 3:-0.46988 4:-0.97546 5:-0.79822 6:-0.839721 7:-0.535963 8:-0.765182 9:-0.290909 10:0.232558 11:-0.258065 
0.40853927021208852 0.94660383588890085 0.082046485180697543 0 0 0 1:-0.134615 2:-0.843137 3:-0.421687 4:-0.966258 5:-0.715134 6:-0.797909 7:-0.587007 8:-0.722768 9:-0.218182 10:-0.55814 11:-0.258065 
2 0.60394247248091715 0 0.31320964802388929 0 0 1:-0.269231 2:-0.843137 3:-0.46988 4:-0.97546 5:-0.79822 6:-0.839721 7:-0.535963 8:-0.765182 9:-0.290909 10:0.232558 11:-0.258065 
1.5888012839811909 0 0 0.025004344421415973 0.051503081408842251 0 1:-0.365385 2:-0.803922 3:-0.493976 4:-0.97546 5:-0.78635 6:-0.686411 7:-0.313225 8:-0.826875 9:-0.581818 10:-0.790698 11:-0.193548 
0 1.6266249750569439 0.014934604548300468 0 0 0 1:-0.134615 2:-0.882353 3:-0.686747 4:-0.972393 5:-0.762611 6:-0.623693 7:-0.164733 8:-0.711201 9:-0.109091 10:-0.0697674 11:-0.516129 
1.2472823645944529 2 0.021042720539432482 0 0.092533143638731982 0 1:-0.269231 2:-0.784314 3:-0.542169 4:-0.693252 5:-0.697329 6:-0.679443 7:-0.234339 8:-0.649508 9:-0.254545 10:-0.627907 11:-0.193548 
0.77135406868889 0.5096683361535419 0.16738442878886492 0.34491951242016733 0.1063229797253165 0 1:-0.423077 2:-0.490196 3:-0.108434 4:-0.932515 5:-0.531157 6:-0.853659 7:-0.183295 8:-0.780605 9:0.436364 10:0.116279 11:0.290323 
1.7638024253216198 0.48030589260987561 0 0 0 0 1:-0.365385 2:-0.764706 3:-0.506024 4:-0.953988 5:-0.732938 6:-0.84669 7:-0.271462 8:-0.703489 9:0.381818 10:-0.0697674 11:-0.193548 
2 0 0 0 0 0 1:-0.538462 2:-0.490196 3:-0.650602 4:-0.785276 5:-0.774481 6:-0.700348 7:0.0348028 8:-0.676499 9:0.145455 10:-0.0697674 11:-0.354839 
1.6406125913992309 0 0 0 0 0 1:-0.365385 2:-0.568627 3:-0.566265 4:-0.809816 5:-0.727003 6:-0.703833 7:0.0440835 8:-0.61095 9:0.4 10:-0.0232558 11:-0.290323 
2 0.51161794933562199 0 0.14209749184974435 0.084390451214316459 0 1:-0.365385 2:-0.568627 3:-0.566265 4:-0.809816 5:-0.727003 6:-0.703833 7:0.0440835 8:-0.61095 9:0.4 10:-0.0232558 11:-0.290323 
1.3741281280028523 0 0.026286636335272388 1.090348919774569 0 0 1:-0.0384615 2:-0.823529 3:-0.542169 4:-0.96319 5:-0.816024 6:-0.74216 7:-0.354988 8:-0.726624 9:-0.2 10:0.0465116 11:-0.290323 
0 2 2 0 0 0 1:-0.557692 2:-0.431373 3:-0.566265 4:-0.874233 5:-0.845697 6:-0.763066 7:-0.50348 8:-0.85001 9:0.0727273 10:-0.0697674 11:0.483871 
1.4803120765129891 0.63266647405691434 0 0 0 0 1:-0.403846 2:-0.745098 3:-0.0240964 4:-0.984663 5:-0.240356 6:-0.651568 7:-0.470998 8:-0.765182 9:-0.436364 10:-0.604651 11:-0.612903 
1.1284722978247215 1.4135056145035834 0.56209010343530197 0 0.029338588170057193 0 1:-0.288462 2:-0.745098 3:-0.590361 4:-0.981595 5:-0.697329 6:-0.832753 7:-0.526682 8:-0.769038 9:0.436364 10:-0.418605 11:-0.129032 
0 0 0 0 0.023537734986045212 0 1:-0.173077 2:-0.647059 3:-0.554217 4:-0.960123 5:-0.626113 6:-0.679443 7:-0.303944 8:-0.699634 9:0.181818 10:0.116279 11:-0.0645161 
2 0 0 0 0 0 1:-0.5 2:-0.568627 3:-0.385542 4:-0.849693 5:-0.768546 6:-0.581882 7:-0.243619 8:-0.726624 9:-0.345455 10:-0.465116 11:-0.645161 
1.8604836331668688 2 1.8686919979950034 0 0 0 1:-0.403846 2:-0.764706 3:-0.566265 4:-0.972393 5:-0.869436 6:-0.749129 7:-0.359629 8:-0.769038 9:0.145455 10:-0.209302 11:-0.0322581 
0.16977440565904711 0.1435593477391362 0 0.3403237006315476 0 0 1:-0.538462 2:-0.0784314 3:-0.457831 4:-0.650307 5:-0.762611 6:-0.825784 7:-0.178654 8:-0.603239 9:-0.181818 10:-0.348837 11:-0.580645 
0 0.38130558465074854 0 0 0 0 1:-0.288462 2:-0.607843 3:-0.60241 4:-0.782209 5:-0.768546 6:-0.721254 7:-0.206497 8:-0.603239 9:0.181818 10:-0.139535 11:-0.322581 
2 0 0 1.0059698099679331 0 0 1:-0.519231 2:-0.490196 3:-0.650602 4:-0.828221 5:-0.780415 6:-0.811847 7:0.0116009 8:-0.688066 9:0.0363636 10:-0.27907 11:-0.322581 
2 0 0 0 0 0 1:-0.519231 2:-0.627451 3:-0.698795 4:-0.840491 5:-0.827893 6:-0.651568 7:-0.322506 8:-0.695778 9:0.0181818 10:-0.627907 11:-0.548387 
2 0 0 0 0 0 1:-0.519231 2:-0.627451 3:-0.698795 4:-0.840491 5:-0.827893 6:-0.651568 7:-0.322506 8:-0.695778 9:0.0181818 10:-0.627907 11:-0.548387 
0 2 0 0 0 0 1:-0.307692 2:-0.764706 3:-0.554217 4:-0.498466 5:-0.768546 6:-0.714286 7:-0.160093 8:-0.522267 9:-0.436364 10:-0.534884 11:-0.612903 
0 2 0 0 0 0 1:-0.307692 2:-0.764706 3:-0.554217 4:-0.498466 5:-0.768546 6:-0.714286 7:-0.160093 8:-0.522267 9:-0.436364 10:-0.534884 11:-0.612903 
2 0.25773958010076958 0 0.19224822992758656 0 0 1:-0.134615 2:-0.745098 3:-0.301205 4:-0.493865 5:-0.762611 6:-0.581882 7:-0.0533643 8:-0.479853 9:-0.472727 10:-0.325581 11:-0.580645 
0 2 0 0 0 0 1:-0.346154 2:-0.745098 3:-0.578313 4:-0.57362 5:-0.768546 6:-0.770035 7:-0.215777 8:-0.572393 9:-0.4 10:-0.418605 11:-0.709677 
0.60527122077964468 2 0 0.10030259719675172 0.19634697575344803 0 1:-0.365385 2:-0.745098 3:-0.518072 4:-0.981595 5:-0.643917 6:-0.84669 7:-0.317865 8:-0.780605 9:0.272727 10:-0.511628 11:-0.16129 
1.7814906556908363 0.6872787942737999 0 0 0 0 1:-0.480769 2:-0.607843 3:-0.686747 4:-0.748466 5:-0.816024 6:-0.707317 7:-0.396752 8:-0.672643 9:0.0909091 10:-0.651163 11:-0.290323 
2 0 0 0 0 0 1:-0.480769 2:-0.588235 3:-0.698795 4:-0.693252 5:-0.821958 6:-0.790941 7:-0.484919 8:-0.649508 9:0.0727273 10:-0.72093 11:-0.322581 
2 0 0 0 0 0 1:-0.519231 2:-0.627451 3:-0.698795 4:-0.840491 5:-0.827893 6:-0.651568 7:-0.322506 8:-0.695778 9:0.0181818 10:-0.627907 11:-0.548387 
0 0.75384082678739028 0 0 0 0 1:-0.519231 2:-0.823529 3:-0.493976 4:-0.932515 5:-0.88724 6:-0.700348 7:-0.545244 8:-0.857721 10:-0.511628 11:0.225806 
1.1495298698428082 0.073679556707810082 0 0.45844585314059705 0 0 1:-0.192308 2:-0.803922 3:-0.554217 4:-0.978528 5:-0.816024 6:-0.909408 7:-0.596288 8:-0.842298 9:-0.381818 10:-0.0930233 11:0.322581 
2 0.14909117225613877 0 0 0 0 1:-0.480769 2:-0.72549 3:-0.590361 4:-0.650307 5:-0.738872 6:-0.630662 7:-0.220418 8:-0.568537 9:0.454545 10:-0.488372 11:-0.387097 
1.1024607036096992 1.8688242219116387 0 0.20544847318760029 0.012318298058562748 0 1:-0.442308 2:-0.95098 3:-0.614458 4:-0.638037 5:-0.750742 6:-0.777003 7:-0.549884 8:-0.580104 9:0.490909 10:-0.465116 11:-0.612903 
2 0 0 0.048412470027041153 0 0 1:-0.576923 2:-0.372549 3:-0.638554 4:-0.969325 5:-0.774481 6:-0.804878 7:-0.49884 8:-0.769038 9:-0.181818 10:-0.395349 11:-0.322581 
2 0.1718345196292364 0 0 0 0 1:-0.519231 2:-0.0784314 3:-0.457831 4:-0.619632 5:-0.774481 6:-0.783972 7:-0.197216 8:-0.603239 9:-0.127273 10:-0.44186 11:-0.612903 
1.6755691654082823 0.21457459277494836 0 0 0 0 1:-0.403846 2:-0.764706 3:-0.662651 4:-0.981595 5:-0.768546 6:-0.763066 7:-0.303944 8:-0.749759 9:-0.145455 10:-0.511628 11:-0.645161 
0 0.069185621912549525 0 0 0 0 1:-0.403846 2:-0.705882 3:-0.590361 4:-0.895706 5:-0.774481 6:-0.84669 7:-0.447796 8:-0.718913 9:-0.127273 10:-0.302326 11:-0.451613 
2 1.0138240331235959 0 0 0 0 1:-0.442308 2:-0.666667 3:-0.590361 4:-0.624233 5:-0.768546 6:-0.804878 7:-0.294664 8:-0.556969 9:0.309091 10:-0.418605 11:-0.516129 
1.1427985095458455 0.1765387051185355 0 0 0 0 1:-0.0961538 2:-0.843137 3:-0.60241 4:-0.98773 5:-0.602374 6:-0.89547 7:-0.777262 8:-0.807596 9:-0.236364 10:-0.44186 11:-0.16129 
0.72921080243048864 1.1564116968225144 1.1837967986596263 0 0 0 1:-0.384615 2:-0.823529 3:-0.554217 4:-0.843558 5:-0.905045 6:-0.811847 7:-0.526682 8:-0.742047 9:-0.127273 10:-0.372093 11:-0.0967742 
0.63039523657663044 0.59981002998760513 0 0.68047082198459652 0.015579636992319014 0 1:-0.711538 2:-0.382353 3:-0.915663 4:-0.978528 5:-0.845697 6:-0.832753 7:-0.568445 8:-0.811452 9:0.418182 10:-0.697674 11:-0.16129 
0.33604637244066221 0 0 0 0 0 1:-0.230769 2:-0.568627 3:-0.650602 4:-0.501534 5:-0.732938 6:-0.853659 7:-0.415313 8:-0.5107 9:-0.2 10:-0.627907 11:-0.677419 
2 0 0 0 0 0 1:-0.230769 2:-0.568627 3:-0.650602 4:-0.501534 5:-0.732938 6:-0.853659 7:-0.415313 8:-0.5107 9:-0.2 10:-0.627907 11:-0.677419 
2 0 0 0 0 0 1:-0.230769 2:-0.568627 3:-0.650602 4:-0.501534 5:-0.732938 6:-0.853659 7:-0.415313 8:-0.5107 9:-0.2 10:-0.627907 11:-0.677419 
2 0.79040287713133317 0 0.98499542710272869 0 0 1:-0.230769 2:-0.568627 3:-0.650602 4:-0.501534 5:-0.732938 6:-0.853659 7:-0.415313 8:-0.5107 9:-0.2 10:-0.627907 11:-0.677419 
0.91768174474604935 0.17904939092268651 0.098851218136901065 0.27424618576894738 0.096740062915443792 0 1:-0.634615 2:-0.647059 3:-0.674699 4:-0.892638 5:0.139466 6:-0.501742 7:-0.162413 8:-0.726624 10:-0.627907 11:-0.548387 
2 0.13747238625550895 0.071721303809026596 1.1376686160949636 0 0 1:-0.153846 2:-0.705882 3:-0.409639 4:-0.990798 5:-0.715134 6:-0.909408 7:-0.703016 8:-0.780605 9:-0.363636 10:-0.627907 11:-0.225806 
2 0 0 0.074413072562094007 0 0 1:-0.307692 2:-0.705882 3:-0.481928 4:-0.97546 5:-0.792285 6:-0.860627 7:-0.517401 8:-0.742047 9:-0.0909091 10:-0.0697674 11:-0.16129 
0.087111767559571188 0.3629865204842519 0 0.24947511598252237 0.05434791432545031 0 1:-0.288462 2:-0.882353 3:-0.590361 4:-0.978528 5:-0.727003 6:-0.665505 7:-0.331787 8:-0.715057 9:0.0363636 10:0.348837 11:-0.483871 
2 0 0 0.02772326563265802 0 0 1:-0.25 2:-0.666667 3:-0.481928 4:-0.880368 5:-0.68546 6:-0.874564 7:-0.508121 8:-0.634085 9:0.2 10:-0.348837 11:-0.387097 
0.85535040322550349 0.15369567399701498 0 0 0 0 1:-0.346154 2:-0.647059 3:-0.686747 4:-0.628834 5:-0.839763 6:-0.672474 7:-0.0487239 8:-0.556969 9:0.254545 10:-0.348837 11:-0.354839 
0.76918796710717063 0 0 1.6036345178666069 0 0 1:-0.423077 2:-0.666667 3:-0.650602 4:-0.957055 5:-0.804154 6:-0.881533 7:-0.164733 8:-0.688066 9:0.345455 10:-0.255814 11:-0.290323 
2 0 0 0.77479912288765429 0 0 1:-0.288462 2:-0.333333 3:-0.457831 4:-0.739264 5:-0.881306 6:-0.874564 7:-0.461717 8:-0.65722 9:-0.272727 10:-0.674419 11:-0.322581 
1.0976284189122725 0 0 0 0 0 1:-0.365385 2:-0.745098 3:-0.638554 4:-0.97546 5:-0.833828 6:-0.700348 7:-0.37819 8:-0.765182 9:-0.254545 10:-0.744186 11:-0.387097 
0 1.9076880237628973 0.18235204824928813 0.31553272755240591 0 0 1:-0.269231 2:-0.745098 3:-0.46988 4:-0.960123 5:-0.839763 6:-0.944251 7:-0.489559 8:-0.838442 9:-0.472727 10:0.116279 11:0.548387 
2 0 0 0 0 0 1:-0.365385 2:-0.647059 3:-0.614458 4:-0.575153 5:-0.614243 6:-0.811847 7:-0.545244 8:-0.580104 9:-0.563636 10:-0.534884 11:-0.612903 
1.2678481038386107 0.38623732138026606 0 0 0 0 1:-0.538462 2:-0.431373 3:-0.73494 4:-0.763804 5:-0.905045 6:-0.763066 7:-0.0394432 8:-0.641797 9:0.109091 10:-0.116279 11:-0.483871 
2 0 0.47653543569263113 0.41863130898662826 0 0 1:-0.365385 2:-0.647059 3:-0.614458 4:-0.575153 5:-0.614243 6:-0.811847 7:-0.545244 8:-0.580104 9:-0.563636 10:-0.534884 11:-0.612903 
0 2 0.42710012833513267 0 0 0 1:-0.423077 2:-0.803922 3:-0.554217 4:-0.972393 5:-0.893175 6:-0.756098 7:-0.610209 8:-0.811452 9:0.0545455 10:-0.465116 11:-0.0967742 
2 0 0 0 0 0 1:-0.384615 2:-0.647059 3:-0.445783 4:-0.541411 5:-0.833828 6:-0.58885 7:-0.24826 8:-0.556969 9:-0.6 10:-0.697674 11:-0.741935 
2 2 2 0 0 0 1:-0.519231 2:-0.745098 3:-0.518072 4:-0.966258 5:-0.869436 6:-0.679443 7:-0.419954 8:-0.823019 9:0.272727 10:-0.372093 11:0.129032 
0 1.3130258915771214 0 0 0 0.79024198988406646 1:-0.192308 2:-0.705882 3:-0.445783 4:-0.972393 5:-0.875371 6:-0.804878 7:-0.461717 8:-0.861577 9:-0.0727273 10:-0.418605 11:0.451613 
2 1.3089606089681987 0.34045163818065333 2 0.38911509582364628 0 1:0.0384615 2:-0.607843 3:-0.506024 4:-0.98773 5:-0.804154 6:-0.916376 7:-0.767981 8:-0.80374 9:-0.563636 10:-0.930233 11:-0.193548 
2 0 0 0 0 0 1:-0.269231 2:-0.529412 3:-0.566265 4:-0.969325 5:-0.816024 6:-0.790941 7:-0.322506 8:-0.772894 9:-0.0727273 10:-0.302326 11:0.0645161 
1.2048311208528524 1.1770215843950351 0.20325488169914124 0.77116288442838132 0.12061966973521847 0 1:-0.769231 2:-0.509804 3:-0.807229 4:-0.972393 5:-0.762611 6:-0.944251 7:-0.591647 8:-0.823019 9:0.381818 10:-0.488372 11:-0.129032 
2 0.49349623361555439 0.1028103446971675 0.53161168871677444 0.11218373932333542 0 1:0.134615 2:-0.686275 3:-0.457831 4:-0.981595 5:-0.857567 6:-0.937282 7:-0.767981 8:-0.788317 9:-0.963636 10:-0.418605 11:-0.0967742 
2 0 0 0.83828902952785267 0 0 1:-0.5 2:-0.705882 3:-0.60241 4:-0.983129 5:-0.792285 6:-0.905923 7:-0.0324826 8:-0.811452 9:0.109091 10:-0.488372 11:-0.0322581 
2 0.59427681643541097 0.15724282239549286 0.95105880406584675 0 0 1:-0.269231 2:-0.607843 3:-0.53012 4:-0.981595 5:-0.827893 6:-0.867596 7:-0.508121 8:-0.734336 9:-0.2 10:0.0465116 11:-0.354839 
0 2 0 0 0 0 1:-0.423077 2:-0.529412 3:-0.554217 4:-0.91411 5:-0.916914 6:-0.881533 7:-0.638051 8:-0.880856 9:-0.236364 10:-0.27907 11:0.516129 
0.53017039651019293 0.36976720160414944 0.0089733984356339166 0.2468645471025995 0.37870508622639576 0 1:0.0769231 2:-0.647059 3:-0.361446 4:-0.981595 5:-0.774481 6:-0.839721 7:-0.535963 8:-0.807596 9:-0.0727273 10:-0.860465 11:0.451613 
2 2 0.73332085974176608 0 0 0 1:-0.326923 2:-0.588235 3:-0.638554 4:-0.619632 5:-0.79822 6:-0.69338 7:0.062645 8:-0.556969 9:-0.381818 10:-0.55814 11:-0.774194 
0.72950691125424538 1.3954044784232977 0.95631577340970653 1.414624790197941 0 0 1:-0.25 2:-0.392157 3:-0.638554 4:-0.858896 5:-0.833828 6:-0.811847 7:-0.433875 8:-0.722768 9:0.2 10:-0.488372 11:-0.0322581 
0 1.8338760092247048 1.4312096607502345 0 0 0 1:-0.25 2:-0.647059 3:-0.626506 4:-0.978528 5:-0.79822 6:-0.686411 7:-0.322506 8:-0.745903 9:0.272727 10:-0.348837 11:-0.322581 
0 2 1.8368227023190629 0 0 0 1:-0.423077 2:-0.529412 3:-0.554217 4:-0.91411 5:-0.916914 6:-0.881533 7:-0.638051 8:-0.880856 9:-0.236364 10:-0.27907 11:0.516129 
2 0.12282872649435977 0 1.5615981957350014 0 0 1:-0.211538 2:-0.882353 3:-0.662651 4:-0.96319 5:-0.810089 6:-0.707317 7:-0.215777 8:-0.680355 9:0.327273 10:-0.511628 11:-0.612903 
2 0 0 0 0 0 1:-0.653846 2:-0.676471 3:-0.614458 4:-0.984663 5:-0.774481 6:-0.84669 7:-0.336427 8:-0.784461 9:-0.272727 10:-0.534884 11:-0.580645 
1.5762885886782825 0.41458339297784158 0.035221599471667288 0.31207785827801088 0.054873220071727069 0 1:-0.5 2:-0.72549 3:-0.590361 4:-0.96319 5:-0.715134 6:-0.811847 7:-0.559165 8:-0.661076 9:0.981818 10:-0.186047 11:-0.258065 
0.73397736959754756 0 0.16389945503189038 0.1021440137582378 0 0 1:-0.5 2:-0.823529 3:-0.674699 4:-0.812883 5:-0.839763 6:-0.400697 7:-0.00696056 8:-0.703489 9:0.0181818 10:-0.697674 11:-0.290323 
2 0 0 0 0 0 1:-0.403846 2:-0.588235 3:-0.807229 4:-0.809816 5:-0.851632 6:-0.560976 7:-0.0580046 8:-0.676499 9:-0.345455 10:-0.604651 11:-0.677419 
2 0 0 0 0.2392840994084664 0 1:-0.538462 2:-0.745098 3:-0.542169 4:-0.809816 5:-0.839763 6:-0.567944 7:0.0951276 8:-0.691922 9:-0.381818 10:-0.674419 11:-0.580645 
2 0.12235891331124979 0 0 0 0 1:-0.5 2:-0.705882 3:-0.638554 4:-0.800613 5:-0.833828 6:-0.574913 7:0.0533643 8:-0.688066 9:-0.381818 10:-0.72093 11:-0.612903 
1.1066282839222641 0 0.06865801888961684 0.26715455092082269 0.04006302463148869 0 1:-0.326923 2:-0.784314 3:-0.180723 4:-0.972393 5:-0.756677 6:-0.797909 7:-0.317865 8:-0.711201 9:0.0909091 10:-0.0232558 11:-0.548387 
0 0 0.25990173344247192 0 0 0 1:-0.326923 2:-0.803922 3:-0.216867 4:-0.97546 5:-0.780415 6:-0.818815 7:-0.313225 8:-0.711201 9:0.109091 10:-0.0697674 11:-0.548387 
0.85866773988558531 0.35946640351293557 0.081367704766688559 0.40472629494083456 0.1093734151695633 0 1:0.115385 2:-0.588235 3:-0.445783 4:-0.973926 5:-0.821958 6:-0.473868 7:-0.00696056 8:-0.718913 9:-0.636364 10:-0.44186 11:-0.516129 
2 0 0 0 0 0 1:-0.115385 2:-0.470588 3:-0.325301 4:-0.595092 5:-0.768546 6:-0.630662 7:-0.160093 8:-0.529979 9:-0.363636 10:-0.162791 11:-0.548387 
2 0.67369525825095722 0 0.2410533914594023 0 0 1:-0.115385 2:-0.470588 3:-0.325301 4:-0.595092 5:-0.768546 6:-0.630662 7:-0.160093 8:-0.529979 9:-0.363636 10:-0.162791 11:-0.548387 
2 0 0 0 0 0 1:-0.538462 2:-0.72549 3:-0.674699 4:-0.972393 5:-0.673591 6:-0.874564 7:-0.429234 8:-0.742047 9:-0.0909091 10:-0.44186 11:-0.612903 
1.4029048679618903 0 0.15140437891928871 0.0871017548397853 0.21609326778882446 0 1:-0.384615 2:-0.686275 3:-0.566265 4:-0.868098 5:-0.560831 6:-0.944251 7:-0.424594 8:-0.726624 9:0.109091 10:-0.651163 11:-0.0967742 
0.38148086258223524 0 0 0 0 0 1:-0.461538 2:-0.627451 3:-0.638554 4:-0.960123 5:-0.905045 6:-0.916376 7:-0.331787 8:-0.780605 9:0.0363636 10:-0.0697674 11:-0.193548 
0.0082117811303968873 0.42054210383020235 0.61589305286574314 0 0.010287507003144382 0 1:-0.230769 2:-0.843137 3:-0.506024 4:-0.966258 5:-0.89911 6:-0.811847 7:-0.392111 8:-0.85001 9:-0.454545 10:0.302326 11:0.451613 
0.35948263541318853 2 0 0 0 0 1:-0.461538 2:-0.843137 3:-0.638554 4:-0.969325 5:-0.851632 6:-0.909408 7:-0.679814 8:-0.811452 9:0.2 10:-0.488372 11:0.0322581 
0 0.62264266103144716 0.036849854730758184 0 0 0 1:-0.115385 2:-0.843137 3:-0.60241 4:-0.972393 5:-0.857567 6:-0.902439 7:-0.587007 8:-0.734336 9:-0.236364 10:-0.534884 11:-0.451613 
2 0.77788312993669695 1.3900207251750245 0.47911530874265179 0 0 1:-0.288462 2:-0.411765 3:-0.60241 4:-0.865031 5:-0.78635 6:-0.804878 7:-0.433875 8:-0.726624 9:0.0909091 10:-0.488372 11:-0.0645161 
0 2 0.51648830339514107 0 0 0.10020698855185924 1:-0.326923 2:-0.490196 3:-0.53012 4:-0.858896 5:-0.816024 6:-0.700348 7:-0.285383 8:-0.792173 9:0.0545455 10:-0.418605 11:0.419355 
1.8955361240669408 0 0 0.26715971037045555 0.041261099527995865 0 1:2.22045e-16 2:-0.676471 3:-0.542169 4:-0.837423 5:-0.78635 6:-0.651568 7:-0.303944 8:-0.695778 9:-0.618182 10:-0.697674 11:-0.290323 
1.9003008054680661 0.4802384078207958 0.12432531246838929 0 0 0 1:-0.307692 2:-0.784314 3:-0.493976 4:-0.822086 5:-0.655786 6:-0.74216 7:-0.0580046 8:-0.664932 9:0.0545455 10:-0.744186 11:-0.483871 
0.72792203657995525 1.09232578874778 0 0.3270372775928021 0.029302117472657804 0 1:0.0384615 2:-0.862745 3:-0.180723 4:-0.969325 5:-0.780415 6:-0.860627 7:-0.438515 8:-0.703489 9:-0.454545 10:-0.465116 11:-0.225806 
1.3092448052967038 1.205070937380347 0.063941729944469977 2 0.051225242992003081 0 1:0.0769231 2:-0.823529 3:-0.337349 4:-0.969325 5:-0.762611 6:-0.916376 7:-0.605568 8:-0.699634 9:-0.454545 10:-0.0930233 11:-0.258065 
1.8799812629714836 0.89113378964662915 0.036745930576079937 0.057111143204132964 0.038672821039883502 0 1:-0.730769 2:-0.441176 3:-0.903614 4:-0.604294 5:-0.810089 6:-0.756098 7:-0.382831 8:-0.618662 9:0.345455 10:-0.604651 11:-0.387097 
2 0 0 0 0 0 1:-0.5 2:-0.54902 3:-0.518072 4:-0.828221 5:-0.816024 6:-0.69338 7:-0.257541 8:-0.684211 9:-0.218182 10:-0.44186 11:-0.580645 
0 0.27294903631143191 0 0 0 0 1:-0.173077 2:-0.764706 3:-0.566265 4:-0.720859 5:-0.792285 6:-0.574913 7:-0.290023 8:-0.618662 9:-0.309091 10:-0.44186 11:-0.354839 
2 1.6000724473986643 0 0 0 0 1:-0.211538 2:-0.656863 3:-0.686747 4:-0.957055 5:-0.89911 6:-0.735192 7:-0.160093 8:-0.765182 9:-0.418182 10:-0.604651 11:0.0322581 
0 1.1814823111872879 0 0 0 0 1:-0.5 2:-0.862745 3:-0.626506 4:-0.984663 5:-0.792285 6:-0.839721 7:-0.596288 8:-0.765182 9:0.490909 10:-0.325581 11:-0.258065 
0.50743322281985137 0 0 0 0.056044544310616215 0 1:-0.269231 2:-0.784314 3:-0.493976 4:-0.972393 5:-0.792285 6:-0.972125 7:-0.512761 8:-0.834586 9:-0.418182 10:0.209302 11:0.548387 
0.32222282141679992 2 0 0 0.11890728296861122 0 1:-0.326923 2:-0.313725 3:-0.554217 4:-0.877301 5:-0.88724 6:-0.89547 7:-0.512761 8:-0.85001 9:-0.0727273 10:-0.511628 11:0.677419 
2 1.4548172059046336 0.25798385543710217 0 0 0 1:-0.75 2:-0.54902 3:-0.638554 4:-0.990798 5:-0.833828 6:-0.818815 7:-0.336427 8:-0.811452 9:0.490909 10:-0.209302 11:-0.322581 
1.4007148932263311 0.79448786582090225 0 0.0061837040101232303 0 0 1:-0.403846 2:-0.843137 3:-0.578313 4:-0.978528 5:-0.79822 6:-0.867596 7:-0.197216 8:-0.784461 9:-0.0363636 10:-0.0697674 11:-0.0967742 
1.9674392772776925 0 0 0.0058139751807292049 0.061918991613092118 0 1:-0.480769 2:-0.72549 3:-0.13253 4:-0.809816 5:-0.804154 6:-0.783972 7:-0.262181 8:-0.664932 9:-0.272727 10:-0.674419 11:-0.612903 
2 0 0 0 0 0 1:-0.423077 2:-0.647059 3:-0.60241 4:-0.972393 5:-0.774481 6:-0.707317 7:-0.266821 8:-0.780605 9:-0.272727 10:-0.488372 11:-0.193548 
0.75396850496716716 1.6338719184889305 0.18528967268975904 1.36191922866795 0 0 1:-0.730769 2:-0.431373 3:-0.60241 4:-0.981595 5:-0.88724 6:-0.923345 7:-0.665893 8:-0.880856 9:0.181818 10:-0.627907 11:0.193548 
1.4278631481178183 2 0 0 0 0 1:-0.423077 2:-0.862745 3:-0.614458 4:-0.748466 5:-0.709199 6:-0.84669 7:-0.531323 8:-0.61095 9:0.236364 10:-0.581395 11:-0.741935 
0.38398120600656488 0 0 0 0.46558581333445109 0 1:2.22045e-16 2:-0.686275 3:-0.39759 4:-0.981595 5:-0.768546 6:-0.832753 7:-0.545244 8:-0.819163 9:-0.109091 10:-0.72093 11:0.419355 
1.1878132632240048 0.57949358053133593 0.020186123740354882 0.26062303433595657 0.09189029886236863 0 1:-0.115385 2:-0.0196078 3:-0.674699 4:-0.645706 5:-0.857567 6:-0.756098 7:-0.50348 8:-0.661076 9:-0.509091 10:-0.604651 11:-0.0967742 
2 0.28175862379911343 0 0 0 0 1:-0.461538 2:-0.666667 3:-0.626506 4:-0.638037 5:-0.703264 6:-0.651568 7:-0.201856 8:-0.564681 9:0.436364 10:-0.418605 11:-0.419355 
1.2784000989956688 1.0497019832999612 0.073237217675369295 1.5971024139148184 0.18197292454335745 0 1:-0.634615 2:-0.745098 3:-0.710843 4:-0.947853 5:-0.774481 6:-0.595819 7:-0.164733 8:-0.695778 9:0.690909 10:0.162791 11:-0.322581 
2 0 0 0 0 0 1:-0.519231 2:-0.588235 3:-0.518072 4:-0.819018 5:-0.821958 6:-0.714286 7:-0.266821 8:-0.684211 9:-0.218182 10:-0.488372 11:-0.580645 
0 2 0 0 0 0 1:-0.538462 2:-0.921569 3:-0.686747 4:-0.843558 5:-0.792285 6:-0.623693 7:-0.308585 8:-0.691922 9:0.454545 10:-0.651163 11:-0.193548 
0.95487473332880235 2 0.53790977888730429 0 0 0 1:-0.384615 2:-0.882353 3:-0.506024 4:-0.990798 5:-0.833828 6:-0.860627 7:-0.600928 8:-0.834586 9:-0.0363636 10:-0.511628 11:-0.0645161 
1.2338478850336756 0 0.32916329357395513 1.1599189667003629 0 0 1:-0.326923 2:-0.72549 3:-0.506024 4:-0.546012 5:-0.756677 6:-0.630662 7:-0.155452 8:-0.502988 9:0.0909091 10:-0.139535 11:-0.709677 
2 0 0 1.9241650689701593 0 0 1:-0.269231 2:-0.607843 3:-0.53012 4:-0.960123 5:-0.744807 6:-0.853659 7:-0.50348 8:-0.73048 9:-0.0363636 10:-0.581395 11:-0.225806 
1.1574385175538018 0.30379789364470966 0.10654285803766252 0.3652149016110961 0.26899470517647911 0 1:0.326923 2:-0.72549 3:-0.325301 4:-0.766871 5:-0.792285 6:-0.756098 7:-0.201856 8:-0.580104 9:-0.727273 10:0.0697674 11:-0.516129 
2 0 0 0.18422553466318903 0 0 1:-0.403846 2:-0.627451 3:-0.506024 4:-0.966258 5:-0.774481 6:-0.972125 7:-0.419954 8:-0.77675 9:-0.218182 10:0.0930233 11:0.0967742 
2 1.0830502414388088 0 0 0 0 1:-0.403846 2:-0.607843 3:-0.506024 4:-0.966258 5:-0.756677 6:-0.944251 7:-0.410673 8:-0.772894 9:-0.2 10:0.139535 11:0.0967742 
2 0 0 1.2310827558808304 0.11703850833819193 0 1:-0.403846 2:-0.254902 3:-0.759036 4:-0.990798 5:-0.732938 6:-0.979094 7:-0.457077 8:-0.811452 9:-0.309091 10:-0.534884 11:-0.225806 
2 0.20733234557752034 0.077355233113178046 2 0.078945136324450105 0 1:-0.461538 2:-0.0588235 3:-0.807229 4:-0.923313 5:-0.78635 6:-0.818815 7:-0.614849 8:-0.734336 9:-0.272727 10:-0.697674 11:-0.645161 
1.5494884836059968 0.28797786271434517 0 0.67181136498922445 0 0 1:-0.365385 2:-0.45098 3:-0.325301 4:-0.978528 5:-0.780415 6:-0.839721 7:-0.568445 8:-0.799884 9:-0.0545455 10:-0.744186 11:-0.193548 
2 0 0 0 0 0 1:-0.423077 2:-0.705882 3:-0.518072 4:-0.969325 5:-0.774481 6:-0.979094 7:-0.424594 8:-0.772894 9:-0.0727273 10:0.116279 11:0.0967742 
0 1.1611397237705319 0 0 0 0 1:-0.461538 2:-0.333333 3:-0.60241 4:-0.932515 5:-0.851632 6:-0.909408 7:-0.647332 8:-0.888568 9:0.0181818 10:-0.325581 11:0.741935 
0.50392913586971144 0 0 0 0 0 1:-0.173077 2:-0.784314 3:-0.518072 4:-0.990798 5:-0.833828 6:-0.505226 7:-0.206497 8:-0.788317 9:-0.381818 10:-0.72093 11:-0.354839 
0.48105367063015209 2 0 0 0 0 1:-0.596154 2:-0.784314 3:-0.686747 4:-0.791411 5:-0.851632 6:-0.783972 7:-0.470998 8:-0.695778 9:0.4 10:-0.534884 11:-0.322581 
0 0 0 0.037908970968082364 0 0 1:-0.538462 2:-0.843137 3:-0.433735 4:-0.97546 5:-0.881306 6:-0.853659 7:-0.665893 8:-0.888568 9:-0.0181818 10:-0.534884 11:0.354839 
0 2 0 0 0 0 1:-0.461538 2:-0.333333 3:-0.60241 4:-0.932515 5:-0.851632 6:-0.909408 7:-0.647332 8:-0.888568 9:0.0181818 10:-0.325581 11:0.741935 
2 0 0 0 0 0 1:-0.634615 2:-0.892157 3:-0.638554 4:-0.877301 5:-0.804154 6:-0.881533 7:-0.573086 8:-0.711201 9:0.0727273 10:-0.534884 11:-0.580645 
1.1923695993841361 0.1587161270058593 0.10820113938173387 1.248548452777166 0.10453249998135418 0 1:-0.519231 2:0.156863 3:-0.421687 4:-0.631902 5:-0.744807 6:-0.616725 7:-0.0116009 8:-0.58396 9:-0.181818 10:-0.302326 11:-0.580645 
1.0980514643562924 0.1455234882029223 0 0.36551523883829157 0.072829820760817621 0 1:-0.365385 2:-0.784314 3:-0.662651 4:-0.907975 5:-0.857567 6:-0.902439 7:-0.679814 8:-0.772894 9:-0.654545 10:0.302326 11:0.0967742 
2 1.3997087070781045 0 0 0 0 1:-0.211538 2:-0.764706 3:-0.590361 4:-0.981595 5:-0.816024 6:-0.811847 7:-0.4942 8:-0.765182 9:-0.236364 10:-0.55814 11:-0.16129 
0 2 1.3323077054011043 0 0.23649035114405681 0 1:-0.365385 2:-0.647059 3:-0.614458 4:-0.837423 5:-0.833828 6:-0.74216 7:-0.591647 8:-0.757471 9:0.0727273 10:-0.581395 11:0.16129 
0 1.5825501771808601 0 0 0 0 1:-0.384615 2:-0.764706 3:-0.590361 4:-0.843558 5:-0.845697 6:-0.790941 7:-0.656613 8:-0.780605 9:-0.145455 10:-0.44186 11:0.129032 
2 0 0 0 0 0 1:-0.173077 2:-0.588235 3:-0.409639 4:-0.800613 5:-0.804154 6:-0.860627 7:-0.466357 8:-0.718913 9:-0.236364 10:-0.55814 11:-0.0967742 
1.3272536131252877 2 0 0 0 0 1:-0.615385 2:-0.823529 3:-0.638554 4:-0.97546 5:-0.833828 6:-0.630662 7:-0.438515 8:-0.853865 9:0.0363636 10:-0.627907 11:0.0645161 
0.4947759857442327 0 0 1.8961784050551582 0 0 1:-0.461538 2:-0.705882 3:-0.686747 4:-0.978528 5:-0.78635 6:-0.902439 7:-0.447796 8:-0.757471 9:0.163636 10:-0.116279 11:-0.354839 
0 0.28199596746222344 0 0.0096626877864057908 0.0082739835369855328 0 1:-0.538462 2:-0.803922 3:-0.409639 4:-0.880368 5:-0.774481 6:-0.89547 7:-0.62413 8:-0.815307 10:-0.651163 11:0.16129 
2 0.18046106550871144 0 0 0 0.35337304032162564 1:-0.173077 2:-0.588235 3:-0.409639 4:-0.800613 5:-0.804154 6:-0.860627 7:-0.466357 8:-0.718913 9:-0.236364 10:-0.55814 11:-0.0967742 
0 1.0689552537195584 0.44080978305691748 0 0 0 1:-0.423077 2:-0.72549 3:-0.409639 4:-0.990798 5:-0.744807 6:-0.832753 7:-0.447796 8:-0.85001 9:-0.0363636 10:-0.697674 11:0.0967742 
0.089880423078600072 2 0.70008789955667161 0 0.098295401284111836 0 1:-0.365385 2:-0.588235 3:-0.409639 4:-0.981595 5:-0.869436 6:-0.790941 7:-0.582367 8:-0.915558 9:-0.363636 10:-0.744186 11:0.354839 
0 1.0793449166567233 0.95418269669266076 0 0 0 1:-0.384615 2:-0.803922 3:-0.409639 4:-0.855828 5:-0.816024 6:-0.777003 7:-0.461717 8:-0.834586 9:-0.0545455 10:-0.581395 11:0.354839 
0 1.0958209510978663 0 0 0 0 1:-0.230769 2:-0.313725 3:-0.409639 4:-0.619632 5:-0.857567 6:-0.756098 7:-0.308585 8:-0.676499 9:-0.236364 10:-0.697674 11:0.0645161 
0.074697237829993129 1.3250351128198896 0.40901229959995183 0.20740332228002833 0 0.16743321478267226 1:-0.519231 2:-0.627451 3:-0.409639 4:-0.981595 5:-0.679525 6:-0.770035 7:-0.614849 8:-0.846154 9:0.2 10:-0.534884 11:0.354839 
0 0 0.23738792587170582 0 0 0 1:-0.134615 2:-0.764706 3:-0.108434 4:-0.881902 5:-0.792285 6:-0.783972 7:-0.438515 8:-0.796029 9:-0.0363636 10:-0.534884 11:0.354839 
0.023058127377199422 0.69043638280529085 0.81449841407549406 0 0 0.14081394515463663 1:-0.365385 2:-0.72549 3:-0.108434 4:-0.935583 5:-0.792285 6:-0.721254 7:-0.37355 8:-0.85001 9:0.0727273 10:-0.55814 11:0.354839 
0 1.7879007301615102 0 0 0 0 1:-0.211538 2:-0.941176 3:-0.409639 4:-0.880368 5:-0.768546 6:-0.825784 7:-0.424594 8:-0.711201 9:-0.0545455 10:-0.534884 11:-0.16129 
0.3974061151165037 0 0 0.20920966433161847 0 0 1:-0.0961538 2:-0.823529 3:-0.108434 4:-0.907975 5:-0.756677 6:-0.811847 7:-0.447796 8:-0.780605 9:0.0181818 10:-0.581395 11:0.419355 
0.42012413532372767 0.17604092225667331 0.0061655675499018899 0 0 0 1:-0.5 2:-0.872549 3:-0.409639 4:-0.852761 5:-0.768546 6:-0.637631 7:-0.280742 8:-0.711201 9:0.527273 10:-0.488372 11:-0.0967742 
1.9701210553714958 0.12864050382150746 0 0 0 0 1:-0.307692 2:-0.843137 3:-0.409639 4:-0.981595 5:-0.727003 6:-0.888502 7:-0.345708 8:-0.823019 9:-0.0727273 10:-0.418605 11:0.0322581 
2 0 0 0.22515441160357597 0 0 1:-0.134615 2:-0.784314 3:-0.409639 4:-0.981595 5:-0.750742 6:-0.937282 7:-0.406032 8:-0.819163 9:-0.381818 10:-0.44186 11:-0.0322581 
1.9812695249961181 0.85153476600831557 0.42028724710780285 0.076810134652672113 0 0 1:-0.403846 2:-0.784314 3:-0.409639 4:-0.815951 5:-0.839763 6:-0.672474 7:-0.243619 8:-0.765182 9:-0.127273 10:-0.883721 11:0.129032 
0.59920692816022203 1.990610127812642 1.0760280388745223 0.025584362503858059 0.011002689970505084 0 1:-0.230769 2:-0.313725 3:-0.409639 4:-0.619632 5:-0.857567 6:-0.756098 7:-0.308585 8:-0.676499 9:-0.236364 10:-0.697674 11:0.0645161 
0.056572499834377357 0 0 0 0 0 1:-0.346154 2:-1 3:-0.409639 4:-0.978528 5:-0.756677 6:-0.888502 7:-0.354988 8:-0.715057 9:0.345455 10:-0.488372 11:-0.290323 
2 0.10234370492324861 0.43579607817121896 1.6760320963866979 0.034084967237725909 0 1:-0.269231 2:-0.156863 3:-0.710843 4:-0.981595 5:-0.816024 6:-0.944251 7:-0.559165 8:-0.811452 9:-0.4 10:-0.837209 11:-0.0967742 
1.6390121550333818 0.55031021476375896 0 0 0 0 1:-0.211538 2:-0.72549 3:-0.710843 4:-0.877301 5:-0.792285 6:-0.74216 7:-0.303944 8:-0.784461 9:-0.509091 10:-0.860465 11:0.129032 
1.2303318620780657 0 0 0 0 0 1:-0.25 2:-0.843137 3:-0.409639 4:-0.957055 5:-0.721068 6:-0.874564 7:-0.466357 8:-0.703489 9:0.0909091 10:-0.372093 11:-0.129032 
2 0.39169751058377777 0 0 0 0 1:-0.346154 2:-1 3:-0.409639 4:-0.978528 5:-0.756677 6:-0.888502 7:-0.354988 8:-0.715057 9:0.345455 10:-0.488372 11:-0.290323 
0 0 0.17576929258208557 0.078346200722553105 0.025706669482132648 0 1:-0.442308 2:-0.843137 3:-0.409639 4:-0.944785 5:-0.780415 6:-0.616725 7:-0.174014 8:-0.688066 9:0.636364 10:0.372093 11:-0.225806 
1.361793633589615 0.3220056235577986 0.15338532431855315 0.11094358141020033 0 0 1:-0.307692 2:-0.607843 3:-0.409639 4:-0.972393 5:-0.851632 6:-0.874564 7:-0.457077 8:-0.819163 9:-0.527273 10:-0.604651 11:-0.16129 
0.81867219698120475 0.14963844849912039 0 0.25354325848626846 0.081796686616920286 0 1:-0.538462 2:-0.862745 3:-0.409639 4:-0.990798 5:-0.857567 6:-0.89547 7:-0.805104 8:-0.765182 9:0.0545455 10:0.116279 11:-0.548387 
0.50048263005507687 0.39143711815360127 0.075418459469193469 0.26850815921919907 0.09825003342062652 0 1:-0.442308 2:-0.666667 3:-0.108434 4:-0.423313 5:-0.732938 6:-0.707317 7:-0.257541 8:-0.487565 9:0.436364 10:-0.465116 11:-0.419355 
1.4332910578603948 0.057034902598241767 0 0.23032081299070156 0.041201122254439781 0 1:-0.480769 2:-0.647059 3:-0.108434 4:-0.610429 5:-0.792285 6:-0.54007 7:-0.00232019 8:-0.61095 9:-0.163636 10:-0.255814 11:-0.516129 
0.51465544813670294 0 1.0729272472271414 0.04438059605382081 0 0 1:-0.653846 2:-0.794118 3:-0.409639 4:-0.984663 5:-0.875371 6:-0.818815 7:-0.49884 8:-0.819163 9:0.509091 10:-0.465116 11:-0.258065 
0.45092851512215149 0 0 0 0.29032063585651385 0 1:-0.25 2:-0.627451 3:-0.409639 4:-0.96319 5:-0.810089 6:-0.853659 7:-0.642691 8:-0.834586 9:-0.2 10:-0.534884 11:0.451613 
0.19245961971382805 1.3644479653169037 0.7979711135513452 0.066832153998230795 0.020738123927943896 0 1:-0.442308 2:-0.156863 3:-0.710843 4:-0.953988 5:-0.79822 6:-0.916376 7:-0.322506 8:-0.873144 9:-0.0909091 10:-0.116279 11:0.612903 
0 0.79149116450016654 0 0 0 0 1:-0.173077 2:-0.764706 3:-0.409639 4:-0.769939 5:-0.750742 6:-0.658537 7:-0.0904872 8:-0.680355 9:-0.309091 10:-0.302326 11:-0.0322581 
0.9628929633030876 0.48409695378107093 0 0 0.052652906401818217 0 1:-0.230769 2:-0.647059 3:-0.108434 4:-0.788344 5:-0.792285 6:-0.602787 7:-0.299304 8:-0.65722 9:-0.0909091 10:-0.0232558 11:-0.354839 
1.4243938432648933 0 0 0 0 0 1:-0.423077 2:-0.745098 3:-0.409639 4:-0.57362 5:-0.697329 6:-0.665505 7:-0.2529 8:-0.53769 9:0.509091 10:-0.488372 11:-0.419355 
0.60100230881170613 0.33710580162603432 0 0.4778708986723425 0.043034550889739911 0 1:-0.0384615 2:-0.705882 3:-0.108434 4:-0.920245 5:-0.804154 6:-0.909408 7:-0.457077 8:-0.757471 9:-0.454545 10:-0.325581 11:0.0322581 
0.31387779763119739 2 0.45642205128232127 0 0 0 1:-0.326923 2:-0.72549 3:-0.409639 4:-0.714724 5:-0.869436 6:-0.679443 7:-0.294664 8:-0.745903 9:-0.472727 10:-0.860465 11:0.0322581 
0.02095968359119655 1.0143386021667851 0 0 0.017854299352700911 0 1:-0.326923 2:-0.852941 3:-0.409639 4:-0.978528 5:-0.821958 6:-0.777003 7:-0.410673 8:-0.788317 9:-0.236364 10:0.27907 11:-0.193548 
0 0.8872119310173574 0 0.26123518792610112 0 0 1:-0.153846 2:-0.72549 3:-0.409639 4:-0.723926 5:-0.833828 6:-0.644599 7:-0.327146 8:-0.691922 9:-0.454545 10:-0.744186 11:-0.16129 
1.4710559859294297 0 0 0 0 0 1:-0.153846 2:-0.686275 3:-0.409639 4:-0.733129 5:-0.827893 6:-0.651568 7:-0.285383 8:-0.688066 9:-0.454545 10:-0.744186 11:-0.16129 
1.0156512876675645 2 0 0 0 0 1:-0.115385 2:-0.705882 3:-0.409639 4:-0.779141 5:-0.845697 6:-0.860627 7:-0.600928 8:-0.753615 9:-0.418182 10:-0.72093 11:0.290323 
2 0.4836467002639574 0 0.12600755175556019 0 0 1:-0.134615 2:-0.764706 3:-0.409639 4:-0.966258 5:-0.827893 6:-0.749129 7:-0.266821 8:-0.738192 9:-0.4 10:-0.651163 11:-0.322581 
0 0 0 0.94993880247498075 0 0 1:-0.192308 2:-0.666667 3:-0.409639 4:-0.742331 5:-0.792285 6:-0.797909 7:-0.183295 8:-0.580104 9:0.127273 10:-0.372093 11:-0.354839 
2 0 0 0 0 0 1:-0.461538 2:-0.745098 3:-0.409639 4:-0.461656 5:-0.804154 6:-0.728223 7:-0.308585 8:-0.514556 9:0.0181818 10:-0.604651 11:-0.774194 
0.83472349188060124 0.32779030823996319 0.12875913380366183 0.37017049769557453 0.1234898860923456 0 1:1 2:-0.627451 3:-0.409639 4:-0.984663 5:-0.833828 6:-0.783972 7:-0.317865 8:-0.811452 9:-0.218182 10:-0.255814 
2 0 0 0 0 0 1:-0.307692 2:-0.627451 3:-0.409639 4:-0.984663 5:-0.833828 6:-0.783972 7:-0.317865 8:-0.811452 9:-0.218182 10:-0.255814 
2 1.1215414916605067 0 0.30581337138923048 0 0 1:-0.461538 2:-0.745098 3:-0.409639 4:-0.461656 5:-0.804154 6:-0.728223 7:-0.308585 8:-0.514556 9:0.0181818 10:-0.604651 11:-0.774194 
2 0.13196520551976226 0 0.0015558892663222867 0 0 1:-0.173077 2:-0.607843 3:-0.409639 4:-0.98773 5:-0.816024 6:-0.790941 7:-0.354988 8:-0.749759 9:-0.254545 10:-0.55814 11:-0.354839 
2 0 0 0 0 0 1:-0.576923 2:-0.823529 3:-0.409639 4:-0.98773 5:-0.851632 6:-0.832753 7:-0.549884 8:-0.811452 9:-0.109091 10:-0.534884 11:-0.419355 
0.16688634623660553 0 0.093063648706599764 0.12162794645436312 0.083699066432434938 0 1:-0.365385 2:-0.803922 3:-0.108434 4:-0.539877 5:-0.792285 6:-0.707317 7:-0.225058 8:-0.518411 9:0.2 10:0.0465116 11:-0.677419 
1.8696104460131788 0.73338250345161193 0 0 0 0 1:-0.346154 2:-0.843137 3:-0.409639 4:-0.978528 5:-0.833828 6:-0.825784 7:-0.559165 8:-0.796029 9:-0.0727273 10:-0.186047 11:-0.16129 
1.4614483831512175 0 0 0 0 0 1:-0.442308 2:-0.588235 3:-0.409639 4:-0.874233 5:-0.851632 6:-0.770035 7:-0.317865 8:-0.715057 9:-0.254545 10:-0.465116 11:-0.387097 
2 0 0 0 0 0 1:-0.442308 2:-0.568627 3:-0.409639 4:-0.871166 5:-0.851632 6:-0.763066 7:-0.308585 8:-0.715057 9:-0.272727 10:-0.465116 11:-0.387097 
0 2 2 0 0 0.71532848626930923 1:-0.365385 2:-0.45098 3:-0.710843 4:-0.96319 5:-0.905045 6:-0.790941 7:-0.568445 8:-0.877 9:0.127273 10:-0.139535 11:0.548387 
0.12813793661773246 0.16641112289797655 0.10524005451909658 0.71750463465077952 0 0 1:-0.0961538 2:-0.862745 3:-0.409639 4:-0.972393 5:-0.869436 6:-0.89547 7:-0.475638 8:-0.765182 9:-0.436364 10:-0.581395 11:-0.258065 
1.0173189296982437 0.18393729060114078 0.1068945060332185 0.29907974664021336 0.095954110965874154 0 1:-0.461538 2:-0.784314 3:0.192771 4:-0.981595 5:-0.329377 6:-0.700348 7:-0.443155 8:-0.749759 9:-0.327273 10:-0.790698 11:-0.774194 
0.7764085321303732 1.4580651842552532 0 0 0 0 1:-0.269231 2:-0.705882 3:-0.409639 4:-0.711656 5:-0.839763 6:-0.700348 7:-0.197216 8:-0.630229 9:-0.345455 10:-0.162791 11:-0.483871 
0.014630782925695531 0.17522657997407254 0 0 0 0 1:-0.211538 2:-0.803922 3:-0.409639 4:-0.858896 5:-0.750742 6:-0.763066 7:-0.313225 8:-0.684211 9:-0.163636 10:-0.395349 11:-0.16129 
0.63090422870154828 0.45779524814722938 0 0.17013462916421349 0.056135138791757834 0 1:-0.230769 2:-0.568627 3:-0.108434 4:-0.96319 5:-0.857567 6:-0.783972 7:-0.317865 8:-0.85001 9:0.0363636 10:-0.302326 11:0.548387 
0.74665559265029735 1.5201429175287786 0 0 0 0.0057300776832469105 1:-0.0961538 2:-0.784314 3:-0.409639 4:-0.911043 5:-0.792285 6:-0.811847 7:-0.49884 8:-0.742047 9:-0.236364 10:-0.325581 11:-0.322581 
1.974770219922561 0 0 0.44114515830594669 0.04007025146008944 0 1:-0.307692 2:-0.568627 3:-0.409639 4:-0.766871 5:-0.727003 6:-0.672474 7:-0.169374 8:-0.603239 9:0.454545 10:-0.162791 11:-0.451613 
1.368503599728069 0.32296289678877527 0.26151513843319141 0.30641617859466352 0 0 1:-0.403846 2:-0.72549 3:-0.409639 4:-0.803681 5:-0.679525 6:-0.665505 7:-0.262181 8:-0.668787 9:0.490909 10:-0.348837 11:-0.258065 
1.114898899629841 0.1976698352428031 0.077806334792372464 0.30896495748880975 0.098472165801372302 0 1:-0.423077 2:-0.823529 3:-0.108434 4:-0.944785 5:-0.738872 6:-0.58885 7:-0.197216 8:-0.684211 9:0.654545 10:0.255814 11:-0.193548 
2 0.1851704527596586 0 0 0 0 1:-0.538462 2:-0.627451 3:-0.409639 4:-0.97546 5:-0.756677 6:-0.874564 7:-0.698376 8:-0.769038 9:0.0909091 10:-0.488372 11:-0.419355 
2 2 0.15153628991967474 0.58857702171101567 0 0 1:2.22045e-16 2:-0.568627 3:-0.409639 4:-0.797546 5:-0.821958 6:-0.790941 7:-0.651972 8:-0.742047 9:-0.6 10:-0.767442 11:0.129032 
0.52813493887555429 0 0 0 0 0 1:-0.5 2:-0.666667 3:-0.108434 4:-0.779141 5:-0.78635 6:-0.651568 7:-0.0719258 8:-0.672643 9:-0.109091 10:-0.534884 11:-0.612903 
2 0 0 0.34370620588980771 0.031651114514116035 0 1:-0.5 2:-0.666667 3:-0.108434 4:-0.779141 5:-0.78635 6:-0.651568 7:-0.0719258 8:-0.672643 9:-0.109091 10:-0.534884 11:-0.612903 
0.30067955863948576 0.89117912086811979 0.0057070996409720699 0.046052604615128306 0.038468360527360093 0 1:-0.384615 2:-0.627451 3:-0.108434 4:-0.972393 5:-0.839763 6:-0.825784 7:-0.475638 8:-0.788317 9:0.145455 10:-0.395349 11:0.0322581 
0.74314491629877111 0.3217186410204525 0.15210328611016299 0.33162825082304304 0.10618733833125374 0 1:-0.211538 2:-0.882353 3:-0.108434 4:-0.981595 5:-0.88724 6:-0.804878 7:-0.276102 8:-0.85001 9:-0.345455 10:0.395349 11:0.387097 
