svm_type c_svc
kernel_type rbf
gamma 8
nr_class 6
total_sv 1149
rho -0.040288769376306197 -0.44023581221777341 -0.811338909669444 -0.8698536425505482 -0.92514653498887012 -0.54821136380257218 -0.77487350501088537 -0.90131345726244272 -0.91837195422574702 -0.42553927529526703 -0.77731663060980227 -0.78947986360405908 -0.41671023814629837 -0.57053170560419209 -0.1811367888096542
label 5 6 7 4 8 3
nr_sv 470 469 149 40 13 8
SV
0.25453080784100973 0.18126139113085357 0 0.049813763877422083 0.3779753889201411 1:-0.433628 2:0.0410959 3:-1 4:-0.767123 5:-0.712855 6:-0.323944 7:-0.568905 8:-0.0117474 9:-0.275591 10:-0.580838 11:-0.569231 
2 0 0 0 0 1:-0.433628 2:-0.123288 3:-0.92 4:-0.808219 5:-0.732888 6:-0.605634 7:-0.660777 8:0.0176211 9:-0.181102 10:-0.616766 11:-0.569231 
0 0 0.24747276905493193 0 0 1:-0.415929 2:-0.342466 3:-0.88 4:-0.90411 5:-0.809683 6:-0.605634 7:-0.625442 8:-0.0704846 9:-0.11811 10:-0.844311 11:-0.692308 
0.038291071874410783 0 0 0 0 1:-0.486726 2:-0.479452 3:-0.28 4:-0.287671 5:-0.803005 6:-0.549296 7:-0.321555 8:0.135095 9:-0.0393701 10:-0.437126 11:-0.353846 
1.4136756431959687 0.30209944610871564 0.40415254922076382 0.059605448154551238 0.037000954931910093 1:-0.823009 2:-0.321918 3:-1 4:-0.90411 5:-0.742905 6:-0.577465 7:-0.625442 8:-0.378855 9:0.322835 10:-0.772455 11:-0.538462 
0.91541633447871651 0.51997140722695012 0.18394735763386466 0.1296209017523004 0.068596729240367305 1:-0.433628 2:-0.328767 3:-0.42 4:-0.90411 5:-0.659432 6:-0.774648 7:-0.837456 8:0.0763583 9:-0.181102 10:0.473054 11:-0.784615 
0.31811772882324696 0.17616489614009978 0 0.039619107448073648 0 1:-0.238938 2:-0.315068 3:-0.64 4:-0.60274 5:-0.452421 6:0.43662 7:-0.0176678 8:0.25257 9:-0.338583 10:-0.341317 11:-0.753846 
0.56965251910289227 0.34030045576018314 0.17578495810518241 0.080925911097028985 0.073438596470236484 1:-0.238938 2:-0.315068 3:-0.62 4:-0.589041 5:-0.472454 6:0.408451 7:0.00353357 8:0.25257 9:-0.322835 10:-0.281437 11:-0.753846 
2 0 0.19734487299284501 0.013378619906866916 0.011312607093469287 1:-0.469027 2:-0.630137 3:-0.38 4:-0.808219 5:-0.766277 6:-0.380282 7:-0.540636 8:0.193833 9:0.228346 10:-0.616766 11:-0.6 
2 0.32698606257535423 0 0 0 1:-0.469027 2:-0.60274 3:-0.52 4:-0.876712 5:-0.772955 6:-0.915493 7:-0.964664 8:-0.0998532 9:-0.149606 10:-0.688623 11:-0.661538 
1.5911547697461048 0.99846677832428365 0 0.24373984663722317 0.030903946471366593 1:-0.415929 2:-0.575342 3:-0.58 4:-0.90411 5:-0.686144 6:-0.746479 7:-0.780919 8:-0.041116 9:-0.322835 10:-0.305389 11:-0.661538 
0.38995820830941136 0 0 0 0 1:-0.557522 2:-0.191781 3:-1 4:-0.863014 5:-0.772955 6:-0.633803 7:-0.795053 8:0.0469897 9:0.149606 10:-0.736527 11:-0.692308 
0.61084144397914408 0 0 0 0 1:-0.628319 2:-0.239726 3:-0.86 4:-0.794521 5:-0.742905 6:-0.549296 7:-0.462898 8:-0.15859 9:-0.0393701 10:-0.748503 11:-0.476923 
0.63846644050385692 0.042659775288595145 0 0.02341757371132892 0 1:-0.345133 2:-0.267123 3:-0.76 4:-0.808219 5:-0.762938 6:-0.605634 7:-0.243816 8:-0.041116 9:-0.322835 10:-0.60479 11:-0.569231 
0.89716694445446388 0.71028529764546922 0.17550899716129681 0.10225015982305313 0.059000575782884555 1:-0.522124 2:-0.547945 3:-0.28 4:-0.315068 5:-0.792988 6:-0.690141 7:-0.427562 8:0.135095 9:-0.0708661 10:-0.401198 11:-0.353846 
1.0245558626705398 0.78998510944581712 0.24444702911448005 0.18576151328516272 0.065929215857953916 1:-0.380531 2:-0.260274 3:-0.56 4:-0.821918 5:-0.809683 6:-0.774648 7:-0.879859 8:-0.0117474 9:-0.11811 10:0.0419162 11:-0.415385 
0 0 0.19828434716985147 0 0 1:-0.610619 2:-0.246575 3:-0.96 4:-0.876712 5:-0.873122 6:-0.887324 7:-0.964664 8:-0.0998532 9:0.165354 10:-0.772455 11:-0.661538 
0 0 0 0.007171720256793454 0.0079268180181474614 1:-0.681416 2:-0.616438 3:-0.54 4:-0.90411 5:-0.819699 6:-0.887324 7:-0.957597 8:-0.15859 9:-0.0551181 10:-0.724551 11:-0.753846 
0.10520174911762044 0 0 0.024467399810897961 0.022995361268166679 1:-0.256637 2:-0.260274 3:-0.48 4:-0.890411 5:-0.792988 6:-0.915493 7:-0.879859 8:0.0323054 9:-0.354331 10:-0.508982 11:-0.753846 
0.082305861352912971 0.033408112435874507 0.098964249192002432 0.0085218112294201745 0 1:-0.292035 2:-0.643836 3:-0.28 4:-0.712329 5:-0.769616 6:-0.183099 7:-0.201413 8:0.0176211 9:-0.275591 10:-0.724551 11:-0.692308 
0 0 0 0.012282127862113105 0 1:-0.451327 2:-0.315068 3:-0.92 4:-0.60274 5:-0.759599 6:-0.323944 7:-0.724382 8:0.135095 9:-0.0551181 10:-0.760479 11:-0.661538 
0.63005974194447611 0.3662087146865598 0.12687966754005614 0.080860183194039564 0.048164146589261395 1:-0.486726 2:-0.30137 3:-0.76 4:-0.424658 5:-0.669449 6:0.380282 7:-0.265018 8:0.208517 9:-0.181102 10:-0.473054 11:-0.692308 
2 0 0 0 0 1:-0.433628 2:-0.356164 3:-0.64 4:-0.808219 5:-0.786311 6:-0.549296 7:-0.660777 8:0.0910426 9:0.0866142 10:-0.688623 11:-0.507692 
1.5201339220538586 0 0 0 0.026657473692184679 1:-0.256637 2:-0.616438 3:-0.2 4:-0.821918 5:-0.776294 6:-0.492958 7:-0.674912 8:0.164464 9:0.102362 10:-0.628743 11:-0.753846 
0 0.18685622985727846 0.086975388339691637 0.038471151410208272 0.025076403380540901 1:-0.451327 2:-0.219178 3:-0.02 4:-0.876712 5:-0.656093 6:-0.464789 7:-0.250883 8:-0.0117474 9:-0.259843 10:-0.54491 11:-0.723077 
0.084007611476638641 0 0 0 0 1:-0.575221 2:-0.157534 3:-0.9 4:-0.849315 5:-0.769616 6:-0.661972 7:-0.660777 8:-0.041116 9:0.023622 10:-0.712575 11:-0.569231 
0.85014037452820768 0.40402071411146545 0.75510427639359123 0.07540157804795157 0.37244086823230038 1:-0.539823 2:-0.171233 3:-0.9 4:-0.486301 5:-0.752922 6:-0.915493 7:-0.964664 8:-0.0998532 9:0.0551181 10:-0.928144 11:-0.230769 
2 0 0 0 0 1:-0.486726 2:-0.452055 3:-0.78 4:-0.917808 5:-0.776294 6:-0.71831 7:-0.766784 8:-0.0117474 9:0.0708661 10:-0.700599 11:-0.630769 
1.9131451775373791 0 1.1260925328508631 0 0 1:-0.646018 2:-0.19863 3:-0.86 4:-0.90411 5:-0.786311 6:-0.859155 7:-0.936396 8:-0.0998532 9:0.102362 10:-0.700599 11:-0.292308 
1.9894130156741037 1.5743924826853311 0.16702163323707725 0.065875912776205567 0.071903838548165927 1:-0.168142 2:-0.726027 3:0.14 4:-0.849315 5:-0.792988 6:-0.267606 7:-0.583039 8:0.00293686 9:-0.149606 10:-0.449102 11:-0.292308 
2 0 0 0 0 1:-0.451327 2:-0.246575 3:-0.54 4:-0.835616 5:-0.746244 6:-0.549296 7:-0.363958 8:-0.0998532 9:-0.0866142 10:-0.820359 11:-0.661538 
1.5077705571761304 0.32948918550396994 0.12261351674963064 0.039056843719763028 0.22281315138375613 1:-0.0973451 2:-0.726027 3:0.08 4:-0.780822 5:-0.72621 6:-0.239437 7:-0.45583 8:0.223201 9:-0.149606 10:-0.413174 11:-0.630769 
0.92839183359989741 0.40185059826871528 0.15699603843038992 0.09396911444137683 0.054238628520340643 1:-0.256637 2:-0.60274 3:0.28 4:-0.821918 5:-0.729549 6:-0.774648 7:-0.745583 8:0.25257 9:0.259843 10:-0.60479 11:-0.353846 
0 0 0 0.036506206621150561 0.017409013098015163 1:-0.716814 2:-0.547945 3:-0.6 4:-0.90411 5:-0.809683 6:-0.943662 7:-0.936396 8:-0.15859 9:0.0551181 10:-0.724551 11:-0.753846 
0.62463290652380876 0.39996600753096179 0.13952189158647949 0.095764558473742878 0.059964484321276511 1:-0.433628 2:-0.575342 3:0.4 4:-0.863014 5:0.509182 6:-0.408451 7:-0.568905 8:0.0763583 9:-0.385827 10:0.137725 11:-0.692308 
0.89354211692066621 0.51024798741530741 0.1732465606172732 0.11763722120276812 0.068295788391066703 1:-0.522124 2:-0.246575 3:-0.48 4:-0.876712 5:0.298831 6:-0.577465 7:-0.681979 8:0.00293686 9:-0.338583 10:-0.0299401 11:-0.692308 
2 0.28651947908609654 0 0 0 1:-0.451327 2:-0.493151 3:-0.48 4:-0.863014 5:-0.833055 6:-0.774648 7:-0.823322 8:-0.041116 9:0.023622 10:-0.628743 11:-0.630769 
0.7773502281913427 0.46450284725824653 0.14200748497728083 0.10659232734833306 0.060152801829997687 1:-0.168142 2:-0.630137 3:-0.12 4:-0.835616 5:-0.682805 6:-0.0704225 7:-0.159011 8:0.135095 9:-0.370079 10:0.0658683 11:-0.661538 
0.44133753838227469 0.37386283526175745 0 0.0096450289453726308 0 1:-0.575221 2:-0.315068 3:-0.84 4:-0.876712 5:-0.786311 6:-0.802817 7:-0.872792 8:0.135095 9:0.165354 10:-0.760479 11:-0.815385 
0.7630217796083949 0.33039700047874537 0.11352676395869361 0.073428350854482571 0.046709785975939784 1:-0.415929 2:-0.452055 3:-0.48 4:-0.863014 5:-0.776294 6:0.15493 7:-0.0530035 8:-0.0704846 9:-0.228346 10:-0.748503 11:-0.661538 
2 0 0.55500923739122654 0 0.068556058235857156 1:-0.610619 2:-0.10274 3:-1 4:-0.712329 5:-0.699499 6:-0.802817 7:-0.879859 8:-0.0558003 9:0.11811 10:-0.724551 11:-0.292308 
0 0.050625545740520576 0 0.011821505774519455 0 1:-0.575221 2:-0.479452 3:-0.5 4:-0.849315 5:-0.806344 6:-0.943662 7:-0.886926 8:-0.0851689 9:-0.19685 10:-0.640719 11:-0.753846 
0.53683818142330531 0 0 0 0 1:-0.380531 2:-0.376712 3:-0.56 4:-0.835616 5:-0.782972 6:-0.690141 7:-0.583039 8:-0.0264317 9:-0.133858 10:-0.784431 11:-0.753846 
2 0 0.81588696703007801 0 0 1:-0.380531 2:-0.376712 3:-0.56 4:-0.835616 5:-0.782972 6:-0.690141 7:-0.583039 8:-0.0264317 9:-0.133858 10:-0.784431 11:-0.753846 
0 0.021295925069382809 0 0 0 1:-0.433628 2:-0.60274 3:0.36 4:-0.890411 5:0.519199 6:-0.521127 7:-0.55477 8:0.061674 9:-0.464567 10:0.173653 11:-0.723077 
0.89952156739708999 0.28119428260775303 0.01172785874135638 0.070559629648620364 0.029930512809761313 1:-0.716814 2:-0.30137 3:-0.38 4:-0.890411 5:-0.746244 6:-0.605634 7:-0.590106 8:0.00293686 9:0.133858 10:-0.449102 11:-0.723077 
0.6926687081807571 0.40384331698211934 0.14264454739817295 0.093753672680880501 0.058725279946789999 1:-0.380531 2:-0.0890411 3:0.04 4:-0.849315 5:-0.632721 6:0.0140845 7:0.0388693 8:0.00293686 9:-0.259843 10:-0.568862 11:-0.723077 
0 0 0.19102645778377186 0 0 1:-0.433628 2:-0.39726 3:-0.62 4:-0.876712 5:-0.692821 6:-0.690141 7:-0.710247 8:-0.0704846 9:-0.291339 10:-0.281437 11:-0.661538 
1.0188598000465054 0.51769142385619782 0.16502698815112843 0.11593147883096103 0.054714466659922023 1:-0.522124 2:0.30137 3:-0.82 4:-0.890411 5:-0.445743 6:-0.746479 7:-0.413428 8:-0.0998532 9:-0.11811 10:-0.712575 11:-0.815385 
0.14720124081948469 0.037940498477224346 0.64637504163168458 0.038870978389144599 0 1:-0.522124 2:-0.212329 3:-1 4:-0.780822 5:-0.789649 6:-0.943662 7:-0.95053 8:0.164464 9:0.181102 10:-0.772455 11:-0.753846 
0 0 0 0.0052321805050084104 0 1:-0.433628 2:-0.479452 3:-0.66 4:-0.90411 5:-0.766277 6:-0.43662 7:-0.321555 8:-0.129222 9:0.023622 10:-0.820359 11:-0.661538 
0.41410388720519864 0.32700322858130598 0.10584449510861901 0.074698422677482085 0.01537588063272643 1:-0.221239 2:-0.315068 3:-0.92 4:-0.863014 5:-0.552588 6:-0.267606 7:-0.40636 8:0.223201 9:-0.338583 10:-0.556886 11:-0.692308 
0.7023411688238288 1.0594972863679721 0 0 0 1:-0.734513 2:-0.643836 3:-0.7 4:-0.876712 5:-0.799666 6:-0.859155 7:-0.908127 8:-0.202643 9:0.0708661 10:-0.712575 11:-0.692308 
0.18379814711345746 0.11668968702195157 0.031763443870042402 0.022884889767192024 0.0078930437852245908 1:-0.39823 2:-0.143836 3:0.12 4:-0.849315 5:-0.646077 6:-0.183099 7:-0.0954064 8:-0.0117474 9:-0.212598 10:-0.60479 11:-0.692308 
1.7194495284930997 1.5752663207783719 0.26399375957995119 0.29003723132211112 0.065176042778409618 1:-0.823009 2:-0.479452 3:-0.82 4:-0.808219 5:-0.876461 6:-0.549296 7:-0.342756 8:-0.46696 9:0.401575 10:-0.640719 11:0.415385 
2 0 0 0 0 1:-0.539823 2:-0.59589 3:-0.28 4:-0.849315 5:-0.769616 6:-0.661972 7:-0.724382 8:0.0469897 9:0.165354 10:-0.628743 11:-0.753846 
0.44143018086493058 0 0 0 0 1:-0.433628 2:-0.39726 3:-0.62 4:-0.849315 5:-0.769616 6:-0.549296 7:-0.279152 8:-0.0998532 9:-0.0866142 10:-0.748503 11:-0.661538 
0 0.062713174647949857 0 0.0073529857353762393 0 1:-0.327434 2:-0.143836 3:-0.78 4:-0.863014 5:-0.739566 6:-0.577465 7:-0.597173 8:-0.0558003 9:-0.291339 10:-0.413174 11:-0.630769 
0.12414249613852703 0 0 0 0 1:-0.345133 2:-0.184932 3:-0.7 4:-0.876712 5:-0.742905 6:-0.746479 7:-0.674912 8:-0.0117474 9:-0.228346 10:-0.473054 11:-0.661538 
1.4103617443285275 0 0 0.037242904289684117 0.028099666375964883 1:-0.699115 2:-0.630137 3:-0.84 4:-0.890411 5:-0.819699 6:-0.943662 7:-0.90106 8:-0.217327 9:-0.0551181 10:-0.700599 11:-0.692308 
0.37695151560442225 0.19996679954926275 0 0.053126959460007367 0.030595433942393103 1:-0.787611 2:-0.232877 3:-0.96 4:-0.876712 5:-0.749583 6:-0.43662 7:-0.378092 8:-0.36417 9:0.259843 10:-0.772455 11:-0.507692 
0.47404374918875308 0.054281623913937295 0.059437436578845926 0.025537423870318533 0 1:-0.486726 2:-0.342466 3:-0.94 4:-0.876712 5:-0.722871 6:-0.323944 7:-0.342756 8:-0.276065 9:-0.0393701 10:-0.748503 11:-0.476923 
0.45916649633419432 0.23277017545036455 0 0.058751464473545859 0.033211996676378079 1:-0.557522 2:-0.575342 3:-0.16 4:-0.369863 5:-0.806344 6:-0.211268 7:-0.130742 8:0.061674 9:0.0708661 10:-0.532934 11:-0.353846 
0 0 0.091078112538141423 0 0 1:-0.557522 2:-0.575342 3:-0.16 4:-0.369863 5:-0.803005 6:-0.239437 7:-0.137809 8:0.061674 9:0.0708661 10:-0.54491 11:-0.353846 
1.0768329808999881 0 0.25820831767460944 0 0 1:-0.557522 2:-0.232877 3:-1 4:-0.821918 5:-0.796327 6:-0.690141 7:-0.886926 8:0.00293686 9:0.165354 10:-0.796407 11:-0.723077 
1.0449356819075752 0.10674363873982254 0.12803242296509718 0.055058231393669221 0 1:-0.469027 2:0.136986 3:-0.94 4:-0.849315 5:-0.739566 6:-0.830986 7:-0.90106 8:-0.143906 9:-0.275591 10:-0.724551 11:-0.630769 
0.62427535937446366 0.35921448596975708 0 0.075920829958636235 0.04605421342996268 1:-0.504425 2:-0.342466 3:-0.48 4:-0.123288 5:-0.806344 6:-0.0140845 7:-0.187279 8:0.193833 9:-0.00787402 10:-0.808383 11:-0.692308 
0 0 0.12068851794400511 0.0066196219607307788 0 1:-0.522124 2:-0.356164 3:-0.48 4:-0.136986 5:-0.806344 6:-0.0422535 7:-0.187279 8:0.179148 9:-0.00787402 10:-0.808383 11:-0.692308 
0.34064692669629859 0 0.029296799746980365 0 0 1:-0.433628 2:-0.30137 3:-0.04 4:-0.890411 5:-0.706177 6:-0.633803 7:-0.363958 8:-0.114537 9:-0.291339 10:-0.652695 11:-0.661538 
0.92906857613889715 0.53260254147672825 0.17866917320971548 0.12708005973564152 0.069174996776791647 1:-0.486726 2:-0.19863 3:-0.52 4:-0.876712 5:0.161937 6:-0.605634 7:-0.597173 8:-0.0704846 9:-0.590551 10:0.508982 11:-0.661538 
1.8719358609217531 0 0.13702280329170385 0.015932532349211648 0.0060620362628046476 1:-0.59292 2:-0.479452 3:-0.92 4:-0.917808 5:-0.75626 6:-0.492958 7:-0.696113 8:-0.15859 9:-0.0393701 10:-0.461078 11:-0.661538 
0.90416940025429671 0 0 0 0 1:-0.522124 2:-0.643836 3:-0.58 4:-0.849315 5:-0.772955 6:-0.830986 7:-0.795053 8:-0.114537 9:-0.0708661 10:-0.832335 11:-0.661538 
0 0 0.18747198146173225 0 0 1:-0.575221 2:-0.0616438 3:-1 4:-0.780822 5:-0.813022 6:-0.830986 7:-0.90106 8:0.00293686 9:0.165354 10:-0.724551 11:-0.630769 
1.2810577073994613 0 0 0 0 1:-0.256637 2:-0.328767 3:-0.72 4:-0.794521 5:-0.816361 6:-0.746479 7:-0.745583 8:0.00293686 9:-0.291339 10:-0.688623 11:-0.661538 
0.91981298150391189 0.51978808016543165 0.17536491950016139 0.11939581971596856 0.069360949923991361 1:-0.238938 2:-0.328767 3:-0.02 4:-0.849315 5:-0.138564 6:-0.380282 7:-0.265018 8:0.0469897 9:-0.401575 10:-0.173653 11:-0.723077 
2 0 0 0.010446829972028567 0 1:-0.610619 2:-0.328767 3:-0.6 4:-0.876712 5:-0.782972 6:-0.71831 7:-0.583039 8:0.0323054 9:0.259843 10:-0.700599 11:-0.723077 
0.47628269055542227 0.24789484109520959 0.2836274444070811 0.042573736312092221 0 1:-0.238938 2:-0.739726 3:0.14 4:-0.849315 5:-0.669449 6:-0.295775 7:-0.441696 8:0.0323054 9:-0.181102 10:-0.760479 11:-0.6 
1.7913731894673361 0 0.55309039758200462 0.020610819991919598 0.011426994905457954 1:-0.504425 2:-0.630137 3:-0.04 4:-0.849315 5:-0.766277 6:-0.633803 7:-0.568905 8:0.0469897 9:-0.0551181 10:-0.736527 11:-0.753846 
0.40046928797793663 0.25697997237380288 0.024429788193139332 0.072106872424048882 0.044877308313174519 1:-0.415929 2:-0.479452 3:-0.34 4:-0.849315 5:-0.759599 6:-0.605634 7:-0.0318021 8:-0.0117474 9:-0.275591 10:-0.736527 11:-0.661538 
0.67300354518671168 0 0 0 0 1:-0.362832 2:-0.479452 3:-0.3 4:-0.726027 5:-0.782972 6:-0.43662 7:-0.144876 8:0.105727 9:-0.228346 10:-0.652695 11:-0.692308 
0.066461246534214022 0.30847094521363827 0.079041354972873762 0.071980578350121768 0.039574855352651081 1:-0.610619 2:-0.30137 3:-0.76 4:-0.60274 5:-0.709516 6:-0.577465 7:-0.151943 8:0.00293686 9:-0.149606 10:-0.664671 11:-0.661538 
2 0 0 0 0 1:-0.469027 2:-0.410959 3:-0.58 4:-0.821918 5:-0.803005 6:-0.830986 7:-0.844523 8:-0.0704846 9:-0.149606 10:-0.736527 11:-0.6 
2 0 0 0 0 1:-0.469027 2:-0.410959 3:-0.58 4:-0.821918 5:-0.803005 6:-0.830986 7:-0.844523 8:-0.0704846 9:-0.149606 10:-0.736527 11:-0.6 
1.0038773724068897 0 0 0 0 1:-0.433628 2:-0.356164 3:-0.34 4:-0.849315 5:-0.792988 6:-0.352113 7:-0.194346 8:-0.0117474 9:-0.19685 10:-0.748503 11:-0.692308 
0.90051961675095815 0.8633688533805669 0 0 0 1:-0.610619 2:-0.479452 3:-0.78 4:-0.917808 5:-0.789649 6:-0.577465 7:-0.696113 8:-0.209985 9:-0.023622 10:-0.449102 11:-0.661538 
2 0.067954708566569905 0 0 0.023293127747671793 1:-0.575221 2:-0.589041 3:-0.3 4:-0.90411 5:-0.746244 6:-0.577465 7:-0.766784 8:-0.114537 9:-0.0551181 10:-0.736527 11:-0.753846 
0.022071885719837953 0 0 0 0 1:-0.362832 2:-0.383562 3:-0.48 4:-0.821918 5:-0.839733 6:-0.239437 7:-0.583039 8:-0.143906 9:-0.11811 10:-0.88024 11:-0.476923 
0.5182804799734595 0.27062343294224755 0.17143495385131852 0.07051759900377963 0.045549047781760929 1:-0.575221 2:-0.493151 3:-0.02 4:-0.356164 5:-0.839733 6:-0.295775 7:-0.187279 8:0.0763583 9:-0.0551181 10:-0.48503 11:-0.353846 
0 0 0.59514248082623211 0 0 1:-0.380531 2:-0.171233 3:-0.56 4:-0.821918 5:-0.799666 6:-0.71831 7:-0.75265 8:-0.0264317 9:-0.023622 10:-0.736527 11:-0.784615 
0.40331156329511902 0 0 0 0 1:-0.486726 2:-0.493151 3:-0.62 4:-0.863014 5:-0.786311 6:-0.746479 7:-0.731449 8:-0.173275 9:0.023622 10:-0.748503 11:-0.6 
1.3835391264912793 0 0 0 0 1:-0.504425 2:-0.438356 3:-0.48 4:-0.849315 5:-0.702838 6:-0.577465 7:-0.533569 8:-0.173275 9:-0.354331 10:-0.712575 11:-0.692308 
1.3669526139980641 0 0 0 0 1:-0.221239 2:-0.0410959 3:-0.72 4:-0.767123 5:-0.742905 6:-0.774648 7:-0.879859 8:0.223201 9:0.023622 10:-0.640719 11:-0.569231 
0.34354132581113134 0 0.32373771919220551 0.025728856293541786 0.01951859255123338 1:-0.59292 2:-0.452055 3:-0.5 4:-0.767123 5:-0.769616 6:-0.746479 7:-0.780919 8:-0.00440529 9:0.133858 10:-0.796407 11:-0.2 
0.89434657775370263 0.49395723818033821 0.16234932223927551 0.11436811107873479 0.066145932299567306 1:-0.238938 2:-0.294521 3:-0.26 4:-0.890411 5:-0.161937 6:-0.887324 7:-0.60424 8:0.0323054 9:-0.590551 10:-0.0898204 11:-0.723077 
0.53122433281155967 0 0 0.021195007673570309 0 1:0.150442 2:-0.684932 3:-0.04 4:-0.69863 5:-0.739566 6:-0.887324 7:-0.893993 8:0.25257 9:-0.322835 10:-0.760479 11:-0.353846 
0.5036982005960402 0.33038731852476394 0.17232929038042455 0.075819176011096237 0.046028058857393209 1:-0.451327 2:-0.10274 3:-0.16 4:-0.863014 5:-0.732888 6:-0.802817 7:-0.434629 8:-0.143906 9:-0.228346 10:-0.688623 11:-0.661538 
1.9620889895566995 0 0 0 0 1:-0.39823 2:-0.383562 3:-0.54 4:-0.684932 5:-0.796327 6:-0.549296 7:-0.201413 8:-0.0190896 9:-0.181102 10:-0.712575 11:-0.723077 
1.8455512329369597 0 0 0.039148489216626926 0.04007943439778569 1:-0.150442 2:-0.69863 3:-0.26 4:-0.821918 5:-0.789649 6:-0.887324 7:-0.95053 8:0.164464 9:-0.244094 10:-0.652695 11:-0.753846 
0.93732479925161327 0.54750032876843169 0.18419398177939383 0.126812781466906 0.070269573619874917 1:-0.451327 2:-0.60274 3:0.52 4:-0.876712 5:1 6:-0.802817 7:-0.724382 8:-0.0117474 9:-0.496063 10:0.113772 11:-0.692308 
2 2 0 0 0 1:-0.39823 2:-0.452055 3:-0.94 4:-0.890411 5:-0.806344 6:-0.746479 7:-0.795053 8:-0.165932 9:-0.0551181 10:-0.712575 11:-0.507692 
1.2071104734638141 0.58453453055235394 0 0 0 1:-0.415929 2:-0.657534 3:-0.54 4:-0.876712 5:-0.782972 6:-0.380282 7:-0.696113 8:-0.0851689 9:-0.149606 10:-0.592814 11:-0.723077 
2 0.47241743751443738 0.24050419404793935 0 0.04017439948045657 1:0.39823 2:-0.39726 3:-0.02 4:-0.794521 5:-0.826377 6:-0.887324 7:-0.85159 8:0.443465 9:-0.464567 10:-0.353293 11:-0.230769 
2 0.64538960825213787 0.071175906367914168 0.044609309666011357 0.0056189725034724389 1:0.115044 2:-0.657534 3:0.16 4:-0.575342 5:-0.803005 6:-0.549296 7:-0.583039 8:0.362702 9:-0.244094 10:-0.461078 11:-0.476923 
2 0 0 0 0 1:-0.327434 2:-0.184932 3:-0.6 4:-0.794521 5:-0.786311 6:-0.746479 7:-0.773852 8:0.0690162 9:-0.102362 10:-0.628743 11:-0.692308 
0.57544387594845514 0.29441198378591898 0.093881409649423819 0.07330807063887379 0.039349047515514358 1:-0.486726 2:-0.273973 3:-0.64 4:-0.164384 5:-0.746244 6:-0.267606 7:-0.378092 8:0.333333 9:0.00787402 10:-0.473054 11:-0.692308 
1.8092868364926431 0.31959585897631737 0.53957363910009226 0 0 1:-0.469027 2:-0.452055 3:-0.76 4:-0.712329 5:-0.816361 6:-0.690141 7:-0.667845 8:0.0323054 9:-0.023622 10:-0.712575 11:-0.784615 
1.034743531945898 0.39320197876003421 0.12492237917558767 0.090775557577962407 0.056390040520022028 1:-0.0619469 2:-0.356164 3:-0.86 4:-0.657534 5:-0.699499 6:-0.126761 7:-0.540636 8:0.480176 9:-0.102362 10:-0.54491 11:-0.569231 
1.0324067088181537 0.56178267626929601 0.18814531631724898 0.12521729984207611 0.075720866950382257 1:0.132743 2:-0.890411 3:-0.04 4:-0.849315 5:0.105175 6:-0.859155 7:-0.915194 8:0.14978 9:-0.11811 10:-0.54491 11:-0.353846 
2 0 0.097856883548593385 0 0 1:0.0973451 2:-0.479452 3:-0.08 4:-0.780822 5:-0.796327 6:-0.887324 7:-0.85159 8:0.472834 9:-0.511811 10:-0.628743 11:-0.661538 
1.0513622933581497 0.24796835548962567 0.078081318571866218 0.064653762399114106 0.031275293964330562 1:0.0619469 2:-0.0273973 3:-0.26 4:-0.767123 5:-0.752922 6:-0.295775 7:-0.547703 8:0.179148 9:-0.338583 10:-0.772455 11:-0.538462 
0.51359561818370014 0 0 0 0 1:-0.557522 2:-0.30137 3:-0.88 4:-0.849315 5:-0.762938 6:-0.802817 7:-0.837456 8:0.245228 9:0.464567 10:-0.520958 11:-0.630769 
2 0.27948650477789161 0 0.081638357073640852 0.044080106742625989 1:-0.539823 2:-0.273973 3:-0.96 4:-0.808219 5:-0.72621 6:-0.887324 7:-0.823322 8:0.35536 9:0.464567 10:-0.437126 11:-0.6 
1.6939971128597662 0.62534360985091375 0 0.039903639272460101 0.0070960249495936201 1:-0.345133 2:-0.19863 3:-0.76 4:-0.767123 5:-0.732888 6:-0.690141 7:-0.844523 8:0.370044 9:0.212598 10:-0.532934 11:-0.507692 
0 0.18716268025642496 0.11710074085275311 0 0.048614322639307594 1:-0.327434 2:-0.273973 3:0.2 4:-0.835616 5:-0.66611 6:-0.690141 7:-0.40636 8:0.061674 9:-0.275591 10:-0.772455 11:-0.753846 
0.74777933114046347 0 0.42974756372320999 0 0 1:-0.469027 2:-0.315068 3:-0.36 4:-0.821918 5:-0.766277 6:-0.830986 7:-0.660777 8:-0.041116 9:-0.023622 10:-0.772455 11:-0.692308 
2 0 0 0.015850348517463395 0 1:-0.504425 2:-0.671233 3:-0.42 4:-0.767123 5:-0.749583 6:-0.295775 7:-0.533569 8:-0.0631424 9:0.023622 10:-0.580838 11:-0.2 
0.66714560175458382 0 0 0 0 1:-0.168142 2:-0.328767 3:-0.48 4:-0.657534 5:-0.739566 6:-0.323944 7:-0.427562 8:0.421439 9:-0.212598 10:-0.652695 11:-0.6 
2 0.2259066076386308 0 0 0 1:-0.433628 2:-0.315068 3:-0.9 4:-0.808219 5:-0.776294 6:-0.859155 7:-0.915194 8:0.0690162 9:-0.133858 10:-0.640719 11:-0.723077 
2 0.3974440922957817 0.056841982244889594 0 0 1:0.079646 2:-0.534247 3:-0.22 4:-0.849315 5:-0.836394 6:-0.830986 7:-0.936396 8:0.179148 9:-0.307087 10:-0.652695 11:-0.661538 
2 0.68450854090654045 0 0.036512956356431515 0.041948497178022959 1:-0.327434 2:-0.39726 3:-0.84 4:-0.835616 5:-0.689482 6:-0.577465 7:-0.731449 8:-0.15859 9:-0.385827 10:-0.772455 11:-0.2 
2 1.973392466532726 0.012091385183577944 0 0 1:-0.433628 2:-0.575342 3:-0.36 4:-0.739726 5:-0.772955 6:-0.211268 7:-0.632509 8:0.0763583 9:-0.102362 10:-0.628743 11:-0.415385 
0.54349586215924073 0.30150428543360236 0.084043628496843312 0.073247806288121248 0.042932884747865219 1:-0.575221 2:-0.226027 3:-1 4:-0.863014 5:-0.816361 6:0.0985915 7:-0.597173 8:0.14978 9:0.354331 10:-0.42515 11:-0.538462 
2 0.30719603043755356 0.26488463369462717 0.0201992881624827 0 1:-0.451327 2:-0.253425 3:-1 4:-0.794521 5:-0.739566 6:-0.802817 7:-0.908127 8:0.0763583 9:-0.165354 10:-0.520958 11:-0.723077 
0.97338636624513641 0.58706499612907537 0.18496097247036136 0.13171081279347252 0.071841893496127351 1:0.575221 2:-0.438356 3:0.58 4:-0.465753 5:-0.639399 6:-0.380282 7:-0.498233 8:0.722467 9:-0.307087 10:-0.473054 11:0.415385 
2 1.680888557049621 0.12625872644064759 0.095563733072714471 0.11589428567473822 1:0.221239 2:-0.60274 3:0.04 4:-0.712329 5:-0.772955 6:-0.211268 7:-0.65371 8:0.472834 9:-0.181102 10:-0.341317 11:-0.2 
2 0 0.9951412134185964 0 0 1:-0.362832 2:-0.205479 3:-0.54 4:-0.849315 5:-0.709516 6:-0.633803 7:-0.469965 8:0.061674 9:-0.291339 10:-0.556886 11:-0.692308 
1.9109268811385829 0.30002871300967415 0.41291824958557821 0.062781872470544647 0.11671888650618209 1:0.292035 2:-0.369863 3:0.32 4:-0.780822 5:-0.799666 6:-0.859155 7:-0.780919 8:0.340675 9:-0.511811 10:-0.724551 11:-0.507692 
2 1.0362931587673156 0.13773370264008741 0.7625495721931782 0.012993012023859678 1:0.39823 2:-0.534247 3:0.26 4:-0.849315 5:-0.803005 6:-0.859155 7:-0.936396 8:0.281938 9:-0.606299 10:-0.353293 11:-0.446154 
2 0.31073165736153024 0.2928747923609315 0.069093118624425826 0.79745285170704883 1:0.0265487 2:-0.376712 3:0.22 4:-0.767123 5:-0.786311 6:-0.71831 7:-0.872792 8:0.45815 9:-0.338583 10:-0.568862 11:-0.815385 
1.0433510772137622 0.38625241407385619 0.030195648712864783 0.063134342182989939 0.082259867426306615 1:0.00884956 2:-0.69863 3:0.04 4:-0.739726 5:-0.509182 6:-0.605634 7:-0.512367 8:0.428781 9:-0.307087 10:-0.628743 11:-0.692308 
0 0 0.097543677498253448 0 0 1:-0.59292 2:-0.116438 3:-0.96 4:-0.808219 5:-0.829716 6:-0.0422535 7:-0.597173 8:0.0910426 9:0.307087 10:-0.461078 11:-0.538462 
0 0.17796968265810423 0 0.017199446952264587 0.027152765477151938 1:-0.504425 2:-0.410959 3:-0.56 4:-0.821918 5:-0.686144 6:-0.690141 7:-0.533569 8:-0.143906 9:-0.511811 10:-0.640719 11:-0.753846 
2 0.11720263896470658 0 0 0 1:-0.451327 2:-0.465753 3:-0.44 4:-0.835616 5:-0.749583 6:-0.380282 7:-0.660777 8:0.164464 9:0.0708661 10:-0.508982 11:-0.753846 
0.6463995821144547 0 0 0 0 1:-0.132743 2:-0.657534 3:0.04 4:-0.849315 5:-0.766277 6:-0.859155 7:-0.858657 8:0.164464 9:-0.307087 10:-0.784431 11:-0.661538 
0.45363205673658402 0.16809497431477846 0 0.083704435177317849 0 1:-0.327434 2:-0.253425 3:0.22 4:-0.849315 5:-0.66611 6:-0.661972 7:-0.371025 8:0.0176211 9:-0.338583 10:-0.748503 11:-0.784615 
0.40007855405481607 0.019679586824232546 0.034481886551447842 0 0 1:0.433628 2:-0.342466 3:0.3 4:-0.808219 5:-0.829716 6:-0.859155 7:-0.865724 8:0.414097 9:-0.543307 10:-0.712575 11:-0.538462 
0.95321486797055544 0.55731983506076144 0.18467986263489586 0.12951864589400142 0.072177431807408696 1:-0.646018 2:-0.157534 3:-0.96 4:-0.0410959 5:-0.632721 6:0.887324 7:-0.166078 8:0.370044 9:0.149606 10:-0.760479 11:-0.538462 
0.3205350475025408 0 0.20497087013153234 0 0 1:-0.451327 2:-0.219178 3:-0.9 4:-0.753425 5:-0.789649 6:-0.605634 7:-0.85159 8:0.0763583 9:-0.181102 10:-0.664671 11:-0.784615 
1.2880836249641707 0 0 0 0 1:-0.557522 2:-0.157534 3:-0.68 4:-0.863014 5:-0.706177 6:-0.605634 7:-0.498233 8:-0.041116 9:-0.165354 10:-0.628743 11:-0.723077 
0.90447140858826858 0.53714692639300665 0.18058495985916184 0.12352100358799858 0.068690512300916287 1:-0.292035 2:-0.171233 3:-0.52 4:-0.219178 5:-0.649416 6:-0.15493 7:-0.0954064 8:0.66373 9:-0.0866142 10:-0.113772 11:-0.723077 
0.95030529921625906 0.34724222523237208 0.11683228680192878 0.084285950484514538 0.055061535053994623 1:-0.575221 2:-0.369863 3:-0.76 4:-0.863014 5:-0.736227 6:-0.0704225 7:-0.166078 8:-0.187959 9:0.102362 10:-0.820359 11:-0.353846 
0.4853984811694409 0.2331467649461646 0.12106960602353228 0.049131690923932922 0.019305893972531438 1:-0.610619 2:-0.109589 3:-1 4:-0.876712 5:-0.819699 6:-0.0704225 7:-0.674912 8:0.105727 9:0.385827 10:-0.580838 11:-0.538462 
0.98248886871854124 0.23997491002337368 0.18686941729075679 0.055421165360354213 0.086757608423830707 1:-0.451327 2:0.150685 3:-0.6 4:-0.849315 5:-0.883139 6:-0.605634 7:-0.618375 8:-0.202643 9:-0.023622 10:-0.868263 11:-0.230769 
1.2757792436024116 0.43541361365894571 0.36022933791827222 0 0 1:-0.20354 2:-0.452055 3:-0.34 4:-0.945205 5:-0.806344 6:-0.774648 7:-0.830389 8:0.135095 9:-0.212598 10:-0.676647 11:-0.723077 
0.14399555161068847 0.072052717440381941 1.0428519180207363 0 0 1:-0.433628 2:-0.410959 3:-0.3 4:-0.821918 5:-0.792988 6:-0.43662 7:-0.575972 8:0.0763583 9:-0.19685 10:-0.724551 11:-0.753846 
1.7475188042844814 0.19760023299484336 0 0.027238621144286421 0.27263094793621862 1:0.362832 2:-0.630137 3:0.26 4:-0.808219 5:-0.736227 6:-0.859155 7:-0.915194 8:0.516887 9:-0.338583 10:-0.808383 11:-0.661538 
0.38961700173504155 0.078226310301802798 0 0.047197140493123756 0.023104202109089481 1:-0.575221 2:-0.315068 3:-0.64 4:-0.917808 5:-0.833055 6:-0.830986 7:-0.689046 8:-0.26138 9:-0.464567 10:-0.676647 11:-0.723077 
2 0.62463179819830161 0.19815494642219328 0.080103559307893091 0.034438433570458615 1:0.39823 2:-0.643836 3:0.2 4:-0.767123 5:-0.769616 6:-0.15493 7:-0.533569 8:0.399413 9:-0.433071 10:-0.520958 11:-0.353846 
2 0 0.40117135856714281 0.018655655055017567 0.010326471971216312 1:-0.238938 2:-0.356164 3:-0.22 4:-0.808219 5:-0.722871 6:-0.887324 7:-0.886926 8:0.25257 9:-0.00787402 10:-0.700599 11:-0.415385 
2 0 0.17266343329469175 0 0 1:-0.345133 2:-0.321918 3:-0.56 4:-0.767123 5:-0.749583 6:-0.859155 7:-0.908127 8:0.193833 9:-0.181102 10:-0.664671 11:-0.723077 
2 1.7142146126650115 0.15833255446700098 0.15391738005071384 0.066005240969610135 1:0.132743 2:-0.808219 3:0.36 4:-0.773973 5:-0.75626 6:-0.746479 7:-0.865724 8:0.0176211 9:-0.307087 10:-0.664671 11:0.0461538 
0.77348022210067169 0.4438634342922062 0.14965176449786896 0.10573886443891006 0.066787161327575006 1:-0.380531 2:-0.260274 3:0.4 4:-0.821918 5:-0.712855 6:-0.323944 7:-0.130742 8:0.0469897 9:-0.464567 10:-0.760479 11:-0.815385 
1.381065930553188 1.0222729474255137 0.11422657614090646 0.12166949076505443 0.069811800860758361 1:-0.0442478 2:-0.767123 3:-0.2 4:-0.726027 5:-0.712855 6:-0.746479 7:-0.858657 8:0.546256 9:0.165354 10:-0.305389 11:-0.6 
0.68374087851156073 0.31363056303945658 0.14002032716986682 0.086185838943895102 0 1:-0.274336 2:-0.0410959 3:-0.96 4:-0.958904 5:-0.806344 6:-0.0140845 7:-0.70318 8:-0.246696 9:-0.275591 10:-0.700599 11:-0.569231 
0.94901936744839333 0 0 0 0 1:-0.115044 2:-0.232877 3:-0.52 4:-0.821918 5:-0.749583 6:-0.887324 7:-0.844523 8:0.281938 9:-0.370079 10:-0.676647 11:-0.446154 
2 0.67414662000866843 0 0 0 1:-0.168142 2:-0.794521 3:-0.18 4:-0.849315 5:-0.736227 6:-0.859155 7:-0.929329 8:0.164464 9:-0.149606 10:-0.556886 11:-0.6 
2 0.33102222329946585 0 0.048329575118363569 0.020305752567905053 1:-0.115044 2:-0.232877 3:-0.52 4:-0.821918 5:-0.749583 6:-0.887324 7:-0.844523 8:0.281938 9:-0.370079 10:-0.676647 11:-0.446154 
0.96233638882366146 0.56115920890628379 0.1864690890303568 0.13008599893319558 0.075190077501339936 1:0.0619469 2:-0.780822 3:-0.22 4:1 5:-0.809683 6:-0.859155 7:-0.879859 8:0.839941 9:-0.401575 10:-0.60479 11:-0.753846 
1.150836405221245 0.59287753989111736 0.15076597441413547 0.12466153141000771 0.063764762750845236 1:0.0619469 2:-0.671233 3:0.2 4:-0.821918 5:-0.532554 6:-0.830986 7:-0.915194 8:0.25257 9:-0.527559 10:-0.125749 11:-0.692308 
1.9209701166192215 0.11115780772601708 0.37064389099712797 0.047743732584820973 0.01411802947164708 1:-0.00884956 2:-0.246575 3:-0.22 4:-0.863014 5:-0.859766 6:-0.859155 7:-0.922261 8:0.105727 9:-0.322835 10:-0.832335 11:-0.507692 
0.91496444641203156 0.29738556665941085 0.099967179782469995 0.078796910258162517 0.050188589122524947 1:-0.539823 2:-0.69863 3:-0.36 4:-0.780822 5:-0.739566 6:0.183099 7:-0.243816 8:-0.041116 9:-0.0866142 10:-0.449102 11:-0.169231 
1.0416784772375638 0.62893247807608244 1.3923785298489351 0.093373907943508305 0.043948309367990102 1:0.380531 2:-0.589041 3:-0.02 4:-0.493151 5:-0.796327 6:-0.492958 7:-0.738516 8:0.135095 9:-0.559055 10:-0.664671 11:-0.661538 
0 0.12530705685799756 0 0.057809920067317791 0.017519814525189921 1:-0.469027 2:-0.60274 3:-0.02 4:-0.849315 5:-0.746244 6:-0.577465 7:-0.738516 8:0.164464 9:0.165354 10:-0.628743 11:-0.784615 
0.86136124740153486 0.60269067576743174 0.16521328963584528 0.11587219845055832 0.070003175506229087 1:-0.362832 2:-0.630137 3:-0.02 4:-0.808219 5:-0.709516 6:0.295775 7:-0.102473 8:0.14978 9:0.00787402 10:-0.209581 11:-0.569231 
0 0 0.051279796485606648 0 0 1:-0.185841 2:-0.575342 3:-0.02 4:-0.794521 5:-0.752922 6:-0.380282 7:-0.222615 8:0.105727 9:-0.228346 10:-0.628743 11:-0.661538 
0.54509942768483055 1.0025394471790892 0.12182938128111137 0.053105275284697336 0.029811505672270724 1:-0.522124 2:-0.664384 3:-0.02 4:-0.780822 5:-0.746244 6:0.0704225 7:-0.293286 8:-0.041116 9:-0.023622 10:-0.461078 11:-0.2 
0.16894891483818997 0 0 0 0 1:0.292035 2:-0.643836 3:-0.02 4:-0.753425 5:-0.712855 6:-0.690141 7:-0.745583 8:0.516887 9:-0.338583 10:-0.664671 11:-0.415385 
2 0.085763040122825859 0.034480083336228186 0 0 1:0.292035 2:-0.643836 3:-0.02 4:-0.753425 5:-0.712855 6:-0.690141 7:-0.745583 8:0.516887 9:-0.338583 10:-0.664671 11:-0.415385 
0 0 0 0.0068813587395009602 0.014165137778863607 1:-0.0619469 2:-0.30137 3:-0.52 4:-0.794521 5:-0.782972 6:-0.859155 7:-0.809187 8:0.0763583 9:-0.448819 10:-0.712575 11:-0.692308 
1.1211000808965439 1.0806853300942629 0.14995786040274431 0.14110219074949068 0.061628554991426283 1:0.168142 2:-0.479452 3:0.48 4:-0.417808 5:-0.706177 6:-0.887324 7:-0.922261 8:0.399413 9:-0.244094 10:-0.652695 11:-0.138462 
2 0.57739623192713196 0.4509026237996614 0 0 1:-0.185841 2:-0.356164 3:-0.52 4:-0.671233 5:-0.702838 6:-0.464789 7:-0.710247 8:0.281938 9:-0.181102 10:-0.592814 11:-0.630769 
0 0.10417842972632205 0 0.0088991428634316357 0 1:-0.20354 2:-0.520548 3:-0.02 4:-0.767123 5:-0.72621 6:0.0422535 7:-0.293286 8:0.193833 9:-0.464567 10:-0.688623 11:-0.784615 
0.94776341428975497 0.55099223594506441 0.2888106978776841 0.13010873904207035 0.072024067560593763 1:-0.929204 2:0.260274 3:-0.52 4:-0.90411 5:-0.873122 6:-0.126761 7:-0.363958 8:-0.511013 9:0.574803 10:-0.652695 11:-0.0461538 
1.0000837177311701 0.47775327915723953 0.010068483353775248 0 0 1:0.929204 2:-0.280822 3:-0.02 4:-0.547945 5:-0.722871 6:-0.746479 7:-0.879859 8:0.920705 9:-0.716535 10:-0.508982 11:-0.169231 
0 0.18579902082385139 0.17798061752979688 0.12959024060741309 0.070625862246470023 1:0.946903 2:-0.280822 3:-0.02 4:-0.547945 5:-0.722871 6:-0.746479 7:-0.879859 8:0.920705 9:-0.716535 10:-0.508982 11:-0.169231 
0.013590559044850695 0 0 0 0 1:0.433628 2:-0.342466 3:-0.02 4:-0.739726 5:-0.789649 6:-0.887324 7:-0.908127 8:0.370044 9:-0.370079 10:-0.712575 11:-0.0769231 
0 0.084958177157830453 0 0.019722931845620455 0 1:-0.221239 2:-0.561644 3:-0.02 4:-0.794521 5:-0.779633 6:-0.295775 7:-0.187279 8:0.135095 9:-0.228346 10:-0.700599 11:-0.753846 
0.80220437711704617 0.35035033014072825 0.13775888014579102 0.091040456757256361 0.047194040669731256 1:-0.221239 2:-0.424658 3:-0.02 4:-0.726027 5:-0.72621 6:0.126761 7:-0.265018 8:0.193833 9:-0.464567 10:-0.664671 11:-0.753846 
2 0.53121498952057489 0.32602251649263714 0.098110253454563479 0.044994372674162925 1:0.433628 2:-0.342466 3:-0.02 4:-0.739726 5:-0.789649 6:-0.887324 7:-0.908127 8:0.370044 9:-0.370079 10:-0.712575 11:-0.0769231 
2 1.2266951045216061 0 0.0061288161236946201 0.0097474311938726896 1:-0.00884956 2:-0.835616 3:-0.02 4:-0.794521 5:-0.789649 6:-0.746479 7:-0.844523 8:0.135095 9:-0.370079 10:-0.664671 11:-0.384615 
0 0 0.048070706309434316 0 0 1:-0.256637 2:-0.561644 3:-0.02 4:-0.739726 5:-0.762938 6:-0.521127 7:-0.257951 8:0.193833 9:-0.11811 10:-0.676647 11:-0.661538 
0.74511378352071744 0.11187011939893451 0.29721028514342357 0.016914062149202932 0 1:-0.256637 2:-0.520548 3:-0.02 4:-0.726027 5:-0.75626 6:-0.549296 7:-0.265018 8:0.193833 9:-0.133858 10:-0.676647 11:-0.569231 
0 0 0.17283405662414747 0 0 1:0.362832 2:-0.479452 3:-0.02 4:-0.821918 5:-0.742905 6:-0.887324 7:-0.943463 8:0.487518 9:-0.291339 10:-0.868263 11:-0.630769 
1.6961787800484698 0.095603255906357876 0.096132782143302439 0.045314430182334338 0.2060331048893829 1:0.256637 2:-0.493151 3:-0.02 4:-0.821918 5:-0.762938 6:-0.887324 7:-0.936396 8:0.45815 9:-0.291339 10:-0.88024 11:-0.753846 
0 0 0.18668288329010824 0 0 1:-0.221239 2:-0.547945 3:-0.02 4:-0.767123 5:-0.759599 6:-0.43662 7:-0.512367 8:0.267254 9:-0.0393701 10:-0.712575 11:-0.6 
0.11295442130480965 0 0 0 0 1:-0.415929 2:-0.178082 3:-0.66 4:-0.767123 5:-0.719533 6:-0.464789 7:-0.773852 8:0.135095 9:0.0393701 10:-0.760479 11:-0.661538 
0.79961020021507112 0.47064646170587804 0.15832578800989894 0.10862128285414646 0.058245770822708882 1:-0.238938 2:-0.349315 3:-0.18 4:-0.0410959 5:-0.752922 6:-0.183099 7:-0.272085 8:0.428781 9:-0.165354 10:-0.712575 11:-0.723077 
1.2155521641270064 0.20383634093916167 0.14139516103786115 0.068078498235249668 0.029527361781067005 1:-0.256637 2:-0.835616 3:0.08 4:-0.780822 5:-0.762938 6:-0.323944 7:-0.639576 8:0.208517 9:0.023622 10:-0.748503 11:-0.753846 
1.4753743287884935 0.34908138326965632 0.023605940822516325 0.12679097097892686 0 1:0.522124 2:-0.643836 3:0.1 4:-0.753425 5:-0.769616 6:-0.887324 7:-0.929329 8:0.546256 9:-0.622047 10:-0.748503 11:-0.692308 
0.8376941182094142 0.38499508601869964 0.062686537971754788 0.099401112333856109 0.11509355294311018 1:-0.115044 2:-0.342466 4:-0.808219 5:-0.776294 6:-0.239437 7:-0.540636 8:0.414097 9:0.19685 10:-0.712575 11:-0.6 
1.3147978380615382 0.3895155782645382 0.017231884196582174 0 0 1:0.20354 2:-0.534247 4:-0.753425 5:-0.632721 6:-0.915493 7:-0.922261 8:0.546256 9:-0.385827 10:-0.556886 11:-0.446154 
2 0.58929246012429015 0 0.026083405363829314 0.03492543662542346 1:0.185841 2:-0.657534 3:-0.18 4:-0.808219 5:-0.746244 6:-0.859155 7:-0.929329 8:0.281938 9:-0.448819 10:-0.437126 11:-0.723077 
0.38237798206242202 0 0 0 0 1:-0.345133 2:-0.424658 3:-0.52 4:-0.657534 5:-0.786311 6:-0.577465 7:-0.250883 8:0.105727 9:-0.165354 10:-0.664671 11:-0.692308 
0.74826251914000541 0 0 0 0 1:-0.362832 2:-0.39726 3:-0.54 4:-0.657534 5:-0.779633 6:-0.633803 7:-0.30742 8:0.105727 9:-0.149606 10:-0.652695 11:-0.692308 
0.71959161747382738 0.40842348994234379 0 0 0 1:-0.0442478 2:-0.369863 3:-0.56 4:-0.863014 5:-0.772955 6:-0.774648 7:-0.816254 8:0.0763583 9:-0.385827 10:-0.736527 11:-0.661538 
1.0228290522457779 0.56761026520865476 0.33658223334559556 0.11236405077226383 0.078047082026471037 1:-0.610619 2:-0.219178 3:-1 4:-0.356164 5:-0.626043 6:-0.43662 7:-0.632509 8:0.414097 9:0.133858 10:-0.532934 11:-0.446154 
0.93072713518437289 0.1759323177358689 0.18830837506984047 0.070343840112581657 0.055538717118234424 1:-0.256637 2:-0.342466 3:-0.42 4:-0.821918 5:-0.712855 6:-0.887324 7:-0.936396 8:0.281938 9:-0.023622 10:-0.808383 11:-0.784615 
1.9184191624434634 0 0 0 0 1:-0.469027 2:-0.226027 3:-0.54 4:-0.808219 5:-0.669449 6:-0.464789 7:-0.448763 8:-0.0704846 9:-0.259843 10:-0.664671 11:-0.723077 
0.759472716411422 0 0 0.023570304348997442 0 1:0.0265487 2:-0.780822 3:0.08 4:-0.753425 5:-0.689482 6:-0.887324 7:-0.908127 8:0.281938 9:-0.19685 10:-0.640719 11:-0.661538 
1.3205481761985858 0.42830000881087033 0 0.049227985003256793 0.14819662608701692 1:-0.274336 2:-0.0136986 3:-1 4:-0.931507 5:-0.823038 6:-0.352113 7:-0.809187 8:-0.217327 9:-0.165354 10:-0.736527 11:-0.6 
0.34982796574656505 0.30889678569955425 0.063843045341330895 0.084375759792265873 0.050288422367906191 1:-0.115044 2:0.0410959 3:-0.44 4:-0.794521 5:-0.752922 6:-0.183099 7:-0.00353357 8:0.14978 9:-0.212598 10:-0.760479 11:-0.692308 
0.18626508980877549 0.062193302410087636 0.046679174268576831 0 0 1:-0.132743 2:0.0479452 3:-0.46 4:-0.808219 5:-0.759599 6:-0.15493 7:-0.0176678 8:0.135095 9:-0.212598 10:-0.760479 11:-0.692308 
0.84116254409112501 0.55911274033964309 1.3374621871201335 0.025702799335975787 0.046271508298415004 1:-0.0619469 2:-0.424658 3:-0.1 4:-0.808219 5:-0.803005 6:-0.577465 7:-0.759717 8:0.325991 9:0.023622 10:-0.652695 11:-0.692308 
1.0252300675878216 0.2066265120556437 0 0 0.084312728633779838 1:-0.522124 2:-0.246575 3:-0.9 4:-0.630137 5:-0.682805 6:-0.859155 7:-0.90106 8:0.0469897 9:0.0393701 10:-0.640719 11:-0.476923 
0.96700169019516302 0.55620401374600625 0.18781761530988672 0.12885198975678161 0.073265855792651699 1:-0.079646 2:0.0410959 3:-0.5 4:-0.780822 5:-0.692821 6:-0.0422535 7:0.0530035 8:0.604993 9:0.0551181 10:-0.592814 11:-0.138462 
0.96145785886546897 0.55965219597150906 0.18875631334766735 0.13336895018369688 0.07169072991433878 1:1 2:-0.671233 3:0.3 4:-0.0958904 5:-0.719533 6:-0.408451 7:-0.540636 8:0.105727 9:-0.622047 10:-0.389222 11:1 
0.48846595673138093 0.037506998629955567 0.078333458584203555 0.057067665799015663 0.021726422508777175 1:-0.292035 2:-0.520548 3:-0.06 4:-0.794521 5:-0.792988 6:-0.830986 7:-0.837456 8:0.14978 9:-0.464567 10:-0.844311 11:-0.661538 
0.82756749720157752 0.20342008317915297 0 0.070742829512159988 0.048047317221478161 1:-0.0973451 2:-0.410959 3:-0.66 4:-0.726027 5:-0.749583 6:-0.464789 7:-0.667845 8:0.516887 9:-0.370079 10:-0.664671 11:-0.692308 
1.5557623960174163 0.56616430849527444 0.11436919247006347 0.088510385130131305 0.057107475128488107 1:0.079646 2:-0.575342 3:-0.22 4:-0.821918 5:-0.686144 6:-0.802817 7:-0.816254 8:0.25257 9:-0.76378 10:-0.796407 11:-0.630769 
2 0.57437690549923881 0 0 0 1:-0.486726 2:-0.589041 3:-0.38 4:-0.90411 5:-0.772955 6:-0.605634 7:-0.745583 8:0.135095 9:-0.102362 10:-0.628743 11:-0.815385 
2 0.53978624416928256 0.057117878228380409 0.024771705000280829 0 1:0.327434 2:-0.616438 3:0.04 4:-0.849315 5:-0.732888 6:-0.605634 7:-0.660777 8:0.45815 9:-0.543307 10:-0.60479 11:-0.446154 
1.3786731855330936 0 0 0.016568319683790491 0 1:-0.150442 2:-0.356164 3:-0.72 4:-0.849315 5:-0.759599 6:-0.323944 7:-0.70318 8:0.179148 9:-0.370079 10:-0.724551 11:-0.6 
0.96368101729604105 0.36268404421732603 0.32814273893640949 0.072453550743298761 0.046684085574765485 1:-0.0442478 2:-0.164384 3:-0.14 4:-0.808219 5:-0.843072 6:-0.605634 7:-0.823322 8:-0.041116 9:-0.354331 10:-0.712575 11:-0.2 
1.8416320251763507 0.58521203422042434 0 0.019764384595941802 0.010882225858065794 1:-0.59292 2:-0.616438 3:-0.52 4:-0.780822 5:-0.762938 6:-0.183099 7:-0.724382 8:-0.143906 9:-0.181102 10:-0.700599 11:-0.507692 
0.93088121265690027 0.51527136892229575 0.17632776078579365 0.11769986623488995 0.068644554301881419 1:-0.079646 2:0.534247 3:-0.32 4:-0.849315 5:-0.776294 6:-0.126761 7:0.024735 8:0.164464 9:-0.354331 10:-0.760479 11:-0.661538 
2 2 0 0 0 1:-0.168142 2:-0.60274 3:-0.22 4:-0.821918 5:-0.826377 6:-0.690141 7:-0.823322 8:0.223201 9:-0.181102 10:-0.616766 11:-0.446154 
0.2563547408709359 0 1.0902082486815372 0 0.017271725763984756 1:-0.292035 2:-0.0684932 3:-0.78 4:-0.808219 5:-0.759599 6:-0.690141 7:-0.823322 8:0.14978 9:0.0393701 10:-0.820359 11:-0.538462 
2 0.36038606698018216 0.55430172461022442 0.056313141380621101 0.019924894866654174 1:0.0973451 2:-0.808219 3:-0.1 4:-0.671233 5:-0.839733 6:-0.464789 7:-0.696113 8:0.0469897 9:-0.385827 10:-0.748503 11:-0.630769 
2 0.34620373052562492 0.12618110484594572 0.081242052924667851 0.16352805086640143 1:0.539823 2:-0.575342 3:0.16 4:-0.863014 5:-0.806344 6:-0.605634 7:-0.759717 8:0.516887 9:-0.496063 10:-0.808383 11:-0.815385 
0.41635096925880183 0.51960827317583069 0 0 0.051848463672907207 1:-0.309735 2:-0.534247 3:-0.38 4:-0.815068 5:-0.779633 6:-0.126761 7:-0.632509 8:0.164464 9:-0.0708661 10:-0.748503 11:-0.569231 
1.1129320474292914 0.22382484191582103 0.43709479113160427 0.062743099999331239 0 1:-0.380531 2:-0.0958904 3:-0.54 4:-0.767123 5:-0.843072 6:-0.887324 7:-0.936396 8:0.0176211 9:-0.00787402 10:-0.724551 11:-0.107692 
1.7204646312211049 0.16835718318342249 0 0 0 1:-0.557522 2:-0.273973 3:-0.64 4:-0.876712 5:-0.806344 6:-0.661972 7:-0.759717 8:0.0176211 9:0.102362 10:-0.676647 11:-0.784615 
1.198467448560774 0.084062350759420978 0.026860424534900954 0 0 1:-0.20354 2:-0.287671 3:-0.54 4:-0.69863 5:-0.722871 6:-0.661972 7:-0.773852 8:0.428781 9:-0.149606 10:-0.688623 11:-0.6 
0.28085020563184809 0 0 0.028098830498939763 0 1:-0.451327 2:-0.260274 3:-0.92 4:-0.90411 5:-0.90985 6:-0.915493 7:-0.978799 8:-0.0998532 9:0.0393701 10:-0.832335 11:-0.692308 
1.3356983687158479 0.54098363682275341 0.15463295715260397 0.2380087208617408 0.064853236948683265 1:-0.380531 2:-0.643836 3:-0.04 4:-0.876712 5:-0.51586 6:-0.887324 7:-0.922261 8:0.105727 9:-0.11811 10:-0.137725 11:-0.692308 
0.78758285425849406 0.44642540570681777 0.13733300172039378 0.10724508189121174 0.052432095473769147 1:-0.185841 2:0.0958904 3:-0.52 4:-0.767123 5:-0.749583 6:-0.690141 7:-0.385159 8:0.428781 9:0.165354 10:-0.748503 11:-0.569231 
1.0215130367715208 0.28175983524984144 0.097053892623208834 0.062345537326700395 0.041743829564506126 1:-0.292035 2:-0.493151 3:0.02 4:-0.849315 5:0.368948 6:-0.577465 7:-0.60424 8:0.14978 9:-0.543307 10:0.00598802 11:-0.815385 
0.50997789360371348 0 0 0 0 1:-0.221239 2:-0.506849 3:-0.36 4:-0.739726 5:-0.759599 6:-0.43662 7:-0.180212 8:0.223201 9:-0.0866142 10:-0.652695 11:-0.692308 
0 0.17084963036713416 0.12368771081858099 0.0281723436332189 0 1:-0.150442 2:-0.321918 3:-0.44 4:-0.684932 5:-0.749583 6:-0.521127 7:-0.533569 8:0.472834 9:-0.102362 10:-0.760479 11:-0.6 
0.96319619039679172 0.50714756203814382 0.10582032861042558 0.11874145198516076 0.26158465022398564 1:-0.327434 2:0.253425 3:-0.7 4:-0.30137 5:-0.796327 6:-0.71831 7:-0.660777 8:0.311307 9:-0.00787402 10:-0.808383 11:-0.538462 
0.67386298366345587 0 0 0 0 1:-0.504425 2:-0.493151 3:-0.62 4:-0.712329 5:-0.782972 6:-0.577465 7:-0.780919 8:-0.041116 9:-0.00787402 10:-0.784431 11:-0.353846 
2 0.46194325758997079 0.15048363640734386 0.10419666907640213 0.066456223360809002 1:0.0619469 2:0.239726 3:-0.14 4:-0.739726 5:-0.772955 6:-0.43662 7:-0.448763 8:0.237885 9:-0.496063 10:-0.712575 11:-0.476923 
0.4970032576133333 0.12028291259337404 1.4411592781921709 0.038182127410017176 0 1:-0.274336 2:-0.219178 3:-1 4:-0.684932 5:-0.759599 6:-0.661972 7:-0.809187 8:0.340675 9:-0.023622 10:-0.856287 11:-0.692308 
0.30620738716932638 0 0.28297308117358427 0 0 1:-0.0619469 2:-0.150685 3:-0.44 4:-0.767123 5:-0.779633 6:-0.43662 7:-0.498233 8:0.164464 9:-0.149606 10:-0.784431 11:-0.569231 
1.5815668975704729 0 0.045083701739637314 0 0 1:-0.39823 2:-0.575342 3:-0.28 4:-0.808219 5:-0.789649 6:-0.746479 7:-0.70318 8:0.105727 9:-0.0551181 10:-0.844311 11:-0.692308 
0 0 0.072917962672977191 0.0051006451753984857 0 1:-0.557522 2:-0.260274 3:-1 4:-0.589041 5:-0.752922 6:-0.549296 7:-0.724382 8:0.105727 9:0.133858 10:-0.748503 11:-0.661538 
1.5205491174914034 0.30938206217663217 0.4488991576234363 0.0086900110228777718 0 1:-0.327434 2:-0.39726 3:-0.92 4:-0.849315 5:-0.766277 6:-0.746479 7:-0.886926 8:0.105727 9:-0.244094 10:-0.868263 11:-0.630769 
0.24083336378960735 0.13296729309627425 0.035621582686545583 0.044432067811475309 0.0088826590706038797 1:-0.238938 2:-0.506849 3:-0.52 4:-0.732877 5:-0.72621 6:-0.0422535 7:-0.293286 8:0.193833 9:-0.433071 10:-0.760479 11:-0.753846 
1.8557171738200418 0 0 0 0 1:-0.469027 2:-0.589041 3:-0.84 4:-0.753425 5:-0.759599 6:-0.605634 7:-0.70318 8:-0.0117474 9:-0.259843 10:-0.688623 11:-0.507692 
0.96940268319291067 0.55784818571500894 0.18967398890054613 0.12946708473841281 0.07078685643741095 1:-0.557522 2:-0.739726 3:-0.4 4:-0.821918 5:-0.863105 6:-0.0140845 7:-0.144876 8:-0.0558003 9:-0.685039 10:0.54491 11:-0.661538 
2 0 0 0 0 1:-0.221239 2:-0.260274 3:-0.66 4:-0.712329 5:-0.782972 6:-0.887324 7:-0.95053 8:0.105727 9:-0.133858 10:-0.736527 11:-0.384615 
1.4434350887260561 0 0 0 0 1:-0.681416 2:-0.383562 3:-0.96 4:-0.876712 5:-0.816361 6:-0.915493 7:-0.964664 8:0.0176211 9:0.133858 10:-0.580838 11:-0.661538 
2 0 0 0 0 1:-0.681416 2:-0.383562 3:-0.96 4:-0.876712 5:-0.816361 6:-0.915493 7:-0.964664 8:0.0176211 9:0.133858 10:-0.580838 11:-0.661538 
0.98321139586395245 0.48668347558990904 0.13921052786544194 0.11248852458959555 0.76970925601725582 1:-0.238938 2:0.0342466 3:-0.74 4:-0.650685 5:-0.746244 6:-0.915493 7:-0.943463 8:0.370044 9:0.102362 10:-0.772455 11:-0.0461538 
0 0 0.63827071302711014 0 0 1:-0.522124 2:-0.0205479 3:-0.94 4:-0.835616 5:-0.732888 6:-0.746479 7:-0.908127 8:-0.041116 9:0.023622 10:-0.832335 11:-0.630769 
2 0 0 0 0 1:-0.451327 2:-0.39726 3:-0.6 4:-0.849315 5:-0.789649 6:-0.774648 7:-0.766784 8:0.267254 9:0.165354 10:-0.652695 11:-0.723077 
0.37473017094931638 0 0 0 0.01461707346597016 1:-0.451327 2:0.157534 3:-0.8 4:-0.835616 5:-0.66611 6:-0.71831 7:-0.886926 8:-0.0851689 9:-0.181102 10:-0.796407 11:-0.661538 
1.8901683933810103 0.14029572226518239 0.11691736963360067 0.03647273140264036 0 1:-0.221239 2:-0.219178 3:-1 4:-0.794521 5:-0.746244 6:-0.492958 7:-0.773852 8:0.311307 9:-0.0393701 10:-0.676647 11:-0.723077 
2 0 0 0 0 1:-0.663717 2:-0.321918 3:-1 4:-0.863014 5:-0.823038 6:-0.774648 7:-0.915194 8:0.0469897 9:0.133858 10:-0.616766 11:-0.753846 
1.2691314801569644 0.20909781456186144 0.16730804483751865 0.082247111539064971 0.060065077446004533 1:0.238938 2:-0.60274 3:0.16 4:-0.739726 5:-0.719533 6:-0.323944 7:-0.328622 8:0.493392 9:-0.385827 10:-0.760479 11:-0.507692 
0.27748323583951479 0 0 0 0 1:-0.345133 2:-0.273973 3:-0.8 4:-0.726027 5:-0.742905 6:-0.549296 7:-0.759717 8:0.168869 9:-0.133858 10:-0.736527 11:-0.661538 
2 0 0 0 0 1:-0.345133 2:-0.273973 3:-0.8 4:-0.726027 5:-0.742905 6:-0.549296 7:-0.759717 8:0.168869 9:-0.133858 10:-0.736527 11:-0.661538 
0.50317212337425199 0 1.8652144085192202 0 0.14255734663534381 1:-0.380531 2:0.0273973 3:-1 4:-0.821918 5:-0.759599 6:-0.746479 7:-0.823322 8:-0.0469897 9:-0.19685 10:-0.796407 11:-0.569231 
0.44897517614513749 0 0 0 0 1:-0.256637 2:-0.589041 3:-0.58 4:-0.780822 5:-0.732888 6:-0.0985915 7:-0.420495 8:0.198238 9:-0.291339 10:-0.772455 11:-0.753846 
1.1980083049793004 0.30404196407747541 0.07988013201594972 0.034395128048765107 0.022423222070421082 1:-0.221239 2:-0.369863 3:-0.5 4:-0.739726 5:-0.789649 6:-0.774648 7:-0.30742 8:0.133627 9:-0.228346 10:-0.712575 11:-0.6 
0.71408371895501022 0 0.13640086996713913 0 0 1:-0.168142 2:-0.267123 3:-0.48 4:-0.849315 5:-0.719533 6:-0.887324 7:-0.795053 8:0.0734214 9:-0.19685 10:-0.892216 11:-0.630769 
1.6314201288532375 0 0.76969106665068199 0 0 1:-0.256637 2:-0.356164 3:-0.64 4:-0.726027 5:-0.742905 6:-0.690141 7:-0.519435 8:0.0734214 9:-0.370079 10:-0.748503 11:-0.692308 
0.24340208044176612 0.2663664254684936 0.10621639178081511 0.074140895756896891 0.041949425043186189 1:-0.486726 2:-0.342466 3:-0.36 4:-0.753425 5:-0.69616 6:-0.661972 7:-0.349823 8:0.367107 9:0.11811 10:-0.652695 11:-0.661538 
1.4204706129812332 0 1.0441179223952324 0 0 1:-0.415929 2:-0.178082 3:-0.98 4:-0.863014 5:-0.786311 6:-0.830986 7:-0.816254 8:-0.0293686 9:0.023622 10:-0.748503 11:-0.630769 
0 0.18420477483541076 0 0.054135440781072734 0.028075976017484416 1:-0.132743 2:-0.383562 3:-0.46 4:-0.808219 5:-0.766277 6:-0.380282 7:-0.024735 8:0.138032 9:-0.165354 10:-0.736527 11:-0.692308 
0.44582867507710489 0.087631392316502979 0.46087161222879347 0.039631102885207103 0.22996736823490305 1:-0.539823 2:0.205479 3:-1 4:-0.712329 5:-0.699499 6:-0.830986 7:-0.929329 8:-0.14978 9:0.0866142 10:-0.844311 11:-0.507692 
2 1.3072997290142563 0 0 0.0078518718056466274 1:-0.345133 2:-0.575342 3:-0.4 4:-0.657534 5:-0.776294 6:-0.830986 7:-0.80212 8:0.146843 9:-0.023622 10:-0.664671 11:-0.353846 
2 0 0 0.022257523211319474 0.029232632402167346 1:-0.557522 2:-0.452055 3:-0.94 4:-0.767123 5:-0.786311 6:-0.43662 7:-0.392226 8:0.0837004 9:0.19685 10:-0.676647 11:-0.569231 
1.3886972338895194 0.29665911059007061 0.10302750372839296 0.063709054767742579 0.058860107915072728 1:-0.221239 2:-0.0410959 3:-0.9 4:-0.794521 5:-0.769616 6:-0.295775 7:-0.363958 8:0.185022 9:-0.023622 10:-0.760479 11:-0.507692 
0.84036813531960652 0.092137959016643012 0.064947977598560927 0.062863409695360875 0.043286030709642681 1:-0.663717 2:-0.534247 3:-0.72 4:-0.794521 5:-0.659432 6:-0.774648 7:-0.780919 8:0.0646109 9:0.448819 10:-0.616766 11:-0.569231 
2 0.27206243442021105 0 0.0065368726654784371 0 1:-0.557522 2:-0.356164 3:-0.98 4:-0.780822 5:-0.782972 6:-0.464789 7:-0.441696 8:0.0851689 9:0.275591 10:-0.688623 11:-0.569231 
1.0006997661122197 1.2161746023774711 0.47532950615780045 0 0 1:-0.0619469 2:-0.684932 3:-0.18 4:-0.808219 5:-0.762938 6:-0.71831 7:-0.611307 8:0.193833 9:-0.259843 10:-0.796407 11:-0.661538 
0.10920623794466831 0 0 0 0 1:-0.256637 2:-0.287671 3:-0.66 4:-0.726027 5:-0.759599 6:-0.323944 7:-0.123675 8:0.190896 9:-0.228346 10:-0.748503 11:-0.630769 
1.628679512027404 1.6576538236002738 1.632066499365902 0.0058009479892742926 0 1:-0.451327 2:-0.342466 3:-1 4:-0.767123 5:-0.856427 6:-0.830986 7:-0.95053 8:-0.071953 9:0.00787402 10:-0.724551 11:-0.261538 
0.93880733159706009 0.51898871907106936 0.17653711667385319 0.12122173814601496 0.067758105082308895 1:0.0973451 2:0.0547945 3:-0.4 4:-0.767123 5:-0.599332 6:-0.830986 7:-0.618375 8:0.143906 9:-0.606299 10:0.0179641 11:-0.446154 
0.4577359810358485 0 0 0 0 1:-0.539823 2:-0.328767 3:-0.84 4:-0.575342 5:-0.766277 6:-0.295775 7:-0.279152 8:-0.0690162 9:-0.19685 10:-0.784431 11:-0.692308 
0.72071362562364072 0 0 0.022156182760625122 0 1:-0.292035 2:-0.410959 3:-0.82 4:-0.671233 5:-0.813022 6:-0.802817 7:-0.922261 8:0.0690162 9:-0.228346 10:-0.868263 11:-0.507692 
1.0406917873228712 0.34382017780577684 0.11003846592125802 0.072615406480939365 0.046690771314874237 1:-0.504425 2:-0.438356 3:-0.76 4:-0.863014 5:-0.489149 6:-0.915493 7:-0.957597 8:0.020558 9:-0.181102 10:-0.365269 11:-0.753846 
1.6264437980953106 0 0 0 0 1:0.0973451 2:-0.547945 3:-0.34 4:-0.780822 5:-0.709516 6:-0.464789 7:-0.773852 8:0.190896 9:-0.212598 10:-0.54491 11:-0.261538 
2 1.3075579497629852 0.079839917825760387 0.044076862808142256 0.094393973887162391 1:0.0973451 2:-0.547945 3:-0.34 4:-0.780822 5:-0.709516 6:-0.464789 7:-0.773852 8:0.190896 9:-0.212598 10:-0.54491 11:-0.261538 
1.0545398448716401 0 0.28968774083620225 0.0087732030647753451 0.043151663532393088 1:-0.557522 2:-0.184932 3:-1 4:-0.80137 5:-0.803005 6:-0.43662 7:-0.710247 8:-0.082232 9:-0.133858 10:-0.856287 11:-0.692308 
2 0 0 0.021232199835694427 0 1:-0.20354 2:-0.260274 3:-0.7 4:-0.684932 5:-0.716194 6:-0.774648 7:-0.625442 8:0.422907 9:-0.149606 10:-0.748503 11:-0.630769 
0 0.013775010084550484 0 0 0 1:-0.628319 2:-0.424658 3:-0.74 4:-0.849315 5:-0.786311 6:-0.605634 7:-0.787986 8:0.061674 9:0.370079 10:-0.628743 11:-0.569231 
2 0 0 0.037504085469153202 0 1:-0.557522 2:-0.506849 3:-0.44 4:-0.739726 5:-0.813022 6:-0.859155 7:-0.929329 8:-0.00881057 9:-0.212598 10:-0.760479 11:-0.415385 
0.1064371831374069 0 0 0 0 1:-0.557522 2:-0.534247 3:-0.72 4:-0.739726 5:-0.786311 6:-0.605634 7:-0.780919 8:-0.0939794 9:-0.023622 10:-0.808383 11:-0.292308 
2 0.51752046708112964 0.66356343489977676 0 0 1:-0.557522 2:-0.534247 3:-0.72 4:-0.739726 5:-0.786311 6:-0.605634 7:-0.780919 8:-0.0939794 9:-0.023622 10:-0.808383 11:-0.292308 
0.68873226359073025 0.015879832565915398 1.0172564937582165 0.029575231596543104 0 1:-0.256637 2:-0.226027 3:-0.48 4:-0.90411 5:-0.746244 6:-0.577465 7:-0.879859 8:0.00881057 9:-0.0866142 10:-0.832335 11:-0.692308 
0.81143308644095591 0 0.029132270390276469 0.015783104819336185 0 1:-0.752212 2:-0.479452 3:-0.92 4:-0.821918 5:-0.732888 6:-0.661972 7:-0.858657 8:-0.0602056 9:0.133858 10:-0.832335 11:-0.507692 
2 0.58920360190915211 0.26287677401074339 0.014972302294762747 0.020347280418244525 1:-0.646018 2:-0.260274 3:-1 4:-0.712329 5:-0.656093 6:-0.43662 7:-0.823322 8:-0.0866373 9:0.11811 10:-0.640719 11:-0.415385 
2 0 0 0 0 1:-0.557522 2:-0.226027 3:-0.3 4:-0.849315 5:-0.746244 6:-0.774648 7:-0.392226 8:-0.0851689 9:-0.149606 10:-0.652695 11:-0.692308 
0.059451536507099542 0 0 0.0053739488211693694 0 1:-0.681416 2:-0.287671 3:-0.58 4:-0.876712 5:-0.769616 6:-0.633803 7:-0.823322 8:0.00146843 9:0.338583 10:-0.60479 11:-0.569231 
0.73950862361338143 0 0 0 0 1:-0.681416 2:-0.30137 3:-0.58 4:-0.90411 5:-0.772955 6:-0.690141 7:-0.816254 8:0.00146843 9:0.322835 10:-0.60479 11:-0.569231 
0 0 0.243749102549601 0 0 1:-0.168142 2:-0.575342 3:-0.12 4:-0.863014 5:-0.75626 6:-0.774648 7:-0.886926 8:0.0293686 9:-0.149606 10:-0.736527 11:-0.661538 
0.75093674537860855 0.37957460962505912 0.49080935138243409 0.086919371565066864 0.043514798810524155 1:-0.39823 2:-0.589041 3:-0.36 4:-0.780822 5:-0.772955 6:-0.295775 7:-0.180212 8:0.165932 9:-0.244094 10:-0.113772 11:-0.6 
2 0.34837093877322239 0 0 0.018211755963432948 1:-0.486726 2:-0.589041 3:-0.36 4:-0.753425 5:-0.816361 6:-0.830986 7:-0.865724 8:-0.0881057 9:-0.212598 10:-0.868263 11:-0.384615 
1.0381261773023931 0.27234914427144574 0.04004820830596488 0.06554250617458296 0.034157905420477815 1:-0.59292 2:-0.39726 3:-0.94 4:-0.917808 5:-0.752922 6:-0.0140845 7:-0.717314 8:-0.243759 9:0.244094 10:-0.712575 11:-0.323077 
2 0 0 0 0 1:-0.185841 2:-0.39726 3:-0.64 4:-0.90411 5:-0.779633 6:-0.746479 7:-0.893993 8:-0.164464 9:-0.354331 10:-0.808383 11:-0.538462 
2 0 0 0.036361325149568496 0 1:-0.539823 2:-0.342466 3:-0.92 4:-0.780822 5:-0.786311 6:-0.521127 7:-0.420495 8:0.0837004 9:0.244094 10:-0.736527 11:-0.661538 
2 0 0 0 0 1:-0.238938 2:-0.136986 3:-0.72 4:-0.780822 5:-0.752922 6:-0.774648 7:-0.830389 8:0.199706 9:-0.0551181 10:-0.628743 11:-0.353846 
0.93826400016066769 0.54882680284628349 0.1850206802794738 0.12778624271277289 0.072308394148710792 1:0.079646 2:0.0684932 3:-0.32 4:-0.219178 5:-0.66611 6:-0.380282 7:-0.342756 8:0.882526 9:-0.244094 10:-0.580838 11:-0.723077 
2 0 1.800545868988445 0 0.0072834505071863558 1:-0.539823 2:-0.69863 3:-0.52 4:-0.849315 5:-0.803005 6:-0.183099 7:-0.674912 8:-0.164464 9:0.102362 10:-0.700599 11:-0.476923 
1.8779781822448116 0 0 0 0 1:-0.539823 2:-0.260274 3:-0.94 4:-0.808219 5:-0.779633 6:-0.577465 7:-0.434629 8:0.0807636 9:0.244094 10:-0.712575 11:-0.6 
2 2 0.16015634799233452 1.0602671982208391 0.042541565666678362 1:-0.238938 2:-0.739726 3:-0.28 4:-0.767123 5:-0.853088 6:-0.746479 7:-0.766784 8:-0.185022 9:0.0393701 10:-0.568862 11:0.0461538 
1.6221542189963714 0.27204442619513669 0.19864262429131815 0.015748164516143966 0.011405713764968389 1:-0.539823 2:-0.424658 3:-0.46 4:-0.767123 5:-0.759599 6:-0.690141 7:-0.491166 8:-0.0704846 9:0.023622 10:-0.54491 11:-0.2 
2 0.47203611054738887 0 0 0 1:-0.115044 2:-0.60274 3:-0.26 4:-0.808219 5:-0.736227 6:-0.746479 7:-0.879859 8:0.143906 9:-0.212598 10:-0.724551 11:-0.353846 
2 0.46389772877819724 0 0 0 1:-0.292035 2:-0.520548 3:-0.46 4:-0.808219 5:-0.856427 6:-0.633803 7:-0.844523 8:-0.25257 9:-0.307087 10:-0.437126 11:-0.138462 
2 2 0.069374415295252082 1.2695566401163332 0.040698095856915584 1:-0.292035 2:-0.520548 3:-0.46 4:-0.808219 5:-0.856427 6:-0.633803 7:-0.844523 8:-0.25257 9:-0.307087 10:-0.437126 11:-0.138462 
0.31954361764762718 0.66076003821611073 0.85932103482214772 0.047577976314772931 0.012603600264332862 1:-0.646018 2:-0.328767 3:-0.98 4:-0.863014 5:-0.772955 6:-0.802817 7:-0.865724 8:0.0851689 9:0.496063 10:-0.520958 11:-0.353846 
2 0 0 0 0 1:-0.504425 2:-0.328767 3:-0.98 4:-0.849315 5:-0.792988 6:-0.661972 7:-0.773852 8:0.0881057 9:0.165354 10:-0.616766 11:-0.569231 
2 0 0 0 0 1:-0.504425 2:-0.328767 3:-0.98 4:-0.849315 5:-0.792988 6:-0.661972 7:-0.773852 8:0.0881057 9:0.165354 10:-0.616766 11:-0.569231 
0.98953740306659166 0.39305755147816268 0.64317455679492974 0.041708397226723967 0.028349753598332715 1:-0.716814 2:-0.534247 3:-0.66 4:-0.90411 5:-0.796327 6:-0.830986 7:-0.964664 8:-0.386197 9:0.370079 10:-0.748503 11:-0.0769231 
2 0.61572240228045672 0 0 0 1:-0.39823 2:-0.356164 3:-0.9 4:-0.849315 5:-0.742905 6:-0.690141 7:-0.816254 8:0.0690162 9:-0.023622 10:-0.664671 11:-0.507692 
0.63699639426554655 0 0 0 0 1:-0.557522 2:-0.39726 3:-0.72 4:-0.90411 5:-0.779633 6:-0.830986 7:-0.915194 8:-0.140969 9:-0.165354 10:-0.652695 11:-0.723077 
2 0.044983247349119251 0 0 0 1:-0.646018 2:-0.383562 3:-0.96 4:-0.835616 5:-0.656093 6:-0.859155 7:-0.929329 8:-0.0499266 9:0.00787402 10:-0.568862 11:-0.661538 
1.0002207755394028 0 0 0.006395770536631833 0 1:-0.309735 2:-0.260274 3:-0.6 4:-0.835616 5:-0.716194 6:-0.380282 7:-0.243816 8:0.0660793 9:-0.385827 10:-0.820359 11:-0.753846 
0.88521357617387397 0.23878614318301686 0.063041966910852329 0.12242363713987922 0.049030813420999228 1:-0.309735 2:-0.69863 3:-0.12 4:-0.890411 5:-0.776294 6:-0.859155 7:-0.957597 8:-0.12188 9:0.228346 10:-0.640719 11:-0.292308 
1.7318550914777757 0 0 0 0 1:-0.539823 2:-0.60274 3:-0.4 4:-0.835616 5:-0.762938 6:-0.0422535 7:-0.533569 8:0.0176211 9:0.102362 10:-0.772455 11:-0.692308 
0.066730647130921195 0 0 0 0 1:-0.327434 2:-0.356164 3:-0.42 4:-0.767123 5:-0.676127 6:-0.15493 7:-0.201413 8:0.165932 9:-0.354331 10:-0.796407 11:-0.784615 
2 1.1071339793840413 0.76615346161091213 0.040931399322405387 0.042917145790018124 1:0.345133 2:-0.547945 3:-0.02 4:-0.931507 5:-0.789649 6:-0.943662 7:-1 8:0.00293686 9:-0.385827 10:-0.640719 11:-0.384615 
1.3231668924386994 0.34782701481107825 0 0.063234836020083091 0.020021338817974771 1:-0.557522 2:-0.671233 3:-0.4 4:-0.90411 5:-0.772955 6:-0.0422535 7:-0.547703 8:0.00734214 9:0.102362 10:-0.796407 11:-0.692308 
0.81842732405208718 0.19351207832000622 0.059832434236157736 0.045913229185649475 0.040573628587267471 1:-0.451327 2:-0.630137 3:-0.76 4:-0.890411 5:-0.716194 6:-0.492958 7:-0.85159 8:-0.135095 9:-0.338583 10:-0.808383 11:-0.692308 
2 0 0 0 0 1:-0.557522 2:-0.69863 3:-0.44 4:-0.849315 5:-0.766277 6:-0.15493 7:-0.561837 8:0.00881057 9:0.11811 10:-0.820359 11:-0.692308 
2 0 0.16074284385555537 0 0 1:-0.557522 2:-0.69863 3:-0.44 4:-0.849315 5:-0.766277 6:-0.15493 7:-0.561837 8:0.00881057 9:0.11811 10:-0.820359 11:-0.692308 
0.49204144399211497 0 0 0.043995254633216151 0 1:-0.0442478 2:-0.684932 3:-0.1 4:-0.780822 5:-0.732888 6:-0.464789 7:-0.420495 8:0.337739 9:-0.354331 10:-0.88024 11:-0.692308 
1.1980240304211622 0.095588973021667439 0.19312253515986896 0 0 1:-0.362832 2:-0.575342 3:-0.42 4:-0.90411 5:-0.769616 6:-0.267606 7:-0.724382 8:-0.124816 9:-0.19685 10:-0.748503 11:-0.415385 
2 0.59850332527117722 0.027523091193579149 0 0.036983822908377387 1:-0.115044 2:-0.479452 3:-0.28 4:-0.739726 5:-0.652755 6:-0.295775 7:-0.65371 8:0.0499266 9:-0.307087 10:-0.580838 11:-0.230769 
0.85030423061363791 0 0 0 0.19744463601015033 1:-0.451327 2:0.212329 3:-0.7 4:-0.835616 5:-0.699499 6:-0.71831 7:-0.816254 8:-0.123348 9:-0.228346 10:-0.820359 11:-0.507692 
0.66920332094619217 1.0978982607817827 0 0 0 1:-0.575221 2:-0.479452 3:-0.72 4:-0.876712 5:-0.779633 6:-0.746479 7:-0.879859 8:-0.0763583 9:0.244094 10:-0.664671 11:-0.384615 
0.60506888251767876 0.29541522273423898 0.76768024421890446 0 0 1:-0.575221 2:-0.465753 3:-0.82 4:-0.835616 5:-0.833055 6:-0.915493 7:-0.978799 8:-0.152717 9:-0.0393701 10:-0.748503 11:-0.353846 
2 1.2214909150318149 0.359726164299984 0.14694895817859302 0.051971213422052277 1:-0.681416 2:-0.0753425 3:-1 4:-0.821918 5:-0.823038 6:-0.239437 7:-0.674912 8:-0.455213 9:0.181102 10:-0.772455 11:-0.0153846 
1.0466526722981209 0.38892118731306224 0.4746523956220921 0.055481286215763162 0.7510368966862031 1:-0.380531 2:-0.0410959 3:-1 4:-0.561644 5:-0.722871 6:-0.887324 7:-0.943463 8:0.243759 9:-0.023622 10:-0.760479 11:-0.630769 
0.068544867087147493 0.068068677570761585 0 0.025562145705140125 1.1505091677095343 1:-0.522124 2:0.0821918 3:-0.8 4:-0.876712 5:-0.792988 6:-0.464789 7:-0.646643 8:-0.0234949 9:-0.0393701 10:-0.724551 11:-0.753846 
1.115272802139319 0.48893087082562847 0.24630613387789799 0.08169946585662044 0.29532312846647929 1:-0.504425 2:0.157534 3:-1 4:-0.821918 5:-0.746244 6:-0.577465 7:-0.816254 8:0.0998532 9:0.322835 10:-0.592814 11:-0.446154 
2 0 0 0 0 1:-0.557522 2:-0.575342 3:-0.66 4:-0.876712 5:-0.766277 6:-0.267606 7:-0.681979 8:-0.0792952 9:0.181102 10:-0.628743 11:-0.384615 
2 0 0 0 0 1:-0.557522 2:-0.575342 3:-0.66 4:-0.876712 5:-0.766277 6:-0.267606 7:-0.681979 8:-0.0792952 9:0.181102 10:-0.628743 11:-0.384615 
0.64386843696191598 0.23964265919682964 0.077448779338350329 0.057402933826698005 0.023896196192778552 1:-0.309735 2:-0.534247 3:0.18 4:-0.931507 5:0.342237 6:-0.577465 7:-0.724382 8:0.020558 9:-0.543307 10:0.209581 11:-0.753846 
1.93854840079499 0.2708722898346691 0.031664303154498225 0.17216758501405519 0.040562812311316365 1:-0.823009 2:-0.335616 3:-0.9 4:-0.794521 5:-0.796327 6:-0.492958 7:-0.865724 8:-0.631424 9:0.291339 10:-0.736527 11:0.384615 
0.63983871601528264 0 0 0.022853285077889071 0 1:-0.469027 2:-0.589041 3:-0.5 4:-0.589041 5:-0.692821 6:-0.239437 7:-0.40636 8:0.140969 9:-0.354331 10:-0.712575 11:-0.784615 
1.9921051239820855 0.68749964161163835 0.44110535745603535 0.054560122999247451 0.029002795101470236 1:-0.39823 2:-0.315068 3:-0.3 4:-0.739726 5:-0.752922 6:-0.239437 7:-0.674912 8:0.0176211 9:-0.102362 10:-0.652695 11:-0.261538 
0.43406432405876283 0.23701300603465916 0.085567772396156205 0.060027633952976667 0.0303528326413781 1:-0.486726 2:-0.109589 3:-0.6 4:-0.0136986 5:-0.712855 6:-0.183099 7:-0.392226 8:0.299559 9:-0.275591 10:-0.700599 11:-0.753846 
0.97726466785458066 0.63958769436484941 0.17816627099271132 0.11895193817715782 0.069109590162879514 1:-0.292035 2:-0.657534 3:0.3 4:-0.246575 5:-0.772955 6:-0.943662 7:-0.985866 8:0.189427 9:-0.165354 10:-0.700599 11:-0.2 
0.59459626829640433 0 0 0 0 1:-0.150442 2:-0.616438 3:-0.06 4:-0.780822 5:-0.749583 6:-0.859155 7:-0.90106 8:0.123348 9:-0.354331 10:-0.796407 11:-0.353846 
0.920237449980847 0 0 0 0.023124734657602279 1:-0.292035 2:-0.452055 3:-0.24 4:-0.917808 5:-0.719533 6:-0.887324 7:-0.915194 8:-0.0323054 9:-0.275591 10:-0.772455 11:-0.692308 
2 1.0053742023909578 0.074700373698527334 0.28063711275884445 0.057893445743494476 1:-0.699115 2:-0.383562 3:-0.44 4:-0.835616 5:-0.8798 6:-0.661972 7:-0.696113 8:-0.461087 9:0.0551181 10:-0.676647 11:0.353846 
0 0 0.76110592072925354 0 0 1:-0.380531 2:-0.0958904 3:-0.8 4:-0.671233 5:-0.739566 6:-0.915493 7:-0.95053 8:0.245228 9:-0.023622 10:-0.808383 11:-0.661538 
1.9870573379651033 1.4692101604693328 0 0.084466666780474875 0.047749374972801947 1:-0.823009 2:-0.260274 3:-1 4:-0.780822 5:-0.819699 6:-0.830986 7:-0.936396 8:-0.634361 9:0.228346 10:-0.700599 11:0.384615 
2 0.21532520346193187 0 0.011209663545023795 0.10972307739654739 1:-0.0442478 2:-0.575342 3:-0.34 4:-0.753425 5:-0.722871 6:-0.239437 7:-0.413428 8:0.223201 9:-0.244094 10:-0.580838 11:-0.507692 
0.96233792669869134 0.55927304043602233 0.18931120837546295 0.12974202368076493 0.070813688913641079 1:-0.769912 2:-0.90411 3:-0.58 4:-0.890411 5:-0.889816 6:0.577465 7:-0.0883392 8:-0.509545 9:-0.0866142 10:-0.868263 11:-0.661538 
0.48555352982738909 0.22074596986821626 0.045501044056173681 0.043484639071038875 0.044388039399078538 1:-0.486726 2:-0.60274 3:-0.7 4:-0.616438 5:-0.692821 6:-0.211268 7:-0.378092 8:0.143906 9:-0.370079 10:-0.700599 11:-0.784615 
2 0 0 0 0 1:-0.522124 2:-0.726027 3:-0.54 4:-0.808219 5:-0.819699 6:-0.0422535 7:-0.547703 8:-0.146843 9:0.0866142 10:-0.652695 11:-0.476923 
0.013850239180947542 0 0 0 0 1:-0.345133 2:-0.342466 3:-0.5 4:-0.821918 5:-0.646077 6:-0.774648 7:-0.773852 8:-0.105727 9:-0.354331 10:-0.760479 11:-0.569231 
2 0 0 0 0 1:-0.345133 2:-0.342466 3:-0.5 4:-0.821918 5:-0.646077 6:-0.774648 7:-0.773852 8:-0.105727 9:-0.354331 10:-0.760479 11:-0.569231 
2 2 0 0 0 1:-0.00884956 2:-0.60274 3:-0.14 4:-0.821918 5:-0.672788 6:-0.71831 7:-0.780919 8:0.0587372 9:-0.338583 10:-0.592814 11:-0.261538 
0.46792053610703177 0 0 0 0 1:-0.221239 2:-0.0890411 3:-0.52 4:-0.890411 5:-0.779633 6:-0.746479 7:-0.893993 8:0.00587372 9:-0.133858 10:-0.592814 11:-0.507692 
0.76924226381990191 0.35157255076295713 0.12641877967987994 0.073175296576415208 0.044703580173263507 1:-0.0619469 2:-0.424658 3:-0.48 4:-0.849315 5:-0.669449 6:-0.830986 7:-0.618375 8:0.030837 9:-0.685039 10:-0.221557 11:-0.446154 
1.2548768638621435 0.46767834097704397 0.31735911740314487 0.23777743178368674 0.065962063381336075 1:-0.823009 2:0.0890411 3:-1 4:-0.835616 5:-0.903172 6:-0.549296 7:-0.491166 8:-0.502203 9:0.480315 10:-0.520958 11:-0.0769231 
1.088883136897929 0.5902219615843739 0.29391958617579134 0.12565599143797976 0.077508366750764168 1:-0.646018 2:-0.0684932 3:-0.94 4:-0.0547945 5:-0.776294 6:-0.859155 7:-0.957597 8:-0.0851689 9:0.228346 10:-0.796407 11:0.169231 
0.565012386095748 0.38868870567329317 0.099217663322299296 0.10035588162763816 0.06232551835234524 1:-0.628319 2:-0.287671 3:-0.54 4:-0.835616 5:-0.772955 6:-0.71831 7:-0.201413 8:-0.220264 9:-0.023622 10:-0.556886 11:-0.230769 
1.4181290907164794 0.23072173849209371 0.86417706148389972 0.088063770065318875 0.033218225097009481 1:-0.681416 2:0.0479452 3:-1 4:-0.808219 5:-0.48581 6:-0.859155 7:-0.957597 8:-0.201175 9:0.291339 10:-0.784431 11:-0.261538 
1.0231831844598676 0.3932624124339773 0.12616778994201752 0.093613448647662953 0.055838409064477873 1:-0.0619469 2:-0.150685 3:-0.62 4:-0.328767 5:-0.669449 6:-0.0985915 7:-0.5053 8:0.279001 9:-0.370079 10:-0.736527 11:-0.692308 
1.0089963821879122 0.53492943031267837 0.19477010306601 0.11156037840291198 0.19746974165400491 1:-0.0619469 2:-0.178082 3:0.1 4:-0.890411 5:-0.585977 6:-0.352113 7:-0.674912 8:0.0939794 9:-0.0393701 10:-0.269461 11:-0.507692 
0 0 0.017652663827325051 0 0 1:-0.646018 2:-0.561644 3:-0.7 4:-0.835616 5:-0.786311 6:-0.408451 7:-0.667845 8:-0.173275 9:-0.0866142 10:-0.652695 11:-0.723077 
0.93378962001011501 0.48121241381826335 0 0.01106730342898193 0 1:-0.185841 2:-0.534247 3:-0.54 4:-0.767123 5:-0.736227 6:-0.521127 7:-0.498233 8:0.343612 9:-0.354331 10:-0.784431 11:-0.692308 
0.65139086755691933 0.40000527005604208 0.12138166162771609 0.097102161958729449 0.048750564657628483 1:-0.486726 2:-0.369863 3:-0.94 4:-0.561644 5:-0.772955 6:-0.267606 7:-0.717314 8:-0.140969 9:-0.559055 10:-0.832335 11:-0.753846 
2 0.54014825970914804 0 0 0 1:-0.221239 2:-0.369863 3:-0.5 4:-0.849315 5:-0.692821 6:-0.802817 7:-0.893993 8:0.118943 9:-0.165354 10:-0.532934 11:-0.630769 
2 0 0 0 0 1:-0.469027 2:-0.575342 3:-0.42 4:-0.835616 5:-0.789649 6:-0.492958 7:-0.575972 8:0.0440529 9:0.0393701 10:-0.628743 11:-0.661538 
1.3506221365516724 0.51289506239980398 0.16031782497863509 0.11447155893786051 0.062359270640963804 1:-0.433628 2:-0.0479452 3:-0.98 4:-0.767123 5:-0.792988 6:0.323944 7:-0.40636 8:-0.0983847 9:0.00787402 10:-0.652695 11:-0.261538 
2 0 0 0 0 1:-0.469027 2:-0.575342 3:-0.42 4:-0.835616 5:-0.789649 6:-0.492958 7:-0.575972 8:0.0440529 9:0.0393701 10:-0.628743 11:-0.661538 
0.27348052219566837 0 0 0 0 1:-0.486726 2:-0.328767 3:-0.6 4:-0.890411 5:-0.786311 6:-0.0140845 7:-0.618375 8:-0.284875 9:-0.433071 10:-0.916168 11:-0.723077 
0.40232048031096634 0.12724397640150764 0 0 0 1:-0.079646 2:-0.657534 3:-0.22 4:-0.780822 5:-0.776294 6:-0.239437 7:-0.583039 8:0.0602056 9:-0.338583 10:-0.688623 11:-0.569231 
2 0 0.16833436909125735 0 0 1:-0.345133 2:-0.39726 3:-0.56 4:-0.794521 5:-0.766277 6:-0.746479 7:-0.434629 8:0.208517 9:-0.00787402 10:-0.652695 11:-0.661538 
0 0 0 0.0062429975342997391 0 1:-0.504425 2:-0.150685 3:-0.86 4:-0.890411 5:-0.752922 6:-0.605634 7:-0.70318 8:-0.273128 9:-0.401575 10:-0.820359 11:-0.507692 
2 2 0 0 0 1:-0.504425 2:-0.410959 3:-0.62 4:-0.876712 5:-0.766277 6:-0.605634 7:-0.80212 8:-0.0484581 9:0.181102 10:-0.580838 11:-0.353846 
1.343770647813697 0 0 0 0 1:-0.486726 2:-0.369863 3:-0.72 4:-0.821918 5:-0.782972 6:-0.267606 7:-0.618375 8:-0.0851689 9:-0.149606 10:-0.688623 11:-0.569231 
0.047078872082297538 0 0 0 0 1:-0.557522 2:-0.178082 3:-1 4:-0.876712 5:-0.629382 6:-0.859155 7:-0.943463 8:-0.0895742 9:0.11811 10:-0.700599 11:-0.569231 
2 0.74455923536500657 0 0 0 1:-0.415929 2:-0.260274 3:-1 4:-0.931507 5:-0.719533 6:-0.859155 7:-0.95053 8:-0.174743 9:0.0866142 10:-0.700599 11:-0.661538 
0.9202886884289736 0 0.16552253771182115 0 0 1:-0.734513 2:-0.287671 3:-0.96 4:-0.794521 5:-0.809683 6:-0.295775 7:-0.717314 8:-0.484581 9:0.149606 10:-0.856287 11:-0.2 
0.98050997421506358 0.40560040910348777 0.13537522489139095 0.086622324535596526 0.055151744967806345 1:-0.486726 2:-0.356164 3:-0.56 4:-0.876712 5:-0.766277 6:0.183099 7:-0.618375 8:-0.277533 9:-0.433071 10:-0.892216 11:-0.753846 
1.0685165187003778 0.30630661903373502 0.10234718714474823 0.069402680245360934 0.042007766800805105 1:-0.292035 2:-0.294521 3:0.36 4:-0.876712 5:0.305509 6:-0.492958 7:-0.646643 8:-0.082232 9:-0.559055 10:-0.0179641 11:-0.723077 
0.31800907909584675 0.1821378712823323 0.049343047524488808 0.054426608713481886 0.071766224365728729 1:-0.079646 2:-0.547945 3:-0.24 4:-0.780822 5:-0.769616 6:-0.0704225 7:-0.575972 8:0.0558003 9:-0.354331 10:-0.700599 11:-0.569231 
1.031465600417333 0.35334846600986269 0.06189214418905914 0.056440288776575913 0.048605256511571278 1:-0.769912 2:-0.534247 3:-1 4:-0.863014 5:-0.782972 6:-0.323944 7:-0.731449 8:-0.444934 9:0.19685 10:-0.760479 11:-0.138462 
0 0.13021996000637556 0.031320383009328163 0.037406321220024227 0.014914995952344709 1:-0.486726 2:-0.369863 3:-0.6 4:-0.849315 5:-0.796327 6:-0.0704225 7:-0.731449 8:-0.284875 9:-0.433071 10:-0.88024 11:-0.723077 
2 1.3887905729444365 0 0.035209179088032311 0.017936714305446546 1:0.185841 2:-0.657534 4:-0.876712 5:-0.739566 6:-0.464789 7:-0.710247 8:0.0675477 9:-0.354331 10:-0.712575 11:-0.353846 
0.92440953450175745 0.47042403074155359 0.14354479522989302 0.10946019400805099 0.064445464098838848 1:-0.575221 2:-0.342466 3:-0.4 4:-0.506849 5:-0.813022 6:-0.464789 7:-0.265018 8:0.331865 9:-0.11811 10:0.00598802 11:-0.446154 
2 1.7761838998678647 0.79116206625894026 0.031216483505738597 0 1:-0.469027 2:-0.150685 3:-1 4:-0.863014 5:-0.706177 6:-0.859155 7:-0.957597 8:-0.245228 9:-0.023622 10:-0.688623 11:-0.2 
0.85187698036802173 0.46809073131389367 0.15615303200288366 0.10941950575321825 0.062474360863542203 1:-0.646018 2:-0.30137 3:-1 4:-0.534247 5:-0.729549 6:0.408451 7:-0.4947 8:-0.190896 9:-0.275591 10:-0.856287 11:-0.661538 
2 1.2314603047735764 0.11511042122043927 0.16393053204460678 0.043076913877400758 1:-0.39823 2:-0.780822 3:-0.12 4:-0.876712 5:-0.769616 6:-0.239437 7:-0.561837 8:-0.274596 9:-0.023622 10:-0.60479 11:-0.138462 
0.033026140020988463 0.14695049678197208 0 0.038528497764778791 0 1:-0.469027 2:-0.0821918 3:-0.58 4:-0.808219 5:-0.749583 6:-0.43662 7:-0.561837 8:-0.202643 9:-0.401575 10:-0.868263 11:-0.753846 
0.73358171211453393 0 0 0 0 1:-0.486726 2:-0.328767 3:-0.48 4:-0.863014 5:-0.796327 6:-0.352113 7:-0.420495 8:-0.111601 9:-0.11811 10:-0.760479 11:-0.569231 
1.1421261351204812 0 0.11977290731280341 0 0 1:-0.0973451 2:-0.219178 3:-0.36 4:-0.780822 5:-0.746244 6:-0.408451 7:-0.399293 8:0.14978 9:-0.133858 10:-0.652695 11:-0.476923 
2 0 0 0 0 1:-0.486726 2:-0.328767 3:-0.48 4:-0.863014 5:-0.796327 6:-0.352113 7:-0.420495 8:-0.111601 9:-0.11811 10:-0.760479 11:-0.569231 
0.67005989452192172 0.41508377193900892 0.2798229168874638 0.099152454093100029 0.059821584108609799 1:-0.39823 2:0.452055 3:-0.58 4:-0.863014 5:-0.762938 6:-0.633803 7:-0.75265 8:-0.229075 9:-0.0551181 10:-0.832335 11:-0.353846 
2 2 0.096196600648501607 0.81064668880152158 0.04668797336259202 1:-0.20354 2:-0.69863 3:-0.16 4:-0.876712 5:-0.846411 6:-0.774648 7:-0.915194 8:-0.434655 9:-0.307087 10:-0.736527 11:-0.0769231 
1.1735528740375172 0 0.25709324517080862 0 0 1:-0.663717 2:-0.452055 3:-0.78 4:-0.876712 5:-0.796327 6:-0.661972 7:-0.773852 8:-0.202643 9:-0.0551181 10:-0.772455 11:-0.723077 
0.50404631258311205 0.32008303704442598 0.073788417150172758 0.073303770320466449 0.012325373555715436 1:-0.433628 2:0.0273973 3:-0.48 4:-0.60274 5:-0.682805 6:-0.15493 7:-0.568905 8:-0.0293686 9:-0.181102 10:-0.844311 11:-0.753846 
1.5379930259765535 0 0.79275098810668287 0 0 1:-0.20354 2:-0.10274 3:-0.56 4:-0.821918 5:-0.776294 6:-0.690141 7:-0.70318 8:0.105727 9:-0.307087 10:-0.784431 11:-0.630769 
0 0 0 0.035724575922367975 0.064823313338228897 1:-0.539823 2:-0.0205479 3:-1 4:-0.849315 5:-0.48581 6:-0.915493 7:-0.964664 8:-0.117474 9:0.023622 10:-0.772455 11:-0.507692 
1.99646474644033 0.16222889894589371 0.1990632684520291 0 0 1:0.221239 2:-0.589041 3:-0.04 4:-0.767123 5:-0.782972 6:-0.802817 7:-0.90106 8:0.240822 9:-0.448819 10:-0.760479 11:-0.2 
2 1.0227544925917975 2 0 0 1:-0.734513 2:-0.356164 3:-0.98 4:-0.835616 5:-0.853088 6:-0.887324 7:-0.95053 8:-0.317181 9:0.228346 10:-0.724551 11:-0.0769231 
0 0.57299856183922737 0.86745959857691224 0 0 1:-0.539823 2:-0.267123 3:-0.94 4:-0.876712 5:-0.779633 6:-0.830986 7:-0.957597 8:-0.148311 9:-0.0551181 10:-0.928144 11:-0.661538 
1.7042391773592134 0.18309971886686172 0 0.012438697177368441 0.0083624011826524645 1:-0.221239 2:-0.342466 3:-0.42 4:-0.849315 5:-0.809683 6:-0.126761 7:-0.526502 8:-0.0499266 9:-0.0551181 10:-0.712575 11:-0.507692 
2 0 0 0 0 1:-0.539823 2:-0.369863 3:-0.94 4:-0.808219 5:-0.782972 6:-0.830986 7:-0.844523 8:-0.176211 9:-0.0393701 10:-0.772455 11:-0.507692 
1.1128876582363347 0.40375865098407598 0.25384809071557268 0.08359023487507225 0.046716145173827758 1:-0.734513 2:-0.69863 3:-0.5 4:-0.876712 5:-0.759599 6:-0.915493 7:-0.844523 8:-0.328928 9:-0.023622 10:-0.868263 11:-0.476923 
0.68032091280582452 0.37882937688913343 0.13136155385431703 0.089795704892123518 0.053138605485085193 1:-0.504425 2:-0.287671 3:-0.66 4:-0.383562 5:-0.479132 6:0.43662 7:-0.349823 8:0.0704846 9:-0.149606 10:-0.796407 11:-0.661538 
2 0.37948658065445939 0.38430064774003797 0 0 1:-0.185841 2:-0.424658 3:-0.38 4:-0.808219 5:-0.66611 6:-0.71831 7:-0.773852 8:0.0161527 9:-0.212598 10:-0.724551 11:-0.230769 
2 0 0 0 0 1:-0.433628 2:-0.479452 3:-0.82 4:-0.821918 5:-0.656093 6:-0.746479 7:-0.745583 8:0.0323054 9:-0.307087 10:-0.652695 11:-0.661538 
0.82625272567068742 0.39659794130169246 0.13545980822088768 0.095829053778641232 0.051292623636678317 1:-0.274336 2:-0.0958904 3:0.02 4:-0.890411 5:0.345576 6:-0.690141 7:-0.575972 8:-0.0954479 9:-0.590551 10:0.00598802 11:-0.753846 
2 0 0 0 0 1:-0.539823 2:-0.39726 3:-0.48 4:-0.849315 5:-0.762938 6:-0.661972 7:-0.335689 8:-0.14978 9:-0.181102 10:-0.772455 11:-0.538462 
0.55860761827420213 0.26593332440800577 0.078605990355370275 0.075881350563608299 0 1:-0.362832 2:0.0479452 3:-0.6 4:-0.931507 5:-0.752922 6:-0.830986 7:-0.823322 8:-0.334802 9:-0.417323 10:-0.844311 11:-0.507692 
0 0 0 0.020022416665978284 0 1:-0.610619 2:-0.0273973 3:-0.82 4:-0.876712 5:-0.792988 6:-0.915493 7:-0.865724 8:-0.226138 9:0.00787402 10:-0.856287 11:-0.630769 
0.53570684298800719 0 0 0 0 1:-0.39823 2:-0.342466 3:-0.56 4:-0.835616 5:-0.772955 6:-0.323944 7:-0.300353 8:-0.110132 9:-0.11811 10:-0.808383 11:-0.538462 
0.17341309431293336 0 0 0 0 1:-0.557522 2:-0.130137 3:-0.7 4:-0.876712 5:-0.682805 6:-0.464789 7:-0.448763 8:-0.139501 9:-0.291339 10:-0.796407 11:-0.661538 
2 0 0 0 0 1:-0.504425 2:-0.287671 3:-0.86 4:-0.876712 5:-0.706177 6:-0.802817 7:-0.879859 8:-0.114537 9:-0.11811 10:-0.700599 11:-0.630769 
0.92099116247183832 0.4233718589405025 0.14883172657019111 0.099577725013584667 0.060032395711430597 1:-0.628319 2:-0.506849 3:-0.96 4:-0.821918 5:-0.772955 6:-0.0140845 7:-0.257951 8:-0.240822 9:-0.433071 10:-0.760479 11:-0.6 
2 0.40798406595363196 0.032018723439805524 0.046602227358794449 0 1:-0.39823 2:-0.287671 3:-0.56 4:-0.794521 5:-0.72621 6:-0.887324 7:-0.809187 8:-0.111601 9:-0.00787402 10:-0.700599 11:-0.2 
0.64629608376792402 0.33888377305004119 0.48122360628430411 0.029248851148936453 0.026901051911922359 1:-0.557522 2:-0.315068 3:-0.88 4:-0.945205 5:-0.806344 6:-0.887324 7:-0.957597 8:-0.393539 9:-0.322835 10:-0.820359 11:-0.569231 
2 0 0.040920755574006165 0 0 1:-0.39823 2:-0.452055 3:-0.5 4:-0.849315 5:-0.779633 6:-0.492958 7:-0.625442 8:-0.111601 9:-0.11811 10:-0.820359 11:-0.446154 
0.25581383290754539 0.11012371402662471 0 0.038596676135486417 0 1:-0.681416 2:-0.383562 3:-0.72 4:-0.589041 5:-0.806344 6:-0.267606 7:-0.526502 8:-0.0279001 9:-0.0866142 10:-0.820359 11:-0.753846 
2 0 0.96842778050611 0 0 1:-0.274336 2:-0.239726 3:-0.8 4:-0.90411 5:-0.739566 6:-0.915493 7:-0.964664 8:0.0837004 9:-0.102362 10:-0.616766 11:-0.646154 
2 0 0 0 0 1:-0.522124 2:-0.356164 3:-0.48 4:-0.849315 5:-0.772955 6:-0.549296 7:-0.30742 8:-0.152717 9:-0.149606 10:-0.772455 11:-0.538462 
0 0.17120235565026359 0.042934762480011365 0.039932047513875302 0.018423130274628781 1:-0.415929 2:-0.219178 3:-0.58 4:-0.835616 5:-0.772955 6:-0.0985915 7:-0.0459364 8:-0.0998532 9:-0.19685 10:-0.784431 11:-0.538462 
0.83496829944222772 0.36532891141279827 0.054826955724010216 0.048421074791982571 0.041602178938124568 1:-0.0619469 2:-0.383562 3:-0.5 4:-0.849315 5:-0.692821 6:-0.690141 7:-0.413428 8:-0.0851689 9:-0.527559 10:-0.317365 11:-0.476923 
1.8038132448247595 0.2746124480910701 0.34119215505130973 0.073556602890770539 0.037411397863499007 1:-0.716814 2:-0.369863 3:-1 4:-0.90411 5:-0.823038 6:-0.802817 7:-0.915194 8:-0.041116 9:0.291339 10:-0.389222 11:-0.692308 
1.5117608439446153 0.485718971053611 0.055044340014888414 0.042162334299666593 0 1:-0.0442478 2:-0.726027 3:0.18 4:-0.821918 5:-0.782972 6:-0.943662 7:-0.936396 8:0.370044 9:-0.275591 10:-0.461078 11:-0.630769 
1.4495919868560074 0.14329864732578307 0 0.056459982390296662 0.017165695004004375 1:-0.433628 2:-0.438356 3:-0.98 4:-0.90411 5:-0.782972 6:-0.943662 7:-0.908127 8:-0.276065 9:-0.338583 10:-0.844311 11:-0.569231 
2 0 0 0 0 1:-0.486726 2:-0.616438 3:-0.64 4:-0.90411 5:-0.776294 6:-0.352113 7:-0.632509 8:-0.0558003 9:-0.0551181 10:-0.700599 11:-0.692308 
1.9486900019478672 1.3349090946604374 0.12931183330175564 0.092035291007977527 0.059634103332144396 1:-0.415929 2:-0.917808 3:-0.2 4:-0.821918 5:-0.876461 6:0.0422535 7:-0.568905 8:-0.129222 9:-0.0708661 10:-0.281437 11:-0.107692 
2 0.95636080625622 0 0.29433148599477227 0 1:-0.504425 2:-0.60274 3:-0.52 4:-0.876712 5:-0.819699 6:-0.521127 7:-0.710247 8:-0.187959 9:-0.00787402 10:-0.652695 11:-0.384615 
1.2936867594325316 0.51841031317371045 0.41311115178630325 0.11034226526435183 0.068017685237970707 1:-0.610619 2:0.0890411 3:-0.42 4:-0.465753 5:-0.806344 6:-0.605634 7:-0.766784 8:-0.162996 9:0.244094 10:-0.748503 11:-0.169231 
0 0 0.53115585925581266 0.01991689401338086 0 1:-0.575221 2:-0.356164 3:-1 4:-0.890411 5:-0.866444 6:-0.943662 7:-0.985866 8:-0.129222 9:0.0551181 10:-0.832335 11:-0.415385 
2 1.7639929309360596 0.47185033562754419 0.23561105123996262 0.043980784114150948 1:-0.59292 2:-0.369863 3:-0.6 4:-0.883562 5:-0.846411 6:-0.802817 7:-0.886926 8:-0.537445 9:0.00787402 10:-0.808383 11:0.0153846 
2 0 0 0.0063918892994106313 0 1:-0.610619 2:-0.246575 3:-1 4:-0.863014 5:-0.772955 6:-0.408451 7:-0.766784 8:0.0190896 9:0.0393701 10:-0.508982 11:-0.6 
1.3637651242629369 0.24100519141997698 0.043957104955202123 0.058967696711833668 0.026609190177871122 1:-0.59292 2:-0.369863 3:-0.98 4:-0.863014 5:-0.772955 6:0.0985915 7:-0.660777 8:-0.00734214 9:0.0393701 10:-0.520958 11:-0.6 
0.96485563353236847 0.074894624681857758 0 0 0 1:-0.469027 2:-0.493151 3:-0.34 4:-0.863014 5:-0.792988 6:-0.267606 7:-0.441696 8:0.0264317 9:0.0551181 10:-0.700599 11:-0.815385 
2 0.097354856019035513 0 0 0 1:-0.327434 2:-0.767123 3:-0.2 4:-0.890411 5:-0.816361 6:-0.802817 7:-0.90106 8:-0.124816 9:0.023622 10:-0.676647 11:-0.353846 
0.86958203264297151 0 0 0 0 1:-0.610619 2:-0.356164 3:-0.8 4:-0.890411 5:-0.829716 6:-0.0704225 7:-0.667845 8:-0.15859 9:0.0551181 10:-0.592814 11:-0.6 
0.6631055956229388 0.46292119068679954 0.14329343273284237 0.11563031911182034 0.06633061951746641 1:-0.0442478 2:-0.219178 3:-0.78 4:-0.931507 5:-0.759599 6:-0.802817 7:-0.872792 8:-0.161527 9:-0.779528 10:-0.832335 11:-0.6 
1.2416486838897609 0.93995462353538362 0.51780268305758825 0.042779866941750774 0.032430029856370446 1:-0.628319 2:-0.205479 3:-0.84 4:-0.609589 5:-0.816361 6:-0.802817 7:-0.929329 8:-0.519824 9:0.0866142 10:-0.772455 11:0.292308 
1.1973848795469537 0.5611218840136134 0.18389644662258259 0.12958838097824474 0.071303236850599111 1:-0.0619469 2:-0.479452 4:0.767123 5:-0.355593 6:0.323944 7:-0.462898 8:0.81351 9:-0.338583 10:-0.497006 11:-0.876923 
1.7350011589030541 0.77233529161475578 0.091972695990240549 0.033789524930125867 0.030811241696951732 1:-0.362832 2:-0.780822 3:0.2 4:-0.712329 5:-0.692821 6:-0.746479 7:-0.886926 8:0.20558 9:0.023622 10:-0.580838 11:-0.323077 
2 1.6642295603199415 0 0.36679093693229153 0 1:-0.380531 2:-0.712329 3:-0.12 4:-0.917808 5:-0.899833 6:-0.859155 7:-0.957597 8:-0.214391 9:-0.0393701 10:-0.664671 11:-0.292308 
0.39718262716541036 0.19198164248152266 0.33209707341728839 0.092046135641636717 0.052774713147498944 1:-0.823009 2:-0.424658 3:-0.92 4:-0.890411 5:-0.876461 6:-0.887324 7:-0.95053 8:-0.393539 9:0.543307 10:-0.700599 11:-0.0769231 
0 0.27547882199858487 0 0 0 1:-0.716814 2:-0.273973 3:-0.88 4:-0.90411 5:-0.873122 6:-0.859155 7:-0.915194 8:-0.499266 9:0.307087 10:-0.748503 11:0.0923077 
0 0.048160751274461455 0.045561497498887223 0.0089787962588760619 0.0069003272950192429 1:-0.451327 2:-0.424658 3:-0.48 4:-0.863014 5:-0.742905 6:-0.380282 7:-0.00353357 8:-0.0763583 9:-0.181102 10:-0.688623 11:-0.6 
0 0.069801742715291853 0 0 0 1:-0.486726 2:-0.171233 3:-0.92 4:-0.917808 5:-0.786311 6:-0.802817 7:-0.936396 8:-0.264317 9:-0.181102 10:-0.760479 11:-0.630769 
1.351478211171774 0.17199547928316919 0.15455174225552334 0.042223833283806342 0.022966373334972881 1:-0.433628 2:-0.0410959 3:-0.42 4:-0.534247 5:-0.762938 6:-0.43662 7:-0.590106 8:-0.0675477 9:-0.338583 10:-0.760479 11:-0.692308 
2 2 0.18781833252401361 0.5758901053384553 0.044417235612174227 1:-0.415929 2:-0.917808 3:-0.2 4:-0.876712 5:-0.833055 6:-0.830986 7:-0.90106 8:-0.408223 9:-0.149606 10:-0.556886 11:-0.169231 
2 0 0 0 0 1:-0.557522 2:-0.219178 3:-0.92 4:-0.835616 5:-0.813022 6:-0.492958 7:-0.85159 8:0.0352423 9:0.102362 10:-0.592814 11:-0.569231 
2 0.56472763180064067 1.1502255271223139 0.17812466984262132 0.02495075656229254 1:-0.504425 2:-0.520548 3:-0.08 4:-0.821918 5:-0.659432 6:-0.830986 7:-0.90106 8:-0.0602056 9:-0.0866142 10:-0.640719 11:-0.353846 
0.78173350320103685 0 0 0 0 1:-0.646018 2:-0.205479 3:-0.84 4:-0.767123 5:-0.686144 6:-0.633803 7:-0.85159 8:-0.0337739 9:0.102362 10:-0.700599 11:-0.446154 
1.5997012993665065 0.80694526172268555 0.14261716129299051 0.15359921626664111 0.059197708519409233 1:-0.734513 2:-0.726027 3:-0.5 4:-0.808219 5:-0.803005 6:-0.380282 7:-0.632509 8:-0.0807636 9:0.0708661 10:-0.233533 11:-0.323077 
2 0 0 0 0 1:-0.610619 2:-0.506849 3:-0.5 4:-0.849315 5:-0.786311 6:-0.211268 7:-0.611307 8:-0.232012 9:-0.0551181 10:-0.676647 11:-0.384615 
2 0.17588197761333527 0 0 0 1:-0.628319 2:-0.506849 3:-0.84 4:-0.835616 5:-0.826377 6:-0.521127 7:-0.80212 8:-0.199706 9:-0.0708661 10:-0.628743 11:-0.6 
1.0141100296121819 0.45509167036680942 0.86041720510356934 0 0 1:-0.734513 2:-0.19863 3:-0.8 4:-0.739726 5:-0.769616 6:-0.661972 7:-0.844523 8:-0.0837004 9:0.354331 10:-0.60479 11:-0.446154 
2 0 0.019529659105779616 0.022913254880707279 0.010225018515439761 1:-0.39823 2:-0.630137 3:-0.4 4:-0.863014 5:-0.792988 6:-0.126761 7:-0.448763 8:0.0425844 9:0.023622 10:-0.664671 11:-0.815385 
2 1.6010518831311207 0.97584120161412835 0.053036916174421529 0.024085918855974563 1:-0.716814 2:-0.287671 3:-0.82 4:-0.780822 5:-0.769616 6:-0.605634 7:-0.858657 8:-0.220264 9:0.307087 10:-0.640719 11:0.107692 
2 1.1063382887188074 0 0.034297520127576128 0.054957081950606605 1:-0.539823 2:-0.630137 3:-0.36 4:-0.876712 5:-0.823038 6:-0.0704225 7:-0.618375 8:0.0381791 9:0.133858 10:-0.461078 11:-0.538462 
2 2 0 0 0 1:-0.575221 2:-0.383562 3:-0.96 4:-0.849315 5:-0.799666 6:-0.549296 7:-0.858657 8:-0.165932 9:-0.023622 10:-0.664671 11:-0.446154 
1.3833610591387455 0 0 0 0 1:-0.699115 2:-0.342466 3:-0.8 4:-0.90411 5:-0.8798 6:-0.690141 7:-0.858657 8:-0.56094 9:0.275591 10:-0.784431 11:0.138462 
1.330954893257559 0 0.14571520064420984 0 0 1:0.168142 2:-0.616438 4:-0.849315 5:-0.709516 6:-0.492958 7:-0.689046 8:0.139501 9:-0.433071 10:-0.700599 11:-0.384615 
0 0 0.58987715020510356 0 0 1:-0.557522 2:-0.232877 3:-1 4:-0.808219 5:-0.749583 6:-0.549296 7:-0.858657 8:0.139501 9:0.11811 10:-0.760479 11:-0.661538 
0.52127159893114572 0 0 0 0 1:-0.557522 2:-0.246575 3:-1 4:-0.808219 5:-0.762938 6:-0.521127 7:-0.85159 8:0.117474 9:0.102362 10:-0.748503 11:-0.692308 
0.73071188765429118 0 0.61404402668763114 0 0 1:-0.646018 2:0.0410959 3:-0.92 4:-0.821918 5:-0.819699 6:-0.690141 7:-0.90106 8:-0.0763583 9:0.244094 10:-0.724551 11:-0.538462 
0.92056232148196815 0.53844398217683331 0.18127843077130562 0.12558992127668572 0.072845573012747189 1:-0.59292 2:-0.30137 3:-0.34 4:-0.205479 5:-0.255426 6:0.830986 7:-0.229682 8:0.145374 9:-0.244094 10:-0.724551 11:-0.661538 
0.31616454372078467 0 0 0 0 1:-0.433628 2:-0.342466 3:-0.48 4:-0.849315 5:-0.772955 6:-0.15493 7:-0.116608 8:-0.0969163 9:-0.259843 10:-0.772455 11:-0.538462 
0.32563194970736109 0 0 0 0 1:-0.539823 2:-0.212329 3:-0.74 4:-0.849315 5:-0.786311 6:-0.690141 7:-0.90106 8:-0.208517 9:-0.133858 10:-0.748503 11:-0.476923 
2 0.60192876100662784 0 0 0 1:-0.539823 2:-0.212329 3:-0.74 4:-0.849315 5:-0.786311 6:-0.690141 7:-0.90106 8:-0.208517 9:-0.133858 10:-0.748503 11:-0.476923 
0.17323093057199776 0 0.23559171935609066 0 0 1:-0.575221 2:-0.39726 3:-0.74 4:-0.90411 5:-0.782972 6:-0.323944 7:-0.745583 8:-0.0866373 9:-0.0551181 10:-0.688623 11:-0.753846 
1.1896740003492663 0 0 0 0 1:-0.716814 2:-0.39726 3:-0.82 4:-0.890411 5:-0.863105 6:-0.352113 7:-0.816254 8:-0.419971 9:0.259843 10:-0.676647 11:-0.107692 
2 1.2656649577045287 0 0.075280498251990749 0 1:-0.716814 2:-0.39726 3:-0.82 4:-0.890411 5:-0.863105 6:-0.352113 7:-0.816254 8:-0.419971 9:0.259843 10:-0.676647 11:-0.107692 
1.135003959125344 0 0 0 0 1:-0.734513 2:-0.184932 3:-0.8 4:-0.767123 5:-0.863105 6:-0.661972 7:-0.85159 8:-0.478708 9:0.307087 10:-0.796407 11:0.0769231 
1.3032808213051381 0.38314866627718352 0.043237442157687489 0.028756844620072879 0.021949617096722218 1:-0.716814 2:-0.534247 3:-0.42 4:-0.835616 5:-0.792988 6:-0.126761 7:-0.349823 8:-0.161527 9:-0.0708661 10:-0.652695 11:-0.569231 
0.64100810975380385 0.29845057745187853 0.09527352119589419 0.064803425451623653 0.043819437299254541 1:-0.646018 2:-0.171233 3:-0.6 4:-0.0547945 5:-0.796327 6:-0.211268 7:-0.484099 8:0.120411 9:-0.133858 10:-0.748503 11:-0.753846 
1.5900716936781754 0.19320852126235943 0 0 0 1:-0.716814 2:-0.342466 3:-0.84 4:-0.849315 5:-0.739566 6:-0.126761 7:-0.731449 8:-0.290749 9:0.11811 10:-0.700599 11:-0.353846 
0.41005176534420834 0.3040346430874768 0.0079443483752575129 0.05033536504406684 0.032658769816242578 1:-0.769912 2:-0.280822 3:-0.76 4:-0.849315 5:-0.789649 6:-0.126761 7:-0.731449 8:-0.207048 9:0.307087 10:-0.54491 11:-0.446154 
-1.8657595669030282 0.36934490063427727 0 0.018378751892617989 0.010842316658540133 1:0.168142 2:-0.780822 3:0.12 4:-0.863014 5:-0.789649 6:-0.549296 7:-0.618375 8:0.164464 9:-0.338583 10:-0.700599 11:-0.569231 
-1.2222635248367575 0.3696509171966279 0.17903253683184189 0.083074600706787377 0.068416513676838875 1:-0.415929 2:-0.726027 3:0.02 4:-0.876712 5:0.0984975 6:-0.549296 7:-0.646643 8:0.00293686 9:-0.527559 10:-0.101796 11:-0.753846 
-2 0.29885491095566669 0 0 0 1:-0.59292 2:-0.616438 3:-0.72 4:-0.794521 5:-0.75626 6:-0.43662 7:-0.759717 8:-0.0117474 9:0.0866142 10:-0.640719 11:-0.6 
-2 1.3364296699659042 0.31773580344682101 0 0 1:-0.433628 2:-0.280822 3:-1 4:-0.849315 5:-0.766277 6:-0.802817 7:-0.929329 8:-0.0704846 9:0.00787402 10:-0.688623 11:-0.569231 
-1.1885801164588452 0 0 0 0 1:-0.59292 2:-0.226027 3:-1 4:-0.780822 5:-0.689482 6:-0.408451 7:-0.780919 8:-0.041116 9:0.133858 10:-0.712575 11:-0.323077 
-2 1.2626471996241495 0.98761063137449079 0.081759660198502226 0.56022977555828923 1:-0.433628 2:-0.280822 3:-1 4:-0.369863 5:-0.752922 6:-0.887324 7:-0.915194 8:0.25257 9:0.0393701 10:-0.736527 11:-0.630769 
-2 0.72735096642766683 0.768104285533729 0 0.036190513260438081 1:-0.433628 2:-0.342466 3:-0.72 4:-0.794521 5:-0.752922 6:-0.943662 7:-0.936396 8:0.0910426 9:0.0708661 10:-0.676647 11:-0.261538 
-1.0148836451520145 0.43475819215898209 0.21838474381190978 0.094357680459688939 0.074281822950792248 1:-0.486726 2:-0.493151 3:-0.6 4:-0.767123 5:0.0684474 6:-0.802817 7:-0.943463 8:-0.0117474 9:-0.259843 10:-0.317365 11:-0.353846 
-1.9841313598944537 0 0 0 0 1:-0.646018 2:-0.452055 3:-0.92 4:-0.821918 5:-0.809683 6:-0.802817 7:-0.936396 8:-0.187959 9:0.0393701 10:-0.640719 11:-0.692308 
-2 0.44693246225256439 0 0.035956400659356749 0.022256486404210504 1:-0.646018 2:-0.479452 3:-0.92 4:-0.835616 5:-0.813022 6:-0.859155 7:-0.943463 8:-0.202643 9:0.023622 10:-0.628743 11:-0.692308 
-1.3050917038676142 0.12592265182080226 0 0.023188853662420395 0.02609714219370483 1:-0.469027 2:-0.465753 3:-0.7 4:-0.739726 5:-0.672788 6:-0.0985915 7:-0.526502 8:-0.202643 9:-0.322835 10:-0.640719 11:-0.446154 
-2 0 0 0 0 1:-0.522124 2:-0.630137 3:-0.38 4:-0.794521 5:-0.792988 6:-0.774648 7:-0.717314 8:-0.0998532 9:0.0551181 10:-0.748503 11:-0.692308 
-0.24966456455700875 1.0834076734107503 0 0.04508456349119444 0.030225084786301776 1:-0.39823 2:-0.19863 3:-0.9 4:-0.863014 5:-0.792988 6:-0.802817 7:-0.908127 8:-0.0998532 9:-0.0551181 10:-0.257485 11:-0.353846 
-2 0.43883230309084525 0.15274739161086029 0 0 1:-0.451327 2:-0.30137 3:-0.84 4:-0.863014 5:-0.786311 6:-0.605634 7:-0.85159 8:-0.0264317 9:-0.0866142 10:-0.748503 11:-0.661538 
-2 0.1877674413934482 0.38264260406277895 0.0052630692644184502 0.045002328990650591 1:-0.610619 2:-0.0890411 3:-1 4:-0.794521 5:-0.692821 6:-0.633803 7:-0.830389 8:-0.041116 9:0.228346 10:-0.736527 11:-0.292308 
-0.077942495958769079 0.41751154558207043 0.018898059292837548 0 0.018148061538860043 1:-0.699115 2:-0.753425 3:-0.04 4:-0.876712 5:-0.809683 6:-0.521127 7:-0.611307 8:-0.143906 9:0.102362 10:-0.461078 11:-0.415385 
-1.0495040083114968 0.44983219345171771 0.22342791779706711 0.094197263436175557 0.08057053852175082 1:-0.292035 2:-0.493151 3:-0.44 4:-0.863014 5:-0.672788 6:-0.464789 7:-0.0812721 8:0.0469897 9:-0.700787 10:0.94012 11:-0.538462 
-1.2421270098597359 0.51469802874364134 0.67254402334697194 0.14686479823133611 0.073395509136048073 1:-0.982301 2:-0.342466 3:-0.66 4:-0.808219 5:-0.846411 6:-0.549296 7:-0.293286 8:-0.540382 9:0.748031 10:-0.676647 11:0.384615 
-2 0 0 0 0 1:-0.380531 2:-0.417808 3:-0.64 4:-0.863014 5:-0.772955 6:-0.661972 7:-0.795053 8:0.0469897 9:-0.11811 10:-0.688623 11:-0.815385 
-0.90095777167205615 0.093162550209358805 0.9131272417580546 0 0 1:-0.345133 2:-0.328767 3:-0.4 4:-0.835616 5:-0.759599 6:-0.71831 7:-0.689046 8:0.0469897 9:0.0393701 10:-0.664671 11:-0.446154 
-2 0 0 0 0 1:-0.433628 2:-0.479452 3:-0.4 4:-0.863014 5:-0.789649 6:-0.802817 7:-0.886926 8:-0.143906 9:-0.102362 10:-0.724551 11:-0.384615 
-2 0.41918959132877426 0.79714247294633911 0 0 1:-0.380531 2:-0.417808 3:-0.64 4:-0.863014 5:-0.772955 6:-0.661972 7:-0.795053 8:0.0469897 9:-0.11811 10:-0.688623 11:-0.815385 
-1.3927281118545889 0.078656436695689488 0.64669005564374227 0.04528664310432897 0.033200581062479993 1:-0.39823 2:-0.712329 3:0.06 4:-0.780822 5:-0.736227 6:-0.521127 7:-0.477032 8:0.105727 9:-0.00787402 10:-0.437126 11:-0.630769 
-1.1900392910710054 0.43225530831279402 0.25095863495991977 0.0093844707506608293 0.19176204298648808 1:-0.0265487 2:-0.739726 3:-0.12 4:-0.808219 5:-0.772955 6:-0.408451 7:-0.717314 8:0.281938 9:-0.0866142 10:-0.592814 11:-0.6 
-1.298785531352338 0.15308008424179312 0.11401782983140404 0 0.026771325677022909 1:-0.150442 2:-0.616438 3:-0.38 4:-0.821918 5:-0.739566 6:-0.661972 7:-0.60424 8:-0.041116 9:-0.480315 10:-0.640719 11:-0.353846 
-2 0 0 0 0 1:-0.345133 2:-0.424658 3:-0.44 4:-0.863014 5:-0.782972 6:-0.71831 7:-0.759717 8:0.135095 9:0.023622 10:-0.664671 11:-0.507692 
-2 0.37774959971294086 0.50141541170383597 0 0 1:-0.433628 2:-0.39726 3:-0.76 4:-0.849315 5:-0.766277 6:-0.830986 7:-0.844523 8:0.0176211 9:-0.00787402 10:-0.796407 11:-0.692308 
-1.9232920314634088 0.46372918880421532 0 0.019202621340101752 0 1:-0.256637 2:-0.410959 3:-0.92 4:-0.821918 5:-0.642738 6:-0.633803 7:-0.646643 8:-0.0998532 9:-0.259843 10:-0.676647 11:-0.230769 
-0.24609123606773051 0.88643558902043762 0.4735067980107629 0.0061034925892575337 0 1:-0.646018 2:-0.479452 3:-0.98 4:-0.917808 5:-0.839733 6:-0.549296 7:-0.858657 8:-0.246696 9:0.0393701 10:-0.700599 11:-0.569231 
-2 0.25004610995995058 0.61990421446536337 0.065873675647029464 0.65263731931253877 1:-0.415929 2:0.260274 3:-0.9 4:-0.821918 5:-0.759599 6:-0.661972 7:-0.837456 8:-0.143906 9:-0.244094 10:-0.736527 11:-0.538462 
-0.62179606703782619 0.49080865673169771 0.12934709627048496 0.33262891024598934 0.04144236211748193 1:-0.893805 2:-0.69863 3:-1 4:-0.876712 5:-0.873122 6:-0.267606 7:-0.597173 8:-0.77533 9:0.480315 10:-0.449102 11:0.723077 
-1.4272174780610343 0.22691407763973778 0 0 0 1:-0.362832 2:-0.616438 3:-0.12 4:-0.739726 5:-0.742905 6:-0.71831 7:-0.738516 8:0.0910426 9:0.244094 10:-0.664671 11:-0.353846 
-2 0.38575516693482753 0.37254796082079061 0 0.019523568722595593 1:-0.522124 2:-0.712329 3:-0.06 4:-0.835616 5:-0.782972 6:-0.887324 7:-0.964664 8:-0.15859 9:-0.0708661 10:-0.760479 11:-0.415385 
-2 0.15959114938162075 0.03847700819223035 0.045886527044479236 0.024977555478722793 1:-0.610619 2:-0.342466 3:-0.64 4:-0.863014 5:-0.776294 6:-0.521127 7:-0.434629 8:-0.0117474 9:0.338583 10:-0.712575 11:-0.723077 
-2 0 0.09010178902240823 0 0 1:-0.610619 2:-0.30137 3:-0.86 4:-0.835616 5:-0.742905 6:-0.71831 7:-0.731449 8:-0.232012 9:0.149606 10:-0.736527 11:-0.384615 
-1.3790403581084854 0.32396478018310354 0 0 0 1:-0.39823 2:-0.589041 3:-0.66 4:-0.849315 5:-0.796327 6:-0.859155 7:-0.915194 8:0.0469897 9:-0.133858 10:-0.664671 11:-0.753846 
-0 0.34178275662910218 0 0 0 1:-0.504425 2:-0.315068 3:-0.9 4:-0.863014 5:-0.813022 6:-0.352113 7:-0.745583 8:-0.114537 9:0.0708661 10:-0.712575 11:-0.0461538 
-0.63031865629446415 0 0.11249388577334295 0.034724447776476181 0.042349530935439784 1:-0.486726 2:-0.452055 3:-0.16 4:-0.808219 5:-0.749583 6:-0.802817 7:-0.773852 8:0.0469897 9:0.322835 10:-0.664671 11:-0.353846 
-2 0.015292747663995491 0.061260022357331828 0.030792593126576298 0.026201636814991762 1:-0.628319 2:-0.315068 3:-0.58 4:-0.863014 5:-0.776294 6:-0.802817 7:-0.60424 8:0.0176211 9:0.228346 10:-0.700599 11:-0.723077 
-0.51490366760801198 0 0.07114531590799486 0.016321406674835174 0.022026280329031669 1:-0.681416 2:-0.657534 3:-0.5 4:-0.863014 5:-0.792988 6:-0.43662 7:-0.696113 8:0.0763583 9:0.307087 10:-0.652695 11:-0.569231 
-0.51952376427755653 1.4418475801439488 0.036772445171624243 0.18711051890908764 0.013101914791436575 1:0.221239 2:-0.753425 3:0.2 4:-0.849315 5:-0.816361 6:-0.690141 7:-0.85159 8:0.179148 9:-0.417323 10:-0.233533 11:-0.476923 
-2 0 0 0 0.012434705221931979 1:-0.575221 2:-0.575342 3:-0.28 4:-0.90411 5:-0.742905 6:-0.633803 7:-0.780919 8:-0.107195 9:-0.0551181 10:-0.724551 11:-0.753846 
-2 0 0 0 0 1:-0.39823 2:-0.171233 3:-0.52 4:-0.739726 5:-0.762938 6:-0.746479 7:-0.60424 8:-0.00440529 9:-0.0393701 10:-0.724551 11:-0.507692 
-0 0.39332720904936247 0 0 0 1:0.238938 2:-0.561644 3:0.28 4:-0.835616 5:-0.843072 6:-0.887324 7:-0.936396 8:0.164464 9:-0.259843 10:-0.592814 11:-0.446154 
-2 0.34508278589622082 0.36991635073688234 0 0 1:-0.433628 2:-0.69863 3:-0.26 4:-0.849315 5:-0.766277 6:-0.352113 7:-0.632509 8:-0.0704846 9:-0.0551181 10:-0.688623 11:-0.692308 
-2 0 0 0 0 1:-0.292035 2:-0.280822 3:-0.5 4:-0.849315 5:-0.762938 6:-0.802817 7:-0.844523 8:0.18649 9:-0.149606 10:-0.676647 11:-0.507692 
-2 0 0 0 0 1:-0.451327 2:-0.575342 3:-0.5 4:-0.767123 5:-0.796327 6:-0.211268 7:-0.597173 8:-0.107195 9:-0.00787402 10:-0.700599 11:-0.353846 
-1.0823215174119525 0.443033391826884 0.22070308525861956 0.097801041068113298 0.076312278676145887 1:-0.238938 2:-0.356164 4:-0.849315 5:0.0851419 6:-0.267606 7:-0.469965 8:-0.0704846 9:-0.527559 10:0.532934 11:-0.661538 
-2 0.014641587888646791 0.243713277408353 0 0 1:-0.451327 2:-0.575342 3:-0.5 4:-0.767123 5:-0.796327 6:-0.211268 7:-0.597173 8:-0.107195 9:-0.00787402 10:-0.700599 11:-0.353846 
-2 0 0 0.012029776153751184 0 1:-0.39823 2:-0.643836 3:-0.88 4:-0.876712 5:-0.779633 6:-0.690141 7:-0.696113 8:-0.092511 9:-0.00787402 10:-0.772455 11:-0.538462 
-0.87255053211234201 0.44206608136184578 0 0 0 1:-0.309735 2:-0.657534 3:-0.6 4:-0.739726 5:-0.739566 6:-0.521127 7:-0.632509 8:0.164464 9:-0.0551181 10:-0.556886 11:-0.630769 
-2 0.26169838454601657 1.2745888834159362 0.065007821925826242 0.24399559582849806 1:-0.362832 2:0.205479 3:-0.82 4:-0.808219 5:-0.823038 6:-0.830986 7:-0.780919 8:-0.00440529 9:-0.0866142 10:-0.736527 11:-0.815385 
