svm_type c_svc
kernel_type rbf
gamma 8
nr_class 7
total_sv 3192
rho -0.14220529403392146 -1.1069038679191472 -0.96532044859869903 -0.66429866682308525 -0.91490113112209959 -1.3806050679514736 -0.42999059633359482 -0.67994696247137587 -0.61829199559321502 -0.890031392154634 -0.99604390927052566 -0.79153197663960362 -0.14238732287440609 -0.77580090025076998 -1.1477498772314734 0.23625042775180846 -0.51532729913138886 -0.96064277180292335 -0.65353182748229899 -0.9373154910406879 -0.70948126258216559
label 6 5 7 8 4 3 9
nr_sv 1360 935 619 128 130 16 4
SV
2.6175594352861773 0 0 0 0 0 1:-0.346154 2:-0.705882 3:-0.614458 4:-0.757669 5:-0.709199 6:-0.686411 7:-0.178654 8:-0.672643 9:-0.145455 10:-0.581395 11:-0.387097 
0 0 0 0 0 0.48048644956277109 1:-0.173077 2:-0.607843 3:-0.518072 4:-0.806748 5:-0.756677 6:-0.804878 7:-0.591647 8:-0.691922 9:-0.0181818 10:-0.488372 11:-0.322581 
152.63514567173192 0 0 1.103224829404382 0 0 1:-0.538462 2:-0.529412 3:-0.807229 4:-0.803681 5:-0.78635 6:-0.804878 7:-0.410673 8:-0.699634 9:-0.163636 10:-0.418605 11:-0.483871 
4.8275836828177106 2.4193802926058914 0 0 0 0 1:-0.384615 2:-0.627451 3:-0.566265 4:-0.383436 5:-0.78635 6:-0.700348 7:-0.2529 8:-0.46443 9:-0.490909 10:-0.465116 11:-0.741935 
7.8194404920953584 0 0 3.8425283185308441 0 0 1:-0.519231 2:-0.568627 3:-0.590361 4:-0.969325 5:-0.762611 6:-0.916376 7:-0.429234 8:-0.734336 9:0.0545455 10:-0.372093 11:-0.516129 
4.1825572729259859 0 0.24645570365344621 1.1795880093350766 0 0 1:-0.173077 2:-0.72549 3:-0.481928 4:-0.972393 5:-0.792285 6:-0.818815 7:-0.443155 8:-0.742047 9:-0.0909091 10:-0.465116 11:-0.0322581 
8.8539989521914659 0 0 6.1970164896239455 0 0 1:-0.519231 2:-0.215686 3:-0.951807 4:-0.984663 5:-0.780415 6:-0.804878 7:-0.582367 8:-0.780605 9:-0.0545455 10:-0.674419 11:-0.483871 
2.5694548562164328 0 0 1.3999500010521164 0 0 1:-0.307692 2:-0.490196 3:-0.493976 4:-0.984663 5:-0.857567 6:-0.89547 7:-0.24826 8:-0.823019 9:-0.272727 10:-0.27907 11:0.0645161 
6.9113369564425957 1.5943704167393464 0 0 0.04567229784939543 0 1:-0.461538 2:-0.627451 3:-0.506024 4:-0.978528 5:-0.744807 6:-0.902439 7:-0.382831 8:-0.691922 9:0.272727 10:-0.418605 11:-0.354839 
0 3.506238200266663 0.32233279048533175 0 0 0 1:-0.403846 2:-0.686275 3:-0.578313 4:-0.98773 5:-0.744807 6:-0.770035 7:-0.364269 8:-0.772894 9:0.327273 10:-0.488372 11:-0.354839 
0 11.504923966752052 0 0 0 0 1:-0.384615 2:-0.607843 3:-0.53012 4:-0.751534 5:-0.750742 6:-0.790941 7:-0.387471 8:-0.653364 9:0.2 10:-0.27907 11:-0.193548 
6.3609456890030405 4.2598617260349139 0 0 0 0 1:-0.307692 2:-0.627451 3:-0.421687 4:-0.984663 5:-0.774481 6:-0.89547 7:-0.429234 8:-0.834586 9:-0.145455 10:-0.372093 11:0.16129 
8.7525256088484582 0 0 1.9198461177407053 0 1.078924686648117 1:-0.0961538 2:-0.686275 3:-0.53012 4:-0.699387 5:-0.792285 6:-0.874564 7:-0.382831 8:-0.603239 9:-0.127273 10:-0.27907 11:-0.354839 
4.4364634189008259 1.449375521938159 0 0.59675310788255331 0 0 1:-0.134615 2:-0.882353 3:-0.590361 4:-0.984663 5:-0.804154 6:-0.965157 7:-0.823666 8:-0.757471 9:0.363636 10:-0.581395 11:-0.290323 
7.3210890764436112 0 0 0 0 0 1:-0.307692 2:-0.666667 3:-0.566265 4:-0.955521 5:-0.756677 6:-0.797909 7:-0.577726 8:-0.811452 9:-0.145455 10:-0.488372 11:-0.0967742 
1.5748345996490238 0 0 0.63881340415870314 0 0 1:-0.384615 2:-0.509804 3:-0.614458 4:-0.981595 5:-0.738872 6:-0.749129 7:-0.401392 8:-0.865433 9:-0.254545 10:-0.860465 11:0.0322581 
1.7437237992122279 0 0 0 0 0 1:-0.442308 2:-0.705882 3:-0.53012 4:-0.941718 5:-0.0326409 6:-0.574913 7:-0.308585 8:-0.745903 9:-0.290909 10:-0.674419 11:-0.548387 
0 0 0.06690401211218705 0.08589792991204781 0.010648677941308932 0 1:-0.442308 2:-0.686275 3:-0.53012 4:-0.929448 5:-0.0267062 6:-0.574913 7:-0.313225 8:-0.745903 9:-0.309091 10:-0.72093 11:-0.548387 
5.6860148732587126 0 0 0 0 0 1:-0.461538 2:-0.686275 3:-0.674699 4:-0.97546 5:-0.715134 6:-0.783972 7:-0.336427 8:-0.757471 9:-0.0909091 10:-0.209302 11:-0.516129 
0 13.414256711393852 0 0 0 0 1:-0.442308 2:-0.705882 3:-0.686747 4:-0.97546 5:-0.697329 6:-0.783972 7:-0.327146 8:-0.757471 9:-0.0545455 10:-0.209302 11:-0.516129 
0 0 0 0.92657760690363944 0 0 1:-0.384615 2:-0.54902 3:-0.686747 4:-0.791411 5:-0.643917 6:-0.818815 7:-0.299304 8:-0.680355 9:-0.254545 10:-0.44186 11:-0.419355 
0 3.0780226029310538 0 0 0 0 1:-0.346154 2:-0.784314 3:-0.626506 4:-0.969325 5:-0.68546 6:-0.797909 7:-0.238979 8:-0.823019 9:0.145455 10:-0.488372 11:0.193548 
0.42725693397261322 7.4165508885926421 0 0 1.4274310392001295 0 1:-0.5 2:-0.803922 3:-0.578313 4:-0.98773 5:-0.78635 6:-0.74216 7:-0.540603 8:-0.846154 9:0.0727273 10:-0.697674 11:-0.0645161 
2.4941361626512615 4.6170483080093607 0 0 0 0 1:-0.423077 2:-0.764706 3:-0.289157 4:-0.990798 5:-0.181009 6:-0.749129 7:-0.429234 8:-0.772894 9:-0.4 10:-0.627907 11:-0.645161 
0 0 0 0.29463571586629023 0 0 1:-0.403846 2:-0.666667 3:-0.578313 4:-0.978528 5:-0.821958 6:-0.811847 7:-0.155452 8:-0.857721 9:-0.254545 10:-0.302326 11:-0.0322581 
2.0557593443070217 0 1.0562701418978417 0 0.25018068513176778 0 1:-0.423077 2:-0.72549 3:-0.710843 4:-0.868098 5:-0.507418 6:-0.804878 7:-0.470998 8:-0.691922 9:-0.436364 10:-0.44186 11:-0.806452 
26.442326741526571 3.8665977375476279 0 0.62420447295370662 0 0 1:-0.576923 2:-0.784314 3:-0.686747 4:-0.638037 5:-0.768546 6:-0.665505 7:-0.359629 8:-0.61095 9:0.0545455 10:-0.674419 11:-0.709677 
7.0009476593589124 0 0 4.2055802151693555 0 0 1:-0.461538 2:-0.411765 3:-0.819277 4:-0.877301 5:-0.792285 6:-0.839721 7:-0.679814 8:-0.769038 9:-0.290909 10:-0.627907 11:-0.290323 
16.533894987967436 12.021067902631724 0 0 0 0 1:-0.346154 2:-0.686275 3:-0.674699 4:-0.97546 5:-0.827893 6:-0.797909 7:-0.475638 8:-0.784461 9:-0.218182 10:-0.44186 11:-0.258065 
14.342475746970644 0.92944555769087722 0 0.45818617242797904 0 0 1:-0.538462 2:-0.627451 3:-0.481928 4:-0.779141 5:-0.721068 6:-0.679443 7:0.0904872 8:-0.672643 9:-0.309091 10:-0.325581 11:-0.677419 
4.4327294838453204 0 0 0.49205475124559678 0.16823165969721698 0 1:-0.0769231 2:-0.705882 3:-0.445783 4:-0.98773 5:-0.732938 6:-0.95122 7:-0.707657 8:-0.73048 9:-0.581818 10:-0.372093 11:-0.645161 
0.080051059543576289 0.02749773689047378 2.34607139201972 0 0 0 1:-0.423077 2:-0.72549 3:-0.626506 4:-0.97546 5:-0.738872 6:-0.777003 7:-0.512761 8:-0.77675 9:0.218182 10:0.27907 11:-0.16129 
9.208552179490745 0 0 0 0 0 1:-0.365385 2:-0.764706 3:-0.590361 4:-0.527607 5:-0.756677 6:-0.658537 7:-0.271462 8:-0.560825 9:-0.109091 10:-0.116279 11:-0.612903 
0 0 0 0.54839375062281936 0 0 1:-0.326923 2:-0.72549 3:-0.638554 4:-0.766871 5:-0.774481 6:-0.721254 7:-0.0812065 8:-0.634085 9:0.109091 10:-0.44186 11:-0.516129 
15.229097774617358 0 0 0 0 0 1:-0.423077 2:-0.666667 3:-0.626506 4:-0.610429 5:-0.756677 6:-0.533101 7:-0.104408 8:-0.61095 9:-0.0909091 10:-0.395349 11:-0.451613 
310.79468420579917 0 0 0 0 0 1:-0.365385 2:-0.294118 3:-0.253012 4:-0.656442 5:-0.792285 6:-0.651568 7:-0.336427 8:-0.599383 9:-0.272727 10:-0.44186 11:-0.774194 
153.96112096695455 0 0 0 0 0 1:-0.346154 2:-0.392157 3:-0.240964 4:-0.680982 5:-0.792285 6:-0.630662 7:-0.317865 8:-0.603239 9:-0.327273 10:-0.488372 11:-0.774194 
7.9556081789198041 5.081451056312436 0 0 0 0 1:-0.365385 2:-0.647059 3:-0.650602 4:-0.638037 5:-0.792285 6:-0.581882 7:0.0719258 8:-0.622518 9:-0.418182 10:-0.534884 11:-0.612903 
4.184731822807839 0 0 1.140860329241991 0 0 1:-0.576923 2:-0.490196 3:-0.204819 4:-0.530675 5:-0.780415 6:-0.832753 7:-0.280742 8:-0.58396 9:-0.236364 10:-0.348837 11:-0.741935 
0.35405866902512262 12.398383712874809 1.347440194533821 0 0 0 1:-0.326923 2:-0.901961 3:-0.614458 4:-0.576687 5:-0.750742 6:-0.777003 7:-0.535963 8:-0.603239 9:-0.127273 10:-0.697674 11:-0.612903 
3.429490128854018 5.0788033961966823 0 0 0 0 1:-0.365385 2:-0.705882 3:-0.578313 4:-0.51227 5:-0.816024 6:-0.595819 7:-0.24826 8:-0.541546 9:-0.2 10:-0.139535 11:-0.645161 
2.1836006592835138 0 0 0.60641072289464282 0.017648816328716059 0 1:-0.480769 2:-0.823529 3:-0.349398 4:-0.757669 5:-0.566766 6:-0.567944 7:-0.285383 8:-0.661076 9:-0.690909 10:-0.604651 11:-0.741935 
12.47864171816399 14.876522587517627 0 0 0 0 1:-0.576923 2:-0.54902 3:-0.710843 4:-0.917178 5:-0.810089 6:-0.839721 7:-0.37819 8:-0.834586 9:0.0727273 10:-0.488372 11:0.0645161 
0 0 0 2.8071378215574199 0 0 1:-0.384615 2:-0.882353 3:-0.518072 4:-0.966258 5:-0.845697 6:-0.902439 7:-0.647332 8:-0.846154 9:-0.145455 10:-0.534884 11:0.225806 
18.933579454618929 0 0 0 0 0 1:-0.442308 2:-0.784314 3:-0.566265 4:-0.984663 5:-0.89911 6:-0.574913 7:-0.37819 8:-0.842298 10:-0.395349 11:-0.0322581 
0 190.81776634000855 0 0 0 0 1:-0.557692 2:-0.568627 3:-0.325301 4:-0.935583 5:-0.780415 6:-0.69338 7:-0.187935 8:-0.796029 9:0.0727273 10:-0.186047 11:-0.0645161 
0 10.405856130105949 0 2.8324923212172535 0 0 1:-0.153846 2:-0.705882 3:-0.518072 4:-0.981595 5:-0.893175 6:-0.763066 7:-0.480278 8:-0.811452 9:-0.272727 10:-0.627907 11:-0.129032 
10.525378931412995 7.5135765815558635 0 0 0 0 1:-0.173077 2:-0.607843 3:-0.53012 4:-0.960123 5:-0.881306 6:-0.888502 7:-0.675174 8:-0.799884 9:-0.0727273 10:-0.302326 11:0.225806 
6.2655666643843348 19.753636337710489 0 0 0 0 1:-0.211538 2:-0.745098 3:-0.518072 4:-0.981595 5:-0.821958 6:-0.749129 7:-0.545244 8:-0.811452 9:-0.109091 10:-0.255814 11:-0.0967742 
25.557136851172459 0 0 0.77698731329385373 0 0 1:-0.0961538 2:-0.745098 3:-0.506024 4:-0.886503 5:-0.839763 6:-0.84669 7:-0.582367 8:-0.707345 9:-0.163636 10:-0.27907 11:-0.451613 
17.81024451369516 0 0 0 0 0 1:-0.403846 2:-0.666667 3:-0.638554 4:-0.892638 5:-0.732938 6:-0.853659 7:-0.50348 8:-0.734336 9:-0.509091 10:-0.627907 11:-0.548387 
23.766855700636594 0 0 0 0 0 1:-0.269231 2:-0.803922 3:-0.445783 4:-0.705521 5:-0.727003 6:-0.609756 7:-0.415313 8:-0.626374 9:-0.236364 10:-0.511628 11:-0.387097 
13.927434104226595 4.6830247073720352 0 0 0 0 1:-0.307692 2:-0.686275 3:-0.493976 4:-0.588957 5:-0.661721 6:-0.679443 7:-0.12297 8:-0.58396 9:-0.690909 10:-0.534884 11:-0.709677 
1.6137220409089683 5.5962529856160188 0 0 0 0 1:-0.115385 2:-0.627451 3:-0.445783 4:-0.751534 5:-0.768546 6:-0.74216 7:-0.12761 8:-0.603239 9:-0.236364 10:-0.139535 11:-0.483871 
6.580190981212537 0 0 0 0 0 1:-0.211538 2:-0.784314 3:-0.457831 4:-0.972393 5:-0.78635 6:-0.89547 7:-0.596288 8:-0.823019 9:-0.254545 10:-0.604651 11:-0.0322581 
0.50809169245945551 0 0 0 0 0 1:-0.403846 2:-0.705882 3:-0.518072 4:-0.788344 5:-0.816024 6:-0.665505 7:-0.341067 8:-0.784461 9:-0.290909 10:-0.883721 11:0.0967742 
2.0443648708879376 0 0.53161482004144245 0 0 0 1:-0.5 2:-0.666667 3:-0.614458 4:-0.849693 5:-0.762611 6:-0.728223 7:-0.225058 8:-0.695778 9:-0.145455 10:0.0697674 11:-0.612903 
21.29195943469534 0 0 0 0 0 1:-0.403846 2:-0.627451 3:-0.518072 4:-0.588957 5:-0.756677 6:-0.567944 7:0.0116009 8:-0.58396 9:-0.163636 10:-0.162791 11:-0.483871 
0 8.0669523874039566 0 0 0 0 1:-0.442308 2:-0.686275 3:-0.506024 4:-0.730061 5:-0.816024 6:-0.672474 7:-0.271462 8:-0.680355 9:-0.272727 10:-0.0930233 11:-0.387097 
9.2223919807404435 0.087213430571787959 0 0 0 0 1:-0.461538 2:-0.607843 3:-0.662651 4:-0.757669 5:-0.744807 6:-0.630662 7:-0.062645 8:-0.649508 9:-0.327273 10:-0.232558 11:-0.709677 
0 7.5313128658340469 4.2344931957037177 0 0 0 1:-0.423077 2:-0.607843 3:-0.566265 4:-0.773006 5:-0.78635 6:-0.818815 7:-0.470998 8:-0.780605 9:-0.454545 10:-0.651163 11:0.0967742 
42.570621238412237 0 0 0.18148765700032091 0.053587073710816134 0 1:-0.5 2:-0.568627 3:-0.457831 4:-0.911043 5:0.115727 6:-0.484321 7:-0.206497 8:-0.726624 9:-0.454545 10:-0.604651 11:-0.645161 
0 24.802835034172176 5.2785299185523193 0 0 0 1:-0.423077 2:-0.647059 3:-0.590361 4:-0.592025 5:-0.851632 6:-0.74216 7:-0.419954 8:-0.699634 9:0.109091 10:-0.27907 11:0.290323 
0 0 0 0 0.023398693434794955 0 1:-0.557692 2:-0.372549 3:-0.626506 4:-0.990798 5:-0.768546 6:-0.853659 7:-0.2529 8:-0.772894 9:-0.0909091 10:0.27907 11:-0.516129 
3.3451058790505561 0 0.015920635686511926 0.32481660448548155 0.018422701091910867 0 1:-0.346154 2:0.186275 3:-0.746988 4:-0.726994 5:-0.637982 6:-0.783972 7:-0.243619 8:-0.614806 9:-0.490909 10:-0.232558 11:-0.645161 
5.3274548482278252 0.75443882351970493 0 0 0 0 1:-0.480769 2:-0.784314 3:-0.638554 4:-0.993865 5:-0.79822 6:-0.783972 7:-0.37355 8:-0.749759 9:0.272727 10:-0.604651 11:-0.645161 
0 2.2152273209863438 0.33590996263838757 0 0 0 1:-0.519231 2:-0.186275 3:-0.73494 4:-0.96319 5:-0.780415 6:-0.797909 7:-0.392111 8:-0.77675 9:0.218182 10:-0.255814 11:-0.225806 
2.2807766518332593 0.19371580687257767 0.22829425160083558 0 0 0 1:-0.365385 2:-0.666667 3:-0.614458 4:-0.702454 5:-0.810089 6:-0.554007 7:0.220418 8:-0.622518 9:-0.181818 10:-0.302326 11:-0.645161 
0 0 0 0.81409915898753216 0 0 1:-0.134615 2:-0.607843 3:-0.518072 4:-0.779141 5:-0.810089 6:-0.749129 7:-0.141531 8:-0.595527 9:0.127273 10:-0.325581 11:-0.483871 
15.054479018997819 2.8802993938713115 1.3902069956780911 0 0 0 1:-0.346154 2:-0.705882 3:-0.542169 4:-0.579755 5:-0.709199 6:-0.630662 7:-0.141531 8:-0.58396 9:-0.327273 10:-0.488372 11:-0.677419 
1.3519828905065052 0 0.20561541826929564 0.2451714133029485 0.06966851799664367 0 1:-0.557692 2:-0.803922 3:-0.566265 4:-0.957055 5:-0.827893 6:-0.874564 7:0.116009 8:-0.799884 9:0.181818 10:0.325581 11:0.0645161 
24.11162517340615 0 0.83856906252041474 0.90253868665076664 0 0 1:-0.615385 2:-0.686275 3:-0.53012 4:-0.972393 5:-0.732938 6:-0.756098 7:-0.308585 8:-0.765182 9:-0.109091 10:-0.302326 11:-0.580645 
3.6713304746897304 25.862554068267627 0 0 0 0 1:-0.5 2:-0.705882 3:-0.53012 4:-0.96319 5:-0.863501 6:-0.853659 7:-0.4942 8:-0.842298 9:0.0909091 10:-0.348837 11:0.225806 
0 0 0 1.251842681400652 0 0 1:-0.538462 2:-0.686275 3:-0.578313 4:-0.981595 5:-0.827893 6:-0.860627 7:-0.266821 8:-0.842298 9:-0.309091 10:-0.395349 11:-0.16129 
30.940412612444632 0 0 0 0 0 1:-0.711538 2:-0.00980392 3:-0.915663 4:-0.800613 5:-0.792285 6:-0.777003 7:-0.36891 8:-0.715057 9:0.127273 10:-0.186047 11:-0.451613 
19.29738629437421 0 0 0.26857174982234161 0.030727310974109714 0 1:-0.692308 3:-0.915663 4:-0.803681 5:-0.78635 6:-0.763066 7:-0.359629 8:-0.718913 9:0.127273 10:-0.186047 11:-0.451613 
85.337271022987466 0 0 2.1744367638990489 0 0 1:-0.403846 2:-0.529412 3:-0.686747 4:-0.763804 5:-0.738872 6:-0.790941 7:-0.206497 8:-0.637941 9:-0.0363636 10:-0.325581 11:-0.612903 
0 6.1119246875946018 0 0 0 0 1:-0.442308 2:-0.764706 3:-0.506024 4:-0.739264 5:-0.792285 6:-0.665505 7:-0.271462 8:-0.680355 9:-0.236364 10:-0.162791 11:-0.419355 
65.595294321329945 0 0 0 0 0 1:-0.480769 2:-0.607843 3:-0.60241 4:-0.53681 5:-0.738872 6:-0.658537 7:-0.160093 8:-0.587816 9:-0.0909091 10:-0.325581 11:-0.451613 
3.1326150548004854 0 0 0 0 0 1:-0.596154 2:-0.862745 3:-0.626506 4:-0.840491 5:-0.810089 6:-0.644599 7:-0.322506 8:-0.715057 9:0.454545 10:-0.44186 11:-0.193548 
18.506496535757631 0.88240117030556009 0.99512264592446753 1.1907800929550869 0 0 1:-0.519231 2:-0.509804 3:-0.674699 4:-0.981595 5:-0.780415 6:-0.777003 7:-0.229698 8:-0.757471 9:0.181818 10:-0.255814 11:-0.548387 
29.181316810866441 0 0 0 0 0 1:-0.288462 2:-0.823529 3:-0.46988 4:-0.671779 5:-0.780415 6:-0.560976 7:-0.364269 8:-0.618662 9:-0.181818 10:-0.465116 11:-0.354839 
15.456486779876162 0 0 0 0 0 1:-0.442308 2:-0.823529 3:-0.39759 4:-0.953988 5:-0.79822 6:-0.825784 7:-0.475638 8:-0.799884 9:-0.218182 10:-0.465116 11:-0.258065 
0.31108530845181959 0.86894345505022785 0 0.26105208395321544 0.029767270661976927 0 1:-0.557692 2:-0.352941 3:-1 4:-0.969325 5:-0.679525 6:-0.763066 7:-0.638051 8:-0.834586 10:0.0465116 11:-0.0967742 
191.05834790619991 0 0 0 0 0 1:-0.326923 2:-0.352941 3:-0.710843 4:-0.809816 5:-0.715134 6:-0.728223 7:-0.285383 8:-0.699634 9:-0.127273 10:-0.55814 11:-0.387097 
7.8671243875071744 0 0 0 0 0 1:-0.538462 2:-0.54902 3:-0.686747 4:-0.871166 5:-0.833828 6:-0.763066 7:-0.354988 8:-0.780605 9:-0.109091 10:-0.55814 11:-0.225806 
0 0 0 0.90717541772055255 0 0 1:-0.230769 2:-0.666667 3:-0.506024 4:-0.904908 5:-0.804154 6:-0.756098 7:-0.350348 8:-0.680355 9:0.163636 10:-0.465116 11:-0.354839 
89.607028214278543 0 0 0 0 0 1:-0.634615 2:-0.45098 3:-0.746988 4:-0.812883 5:-0.827893 6:-0.658537 7:-0.271462 8:-0.73048 9:0.0363636 10:-0.0465116 11:-0.354839 
0 7.0955667460726355 0 0 0 0 1:-0.557692 2:-0.911765 3:-0.698795 4:-0.917178 5:-0.816024 6:-0.944251 7:-0.721578 8:-0.757471 9:0.490909 10:-0.139535 11:-0.322581 
505.53727465272578 13.639712442592185 3.7356938688962082 0.48046964804775921 0 0 1:-0.423077 2:-0.666667 3:-0.590361 4:-0.874233 5:-0.869436 6:-0.777003 7:-0.419954 8:-0.784461 9:-0.109091 10:-0.627907 11:-0.16129 
15.657208250074191 0 0 0 0 0 1:-0.423077 2:-0.607843 3:-0.46988 4:-0.733129 5:-0.869436 6:-0.770035 7:-0.406032 8:-0.711201 9:-0.2 10:-0.674419 11:-0.225806 
36.690078232606872 0 0 0 0 0 1:-0.480769 2:-0.607843 3:-0.578313 4:-0.546012 5:-0.804154 6:-0.630662 7:-0.136891 8:-0.587816 9:-0.0727273 10:-0.348837 11:-0.483871 
14.808516495099569 20.534386985135807 0 0.26673847097663839 0 0 1:-0.519231 2:-0.705882 3:-0.638554 4:-0.96319 5:-0.857567 6:-0.902439 7:-0.61949 8:-0.865433 9:0.0181818 10:-0.581395 11:0.225806 
96.234601975216776 0 0 0 0 0 1:-0.615385 2:-0.627451 3:-0.674699 4:-0.641104 5:-0.78635 6:-0.630662 7:-0.2529 8:-0.61095 9:0.0181818 10:-0.534884 11:-0.580645 
38.888053272870444 0 0 0 0 0 1:-0.5 2:-0.647059 3:-0.493976 4:-0.720859 5:-0.792285 6:-0.804878 7:-0.392111 8:-0.649508 9:-0.163636 10:-0.418605 11:-0.645161 
26.701615652433873 10.971040092706851 0 0 0 0 1:-0.365385 2:-0.872549 3:-0.60241 4:-0.877301 5:-0.756677 6:-0.783972 7:-0.433875 8:-0.726624 9:0.0181818 10:-0.581395 11:-0.483871 
6.7002201933624468 0 0 0.19954527432364702 0 0 1:-0.442308 2:-0.784314 3:-0.506024 4:-0.539877 5:-0.721068 6:-0.491289 7:-0.322506 8:-0.522267 9:-0.127273 10:-0.488372 11:-0.741935 
0 0 0 2.2196671544946631 0 0 1:-0.673077 2:-0.5 3:-0.638554 4:-0.941718 5:-0.632047 6:-0.825784 7:-0.447796 8:-0.796029 9:-0.236364 10:-0.325581 11:-0.483871 
0 0 0 0.29048056105162712 0 0 1:-0.615385 2:-0.372549 3:-0.493976 4:-0.883436 5:-0.774481 6:-0.745645 7:0.0951276 8:-0.745903 9:-0.0363636 10:-0.186047 11:-0.483871 
2.9393364767992902 0 0 0 0.019991717486340321 0 1:-0.557692 2:-0.45098 3:-0.60241 4:-0.984663 5:-0.756677 6:-0.84669 7:-0.257541 8:-0.784461 9:-0.218182 10:0.302326 11:-0.516129 
4.0076956342208225 0 0 0.75012864670751067 0.0066944909122330053 0 1:0.192308 2:-0.764706 3:-0.53012 4:-0.97546 5:-0.756677 6:-0.881533 7:-0.336427 8:-0.734336 9:-0.490909 10:-0.534884 11:-0.225806 
0 31.500575942471542 0 0 0 0 1:-0.403846 2:-0.686275 3:-0.590361 4:-0.874233 5:-0.816024 6:-0.714286 7:-0.294664 8:-0.753615 9:-0.127273 10:-0.139535 11:-0.16129 
0 1.8460347515180591 0 0 0 0 1:-0.5 2:-0.686275 3:-0.614458 4:-0.56135 5:-0.774481 6:-0.637631 7:-0.290023 8:-0.626374 9:0.0181818 10:-0.348837 11:-0.290323 
11.029584012797701 16.995110959078804 0 0 0 0 1:-0.423077 2:-0.862745 3:-0.638554 4:-0.855828 5:-0.756677 6:-0.735192 7:-0.452436 8:-0.726624 9:0.236364 10:-0.604651 11:-0.451613 
2.8374086368530476 0 1.3372694720983456 0 0 0 1:-0.326923 2:-0.72549 3:-0.554217 4:-0.579755 5:-0.679525 6:-0.679443 7:-0.155452 8:-0.587816 9:-0.690909 10:-0.627907 11:-0.677419 
17.230466867680274 0 0 0 0 0 1:-0.403846 2:-0.509804 3:-0.746988 4:-0.98773 5:-0.738872 6:-0.74216 7:-0.354988 8:-0.784461 9:-0.272727 10:-0.465116 11:-0.548387 
2.8726162943323477 0 0 0 0 0 1:-0.25 2:-0.588235 3:-0.421687 4:-0.947853 5:-0.762611 6:-0.763066 7:-0.215777 8:-0.769038 9:-0.181818 10:-0.0232558 11:-0.16129 
0 0.090752302419261882 0 1.2220362800934712 0 0 1:-0.634615 2:-0.529412 3:-0.39759 4:-0.93865 5:-0.762611 6:-0.89547 7:-0.322506 8:-0.784461 9:-0.0909091 10:-0.0232558 11:-0.354839 
22.533336899913458 0 0 0.41885682155350801 0 0 1:-0.346154 2:-0.607843 3:-0.686747 4:-0.634969 5:-0.780415 6:-0.679443 7:-0.211137 8:-0.599383 9:-0.309091 10:-0.302326 11:-0.677419 
46.515963521182378 0 0 3.5574455363783977 1.631413251180708 0 1:-0.288462 2:-0.470588 3:-0.662651 4:-0.723926 5:-0.750742 6:-0.832753 7:-0.313225 8:-0.622518 9:-0.272727 10:-0.27907 11:-0.612903 
17.755449897274204 0 0 0 0.57089033714878223 0 1:-0.346154 2:-0.627451 3:-0.674699 4:-0.944785 5:-0.768546 6:-0.804878 7:-0.350348 8:-0.749759 9:-0.309091 10:-0.325581 11:-0.612903 
1.8942182583058336 0 0 0.8341682608583304 0 0 1:-0.557692 2:-0.0784314 3:-0.819277 4:-0.717791 5:-0.869436 6:-0.881533 7:-0.461717 8:-0.668787 9:0.163636 10:-0.418605 11:-0.290323 
0 2.6590301005054582 0 0 0 0 1:-0.326923 2:-0.686275 3:-0.481928 4:-0.957055 5:-0.928783 6:-0.874564 7:-0.721578 8:-0.888568 9:-0.345455 10:-0.209302 11:0.354839 
5.3421305077969485 0 5.1129641435813129 0 0 0 1:-0.519231 2:-0.764706 3:-0.518072 4:-0.972393 5:-0.833828 6:-0.770035 7:-0.545244 8:-0.823019 9:0.345455 10:-0.348837 11:0.0967742 
0 0 2.3658976221017429 0 0 0 1:-0.423077 2:-0.72549 3:-0.626506 4:-0.825153 5:-0.845697 6:-0.783972 7:-0.2529 8:-0.819163 9:-0.0545455 10:0.0232558 11:0.483871 
0 30.092020426178493 0 0 0 0 1:-0.519231 2:-0.882353 3:-0.53012 4:-0.981595 5:-0.792285 6:-0.832753 7:-0.50348 8:-0.811452 9:-0.0181818 10:-0.27907 11:-0.258065 
10.495065605150799 0 0 0 0 0 1:-0.346154 2:-0.666667 3:-0.53012 4:-0.437117 5:-0.827893 6:-0.721254 7:-0.322506 8:-0.506844 9:-0.545455 10:-0.418605 11:-0.677419 
5.0483006353306532 0 0 0 0 0 1:-0.307692 2:-0.745098 3:-0.674699 4:-0.981595 5:-0.810089 6:-0.825784 7:-0.582367 8:-0.784461 9:-0.145455 10:-0.744186 11:-0.419355 
0 5.97576029355647 6.2446434688692554 0 0 0 1:-0.307692 2:-0.54902 3:-0.662651 4:-0.969325 5:-0.756677 6:-0.783972 7:-0.406032 8:-0.77675 9:0.0727273 10:-0.209302 11:-0.193548 
0 2.5522161926055342 0 0 0 0 1:-0.557692 2:-0.411765 3:-0.759036 4:-0.815951 5:-0.857567 6:-0.839721 7:-0.406032 8:-0.742047 9:0.0545455 10:0.0930233 11:-0.225806 
6.0786490689238573 0 0 1.8666649365478492 0 0 1:-0.461538 2:-0.137255 3:-0.46988 4:-0.644172 5:-0.768546 6:-0.637631 7:0.0951276 8:-0.599383 9:-0.0181818 10:-0.255814 11:-0.580645 
0.20870675115811688 0 0 0 0.1056460959980863 0 1:-0.403846 2:-0.686275 3:-0.566265 4:-0.380368 5:-0.869436 6:-0.735192 7:-0.396752 8:-0.599383 9:-0.127273 10:-0.744186 11:-0.0322581 
2.0165012609530426 0 0 0 0 0 1:-0.480769 2:-0.352941 3:-0.710843 4:-0.588957 5:-0.768546 6:-0.84669 7:-0.517401 8:-0.572393 9:0.309091 10:-0.27907 11:-0.419355 
0 0 0.0025581901113746587 0.080706866477114766 0.013478188679887541 0 1:-0.576923 2:-0.431373 3:-0.614458 4:-0.98773 5:-0.738872 6:-0.797909 7:-0.0278422 8:-0.796029 9:0.0363636 10:0.162791 11:-0.419355 
39.710348878116086 0 0 2.4727275457341262 0.014961680525351115 0 1:-0.423077 2:-0.529412 3:-0.746988 4:-0.95092 5:-0.792285 6:-0.909408 7:-0.726218 8:-0.765182 9:-0.181818 10:-0.604651 11:-0.548387 
0 10.534984667352022 0.072676037826532189 0 0 0 1:-0.384615 2:-0.882353 3:-0.614458 4:-0.742331 5:-0.821958 6:-0.637631 7:-0.387471 8:-0.672643 9:-0.0909091 10:-0.511628 11:-0.548387 
0.090726976941499643 0 0 0 0 0 1:-0.673077 2:-0.843137 3:-0.73494 4:-0.880368 5:-0.875371 6:-0.804878 7:-0.568445 8:-0.742047 9:-0.0545455 10:-0.674419 11:-0.548387 
2.8901292932501552 0 0 1.3947570721927303 0.068406700712338606 0 1:-0.365385 2:-0.0784314 3:-0.843373 4:-0.966258 5:-0.620178 6:-0.867596 7:-0.276102 8:-0.734336 9:-0.545455 10:-0.162791 11:-0.612903 
0.24945354942890224 0 0 0 0 0 1:-0.461538 2:-0.490196 3:-0.662651 4:-0.978528 5:-0.845697 6:-0.790941 7:-0.62413 8:-0.826875 9:-0.309091 10:-0.534884 11:-0.129032 
0.74508776584186553 4.3206181302523996 0 0 0 0 1:-0.307692 2:-0.588235 3:-0.650602 4:-0.969325 5:-0.78635 6:-0.644599 7:-0.206497 8:-0.749759 9:0.127273 10:0.0697674 11:-0.193548 
51.219730324250754 0 1.4592008869335937 0 0 0 1:-0.307692 2:-0.647059 3:-0.626506 4:-0.785276 5:-0.774481 6:-0.651568 7:-0.220418 8:-0.649508 9:-0.254545 10:-0.465116 11:-0.709677 
1.9444816656050605 0 0 0 0 0 1:-0.384615 2:-0.607843 3:-0.566265 4:-0.98773 5:-0.845697 6:-0.958188 7:-0.716937 8:-0.892423 9:-0.327273 10:-0.44186 11:0.322581 
8.4960850506770917 0 0 0 0 0 1:-0.230769 2:-0.784314 3:-0.686747 4:-0.745399 5:-0.821958 6:-0.721254 7:-0.197216 8:-0.65722 9:-0.163636 10:-0.44186 11:-0.387097 
0 1.9915631949462083 0 0 0 0 1:-0.519231 2:-0.784314 3:-0.662651 4:-0.96319 5:-0.922849 6:-0.818815 7:-0.308585 8:-0.861577 9:-0.127273 10:-0.0232558 11:0.0967742 
1.3513945257030262 28.152087559727384 3.0108821814296935 1.9053032012519411 0 0 1:-0.423077 2:-0.764706 3:-0.542169 4:-0.874233 5:-0.816024 6:-0.825784 7:-0.563805 8:-0.734336 9:0.181818 10:-0.162791 11:-0.129032 
0 6.0546685347898457 0 0 0 2.3247534550992364 1:-0.423077 2:-0.705882 3:-0.614458 4:-0.969325 5:-0.89911 6:-0.714286 7:-0.359629 8:-0.873144 9:0.0363636 10:-0.255814 11:0.451613 
24.897257784222603 8.5435208682710666 0 0.15379878752290491 0 0 1:-0.346154 2:-0.607843 3:-0.349398 4:-0.506135 5:-0.78635 6:-0.637631 7:-0.113689 8:-0.541546 9:-0.345455 10:-0.372093 11:-0.516129 
0 0 0 0 0.23884143735891042 0 1:-0.423077 2:-0.784314 3:-0.301205 4:-0.582822 5:-0.827893 6:-0.658537 7:-0.280742 8:-0.599383 9:-0.272727 10:-0.395349 11:-0.483871 
419.84415976949572 0 0 2.4801694530667859 0 0 1:-0.5 2:-0.568627 3:-0.638554 4:-0.949387 5:-0.827893 6:-0.958188 7:-0.0672854 8:-0.745903 9:-0.127273 10:-0.0697674 11:-0.387097 
0.8392678365777072 0 0.77992801816983315 0 0 0 1:-0.230769 2:-0.803922 3:-0.626506 4:-0.644172 5:-0.738872 6:-0.69338 7:-0.392111 8:-0.580104 9:-0.381818 10:-0.27907 11:-0.709677 
0.58161554791547321 0.60167803634285688 0.13314682752542994 0.16210723540279276 0.015275712905876628 0 1:-0.596154 2:0.0588235 3:-0.662651 4:-0.911043 5:-0.821958 6:-0.630662 7:-0.336427 8:-0.861577 9:0.309091 10:-0.488372 11:0.290323 
31.275517496404603 0 0 0 0 0 1:-0.442308 2:-0.627451 3:-0.855422 4:-0.978528 5:-0.810089 6:-0.581882 7:-0.401392 8:-0.807596 9:-0.109091 10:-0.534884 11:-0.354839 
0 2.6462876741013899 0.038778661488256379 0.36863384311978459 0 0 1:-0.230769 2:-0.490196 3:-0.578313 4:-0.96319 5:-0.804154 6:-0.958188 7:-0.266821 8:-0.857721 9:-0.290909 10:-0.55814 11:0.322581 
5.3845607288060791 0 0 0 0 0 1:-0.326923 2:-0.647059 3:-0.566265 4:-0.858896 5:-0.816024 6:-0.797909 7:-0.387471 8:-0.769038 9:-0.2 10:-0.139535 11:-0.0322581 
4.4568959129840939 0 0.13112481039675561 0.10238521648519644 0.79513717524757788 0 1:-0.307692 2:-0.45098 3:-0.60241 4:-0.97546 5:-0.905045 6:-0.825784 7:-0.786543 8:-0.830731 9:-0.109091 10:-0.744186 11:0.0322581 
0 3.417008677088655 0 0 0 0 1:-0.307692 2:-0.862745 3:-0.493976 4:-0.966258 5:-0.78635 6:-0.672474 7:-0.327146 8:-0.811452 9:-0.490909 10:-0.116279 11:-0.225806 
0 0 2.5287166369919638 0.24897433004889741 0 0 1:-0.596154 2:-0.901961 3:-0.662651 4:-0.960123 5:-0.756677 6:-0.874564 7:-0.679814 8:-0.819163 9:0.290909 10:-0.0232558 11:-0.0967742 
1.9277635806838433 4.6886044046064503 2.6321137658418601 0.030546169544956474 0 0 1:-0.730769 2:-0.45098 3:-0.975904 4:-0.969325 5:-0.869436 6:-0.84669 7:-0.559165 8:-0.903991 9:0.309091 10:-0.697674 11:0.354839 
0 3.6671997985250733 4.6646681076252632 0 3.1745508529022906 0 1:-0.653846 2:-0.784314 3:-0.433735 4:-0.880368 5:-0.875371 6:-0.881533 7:-0.522042 8:-0.80374 9:0.527273 10:-0.465116 11:0.0322581 
0.064039980185322212 0 0 0.12577927204257452 0.0574409724635686 0 1:-0.5 2:-0.960784 3:-0.578313 4:-0.868098 5:-0.768546 6:-0.797909 7:-0.563805 8:-0.707345 9:0.290909 10:0.325581 11:-0.451613 
38.783319391062051 19.891458004239606 0.045744344097628717 3.7443565802467562 0 0 1:-0.307692 2:-0.666667 3:-0.566265 4:-0.613497 5:-0.655786 6:-0.644599 7:-0.215777 8:-0.595527 9:-0.472727 10:-0.395349 11:-0.677419 
2.6433070050494258 0 0 0.74433357773392783 0 0 1:-0.423077 2:-0.666667 3:-0.710843 4:-0.878834 5:-0.738872 6:-0.728223 7:-0.062645 8:-0.676499 9:0.181818 10:0.0465116 11:-0.516129 
3.9646832473087601 16.514421715362143 0 0 0 0 1:-0.442308 2:-0.686275 3:-0.506024 4:-0.751534 5:-0.839763 6:-0.811847 7:-0.354988 8:-0.688066 9:-0.0909091 10:-0.0697674 11:-0.387097 
38.701963751885927 0 0 0.84076618231857347 0 0 1:-0.423077 2:-0.607843 3:-0.795181 4:-0.592025 5:-0.774481 6:-0.672474 7:-0.290023 8:-0.568537 9:-0.109091 10:-0.325581 11:-0.677419 
0.50499438400887375 5.0264962436297278 0 0 0 0 1:-0.5 2:-0.843137 3:-0.73494 4:-0.97546 5:-0.816024 6:-0.728223 7:-0.350348 8:-0.761326 9:0.4 10:-0.162791 11:-0.354839 
3.1155674379086786 0.59440203844972983 0 0 0 0 1:-0.25 2:-0.72549 3:-0.493976 4:-0.960123 5:-0.744807 6:-0.944251 7:-0.638051 8:-0.80374 9:0.0545455 10:-0.372093 11:0.225806 
17.728579556269924 6.6997010019683136 0 2.2377277389763908 0 0 1:-0.557692 2:-0.352941 3:-0.710843 4:-0.969325 5:-0.762611 6:-0.902439 7:-0.406032 8:-0.772894 9:0.0909091 10:-0.348837 11:-0.225806 
0.30482093690006107 0.10099820872040886 0.89393762806924881 0.22533418660881671 0.027460816286501488 0 1:-0.346154 2:-0.490196 3:-0.46988 4:-0.889571 5:-0.774481 6:-0.658537 7:-0.37355 8:-0.85001 9:-0.472727 10:0.255814 11:0.387097 
0.59934959284870615 0 0 0 0 0 1:-0.25 2:-0.490196 3:-0.674699 4:-0.748466 5:-0.679525 6:-0.74216 7:-0.187935 8:-0.622518 9:-0.327273 10:-0.0465116 11:-0.612903 
19.480656196962038 2.7876314296373335 0 0 0 0 1:-0.230769 2:-0.72549 3:-0.542169 4:-0.702454 5:-0.703264 6:-0.818815 7:-0.582367 8:-0.630229 9:-0.272727 10:-0.418605 11:-0.354839 
11.545718869261348 0 0.2926254002265069 0.47257931522003027 1.7433925824302321 0 1:-0.346154 2:-0.470588 3:-0.590361 4:-0.638037 5:-0.750742 6:-0.972125 7:-0.87007 8:-0.718913 9:-0.254545 10:-0.604651 11:0.129032 
146.23775603933203 0 0 0.18423566519399992 0 0 1:-0.557692 2:-0.647059 3:-0.385542 4:-0.95092 5:-0.756677 6:-0.58885 7:-0.327146 8:-0.77675 9:-0.345455 10:-0.116279 11:-0.419355 
0 2.4391862354348457 0 0 0 0 1:-0.153846 2:-0.72549 3:-0.638554 4:-0.96319 5:-0.774481 6:-0.686411 7:-0.183295 8:-0.761326 9:-0.254545 10:-0.348837 11:-0.290323 
7.1499383328105459 0.22010012499372134 0 0 0 0 1:-0.326923 2:-0.568627 3:-0.73494 4:-0.822086 5:-0.721068 6:-0.707317 7:-0.262181 8:-0.707345 9:-0.254545 10:-0.697674 11:-0.322581 
0.22799304077034813 0.11743416773335215 0 0.73907571761764546 0 0 1:-0.307692 2:-0.686275 3:-0.73494 4:-0.690184 5:-0.804154 6:-0.832753 7:-0.665893 8:-0.680355 9:-0.745455 10:-0.674419 11:-0.451613 
0 0 10.131597023115374 0 0 0 1:-0.326923 2:-0.764706 3:-0.554217 4:-0.981595 5:-0.833828 6:-0.679443 7:-0.489559 8:-0.811452 9:0.0909091 10:-0.372093 11:-0.0645161 
0 33.372416563970859 0 1.6759607065520228 0 0 1:-0.384615 2:-0.588235 3:-0.554217 4:-0.868098 5:-0.851632 6:-0.832753 7:-0.452436 8:-0.780605 9:-0.181818 10:-0.488372 11:-0.0967742 
3.2763984831824144 0.16783749504591916 0 0 0 0 1:-0.346154 2:-0.686275 3:-0.518072 4:-0.97546 5:-0.78635 6:-0.797909 7:-0.549884 8:-0.834586 9:-0.709091 10:-0.627907 11:-0.0967742 
13.206621695549122 2.7760780886262895 0 0 0 0 1:-0.519231 2:-0.647059 3:-0.409639 4:-0.972393 5:-0.744807 6:-0.777003 7:-0.419954 8:-0.796029 9:-0.509091 10:-0.0930233 11:-0.419355 
0.3256656484169585 0 0 0 0.014003561551864951 0 1:-0.307692 2:-0.431373 3:-0.578313 4:-0.843558 5:-0.691395 6:-0.930314 7:-0.605568 8:-0.637941 9:0.381818 10:0.0930233 11:-0.129032 
9.5681214994737935 9.3129256709945007 0 7.6371596357577314 0 0 1:-0.307692 2:-0.686275 3:-0.518072 4:-0.886503 5:-0.863501 6:-0.95122 7:-0.600928 8:-0.811452 9:-0.327273 10:-0.604651 
0 0 0 0.10545214554542912 0 0 1:-0.230769 2:-0.647059 3:-0.674699 4:-0.960123 5:-0.750742 6:-0.651568 7:-0.136891 8:-0.780605 9:-0.0727273 10:-0.348837 11:-0.0645161 
0 17.196407534469351 0 0 0 0 1:-0.307692 2:-0.784314 3:-0.638554 4:-0.97546 5:-0.715134 6:-0.783972 7:-0.415313 8:-0.772894 9:-0.272727 10:-0.348837 11:-0.483871 
14.234273201928847 0 0 0 0 0 1:-0.384615 2:-0.529412 3:-0.710843 4:-0.828221 5:-0.768546 6:-0.797909 7:0.0162413 8:-0.668787 9:-0.0727273 10:-0.0697674 11:-0.548387 
5.4941426258881787 0 0 0.89229665852189566 0 0 1:-0.615385 2:-0.54902 3:-0.60241 4:-0.981595 5:-0.839763 6:-0.853659 7:-0.582367 8:-0.826875 9:-0.163636 10:-0.116279 11:-0.193548 
0 3.8082533308577995 0.87742292698001467 0 0 0 1:-0.519231 2:-0.745098 3:-0.60241 4:-0.592025 5:-0.780415 6:-0.54007 7:-0.211137 8:-0.614806 9:0.163636 10:-0.348837 11:-0.225806 
27.783814260988304 0 0 0 0 0 1:-0.596154 2:-0.686275 3:-0.686747 4:-0.641104 5:-0.738872 6:-0.777003 7:-0.419954 8:-0.61095 9:0.127273 10:-0.465116 11:-0.516129 
0 36.387947911452777 0 0 0 0 1:-0.25 2:-0.627451 3:-0.578313 4:-0.855828 5:-0.875371 6:-0.804878 7:-0.49884 8:-0.811452 9:-0.290909 10:-0.534884 11:0.354839 
14.144667145705732 5.2053710531994151 0 0 0 0 1:2.22045e-16 2:-0.627451 3:-0.578313 4:-0.868098 5:-0.88724 6:-0.825784 7:-0.600928 8:-0.765182 9:-0.418182 10:-0.581395 11:0.0645161 
0.18907321126914772 0.18881644825569849 0.6746637799511741 0.15892512301958572 0.039861711054508059 0 1:-0.423077 2:-0.72549 3:-0.554217 4:-0.966258 5:-0.839763 6:-0.749129 7:-0.136891 8:-0.857721 9:0.145455 10:0.162791 11:0.451613 
0 1.8878352998150172 0 0 0 0 1:-0.557692 2:-0.882353 3:-0.698795 4:-0.978528 5:-0.774481 6:-0.756098 7:-0.238979 8:-0.792173 9:0.145455 10:-0.44186 11:-0.354839 
2.2189693967399551 42.43832801732588 0 0 0 0 1:-0.461538 2:-0.607843 3:-0.566265 4:-0.966258 5:-0.827893 6:-0.860627 7:-0.573086 8:-0.842298 9:0.0363636 10:-0.186047 11:0.16129 
3.5549956661001674 21.968429241322927 0 0 0 0 1:-0.442308 2:-0.54902 3:-0.638554 4:-0.953988 5:-0.827893 6:-0.888502 7:-0.438515 8:-0.780605 9:0.163636 10:-0.0465116 11:-0.16129 
49.651725155043266 0 0 0.53897569007372992 0 0 1:-0.557692 2:-0.607843 3:-0.698795 4:-0.806748 5:-0.721068 6:-0.707317 7:-0.109049 8:-0.676499 9:-0.145455 10:-0.581395 11:-0.645161 
0 0.23096539789580195 0 3.2747038033704245 0 0 1:-0.596154 2:-0.588235 3:-0.698795 4:-0.650307 5:-0.715134 6:-0.679443 7:-0.00232019 8:-0.576248 9:-0.0727273 10:-0.55814 11:-0.677419 
0.090904596813067354 0 0 2.9829448099030453 0.17759679802558245 0 1:-0.596154 2:-0.666667 3:-0.698795 4:-0.671779 5:-0.744807 6:-0.804878 7:-0.276102 8:-0.618662 9:-0.0545455 10:-0.488372 11:-0.516129 
26.965209860088173 0 0.96114224250620828 0 0 0 1:-0.346154 2:-0.607843 3:-0.638554 4:-0.690184 5:-0.792285 6:-0.58885 7:-0.0116009 8:-0.61095 9:-0.236364 10:-0.348837 11:-0.645161 
119.20842194815825 0 0 0 0 0 1:-0.557692 2:-0.45098 3:-0.807229 4:-0.822086 5:-0.833828 6:-0.763066 7:-0.12297 8:-0.718913 9:-0.181818 10:-0.0697674 11:-0.387097 
2.8288060350294151 0 0 0 0 0 1:-0.269231 2:-0.588235 3:-0.301205 4:-0.481595 5:-0.810089 6:-0.658537 7:0.00232019 8:-0.514556 9:-0.2 10:0.0232558 11:-0.516129 
1.9528577058008951 39.482579290419942 1.5267186793222711 0 0 0 1:-0.442308 2:-0.784314 3:-0.590361 4:-0.98773 5:-0.922849 6:-0.860627 7:-0.605568 8:-0.842298 9:-0.0727273 10:-0.186047 
7.6484789892512053 2.4071520343014465 0 0 0 0 1:-0.5 2:-0.509804 3:-0.662651 4:-0.984663 5:-0.827893 6:-0.804878 7:-0.531323 8:-0.823019 9:-0.272727 10:-0.534884 11:-0.193548 
3.2458207519672952 28.326156246331326 1.6452030219543825 0 0 0 1:-0.653846 2:-0.666667 3:-0.686747 4:-0.907975 5:-0.833828 6:-0.888502 7:-0.508121 8:-0.873144 9:0.272727 10:-0.348837 11:0.483871 
0 4.5640823594248152 0 0.86549178348276312 0 0 1:-0.346154 2:-0.803922 3:-0.457831 4:-0.883436 5:-0.780415 6:-0.616725 7:-0.271462 8:-0.722768 9:-0.254545 10:-0.0697674 11:0.0322581 
4.7428016514093407 0 0 0 0 0 1:-0.153846 2:-0.627451 3:-0.481928 4:-0.969325 5:-0.845697 6:-0.797909 7:-0.447796 8:-0.826875 9:-0.309091 10:-0.348837 11:0.387097 
6.4748750003769908 0.83371453282866148 0 0.04635893087521336 0 0 1:-0.576923 2:-0.392157 3:-0.686747 4:-0.935583 5:-0.827893 6:-0.74216 7:-0.174014 8:-0.763254 9:0.254545 10:-0.348837 11:-0.0967742 
1.3788464313871704 0 0 0 0 0 1:-0.25 2:-0.333333 3:-0.626506 4:-0.736196 5:-0.768546 6:-0.860627 7:-0.0162413 8:-0.622518 9:-0.381818 10:-0.0930233 11:-0.612903 
7.6803479841343254 0 0.097850311717361083 0 0 0 1:-0.403846 2:-0.54902 3:-0.590361 4:-0.969325 5:-0.863501 6:-0.853659 7:-0.447796 8:-0.823019 9:0.181818 10:-0.418605 11:0.193548 
20.859577495794241 0 0 0 0 0 1:-0.538462 2:-0.666667 3:-0.421687 4:-0.711656 5:-0.792285 6:-0.470383 7:0.0719258 8:-0.636013 9:-0.0363636 10:-0.418605 11:-0.516129 
20.608537896494582 23.67539790949963 0 0.9455324977218813 0 0 1:-0.461538 2:-0.666667 3:-0.638554 4:-0.576687 5:-0.744807 6:-0.735192 7:-0.192575 8:-0.580104 9:-0.454545 10:-0.348837 11:-0.645161 
0 0 0 0.19375548294066752 0 0 1:-0.5 2:-0.666667 3:-0.638554 4:-0.849693 5:-0.827893 6:-0.909408 7:-0.443155 8:-0.703489 9:-0.236364 10:-0.372093 11:-0.483871 
1.3263829970522965 0 2.0471073940684317 0 0 0 1:-0.615385 2:-0.764706 3:-0.638554 4:-0.972393 5:-0.869436 6:-0.867596 7:-0.777262 8:-0.844226 9:0.309091 10:-0.232558 11:-0.0322581 
0 0 0 0.41476079010872524 0 0 1:-0.384615 2:-0.764706 3:-0.554217 4:-0.957055 5:-0.875371 6:-0.832753 7:-0.410673 8:-0.765182 9:0.0181818 10:-0.0930233 11:-0.290323 
0.85761834006611171 0 0.035022080401730799 0.33567063934250246 0.085088486177676115 0 1:-0.307692 2:-0.764706 3:1 4:-0.953988 5:-0.922849 6:-0.777003 7:-0.517401 8:-0.824947 9:-0.0181818 10:-0.232558 11:0.354839 
0 4.6968196152045181 0 0 0 0 1:-0.403846 2:-0.764706 3:-0.39759 4:-0.711656 5:-0.839763 6:-0.470383 7:-0.266821 8:-0.641797 9:-0.218182 10:-0.232558 11:-0.290323 
1.604098687676393 0 0 0 0.21238748903034183 0 1:-0.384615 2:-0.745098 3:-0.590361 4:-0.757669 5:-0.857567 6:-0.797909 7:0.132251 8:-0.684211 9:-0.0909091 10:-0.209302 11:-0.193548 
0.33723337004303666 10.410052114636276 0 0.18295313546443759 0.055610853586020637 0 1:-0.423077 2:-0.72549 3:-0.554217 4:-0.552147 5:-0.750742 6:-0.54007 7:-0.215777 8:-0.528051 9:0.236364 10:0.465116 11:-0.580645 
0 5.9855061054563867 0 0 0 0 1:-0.403846 2:-0.803922 3:-0.542169 4:-0.769939 5:-0.762611 6:-0.707317 7:-0.225058 8:-0.664932 9:0.0545455 10:-0.255814 11:-0.419355 
0 0 0.13899074344662704 0 0.049190393052242543 0 1:-0.769231 2:-0.294118 3:-0.951807 4:-0.447853 5:-0.821958 6:-0.749129 7:-0.447796 8:-0.560825 9:0.181818 10:-0.186047 11:-0.290323 
21.57555861953572 0 0 0 0 0 1:-0.519231 2:-0.568627 3:-0.662651 4:-0.865031 5:-0.804154 6:-0.763066 7:-0.262181 8:-0.69385 9:-0.0909091 10:0.0930233 11:-0.516129 
6.1053574109577902 0.06618530697849849 2.3494074992187599 0.09795857063173595 0 0 1:-0.423077 2:-0.764706 3:-0.566265 4:-0.969325 5:-0.88724 6:-0.965157 7:-0.828306 8:-0.821091 9:-0.109091 10:-0.116279 11:-0.0645161 
0.31933766616919063 0.31417622348344254 0.26796322874987988 0 0.040995992990322569 0 1:-0.5 2:-0.715686 3:-0.421687 4:-0.95092 5:-0.37092 6:-0.811847 7:-0.559165 8:-0.819163 9:-0.0545455 10:-0.162791 11:0.322581 
2.3311956908063385 4.868401937599236 0 2.6924329059777405 0 0 1:-0.134615 2:-0.882353 3:-0.457831 4:-0.972393 5:-0.821958 6:-0.888502 7:-0.587007 8:-0.805668 9:-0.454545 10:-0.209302 11:-0.0322581 
0 5.5255361656192123 0 0 0 0 1:-0.230769 2:-0.588235 3:-0.73494 4:-0.726994 5:-0.721068 6:-0.707317 7:-0.0533643 8:-0.612878 9:-0.345455 10:-0.0930233 11:-0.580645 
5.4356363174235307 0.85428742220290022 0 0 0 0 1:-0.269231 2:-0.568627 3:-0.674699 4:-0.693252 5:-0.821958 6:-0.797909 7:-0.489559 8:-0.57432 10:-0.813953 11:-0.580645 
0 0 0 0.54496410656953753 0 0 1:-0.25 2:-0.490196 3:-0.662651 4:-0.680982 5:-0.816024 6:-0.797909 7:-0.49884 8:-0.57432 10:-0.837209 11:-0.612903 
12.967613741910791 3.5760681087055146 0 0 0 0 1:-0.403846 2:-0.686275 3:-0.60241 4:-0.634969 5:-0.780415 6:-0.686411 7:-0.331787 8:-0.568537 9:0.0181818 10:0.27907 11:-0.483871 
18.299103910713374 0 0 0 0 0 1:-0.692308 2:-0.803922 3:-0.710843 4:-0.871166 5:-0.810089 6:-0.804878 7:-0.517401 8:-0.716985 9:0.272727 10:-0.581395 11:-0.548387 
24.836575387267082 0 0 0.56331405153613578 0 0 1:-0.230769 2:-0.627451 3:-0.301205 4:-0.674847 5:-0.839763 6:-0.707317 7:-0.294664 8:-0.591671 9:-0.381818 10:-0.55814 11:-0.709677 
89.90848147165957 0 0 0 0.83642576297584725 0 1:-0.538462 2:-0.588235 3:-0.686747 4:-0.616564 5:-0.780415 6:-0.630662 7:-0.0951276 8:-0.601311 9:-0.2 10:-0.55814 11:-0.483871 
7.2717791956769826 0 0 0 0 0 1:-0.576923 2:-0.392157 3:-0.795181 4:-0.650307 5:-0.780415 6:-0.560976 7:0.099768 8:-0.595527 9:-0.218182 10:-0.627907 11:-0.677419 
14.601740964402154 0 0 0 0 0 1:-0.538462 2:-0.568627 3:-0.686747 4:-0.607362 5:-0.780415 6:-0.616725 7:-0.0858469 8:-0.589744 9:-0.181818 10:-0.511628 11:-0.516129 
11.447493490120991 0 0 2.628518879297256 0.14827843757453885 0 1:-0.576923 2:-0.352941 3:-0.939759 4:-0.972393 5:-0.679525 6:-0.89547 7:-0.484919 8:-0.765182 9:-0.109091 10:-0.209302 11:-0.612903 
18.4303190409947 2.6130465785552373 0 0 0 0 1:-0.480769 2:-0.647059 3:-0.614458 4:-0.51227 5:-0.78635 6:-0.707317 7:-0.271462 8:-0.502988 9:0.2 10:-0.44186 11:-0.516129 
0.77258800221442681 0 0 0.55082686528262326 0.010734934024093493 0 1:-0.211538 2:-0.470588 3:-0.710843 4:-0.539877 5:-0.626113 6:-0.707317 7:0.0208817 8:-0.585888 9:-0.436364 10:-0.139535 11:-0.193548 
0.25843082560658143 0 0.015328210793299421 0.1150834216895664 0.038665265670285005 0 1:-0.326923 2:0.127451 3:-0.759036 4:-0.705521 5:-0.632047 6:-0.818815 7:-0.0580046 8:-0.614806 9:-0.563636 10:-0.162791 11:-0.612903 
35.927403257091193 0 0 0 0 0 1:-0.442308 2:-0.784314 3:-0.722892 4:-0.828221 5:-0.774481 6:-0.763066 7:-0.49884 8:-0.715057 9:0.127273 10:-0.511628 11:-0.483871 
0 0.83976177918190986 0 0 0.037650885929298925 0 1:-0.326923 2:-0.754902 3:-0.626506 4:-0.966258 5:-0.697329 6:-0.777003 7:-0.531323 8:-0.645653 9:0.818182 10:0.0930233 11:-0.193548 
214.0812492377876 0.076410110209475343 0 0 0 0 1:-0.807692 2:-0.490196 3:-1 4:-0.819018 5:-0.88724 6:-0.783972 7:-0.285383 8:-0.738192 9:0.163636 10:-0.0930233 11:-0.387097 
0 5.4622262990024844 0 0 0 0 1:-0.557692 2:-0.627451 3:-0.60241 4:-0.95092 5:-0.928783 6:-0.832753 7:-0.49884 8:-0.942549 9:-0.272727 10:-0.813953 11:0.451613 
0 0 0.7039003909835152 1.3044124236316681 0 0 1:-0.326923 2:-0.686275 3:-0.650602 4:-0.981595 5:-0.833828 6:-0.756098 7:-0.591647 8:-0.788317 9:-0.145455 10:0.116279 11:-0.322581 
2.3720153415173195 2.432500696383471 0 3.7423178020009451 0 0 1:-0.519231 2:-0.647059 3:-0.746988 4:-0.895706 5:-0.875371 6:-0.84669 7:-0.461717 8:-0.830731 9:-0.381818 10:-0.72093 11:-0.129032 
0.50333879142985949 0 0 0.14434175423718551 0 0 1:-0.576923 2:-0.607843 3:-0.590361 4:-0.969325 5:-0.347181 6:-0.783972 7:-0.559165 8:-0.807596 9:-0.145455 10:-0.627907 11:-0.290323 
1.378668532482707 1.0591904207202059 0 0.025130799697035678 0.0078439376919702142 0 1:-0.538462 2:-0.843137 3:-0.349398 4:-0.97546 5:-0.305638 6:-0.756098 7:-0.531323 8:-0.765182 9:-0.0727273 10:-0.651163 11:-0.709677 
7.887674325006615 0 0 4.1738238440852005 0.17502974973890628 0.0011719049304486509 1:-0.0384615 2:-0.45098 3:-0.46988 4:-0.960123 5:-0.816024 6:-0.95122 7:-0.480278 8:-0.684211 9:-0.145455 10:-0.395349 11:-0.387097 
2.5045811454781743 1.757160234963959 0 0 0.0040289644498783268 0 1:-0.423077 2:-0.705882 3:-0.650602 4:-0.644172 5:-0.845697 6:-0.749129 7:0.0533643 8:-0.595527 9:0.145455 10:-0.302326 11:-0.419355 
36.722526320985722 0 0 0 0 0 1:-0.769231 2:-0.54902 3:-1 4:-0.822086 5:-0.780415 6:-0.714286 7:-0.271462 8:-0.734336 9:0.0545455 10:-0.0465116 11:-0.387097 
0 0 0 0.26250532605538329 0 0 1:-0.653846 2:-0.784314 3:-0.53012 4:-0.984663 5:-0.79822 6:-0.89547 7:-0.730858 8:-0.819163 9:-0.0727273 10:-0.27907 11:-0.258065 
0 0 0 0 0.074595718553858339 0 1:-0.423077 2:-0.803922 3:-0.662651 4:-0.751534 5:-0.774481 6:-0.651568 7:0.0812065 8:-0.688066 9:-0.0909091 10:-0.27907 11:-0.193548 
5.0913594234765682 1.2972407359294895 0 1.5657200026066334 0 0 1:-0.384615 2:-0.588235 3:-0.686747 4:-0.969325 5:-0.792285 6:-0.930314 7:-0.638051 8:-0.799884 9:-0.345455 10:-0.44186 11:-0.193548 
0 4.6377632006316931 0 1.525056734114774 0 0 1:-0.192308 2:-0.588235 3:-0.650602 4:-0.613497 5:-0.780415 6:-0.832753 7:-0.517401 8:-0.568537 9:-0.0363636 10:-0.651163 11:-0.451613 
48.266955889862984 0 0 0 0 0 1:-0.596154 2:-0.54902 3:-0.638554 4:-0.782209 5:-0.774481 6:-0.595819 7:-0.0858469 8:-0.695778 9:-0.127273 10:-0.604651 11:-0.483871 
9.660155337196386 0 0 0.7758746136258089 0 0 1:-0.25 2:-0.568627 3:-0.614458 4:-0.969325 5:-0.833828 6:-0.853659 7:-0.466357 8:-0.815307 9:-0.618182 10:-0.744186 11:-0.0322581 
1.4568832382777592 23.314314450844989 2.15115777591192 0 0 0 1:-0.384615 2:-0.686275 3:-0.590361 4:-0.97546 5:-0.869436 6:-0.825784 7:-0.545244 8:-0.888568 9:-0.381818 10:-0.604651 11:0.258065 
6.4006201375631644 0.43214325135358206 0 6.2473907113706799 0 0 1:-0.25 2:-0.529412 3:-0.253012 4:-0.693252 5:-0.839763 6:-0.623693 7:-0.331787 8:-0.587816 9:-0.254545 10:-0.488372 11:-0.709677 
7.731458928672712 0 0 0 0.11149620371122675 0 1:-0.480769 2:-0.647059 3:-0.662651 4:-0.634969 5:-0.780415 6:-0.456446 7:0.00232019 8:-0.624446 9:-0.163636 10:-0.55814 11:-0.354839 
0.91356338686248606 0 0 0 0 0 1:-0.538462 2:-0.470588 3:-0.650602 4:-0.794479 5:-0.792285 6:-0.623693 7:0.0904872 8:-0.672643 9:0.163636 10:-0.232558 11:-0.354839 
39.535585896140162 0 0 0 0 0 1:-0.519231 2:-0.627451 3:-0.445783 4:-0.657975 5:-0.833828 6:-0.58885 7:-0.0580046 8:-0.614806 9:-0.0363636 10:-0.27907 11:-0.516129 
0.34624152492207166 0 2.1607650225482327 0 0 0 1:-0.480769 2:-0.823529 3:-0.60241 4:-0.97546 5:-0.88724 6:-0.916376 7:-0.582367 8:-0.780605 9:-0.0727273 10:-0.232558 11:-0.322581 
0 3.0536942382321031 0 0 0 0 1:-0.269231 2:-0.72549 3:-0.590361 4:-0.720859 5:-0.845697 6:-0.832753 7:-0.37819 8:-0.637941 9:-0.345455 10:-0.372093 11:-0.419355 
18.85647327516968 0.12807937077266404 0 0 0 0 1:-0.326923 2:-0.686275 3:-0.590361 4:-0.546012 5:-0.756677 6:-0.749129 7:-0.234339 8:-0.568537 9:-0.436364 10:-0.534884 11:-0.677419 
5.9487601197715652 0 0 0 0 0 1:-0.557692 2:-0.784314 3:-0.698795 4:-0.895706 5:-0.916914 6:-0.853659 7:-0.522042 8:-0.799884 9:0.181818 10:-0.325581 11:0.16129 
2.1039077527105903 0 0 0 0 0 1:-0.596154 2:-0.647059 3:-0.746988 4:-0.634969 5:-0.851632 6:-0.763066 7:-0.336427 8:-0.61095 9:0.0181818 10:-0.511628 11:-0.516129 
33.728237971306861 0 0 0.18692045695464216 0 0 1:-0.423077 2:-0.72549 3:-0.578313 4:-0.481595 5:-0.821958 6:-0.749129 7:-0.331787 8:-0.526123 9:-0.0545455 10:-0.534884 11:-0.677419 
1.4413353179972497 4.6319759392347155 0.41482593975234205 0.1986547354811338 0.061263882967647385 0 1:-0.365385 2:-0.901961 3:-0.542169 4:-0.96319 5:-0.780415 6:-0.916376 7:-0.512761 8:-0.792173 9:0.0909091 10:0.581395 11:0.193548 
0 4.2611362530519354 0 0 0 0 1:-0.461538 2:-0.901961 3:-0.638554 4:-0.868098 5:-0.709199 6:-0.686411 7:-0.433875 8:-0.711201 9:0.436364 10:-0.465116 11:-0.258065 
0.56180523617803391 0 0.0077102548379694305 0.48249961238806477 0.048190104471871886 0 1:-0.576923 2:-0.784314 3:-0.144578 4:-0.972393 5:-0.151335 6:-0.95122 7:-0.786543 8:-0.784461 9:-0.272727 10:-0.44186 11:-0.419355 
1.4304679836816265 2.6200258428493233 0.77459742563415401 0 0 0 1:-0.634615 2:-0.45098 3:-0.590361 4:-0.889571 5:-0.89911 6:-0.867596 7:-0.684455 8:-0.861577 9:0.254545 10:-0.465116 11:0.258065 
25.353919786570184 0 0 0 0 0 1:-0.307692 2:-0.607843 3:-0.638554 4:-0.855828 5:-0.732938 6:-0.707317 7:-0.294664 8:-0.73048 9:-0.272727 10:-0.395349 11:-0.258065 
17.070293888726734 1.149426385068701 0 0 0 0 1:-0.307692 2:-0.568627 3:-0.638554 4:-0.858896 5:-0.738872 6:-0.700348 7:-0.285383 8:-0.73048 9:-0.272727 10:-0.465116 11:-0.258065 
1.0440556144675455 0 0 0 0 0 1:-0.0769231 2:-0.843137 3:-0.542169 4:-0.91411 5:-0.816024 6:-0.728223 7:-0.37819 8:-0.765182 9:-0.581818 10:-0.604651 11:-0.290323 
23.771576469793946 0 0 0 0 0 1:-0.230769 2:-0.627451 3:-0.590361 4:-0.969325 5:-0.780415 6:-0.825784 7:-0.327146 8:-0.784461 9:-0.4 10:-0.465116 11:-0.193548 
55.98897730085136 0 0 0 0 0 1:-0.557692 2:-0.686275 3:-0.674699 4:-0.717791 5:-0.68546 6:-0.783972 7:-0.336427 8:-0.634085 9:0.0727273 10:-0.418605 11:-0.516129 
0 11.920677649860449 0 4.1830223871376582 0 0 1:-0.192308 2:-0.686275 3:-0.638554 4:-0.483129 5:-0.721068 6:-0.714286 7:-0.187935 8:-0.514556 9:-0.4 10:-0.348837 11:-0.612903 
485.57289928903128 0 0 0 0.21557991724383152 0 1:-0.5 2:-0.607843 3:-0.481928 4:-0.800613 5:-0.78635 6:-0.595819 7:-0.0162413 8:-0.688066 9:-0.327273 10:-0.465116 11:-0.548387 
0.84979930864369557 11.634275737296257 0 0 0 0 1:-0.615385 2:-0.45098 3:-0.686747 4:-0.917178 5:-0.827893 6:-0.735192 7:-0.331787 8:-0.846154 9:0.127273 10:-0.232558 11:0.0645161 
3.9886506661577936 4.4899864994397731 0 0 0 0 1:-0.134615 2:-0.843137 3:-0.421687 4:-0.966258 5:-0.715134 6:-0.797909 7:-0.587007 8:-0.722768 9:-0.218182 10:-0.55814 11:-0.258065 
11.793574038810251 0.3397577652863491 0 0.22344109356315486 0 0 1:-0.269231 2:-0.843137 3:-0.46988 4:-0.97546 5:-0.79822 6:-0.839721 7:-0.535963 8:-0.765182 9:-0.290909 10:0.232558 11:-0.258065 
3.3700189315309812 0 0 0 0.016756066264056398 0 1:-0.365385 2:-0.803922 3:-0.493976 4:-0.97546 5:-0.78635 6:-0.686411 7:-0.313225 8:-0.826875 9:-0.581818 10:-0.790698 11:-0.193548 
0 2.9585758143116507 0 0 0 0 1:-0.134615 2:-0.882353 3:-0.686747 4:-0.972393 5:-0.762611 6:-0.623693 7:-0.164733 8:-0.711201 9:-0.109091 10:-0.0697674 11:-0.516129 
0.43956642747466934 7.1475872590263752 0.33094115515535089 0 0.15358067080295956 0 1:-0.269231 2:-0.784314 3:-0.542169 4:-0.693252 5:-0.697329 6:-0.679443 7:-0.234339 8:-0.649508 9:-0.254545 10:-0.627907 11:-0.193548 
0.77528521596005162 0 0.080619196244255079 0.3278627196798552 0.077125732892722981 0 1:-0.423077 2:-0.490196 3:-0.108434 4:-0.932515 5:-0.531157 6:-0.853659 7:-0.183295 8:-0.780605 9:0.436364 10:0.116279 11:0.290323 
8.4449340663355272 0 0 0 0 0 1:-0.365385 2:-0.764706 3:-0.506024 4:-0.953988 5:-0.732938 6:-0.84669 7:-0.271462 8:-0.703489 9:0.381818 10:-0.0697674 11:-0.193548 
8.4839040583573553 0 0 0 0 0 1:-0.538462 2:-0.490196 3:-0.650602 4:-0.785276 5:-0.774481 6:-0.700348 7:0.0348028 8:-0.676499 9:0.145455 10:-0.0697674 11:-0.354839 
4.7556368388179786 0.78439617654512739 0 0.26696684338439403 0.0067176686932099473 0 1:-0.365385 2:-0.568627 3:-0.566265 4:-0.809816 5:-0.727003 6:-0.703833 7:0.0440835 8:-0.61095 9:0.4 10:-0.0232558 11:-0.290323 
2.9032695239054895 2.6631544378563055 0 1.4188888440079546 0 0 1:-0.0384615 2:-0.823529 3:-0.542169 4:-0.96319 5:-0.816024 6:-0.74216 7:-0.354988 8:-0.726624 9:-0.2 10:0.0465116 11:-0.290323 
0 9.8253705485742984 15.19334071557302 0 0 0 1:-0.557692 2:-0.431373 3:-0.566265 4:-0.874233 5:-0.845697 6:-0.763066 7:-0.50348 8:-0.85001 9:0.0727273 10:-0.0697674 11:0.483871 
1.7501226847581006 1.3393275889034142 0 0 0 0 1:-0.403846 2:-0.745098 3:-0.0240964 4:-0.984663 5:-0.240356 6:-0.651568 7:-0.470998 8:-0.765182 9:-0.436364 10:-0.604651 11:-0.612903 
0 8.49944108351559 2.115210179043717 0 0 0 1:-0.288462 2:-0.745098 3:-0.590361 4:-0.981595 5:-0.697329 6:-0.832753 7:-0.526682 8:-0.769038 9:0.436364 10:-0.418605 11:-0.129032 
14.761863610650668 0.2550626230805792 0 0 0 0 1:-0.5 2:-0.568627 3:-0.385542 4:-0.849693 5:-0.768546 6:-0.581882 7:-0.243619 8:-0.726624 9:-0.345455 10:-0.465116 11:-0.645161 
15.681082810243398 34.402123151716019 4.9415091071336192 0 0 0 1:-0.403846 2:-0.764706 3:-0.566265 4:-0.972393 5:-0.869436 6:-0.749129 7:-0.359629 8:-0.769038 9:0.145455 10:-0.209302 11:-0.0322581 
0 0 0 0.97944988289376067 0 0 1:-0.538462 2:-0.0784314 3:-0.457831 4:-0.650307 5:-0.762611 6:-0.825784 7:-0.178654 8:-0.603239 9:-0.181818 10:-0.348837 11:-0.580645 
6.1978563490863481 3.1815523492060378 0 0 0 0 1:-0.288462 2:-0.607843 3:-0.60241 4:-0.782209 5:-0.768546 6:-0.721254 7:-0.206497 8:-0.603239 9:0.181818 10:-0.139535 11:-0.322581 
6.2999003677101832 0 0 1.4430185365446355 0 0 1:-0.519231 2:-0.490196 3:-0.650602 4:-0.828221 5:-0.780415 6:-0.811847 7:0.0116009 8:-0.688066 9:0.0363636 10:-0.27907 11:-0.322581 
40.99946302715113 0 0 0 0 0 1:-0.519231 2:-0.627451 3:-0.698795 4:-0.840491 5:-0.827893 6:-0.651568 7:-0.322506 8:-0.695778 9:0.0181818 10:-0.627907 11:-0.548387 
0 22.398603451228688 0 0 0 0 1:-0.307692 2:-0.764706 3:-0.554217 4:-0.498466 5:-0.768546 6:-0.714286 7:-0.160093 8:-0.522267 9:-0.436364 10:-0.534884 11:-0.612903 
8.1382005698741686 0 0 0.125779850997815 0 0 1:-0.134615 2:-0.745098 3:-0.301205 4:-0.493865 5:-0.762611 6:-0.581882 7:-0.0533643 8:-0.479853 9:-0.472727 10:-0.325581 11:-0.580645 
4.3486259012293917 6.3285008247418562 0 0 0.90924337093710539 0 1:-0.365385 2:-0.745098 3:-0.518072 4:-0.981595 5:-0.643917 6:-0.84669 7:-0.317865 8:-0.780605 9:0.272727 10:-0.511628 11:-0.16129 
5.8917564824151141 0 0 0 0 0 1:-0.480769 2:-0.588235 3:-0.698795 4:-0.693252 5:-0.821958 6:-0.790941 7:-0.484919 8:-0.649508 9:0.0727273 10:-0.72093 11:-0.322581 
0 3.4313567918312193 0 1.3351912085032098 0 0 1:-0.192308 2:-0.803922 3:-0.554217 4:-0.978528 5:-0.816024 6:-0.909408 7:-0.596288 8:-0.842298 9:-0.381818 10:-0.0930233 11:0.322581 
14.186947528277393 2.8818791368820085 0 0 0 0 1:-0.480769 2:-0.72549 3:-0.590361 4:-0.650307 5:-0.738872 6:-0.630662 7:-0.220418 8:-0.568537 9:0.454545 10:-0.488372 11:-0.387097 
1.7768106099507595 2.846463395074843 0 0.1426060456691613 0.011886670831701493 0 1:-0.442308 2:-0.95098 3:-0.614458 4:-0.638037 5:-0.750742 6:-0.777003 7:-0.549884 8:-0.580104 9:0.490909 10:-0.465116 11:-0.612903 
4.3722518111991571 0 0 0 0 0 1:-0.519231 2:-0.0784314 3:-0.457831 4:-0.619632 5:-0.774481 6:-0.783972 7:-0.197216 8:-0.603239 9:-0.127273 10:-0.44186 11:-0.612903 
0 22.795727499507255 0 0 0 0 1:-0.403846 2:-0.705882 3:-0.590361 4:-0.895706 5:-0.774481 6:-0.84669 7:-0.447796 8:-0.718913 9:-0.127273 10:-0.302326 11:-0.451613 
14.960418538815849 3.5525221995903173 0 0.3060761236069483 0 0 1:-0.442308 2:-0.666667 3:-0.590361 4:-0.624233 5:-0.768546 6:-0.804878 7:-0.294664 8:-0.556969 9:0.309091 10:-0.418605 11:-0.516129 
2.0874364510342569 0.29521715474063076 0 0.46646940995127439 0 0 1:-0.0961538 2:-0.843137 3:-0.60241 4:-0.98773 5:-0.602374 6:-0.89547 7:-0.777262 8:-0.807596 9:-0.236364 10:-0.44186 11:-0.16129 
32.733063920299003 0 4.2598674232203919 0 0 0 1:-0.384615 2:-0.823529 3:-0.554217 4:-0.843558 5:-0.905045 6:-0.811847 7:-0.526682 8:-0.742047 9:-0.127273 10:-0.372093 11:-0.0967742 
0.49206218730308038 0 0.076336570792847502 0.44421295911342645 0 0 1:-0.711538 2:-0.382353 3:-0.915663 4:-0.978528 5:-0.845697 6:-0.832753 7:-0.568445 8:-0.811452 9:0.418182 10:-0.697674 11:-0.16129 
5.77076375786167 0.31888425868135861 0 1.2157947304024563 0.043200646190505954 0 1:-0.230769 2:-0.568627 3:-0.650602 4:-0.501534 5:-0.732938 6:-0.853659 7:-0.415313 8:-0.5107 9:-0.2 10:-0.627907 11:-0.677419 
0.31184515100635657 0 0.019064107583769897 0.25316929011441208 0.064637892926700441 0 1:-0.634615 2:-0.647059 3:-0.674699 4:-0.892638 5:0.139466 6:-0.501742 7:-0.162413 8:-0.726624 10:-0.627907 11:-0.548387 
2.7354362548301014 0 0 0.14647751999463629 0.032567806713006894 0 1:-0.288462 2:-0.882353 3:-0.590361 4:-0.978528 5:-0.727003 6:-0.665505 7:-0.331787 8:-0.715057 9:0.0363636 10:0.348837 11:-0.483871 
0 2.3335964805816265 0 0 0 0 1:-0.346154 2:-0.647059 3:-0.686747 4:-0.628834 5:-0.839763 6:-0.672474 7:-0.0487239 8:-0.556969 9:0.254545 10:-0.348837 11:-0.354839 
0 0 0 2.5182710566768667 0 0 1:-0.423077 2:-0.666667 3:-0.650602 4:-0.957055 5:-0.804154 6:-0.881533 7:-0.164733 8:-0.688066 9:0.345455 10:-0.255814 11:-0.290323 
0 0 0.34599693852748503 0.42505382701104566 0.016089116376282828 0 1:-0.269231 2:-0.745098 3:-0.46988 4:-0.960123 5:-0.839763 6:-0.944251 7:-0.489559 8:-0.838442 9:-0.472727 10:0.116279 11:0.548387 
0 2.7746074636669382 0 0 0 0 1:-0.538462 2:-0.431373 3:-0.73494 4:-0.763804 5:-0.905045 6:-0.763066 7:-0.0394432 8:-0.641797 9:0.109091 10:-0.116279 11:-0.483871 
5.9853432451349002 0 0.15708267120372243 0.44596737347334242 0 0 1:-0.365385 2:-0.647059 3:-0.614458 4:-0.575153 5:-0.614243 6:-0.811847 7:-0.545244 8:-0.580104 9:-0.563636 10:-0.534884 11:-0.612903 
0 31.860492804184524 5.1616505932166188 0 0 0 1:-0.423077 2:-0.803922 3:-0.554217 4:-0.972393 5:-0.893175 6:-0.756098 7:-0.610209 8:-0.811452 9:0.0545455 10:-0.465116 11:-0.0967742 
0 0 2.2487199895741705 0 0 0 1:-0.519231 2:-0.745098 3:-0.518072 4:-0.966258 5:-0.869436 6:-0.679443 7:-0.419954 8:-0.823019 9:0.272727 10:-0.372093 11:0.129032 
0 1.6350090721391226 0 0 0 3.9251071275039013 1:-0.192308 2:-0.705882 3:-0.445783 4:-0.972393 5:-0.875371 6:-0.804878 7:-0.461717 8:-0.861577 9:-0.0727273 10:-0.418605 11:0.451613 
8.9125832854990836 0 0 0 0 0 1:-0.269231 2:-0.529412 3:-0.566265 4:-0.969325 5:-0.816024 6:-0.790941 7:-0.322506 8:-0.772894 9:-0.0727273 10:-0.302326 11:0.0645161 
2.3929872150948315 2.7764178234779191 0.30821171122162749 0.70473418805304999 0.39765703601679775 0 1:-0.769231 2:-0.509804 3:-0.807229 4:-0.972393 5:-0.762611 6:-0.944251 7:-0.591647 8:-0.823019 9:0.381818 10:-0.488372 11:-0.129032 
2.1811265146172789 0.17061014143588613 0.060722311125772761 0.52383324509901463 0.093549565926773909 0 1:0.134615 2:-0.686275 3:-0.457831 4:-0.981595 5:-0.857567 6:-0.937282 7:-0.767981 8:-0.788317 9:-0.963636 10:-0.418605 11:-0.0967742 
1.7991653047475697 0 0 1.1417272403187966 0 0 1:-0.5 2:-0.705882 3:-0.60241 4:-0.983129 5:-0.792285 6:-0.905923 7:-0.0324826 8:-0.811452 9:0.109091 10:-0.488372 11:-0.0322581 
16.363704547266813 0 0 0 0 0 1:-0.269231 2:-0.607843 3:-0.53012 4:-0.981595 5:-0.827893 6:-0.867596 7:-0.508121 8:-0.734336 9:-0.2 10:0.0465116 11:-0.354839 
0.22783511251537886 0 0 0.24872488271305654 0.66220858329528032 0 1:0.0769231 2:-0.647059 3:-0.361446 4:-0.981595 5:-0.774481 6:-0.839721 7:-0.535963 8:-0.807596 9:-0.0727273 10:-0.860465 11:0.451613 
0.5690190462161413 3.0879564347016442 4.0348795065920635 2.6549147772167951 0 0 1:-0.25 2:-0.392157 3:-0.638554 4:-0.858896 5:-0.833828 6:-0.811847 7:-0.433875 8:-0.722768 9:0.2 10:-0.488372 11:-0.0322581 
0 5.695130081094181 2.3295465196198877 0 0 0 1:-0.25 2:-0.647059 3:-0.626506 4:-0.978528 5:-0.79822 6:-0.686411 7:-0.322506 8:-0.745903 9:0.272727 10:-0.348837 11:-0.322581 
0 11.28180106912931 4.5713493356271435 0.12022729555169881 0 0 1:-0.423077 2:-0.529412 3:-0.554217 4:-0.91411 5:-0.916914 6:-0.881533 7:-0.638051 8:-0.880856 9:-0.236364 10:-0.27907 11:0.516129 
25.054029681783785 0 0 5.4844711024596817 0 0 1:-0.211538 2:-0.882353 3:-0.662651 4:-0.96319 5:-0.810089 6:-0.707317 7:-0.215777 8:-0.680355 9:0.327273 10:-0.511628 11:-0.612903 
0 11.573091179650676 0 0.18548686766390929 0 0 1:-0.346154 2:-0.745098 3:-0.590361 4:-0.984663 5:-0.780415 6:-0.839721 7:-0.670534 8:-0.811452 9:-0.0363636 10:-0.581395 11:0.0645161 
211.58553711413774 0 0 0 0 0 1:-0.653846 2:-0.676471 3:-0.614458 4:-0.984663 5:-0.774481 6:-0.84669 7:-0.336427 8:-0.784461 9:-0.272727 10:-0.534884 11:-0.580645 
2.3634103319871924 0 0 0.31192750485861614 0.0027196264002991204 0 1:-0.5 2:-0.72549 3:-0.590361 4:-0.96319 5:-0.715134 6:-0.811847 7:-0.559165 8:-0.661076 9:0.981818 10:-0.186047 11:-0.258065 
27.0689614426472 0 0.064736798078208785 0 0 0 1:-0.403846 2:-0.588235 3:-0.807229 4:-0.809816 5:-0.851632 6:-0.560976 7:-0.0580046 8:-0.676499 9:-0.345455 10:-0.604651 11:-0.677419 
0 0 0 0 0.40412719660875801 0 1:-0.538462 2:-0.745098 3:-0.542169 4:-0.809816 5:-0.839763 6:-0.567944 7:0.0951276 8:-0.691922 9:-0.381818 10:-0.674419 11:-0.580645 
10.595244110096028 0 0 0 0 0 1:-0.5 2:-0.705882 3:-0.638554 4:-0.800613 5:-0.833828 6:-0.574913 7:0.0533643 8:-0.688066 9:-0.381818 10:-0.72093 11:-0.612903 
1.7990760542404522 0 0 0.012717183680491153 0.0019365426602605716 0 1:-0.326923 2:-0.784314 3:-0.180723 4:-0.972393 5:-0.756677 6:-0.797909 7:-0.317865 8:-0.711201 9:0.0909091 10:-0.0232558 11:-0.548387 
0 0 0.76516715873801411 0 0 0 1:-0.326923 2:-0.803922 3:-0.216867 4:-0.97546 5:-0.780415 6:-0.818815 7:-0.313225 8:-0.711201 9:0.109091 10:-0.0697674 11:-0.548387 
0.86718502634308137 0.16079733403894336 0.0032601069223925114 0.39294317676774626 0.089569031359564094 0 1:0.115385 2:-0.588235 3:-0.445783 4:-0.973926 5:-0.821958 6:-0.473868 7:-0.00696056 8:-0.718913 9:-0.636364 10:-0.44186 11:-0.516129 
20.088954716637254 0 0 0.2711888151494915 0 0 1:-0.115385 2:-0.470588 3:-0.325301 4:-0.595092 5:-0.768546 6:-0.630662 7:-0.160093 8:-0.529979 9:-0.363636 10:-0.162791 11:-0.548387 
24.807908449512006 20.699663203910116 0 0 0 0 1:-0.538462 2:-0.72549 3:-0.674699 4:-0.972393 5:-0.673591 6:-0.874564 7:-0.429234 8:-0.742047 9:-0.0909091 10:-0.44186 11:-0.612903 
3.184610306940538 0 0 0 0.79805510703380067 0 1:-0.384615 2:-0.686275 3:-0.566265 4:-0.868098 5:-0.560831 6:-0.944251 7:-0.424594 8:-0.726624 9:0.109091 10:-0.651163 11:-0.0967742 
0 2.8580919616359628 0 0 0 0 1:-0.461538 2:-0.627451 3:-0.638554 4:-0.960123 5:-0.905045 6:-0.916376 7:-0.331787 8:-0.780605 9:0.0363636 10:-0.0697674 11:-0.193548 
0.87919946674439653 1.2378536091859349 0.6798929212684891 0 0.020794409008526169 0 1:-0.230769 2:-0.843137 3:-0.506024 4:-0.966258 5:-0.89911 6:-0.811847 7:-0.392111 8:-0.85001 9:-0.454545 10:0.302326 11:0.451613 
5.0613117295118943 29.414521909043344 0 0 1.113899550244603 0 1:-0.461538 2:-0.843137 3:-0.638554 4:-0.969325 5:-0.851632 6:-0.909408 7:-0.679814 8:-0.811452 9:0.2 10:-0.488372 11:0.0322581 
0 0 0 2.2308369246657773 0 0 1:-0.115385 2:-0.843137 3:-0.60241 4:-0.972393 5:-0.857567 6:-0.902439 7:-0.587007 8:-0.734336 9:-0.236364 10:-0.534884 11:-0.451613 
0 18.825698958422954 0 0 0 0 1:-0.288462 2:-0.705882 3:-0.614458 4:-0.736196 5:-0.827893 6:-0.637631 7:-0.155452 8:-0.634085 9:-0.418182 10:-0.209302 11:-0.451613 
0 0 5.2390581730173666 0 0 0 1:-0.288462 2:-0.411765 3:-0.60241 4:-0.865031 5:-0.78635 6:-0.804878 7:-0.433875 8:-0.726624 9:0.0909091 10:-0.488372 11:-0.0645161 
0 3.278005016110205 1.2378487418255844 0 0 0.56638096559918161 1:-0.326923 2:-0.490196 3:-0.53012 4:-0.858896 5:-0.816024 6:-0.700348 7:-0.285383 8:-0.792173 9:0.0545455 10:-0.418605 11:0.419355 
0 0 0 0.09202693013344708 0 0 1:-0.307692 2:-0.784314 3:-0.493976 4:-0.822086 5:-0.655786 6:-0.74216 7:-0.0580046 8:-0.664932 9:0.0545455 10:-0.744186 11:-0.483871 
0 0.11629335092264061 0 0.4486852073846056 0.0095591472837470229 0 1:0.0384615 2:-0.862745 3:-0.180723 4:-0.969325 5:-0.780415 6:-0.860627 7:-0.438515 8:-0.703489 9:-0.454545 10:-0.465116 11:-0.225806 
1.1203913365622458 0.086304000722626853 0 4.865899267995915 0.038836584740598326 0 1:0.0769231 2:-0.823529 3:-0.337349 4:-0.969325 5:-0.762611 6:-0.916376 7:-0.605568 8:-0.699634 9:-0.454545 10:-0.0930233 11:-0.258065 
3.324270723551733 0.42401477876564492 0.098607213586979783 0 0 0 1:-0.730769 2:-0.441176 3:-0.903614 4:-0.604294 5:-0.810089 6:-0.756098 7:-0.382831 8:-0.618662 9:0.345455 10:-0.604651 11:-0.387097 
245.44177709186718 0 0 0 0 0 1:-0.5 2:-0.54902 3:-0.518072 4:-0.828221 5:-0.816024 6:-0.69338 7:-0.257541 8:-0.684211 9:-0.218182 10:-0.44186 11:-0.580645 
5.8553346778054829 2.9885254408753954 0 0 0 0 1:-0.173077 2:-0.764706 3:-0.566265 4:-0.720859 5:-0.792285 6:-0.574913 7:-0.290023 8:-0.618662 9:-0.309091 10:-0.44186 11:-0.354839 
9.4148230181009147 0.3181965734245964 0 0 0 0 1:-0.211538 2:-0.656863 3:-0.686747 4:-0.957055 5:-0.89911 6:-0.735192 7:-0.160093 8:-0.765182 9:-0.418182 10:-0.604651 11:0.0322581 
0 24.983247083525008 0 0 0 0 1:-0.5 2:-0.862745 3:-0.626506 4:-0.984663 5:-0.792285 6:-0.839721 7:-0.596288 8:-0.765182 9:0.490909 10:-0.325581 11:-0.258065 
0 4.5125780918839657 0 0 0.34444172918447857 0.049031040245621819 1:-0.326923 2:-0.313725 3:-0.554217 4:-0.877301 5:-0.88724 6:-0.89547 7:-0.512761 8:-0.85001 9:-0.0727273 10:-0.511628 11:0.677419 
1.1038819482003568 1.8251523690689786 0.36154484400684012 0 0 0 1:-0.75 2:-0.54902 3:-0.638554 4:-0.990798 5:-0.833828 6:-0.818815 7:-0.336427 8:-0.811452 9:0.490909 10:-0.209302 11:-0.322581 
10.901148657035415 0 0 0 0 0 1:-0.403846 2:-0.843137 3:-0.578313 4:-0.978528 5:-0.79822 6:-0.867596 7:-0.197216 8:-0.784461 9:-0.0363636 10:-0.0697674 11:-0.0967742 
0 0 0 0.048123039557136101 0.060779456745890005 0 1:-0.480769 2:-0.72549 3:-0.13253 4:-0.809816 5:-0.804154 6:-0.783972 7:-0.262181 8:-0.664932 9:-0.272727 10:-0.674419 11:-0.612903 
19.216870894219191 0 0 0.41798100391186105 0 0 1:-0.423077 2:-0.647059 3:-0.60241 4:-0.972393 5:-0.774481 6:-0.707317 7:-0.266821 8:-0.780605 9:-0.272727 10:-0.488372 11:-0.193548 
2.8796384498266057 8.5637219287252133 0 2.1292795878346715 0 0 1:-0.730769 2:-0.431373 3:-0.60241 4:-0.981595 5:-0.88724 6:-0.923345 7:-0.665893 8:-0.880856 9:0.181818 10:-0.627907 11:0.193548 
9.3224906859803074 8.9312396760109287 0 0.63025203639347327 0 0 1:-0.423077 2:-0.862745 3:-0.614458 4:-0.748466 5:-0.709199 6:-0.84669 7:-0.531323 8:-0.61095 9:0.236364 10:-0.581395 11:-0.741935 
1.3269041627490266 0 0 0 1.0117821898049693 0 1:2.22045e-16 2:-0.686275 3:-0.39759 4:-0.981595 5:-0.768546 6:-0.832753 7:-0.545244 8:-0.819163 9:-0.109091 10:-0.72093 11:0.419355 
1.1568953891762046 1.7588017749588396 0 2.2989991569855666 0.049951069986914176 0 1:-0.634615 2:-0.745098 3:-0.710843 4:-0.947853 5:-0.774481 6:-0.595819 7:-0.164733 8:-0.695778 9:0.690909 10:0.162791 11:-0.322581 
1.4004413289167372 0.57436664983119778 0 0.2551092826245332 0.062486378484527691 0 1:-0.115385 2:-0.0196078 3:-0.674699 4:-0.645706 5:-0.857567 6:-0.756098 7:-0.50348 8:-0.661076 9:-0.509091 10:-0.604651 11:-0.0967742 
8.4356245703132959 0 0 0 0 0 1:-0.461538 2:-0.666667 3:-0.626506 4:-0.638037 5:-0.703264 6:-0.651568 7:-0.201856 8:-0.564681 9:0.436364 10:-0.418605 11:-0.419355 
1.0620173140249283 0 0.16376003239985898 0.59333363827831531 0 0 1:-0.326923 2:-0.72549 3:-0.506024 4:-0.546012 5:-0.756677 6:-0.630662 7:-0.155452 8:-0.502988 9:0.0909091 10:-0.139535 11:-0.709677 
22.633753219702669 21.374131227141113 0 0 0 0 1:-0.384615 2:-0.882353 3:-0.506024 4:-0.990798 5:-0.833828 6:-0.860627 7:-0.600928 8:-0.834586 9:-0.0363636 10:-0.511628 11:-0.0645161 
31.779619171067004 0 0 5.7611742421742997 0 0 1:-0.269231 2:-0.607843 3:-0.53012 4:-0.960123 5:-0.744807 6:-0.853659 7:-0.50348 8:-0.73048 9:-0.0363636 10:-0.581395 11:-0.225806 
0.98050540706538425 0 0.029231810645212238 0.3213560022410778 0.23898581336500266 0 1:0.326923 2:-0.72549 3:-0.325301 4:-0.766871 5:-0.792285 6:-0.756098 7:-0.201856 8:-0.580104 9:-0.727273 10:0.0697674 11:-0.516129 
4.3702490666765295 0 0 0.098860365684063534 0 0 1:-0.403846 2:-0.627451 3:-0.506024 4:-0.966258 5:-0.774481 6:-0.972125 7:-0.419954 8:-0.77675 9:-0.218182 10:0.0930233 11:0.0967742 
0 2.2193773478108021 0 0 0 0 1:-0.403846 2:-0.607843 3:-0.506024 4:-0.966258 5:-0.756677 6:-0.944251 7:-0.410673 8:-0.772894 9:-0.2 10:0.139535 11:0.0967742 
7.3795297497593921 0 0 2.0979988797384306 0.035830128940639923 0 1:-0.403846 2:-0.254902 3:-0.759036 4:-0.990798 5:-0.732938 6:-0.979094 7:-0.457077 8:-0.811452 9:-0.309091 10:-0.534884 11:-0.225806 
1.7928111390827828 0 0 3.3640486594404253 0.0047554841334553483 0 1:-0.461538 2:-0.0588235 3:-0.807229 4:-0.923313 5:-0.78635 6:-0.818815 7:-0.614849 8:-0.734336 9:-0.272727 10:-0.697674 11:-0.645161 
0 1.7814204539707876 0 1.5260397896466689 0 0 1:-0.365385 2:-0.45098 3:-0.325301 4:-0.978528 5:-0.780415 6:-0.839721 7:-0.568445 8:-0.799884 9:-0.0545455 10:-0.744186 11:-0.193548 
11.317318121602135 0.22930497714230627 1.3196826525539929 0 0 0 1:-0.423077 2:-0.705882 3:-0.518072 4:-0.969325 5:-0.774481 6:-0.979094 7:-0.424594 8:-0.772894 9:-0.0727273 10:0.116279 11:0.0967742 
0 7.4059184674391823 0 0 0 0 1:-0.596154 2:-0.784314 3:-0.686747 4:-0.791411 5:-0.851632 6:-0.783972 7:-0.470998 8:-0.695778 9:0.4 10:-0.534884 11:-0.322581 
0 2.4468215113681544 0 0 0 0 1:-0.538462 2:-0.843137 3:-0.433735 4:-0.97546 5:-0.881306 6:-0.853659 7:-0.665893 8:-0.888568 9:-0.0181818 10:-0.534884 11:0.354839 
0 0 0 0.014911419684196655 0 0 1:-0.461538 2:-0.333333 3:-0.60241 4:-0.932515 5:-0.851632 6:-0.909408 7:-0.647332 8:-0.888568 9:0.0181818 10:-0.325581 11:0.741935 
52.227600605972668 0 0 0 0 0 1:-0.634615 2:-0.892157 3:-0.638554 4:-0.877301 5:-0.804154 6:-0.881533 7:-0.573086 8:-0.711201 9:0.0727273 10:-0.534884 11:-0.580645 
1.4934305547897884 0 0 0.42969772673240142 0.057797583579566797 0 1:-0.365385 2:-0.784314 3:-0.662651 4:-0.907975 5:-0.857567 6:-0.902439 7:-0.679814 8:-0.772894 9:-0.654545 10:0.302326 11:0.0967742 
29.188303989532638 13.807359636800033 0 0.46693005097952095 0 0 1:-0.211538 2:-0.764706 3:-0.590361 4:-0.981595 5:-0.816024 6:-0.811847 7:-0.4942 8:-0.765182 9:-0.236364 10:-0.55814 11:-0.16129 
0.019794378740730867 0 1.4674713193495825 0 0.078067211730838068 0 1:-0.365385 2:-0.647059 3:-0.614458 4:-0.837423 5:-0.833828 6:-0.74216 7:-0.591647 8:-0.757471 9:0.0727273 10:-0.581395 11:0.16129 
4.7216124442071532 0 0 0 0 0 1:-0.615385 2:-0.823529 3:-0.638554 4:-0.97546 5:-0.833828 6:-0.630662 7:-0.438515 8:-0.853865 9:0.0363636 10:-0.627907 11:0.0645161 
0 0.37516226558897031 0 0 0.40608950371809005 0 1:-0.538462 2:-0.803922 3:-0.409639 4:-0.880368 5:-0.774481 6:-0.89547 7:-0.62413 8:-0.815307 10:-0.651163 11:0.16129 
8.9323136908284191 0.13985807813151413 0 0 0 0.5208273782778543 1:-0.173077 2:-0.588235 3:-0.409639 4:-0.800613 5:-0.804154 6:-0.860627 7:-0.466357 8:-0.718913 9:-0.236364 10:-0.55814 11:-0.0967742 
0 0 0.80024496106150078 0 0 0 1:-0.423077 2:-0.72549 3:-0.409639 4:-0.990798 5:-0.744807 6:-0.832753 7:-0.447796 8:-0.85001 9:-0.0363636 10:-0.697674 11:0.0967742 
0 3.8902586979168738 0.16957695915895904 0 0 0 1:-0.346154 2:-0.72549 3:-0.409639 4:-0.98773 5:-0.78635 6:-0.777003 7:-0.392111 8:-0.888568 9:-0.4 10:-0.72093 11:0.516129 
3.5324418871665721 7.2452420858570079 0 0 0.1692171288668447 0 1:-0.365385 2:-0.588235 3:-0.409639 4:-0.981595 5:-0.869436 6:-0.790941 7:-0.582367 8:-0.915558 9:-0.363636 10:-0.744186 11:0.354839 
0 5.8052221638812131 2.4496603782288644 0 0 0 1:-0.384615 2:-0.803922 3:-0.409639 4:-0.855828 5:-0.816024 6:-0.777003 7:-0.461717 8:-0.834586 9:-0.0545455 10:-0.581395 11:0.354839 
0.59687770362785075 0.1825221431214902 0 0 0 0 1:-0.134615 2:-0.764706 3:-0.108434 4:-0.881902 5:-0.792285 6:-0.783972 7:-0.438515 8:-0.796029 9:-0.0363636 10:-0.534884 11:0.354839 
0 1.0984324116256712 0.87445829528222474 0 0 0 1:-0.365385 2:-0.72549 3:-0.108434 4:-0.935583 5:-0.792285 6:-0.721254 7:-0.37355 8:-0.85001 9:0.0727273 10:-0.55814 11:0.354839 
0 9.3079888779364079 0 0.2202509929307819 0 0 1:-0.211538 2:-0.941176 3:-0.409639 4:-0.880368 5:-0.768546 6:-0.825784 7:-0.424594 8:-0.711201 9:-0.0545455 10:-0.534884 11:-0.16129 
0.63302964766907244 0 0 0 0 0 1:-0.0961538 2:-0.823529 3:-0.108434 4:-0.907975 5:-0.756677 6:-0.811847 7:-0.447796 8:-0.780605 9:0.0181818 10:-0.581395 11:0.419355 
1.154504156958607 0 0 0 0 0 1:-0.5 2:-0.872549 3:-0.409639 4:-0.852761 5:-0.768546 6:-0.637631 7:-0.280742 8:-0.711201 9:0.527273 10:-0.488372 11:-0.0967742 
1.6048522653041555 0 0 0 0 0 1:-0.307692 2:-0.843137 3:-0.409639 4:-0.981595 5:-0.727003 6:-0.888502 7:-0.345708 8:-0.823019 9:-0.0727273 10:-0.418605 11:0.0322581 
9.6082440993314435 0 0 2.9329408549371472 0 0 1:-0.134615 2:-0.784314 3:-0.409639 4:-0.981595 5:-0.750742 6:-0.937282 7:-0.406032 8:-0.819163 9:-0.381818 10:-0.44186 11:-0.0322581 
3.96363204400296 4.4152719123486941 0 0 0 0 1:-0.403846 2:-0.784314 3:-0.409639 4:-0.815951 5:-0.839763 6:-0.672474 7:-0.243619 8:-0.765182 9:-0.127273 10:-0.883721 11:0.129032 
0 1.9687422284947935 0.74616917490740364 0.19985435153243614 0 0 1:-0.230769 2:-0.313725 3:-0.409639 4:-0.619632 5:-0.857567 6:-0.756098 7:-0.308585 8:-0.676499 9:-0.236364 10:-0.697674 11:0.0645161 
4.0494328183994082 0.23892851808059892 0.56642119020534321 2.2657629597102931 0 0 1:-0.269231 2:-0.156863 3:-0.710843 4:-0.981595 5:-0.816024 6:-0.944251 7:-0.559165 8:-0.811452 9:-0.4 10:-0.837209 11:-0.0967742 
2.8010526278981267 0 0 0 0 0 1:-0.211538 2:-0.72549 3:-0.710843 4:-0.877301 5:-0.792285 6:-0.74216 7:-0.303944 8:-0.784461 9:-0.509091 10:-0.860465 11:0.129032 
10.169205462434343 15.498722056477918 0 0 0 0 1:-0.25 2:-0.843137 3:-0.409639 4:-0.957055 5:-0.721068 6:-0.874564 7:-0.466357 8:-0.703489 9:0.0909091 10:-0.372093 11:-0.129032 
5.7029312123485152 0 0 0 0 0 1:-0.346154 2:-1 3:-0.409639 4:-0.978528 5:-0.756677 6:-0.888502 7:-0.354988 8:-0.715057 9:0.345455 10:-0.488372 11:-0.290323 
4.2619059077184183 7.7583828552990317 0 3.8661250643632981 0 0 1:-0.461538 2:-0.666667 3:-0.710843 4:-0.966258 5:-0.768546 6:-0.832753 7:-0.466357 8:-0.726624 9:0.181818 10:-0.116279 11:-0.322581 
0 0.17813191771373144 0.067492954316671683 0.078420410440405985 0.027937596829504037 0 1:-0.442308 2:-0.843137 3:-0.409639 4:-0.944785 5:-0.780415 6:-0.616725 7:-0.174014 8:-0.688066 9:0.636364 10:0.372093 11:-0.225806 
7.1749756868907433 0 0 0.87068246439432906 0.021296502187589841 0 1:-0.480769 2:-0.647059 3:-0.108434 4:-0.610429 5:-0.792285 6:-0.54007 7:-0.00232019 8:-0.61095 9:-0.163636 10:-0.255814 11:-0.516129 
0 0 2.3773076399085831 0 0.55193143111256671 0 1:-0.25 2:-0.627451 3:-0.409639 4:-0.96319 5:-0.810089 6:-0.853659 7:-0.642691 8:-0.834586 9:-0.2 10:-0.534884 11:0.451613 
0.64333677216390972 1.2582826894812853 1.6549493408946345 0.063163914772340179 0 0 1:-0.442308 2:-0.156863 3:-0.710843 4:-0.953988 5:-0.79822 6:-0.916376 7:-0.322506 8:-0.873144 9:-0.0909091 10:-0.116279 11:0.612903 
0 1.6628143230437038 0.20827432005120183 0 0 0 1:-0.173077 2:-0.764706 3:-0.409639 4:-0.769939 5:-0.750742 6:-0.658537 7:-0.0904872 8:-0.680355 9:-0.309091 10:-0.302326 11:-0.0322581 
0.26288661677834446 0.33855696834751853 0 0 0 0 1:-0.230769 2:-0.647059 3:-0.108434 4:-0.788344 5:-0.792285 6:-0.602787 7:-0.299304 8:-0.65722 9:-0.0909091 10:-0.0232558 11:-0.354839 
0 0 0 0.066768344734793289 0 0 1:-0.423077 2:-0.745098 3:-0.409639 4:-0.57362 5:-0.697329 6:-0.665505 7:-0.2529 8:-0.53769 9:0.509091 10:-0.488372 11:-0.419355 
0 1.0245986220209073 0 0 0.011141830619838823 0 1:-0.0384615 2:-0.705882 3:-0.108434 4:-0.920245 5:-0.804154 6:-0.909408 7:-0.457077 8:-0.757471 9:-0.454545 10:-0.325581 11:0.0322581 
1.3441269792433841 2.7392981173485569 0 0 0 0 1:-0.326923 2:-0.72549 3:-0.409639 4:-0.714724 5:-0.869436 6:-0.679443 7:-0.294664 8:-0.745903 9:-0.472727 10:-0.860465 11:0.0322581 
0 0.6364998561231221 0 0 0.010011115946201658 0 1:-0.326923 2:-0.852941 3:-0.409639 4:-0.978528 5:-0.821958 6:-0.777003 7:-0.410673 8:-0.788317 9:-0.236364 10:0.27907 11:-0.193548 
0 2.1171109357547513 0 0 0 0 1:-0.153846 2:-0.686275 3:-0.409639 4:-0.733129 5:-0.827893 6:-0.651568 7:-0.285383 8:-0.688066 9:-0.454545 10:-0.744186 11:-0.16129 
2.3461247700016563 18.055045390152785 0 0 0 0 1:-0.115385 2:-0.705882 3:-0.409639 4:-0.779141 5:-0.845697 6:-0.860627 7:-0.600928 8:-0.753615 9:-0.418182 10:-0.72093 11:0.290323 
146.13788828689789 0 0 0 0 0 1:-0.134615 2:-0.764706 3:-0.409639 4:-0.966258 5:-0.827893 6:-0.749129 7:-0.266821 8:-0.738192 9:-0.4 10:-0.651163 11:-0.322581 
3.0513612239836858 0 0 3.194233456547686 0 0 1:-0.192308 2:-0.666667 3:-0.409639 4:-0.742331 5:-0.792285 6:-0.797909 7:-0.183295 8:-0.580104 9:0.127273 10:-0.372093 11:-0.354839 
63.720179066457824 4.7020143694542993 0 0 0 0 1:-0.307692 2:-0.627451 3:-0.409639 4:-0.984663 5:-0.833828 6:-0.783972 7:-0.317865 8:-0.811452 9:-0.218182 10:-0.255814 
5.8423689781711818 0.23372977556688468 0 0.88533775162506756 0 0 1:-0.461538 2:-0.745098 3:-0.409639 4:-0.461656 5:-0.804154 6:-0.728223 7:-0.308585 8:-0.514556 9:0.0181818 10:-0.604651 11:-0.774194 
2.1295245776679792 0 0 1.9400339374863651 0 0 1:-0.173077 2:-0.607843 3:-0.409639 4:-0.98773 5:-0.816024 6:-0.790941 7:-0.354988 8:-0.749759 9:-0.254545 10:-0.55814 11:-0.354839 
6.0196676743474971 0 0 0 0 0 1:-0.576923 2:-0.823529 3:-0.409639 4:-0.98773 5:-0.851632 6:-0.832753 7:-0.549884 8:-0.811452 9:-0.109091 10:-0.534884 11:-0.419355 
0 0 0 0.13648556701667963 0.067919432797980933 0 1:-0.365385 2:-0.803922 3:-0.108434 4:-0.539877 5:-0.792285 6:-0.707317 7:-0.225058 8:-0.518411 9:0.2 10:0.0465116 11:-0.677419 
9.6215644514530894 0 0 0 0 0 1:-0.346154 2:-0.843137 3:-0.409639 4:-0.978528 5:-0.833828 6:-0.825784 7:-0.559165 8:-0.796029 9:-0.0727273 10:-0.186047 11:-0.16129 
0 0 0 0.31851135043336565 0 0 1:-0.326923 2:-0.882353 3:-0.409639 4:-0.984663 5:-0.827893 6:-0.818815 7:-0.582367 8:-0.780605 9:-0.127273 10:0.162791 11:-0.16129 
0 0 0 0.099406922758369959 0 0 1:-0.442308 2:-0.588235 3:-0.409639 4:-0.874233 5:-0.851632 6:-0.770035 7:-0.317865 8:-0.715057 9:-0.254545 10:-0.465116 11:-0.387097 
0 14.938322383045241 11.024151481972893 0 0 0 1:-0.365385 2:-0.45098 3:-0.710843 4:-0.96319 5:-0.905045 6:-0.790941 7:-0.568445 8:-0.877 9:0.127273 10:-0.139535 11:0.548387 
0 0 0 0.12982975738776315 0 0 1:-0.0961538 2:-0.862745 3:-0.409639 4:-0.972393 5:-0.869436 6:-0.89547 7:-0.475638 8:-0.765182 9:-0.436364 10:-0.581395 11:-0.258065 
0.95926566053428963 0 0.027576590675023657 0.27446188000795546 0.069591185449994958 0 1:-0.461538 2:-0.784314 3:0.192771 4:-0.981595 5:-0.329377 6:-0.700348 7:-0.443155 8:-0.749759 9:-0.327273 10:-0.790698 11:-0.774194 
7.794007704035816 13.51246059361508 0 0 0 0 1:-0.269231 2:-0.705882 3:-0.409639 4:-0.711656 5:-0.839763 6:-0.700348 7:-0.197216 8:-0.630229 9:-0.345455 10:-0.162791 11:-0.483871 
1.1053463595596686 1.8775172734315557 0 0.13461799443434688 0 0 1:-0.230769 2:-0.568627 3:-0.108434 4:-0.96319 5:-0.857567 6:-0.783972 7:-0.317865 8:-0.85001 9:0.0363636 10:-0.302326 11:0.548387 
1.840693123304989 0 0 0.019691116322500431 0 0 1:-0.0961538 2:-0.784314 3:-0.409639 4:-0.911043 5:-0.792285 6:-0.811847 7:-0.49884 8:-0.742047 9:-0.236364 10:-0.325581 11:-0.322581 
0.083767941354007391 0 0 0.15095640365416041 0 0 1:-0.307692 2:-0.568627 3:-0.409639 4:-0.766871 5:-0.727003 6:-0.672474 7:-0.169374 8:-0.603239 9:0.454545 10:-0.162791 11:-0.451613 
0.97241018115212186 0 0.034163067615481775 0.293721649818247 0.06523265428996021 0 1:-0.423077 2:-0.823529 3:-0.108434 4:-0.944785 5:-0.738872 6:-0.58885 7:-0.197216 8:-0.684211 9:0.654545 10:0.255814 11:-0.193548 
21.081776618150666 0.22337665105369858 0 0 0.22049516747144388 0 1:-0.538462 2:-0.627451 3:-0.409639 4:-0.97546 5:-0.756677 6:-0.874564 7:-0.698376 8:-0.769038 9:0.0909091 10:-0.488372 11:-0.419355 
14.656594566083703 4.8888821238160398 0.26001058713278646 0.63460517061957067 0 0 1:2.22045e-16 2:-0.568627 3:-0.409639 4:-0.797546 5:-0.821958 6:-0.790941 7:-0.651972 8:-0.742047 9:-0.6 10:-0.767442 11:0.129032 
0 0 0 0.9035597128368531 0 0 1:-0.5 2:-0.666667 3:-0.108434 4:-0.779141 5:-0.78635 6:-0.651568 7:-0.0719258 8:-0.672643 9:-0.109091 10:-0.534884 11:-0.612903 
0 2.3211128702181529 0 0 0.099535424829282543 0 1:-0.384615 2:-0.627451 3:-0.108434 4:-0.972393 5:-0.839763 6:-0.825784 7:-0.475638 8:-0.788317 9:0.145455 10:-0.395349 11:0.0322581 
0.74807206907635071 0.10338869472024255 0.073054238667422972 0.30828111646501227 0.072993760168279839 0 1:-0.211538 2:-0.882353 3:-0.108434 4:-0.981595 5:-0.88724 6:-0.804878 7:-0.276102 8:-0.85001 9:-0.345455 10:0.395349 11:0.387097 
4.528321267693233 0 0 0 0 0 1:-0.5 2:-0.921569 3:-0.409639 4:-0.822086 5:-0.804154 6:-0.672474 7:-0.294664 8:-0.715057 9:0.127273 10:-0.488372 11:-0.225806 
0 0.98529860639324296 0 0 0 0 1:-0.423077 2:-0.745098 3:-0.108434 4:-0.981595 5:-0.774481 6:-0.839721 7:-0.526682 8:-0.826875 9:-0.254545 10:-0.55814 11:-0.129032 
152.20119404425844 0 0 0 0 0 1:-0.5 2:-0.627451 3:-0.409639 4:-0.794479 5:-0.780415 6:-0.644599 7:-0.0858469 8:-0.672643 9:-0.0545455 10:-0.511628 11:-0.612903 
0.73092628317971875 0 0.022989198700782136 0.17086341373145933 0.044801524304645943 0 1:-0.519231 2:-0.686275 3:-0.108434 4:-0.97546 5:-0.0326409 6:-0.84669 7:-0.540603 8:-0.765182 10:-0.604651 11:-0.387097 
1.0286452530556871 0 0.018148574452606259 0.38247368338482768 0.051725932108558324 0 1:-0.442308 2:-0.509804 3:-0.409639 4:-0.969325 5:-0.0623145 6:-0.874564 7:-0.605568 8:-0.834586 9:-0.290909 10:-0.348837 11:0.0967742 
8.97229753051597 0 0 0 0 0 1:-0.384615 2:-0.588235 3:-0.409639 4:-0.90184 5:-0.774481 6:-0.756098 7:-0.410673 8:-0.742047 9:-0.581818 10:-0.581395 11:-0.548387 
0 9.3823205722845611 0.038602246701919571 0 0 0 1:-0.288462 2:-0.529412 3:-0.409639 4:-0.966258 5:-0.869436 6:-0.707317 7:-0.535963 8:-0.865433 9:-0.363636 10:-0.44186 11:0.451613 
22.293421121690187 0 0 0 0 0 1:-0.153846 2:-0.647059 3:-0.409639 4:-0.858896 5:-0.816024 6:-0.881533 7:-0.577726 8:-0.73048 9:-0.272727 10:-0.72093 11:-0.322581 
0 5.4657234844273921 0 0 0 0 1:-0.288462 2:-0.784314 3:-0.409639 4:-0.969325 5:-0.774481 6:-0.721254 7:-0.392111 8:-0.765182 9:0.236364 10:-0.418605 11:-0.129032 
54.097702887945793 0 0 0 0 0 1:-0.403846 2:-0.490196 3:-0.409639 4:-0.794479 5:-0.78635 6:-0.58885 7:-0.0858469 8:-0.668787 9:-0.327273 10:-0.581395 11:-0.677419 
0.31473567983868428 11.103089500578129 0 0 0 0 1:-0.538462 2:-0.764706 3:-0.409639 4:-0.969325 5:-0.667656 6:-0.89547 7:-0.37819 8:-0.745903 9:-0.0909091 10:-0.302326 11:-0.612903 
14.882024030750664 0.51569334967086311 0 0.8570303346230459 0 0 1:-0.5 2:-0.431373 3:-0.409639 4:-0.610429 5:-0.78635 6:-0.644599 7:0.0858469 8:-0.572393 9:-0.236364 10:-0.395349 11:-0.83871 
10.818409101020739 0.27179829068702555 0 0.54646957424661324 0 0 1:-0.480769 2:-0.294118 3:-0.409639 4:-0.782209 5:-0.78635 6:-0.902439 7:-0.257541 8:-0.668787 9:-0.290909 10:-0.651163 11:-0.774194 
6.1786853434357107 1.8327734727374492 0 0 0 0 1:-0.384615 2:-0.882353 3:-0.409639 4:-0.837423 5:-0.738872 6:-0.860627 7:-0.4942 8:-0.680355 9:0.163636 10:-0.674419 11:-0.548387 
0 0 1.4071960788622095 0 0 0 1:-0.5 2:-0.647059 3:-0.409639 4:-0.822086 5:-0.833828 6:-0.756098 7:-0.294664 8:-0.680355 9:0.2 10:-0.27907 11:-0.451613 
1.3258830614147432 0.8014217945709442 0.075214333722444182 0.047131911884795194 0 0.027754284786464006 1:2.22045e-16 2:-0.72549 3:-0.409639 4:-0.699387 5:-0.768546 6:-0.651568 7:-0.136891 8:-0.553114 9:0.0727273 10:-0.488372 11:-0.290323 
0 0 0.33180196976216986 0 0.025519100233391812 0 1:-0.230769 2:-0.862745 3:-0.710843 4:-0.782209 5:-0.774481 6:-0.867596 7:-0.587007 8:-0.691922 9:-0.6 10:-0.790698 11:-0.483871 
0 3.4411664718155048 0 0 0 0 1:-0.134615 2:-0.666667 3:-0.409639 4:-0.503067 5:-0.768546 6:-0.665505 7:0.0162413 8:-0.499132 9:-0.436364 10:-0.302326 11:-0.612903 
6.8755169365990465 15.524233909436932 0 0 0 0 1:-0.5 2:-0.72549 3:-0.409639 4:-0.788344 5:-0.732938 6:-0.721254 7:-0.341067 8:-0.703489 10:-0.302326 11:-0.322581 
0 19.294358204706143 0.068376215230339391 0 0 0 1:-0.230769 2:-0.372549 3:-0.409639 4:-0.779141 5:-0.697329 6:-0.777003 7:-0.290023 8:-0.634085 9:-0.0181818 10:-0.162791 11:0.0645161 
10.808827120504766 0 0 0 0 0 1:-0.461538 2:-0.627451 3:-0.409639 4:-0.779141 5:-0.762611 6:-0.581882 7:-0.0348028 8:-0.661076 9:-0.181818 10:-0.465116 11:-0.548387 
12.327640502893621 0 0 0 0.42413751261589955 0 1:-0.442308 2:-0.647059 3:-0.409639 4:-0.763804 5:-0.774481 6:-0.637631 7:-0.155452 8:-0.680355 9:-0.0727273 10:-0.581395 11:-0.258065 
1.0045356808050068 0.059830653021297524 0.00079487750379462791 0.22679733574343799 0.079736911846603267 0 1:-0.211538 2:-0.509804 3:-0.662651 4:-0.0490798 5:-0.738872 6:-0.770035 7:-0.225058 8:-0.105842 9:-0.218182 10:-0.627907 11:-0.741935 
1.6683705105229929 1.3999339710127217 0 0.22407299704303976 0 0 1:-0.0384615 2:-0.392157 3:-0.590361 4:-0.837423 5:-0.727003 6:-0.783972 7:-0.447796 8:-0.784461 9:-0.581818 10:-0.325581 11:0.225806 
8.3411849865515233 0 0 1.9994372476866353 0 0 1:-0.365385 2:-0.54902 3:-0.542169 4:-0.981595 5:-0.839763 6:-0.944251 7:-0.466357 8:-0.796029 9:-0.236364 10:-0.488372 11:-0.387097 
3.2811854420814397 0 0 0 0 0 1:-0.230769 2:-0.686275 3:-0.783133 4:-0.812883 5:-0.780415 6:-0.783972 7:-0.299304 8:-0.645653 9:-0.127273 10:-0.209302 11:-0.419355 
10.442478497163217 3.9614264980542391 3.5118511550531948 0.34725479931255604 0 0 1:-0.326923 2:-0.705882 3:-0.554217 4:-0.96319 5:-0.863501 6:-0.595819 7:-0.317865 8:-0.811452 9:-0.290909 10:-0.697674 
0 5.2976880953455368 0 0 0 0 1:-0.538462 2:-0.568627 3:-0.759036 4:-0.815951 5:-0.78635 6:-0.721254 7:-0.2529 8:-0.718913 9:0.163636 10:-0.465116 11:-0.225806 
1.0372198701674264 0.49661553939314773 0.066611433046967927 0.42203980281686349 0.07400162271503341 0 1:-0.519231 2:-0.54902 3:-0.638554 4:-0.711656 5:-0.780415 6:-0.672474 7:-0.0580046 8:-0.649508 9:0.854545 10:-0.232558 11:0.258065 
4.4712464889242804 0 7.2674824896707229 0 0 0 1:-0.365385 2:-0.843137 3:-0.698795 4:-0.978528 5:-0.851632 6:-0.818815 7:-0.470998 8:-0.830731 10:-0.232558 11:0.0967742 
4.8735244209756692 0 0 0.11645076873223141 0 0 1:-0.0961538 2:-0.529412 3:-0.566265 4:-0.56135 5:-0.810089 6:-0.686411 7:-0.160093 8:-0.572393 9:-0.345455 10:-0.790698 11:-0.354839 
0.32350306628726694 4.949251650774972 0 0 0 0 1:-0.403846 2:-0.803922 3:-0.638554 4:-0.957055 5:-0.827893 6:-0.74216 7:-0.160093 8:-0.834586 9:0.0909091 10:-0.651163 11:0.354839 
6.6866256001900641 0 0 0 0 0 1:-0.519231 2:-0.647059 3:-0.650602 4:-0.95092 5:-0.79822 6:-0.770035 7:-0.229698 8:-0.819163 9:0.2 10:-0.511628 11:0.16129 
13.237259077672526 15.205233762928019 0 0 1.9734980514313432 0 1:-0.461538 2:-0.666667 3:-0.626506 4:-0.972393 5:-0.845697 6:-0.790941 7:-0.452436 8:-0.807596 9:0.254545 10:-0.418605 11:0.0645161 
0 0 0 1.6897129268834876 0 0 1:-0.211538 2:-0.803922 3:-0.554217 4:-0.92638 5:-0.691395 6:-0.839721 7:-0.215777 8:-0.695778 9:-0.0909091 10:-0.325581 11:-0.354839 
6.4542525551266241 0 0 1.8919972453210321 0 0 1:-0.461538 2:-0.490196 3:-0.674699 4:-0.828221 5:-0.703264 6:-0.853659 7:-0.410673 8:-0.668787 9:0.0545455 10:-0.372093 11:-0.322581 
0 19.563686877343944 1.4827794541734132 0 0 0 1:-0.384615 2:-0.745098 3:-0.626506 4:-0.834356 5:-0.780415 6:-0.811847 7:-0.540603 8:-0.738192 9:-0.0181818 10:-0.348837 11:-0.0967742 
0.32243290159780003 0 0.1473989478093041 0.13131718867045558 0.032710957945280852 0 1:-0.288462 2:-0.372549 3:0.204819 4:-0.420245 5:-0.810089 6:-0.783972 7:-0.354988 8:-0.591671 9:-0.0545455 10:-0.627907 11:0.290323 
0 14.913302022955456 0 0 0 0 1:-0.384615 2:-0.901961 3:-0.638554 4:-0.865031 5:-0.721068 6:-0.797909 7:-0.475638 8:-0.715057 9:0.363636 10:-0.534884 11:-0.193548 
7.4775574445388635 0 0 0 0 0 1:-0.403846 2:-0.823529 3:-0.73494 4:-0.877301 5:-0.673591 6:-0.630662 7:-0.336427 8:-0.688066 9:0.0363636 10:-0.651163 11:-0.580645 
8.7802346040912287 1.0381706378484217 6.4259125881876198 0 0.89120690216542608 0 1:-0.384615 2:-0.568627 3:-0.614458 4:-0.822086 5:-0.851632 6:-0.818815 7:-0.591647 8:-0.796029 9:-0.0727273 10:-0.488372 11:0.225806 
3.6524620717369909 0 0 0.17372986208530747 0.055154186896123183 0 1:-0.269231 2:-0.284314 3:-0.46988 4:-0.57362 5:-0.78635 6:-0.54007 7:-0.0580046 8:-0.556969 9:0.381818 10:-0.674419 11:-0.354839 
0 5.6552052512590132 0 0 0 0 1:-0.288462 2:-0.72549 3:-0.60241 4:-0.812883 5:-0.839763 6:-0.700348 7:-0.401392 8:-0.738192 9:-0.127273 10:0.0697674 11:0.0967742 
5.2857799202126197 0 0 1.1131790492505131 0.14313646379896577 0 1:0.0384615 2:-0.705882 3:-0.638554 4:-0.984663 5:-0.869436 6:-0.735192 7:-0.582367 8:-0.77675 9:-0.6 10:-0.813953 11:-0.225806 
4.0559736132194564 0 0 0 0 0 1:-0.173077 2:-0.568627 3:-0.626506 4:-0.984663 5:-0.810089 6:-0.672474 7:-0.470998 8:-0.834586 9:-0.509091 10:-0.465116 
26.541526295443212 0 0 0 0 0 1:-0.403846 2:-0.843137 3:-0.638554 4:-0.723926 5:-0.715134 6:-0.665505 7:-0.183295 8:-0.587816 9:0.218182 10:-0.627907 11:-0.483871 
0 1.6837140119476521 0 0.25398008459930366 0 0 1:-0.134615 2:-0.568627 3:-0.566265 4:-0.711656 5:-0.804154 6:-0.783972 7:-0.257541 8:-0.572393 9:-0.0727273 10:-0.325581 11:-0.580645 
23.299400434637583 1.6492335943312548 0 0 0 0 1:-0.557692 2:-0.823529 3:-0.674699 4:-0.972393 5:-0.721068 6:-0.700348 7:-0.415313 8:-0.796029 9:-0.127273 10:-0.511628 11:-0.290323 
28.748334327336103 0 0 0 0 0 1:-0.557692 2:-0.656863 3:-0.46988 4:-0.641104 5:-0.78635 6:-0.644599 7:-0.12761 8:-0.630229 9:-0.0545455 10:-0.255814 11:-0.516129 
7.0477534659240151 0 0 0 0 0 1:-0.519231 2:-0.666667 3:-0.722892 4:-0.56135 5:-0.821958 6:-0.686411 7:-0.382831 8:-0.616734 9:-0.236364 10:-0.697674 11:-0.451613 
12.74753976514968 0.16668092463437498 0 0 0 0 1:-0.5 2:-0.607843 3:-0.771084 4:-0.852761 5:-0.804154 6:-0.547038 7:-0.201856 8:-0.720841 9:0.0727273 10:-0.697674 11:-0.290323 
1.2011291073528771 0 0 0.90564784175211699 0 0 1:-0.326923 2:-0.745098 3:-0.638554 4:-0.684049 5:-0.833828 6:-0.888502 7:-0.522042 8:-0.618662 9:0.236364 10:-0.348837 11:-0.483871 
0 3.3143952246414381 0 0 0 0 1:-0.230769 2:-0.372549 3:-0.686747 4:-0.726994 5:-0.703264 6:-0.790941 7:-0.215777 8:-0.676499 9:-0.418182 10:-0.511628 11:-0.0645161 
7.4877955985770228 0 0 0 0 0 1:-0.230769 2:-0.392157 3:-0.686747 4:-0.714724 5:-0.703264 6:-0.783972 7:-0.201856 8:-0.676499 9:-0.418182 10:-0.534884 11:-0.0645161 
0.41267118504482964 0 0 0.15398113762277504 0.040295906903033273 0 1:-0.25 2:-0.196078 3:0.204819 4:-0.417178 5:-0.875371 6:-0.818815 7:-0.415313 8:-0.607095 9:-0.0545455 10:-0.581395 11:0.290323 
1.8472278396653992 0 0 0.0075120652164663623 0.16624363087035102 0 1:-0.0576923 2:-0.27451 3:-0.518072 4:-0.972393 5:-0.655786 6:-0.89547 7:-0.577726 8:-0.668787 10:-0.186047 11:-0.322581 
29.819511178452828 1.7244317352533387 0 0 0 0 1:-0.230769 2:-0.72549 3:-0.566265 4:-0.97546 5:-0.721068 6:-0.867596 7:-0.331787 8:-0.772894 9:-0.127273 10:-0.27907 11:-0.225806 
50.608927405183486 0 0 1.4255446913700629 0 0 1:-0.442308 2:-0.431373 3:-0.506024 4:-0.825153 5:-0.691395 6:-0.860627 7:-0.350348 8:-0.684211 9:-0.2 10:-0.418605 11:-0.483871 
0 0 0.0058678654630212063 0 0 0 1:-0.423077 2:-0.705882 3:-0.650602 4:-0.546012 5:-0.620178 6:-0.623693 7:-0.238979 8:-0.564681 9:-0.381818 10:-0.55814 11:-0.774194 
0 0 1.075951629534271 0 0 0 1:-0.423077 2:-0.705882 3:-0.650602 4:-0.546012 5:-0.620178 6:-0.623693 7:-0.238979 8:-0.564681 9:-0.381818 10:-0.55814 11:-0.774194 
2.3094839174786563 14.101507075188696 0 0 0 0 1:-0.5 2:-0.647059 3:-0.746988 4:-0.800613 5:-0.816024 6:-0.770035 7:-0.290023 8:-0.672643 9:0.218182 10:-0.162791 11:-0.387097 
6.7102667419588737 0.69767410035994959 0 0.61767650408824448 0 0 1:-0.269231 2:-0.568627 3:-0.73494 4:-0.705521 5:-0.762611 6:-0.616725 7:-0.155452 8:-0.634085 9:-0.345455 10:-0.581395 11:-0.580645 
0 0 0.053628494784172268 0 0 0 1:-0.0384615 2:-0.764706 3:-0.481928 4:-0.558282 5:-0.738872 6:-0.595819 7:-0.187935 8:-0.472142 9:0.0181818 10:0.325581 11:-0.741935 
0.89659304701439302 1.2663956492129349 1.1691781648354447 0.090045460292215704 0.053518608312661503 0 1:-0.0384615 2:-0.764706 3:-0.481928 4:-0.558282 5:-0.738872 6:-0.595819 7:-0.187935 8:-0.472142 9:0.0181818 10:0.325581 11:-0.741935 
6.5744302728915356 0 0 0 0 0 1:-0.461538 2:-0.45098 3:-0.746988 4:-0.972393 5:-0.762611 6:-0.74216 7:-0.187935 8:-0.780605 9:-0.163636 10:-0.55814 11:-0.387097 
3.5365558774106027 28.099806044905055 3.6903058208551722 2.5407293108491071 0 0 1:-0.346154 2:-0.862745 3:-0.542169 4:-0.981595 5:-0.827893 6:-0.888502 7:-0.531323 8:-0.823019 9:-0.145455 10:-0.511628 
5.7075171163679057 75.569282520189361 0 0 0 0 1:-0.576923 2:-0.647059 3:-0.650602 4:-0.98773 5:-0.863501 6:-0.825784 7:-0.596288 8:-0.903991 9:0.2 10:-0.488372 11:0.387097 
0 0 0 0 0 0.91493373380619825 1:-0.423077 2:-0.509804 3:-0.662651 4:-0.981595 5:-0.863501 6:-0.749129 7:-0.433875 8:-0.930981 9:-0.145455 10:-0.55814 11:0.612903 
0 0 0 0.67653679757776097 0 0 1:-0.423077 2:-0.568627 3:-0.578313 4:-0.932515 5:-0.827893 6:-0.944251 7:-0.280742 8:-0.842298 9:-0.327273 10:-0.27907 11:0.290323 
6.2189236958294893 0 0 0 0 0 1:-0.326923 2:-0.784314 3:-0.710843 4:-0.825153 5:-0.732938 6:-0.777003 7:0.0301624 8:-0.641797 9:0.163636 10:-0.255814 11:-0.354839 
11.871487671695405 0 0 0 0 0 1:-0.326923 2:-0.823529 3:-0.722892 4:-0.825153 5:-0.750742 6:-0.770035 7:0.0719258 8:-0.645653 9:0.163636 10:-0.255814 11:-0.354839 
2.4145229366386989 0 0.48511505512746306 0.31996687607044427 0 0 1:-0.5 2:-0.745098 3:-0.638554 4:-0.846626 5:-0.792285 6:-0.714286 7:-0.299304 8:-0.699634 9:0.6 10:-0.55814 11:-0.16129 
0.1146910659146636 0 0 0 0.011958131946352764 0 1:-0.480769 2:-0.490196 3:-0.566265 4:-0.680982 5:-0.744807 6:-0.644599 7:0.104408 8:-0.564681 9:0.309091 10:-0.232558 11:-0.580645 
5.775017382862039 0 0 0.97741242658706218 0.058342777960795442 0 1:-0.384615 2:-0.784314 3:-0.722892 4:-0.843558 5:-0.323442 6:-0.825784 7:-0.559165 8:-0.680355 9:-0.418182 10:-0.255814 11:-0.548387 
0 0 0.086375462280669821 0 0.0044371189523989933 0 1:-0.153846 2:-0.803922 3:-0.626506 4:-0.656442 5:-0.821958 6:-0.344948 7:0.113689 8:-0.595527 9:-0.363636 10:-0.302326 11:-0.516129 
1.2427838602650025 1.5182733723865161 0 0 0.047006882450889839 0 1:-0.134615 2:-0.607843 3:-0.457831 4:-0.779141 5:-0.703264 6:-0.790941 7:-0.396752 8:-0.61095 9:0.109091 10:0.27907 11:0.0322581 
0 7.6867607282011887 1.1741523478258926 0 0 0 1:-0.557692 2:-0.490196 3:-0.445783 4:-0.874233 5:-0.881306 6:-0.867596 7:-0.605568 8:-0.85001 9:0.0363636 10:-0.0697674 11:0.387097 
6.2664455372710126 0 0 0 0 0 1:-0.192308 2:-0.72549 3:-0.662651 4:-0.588957 5:-0.738872 6:-0.43554 7:-0.12761 8:-0.576248 9:-0.236364 10:-0.465116 11:-0.419355 
1.3450288578990568 0 0 1.0150344641921978 0 0 1:-0.442308 2:-0.803922 3:-0.771084 4:-0.874233 5:-0.780415 6:-0.616725 7:-0.294664 8:-0.711201 9:0.0909091 10:0.0232558 11:-0.193548 
2.5397374049442747 0 0 0 0 0 1:-0.230769 2:-0.764706 3:-0.662651 4:-0.705521 5:-0.732938 6:-0.470383 7:-0.178654 8:-0.618662 9:-0.236364 10:-0.44186 11:-0.354839 
1.0565442660437314 0 0.033762071621664703 0.30882154477402496 0.079302662961204792 0 1:-0.269231 2:-0.45098 3:-0.46988 4:-0.763804 5:0.459941 6:-0.818815 7:-0.382831 8:-0.664932 9:-0.272727 10:-0.511628 11:-0.290323 
27.687417207475189 0 0 0 0 0 1:-0.519231 2:-0.784314 3:-0.746988 4:-0.96319 5:-0.762611 6:-0.770035 7:-0.285383 8:-0.796029 9:0.0727273 10:-0.348837 11:-0.258065 
0 0.78001473465878113 0 0 0 0 1:-0.384615 2:-0.745098 3:-0.73494 4:-0.861963 5:-0.768546 6:-0.749129 7:-0.262181 8:-0.715057 9:0.127273 10:-0.372093 11:-0.225806 
0 6.8468590719744187 0 0 0 0 1:-0.192308 2:-0.784314 3:-0.638554 4:-0.957055 5:-0.738872 6:-0.679443 7:-0.392111 8:-0.734336 9:-0.163636 10:-0.372093 11:-0.483871 
11.977626543461772 15.06368386336626 0 0 0 0 1:-0.192308 2:-0.764706 3:-0.566265 4:-0.981595 5:-0.863501 6:-0.867596 7:-0.679814 8:-0.807596 9:-0.345455 10:-0.651163 11:-0.225806 
0.5074523352798227 0 0.47235195133013075 0 0 0 1:-0.192308 2:-0.666667 3:-0.686747 4:-0.588957 5:-0.79822 6:-0.728223 7:0.109049 8:-0.556969 9:-0.436364 10:-0.186047 11:-0.774194 
0.13896190741494052 0 0 0 0.014842403910847431 0 1:-0.346154 2:-0.764706 3:-0.26506 4:-0.521472 5:-0.79822 6:-0.916376 7:-0.563805 8:-0.553114 9:-0.381818 10:-0.674419 11:-0.612903 
6.0701639733886124 0 0 0 0 0 1:-0.211538 2:-0.647059 3:-0.60241 4:-0.702454 5:-0.821958 6:-0.505226 7:-0.0580046 8:-0.622518 9:-0.618182 10:-0.372093 11:-0.516129 
6.4421241394670954 0 0 0.40321563314223552 0 0 1:-0.288462 2:-0.588235 3:-0.192771 4:-0.769939 5:-0.833828 6:-0.644599 7:-0.271462 8:-0.634085 9:-0.672727 10:-0.55814 11:-0.709677 
0.80320134642068208 0 0.031970924170153556 0.33747956230200765 0.13389980305211963 0 1:0.192308 2:-0.705882 3:-0.674699 4:-0.58589 5:-0.857567 6:-0.700348 7:-0.271462 8:-0.549258 9:-1 10:-0.511628 11:-0.451613 
0 5.5003287722580323 0 0.75388257650309043 0 0 1:-0.211538 2:-0.568627 3:-0.674699 4:-0.757669 5:-0.839763 6:-0.874564 7:-0.522042 8:-0.738192 9:-0.563636 10:-0.44186 11:0.193548 
13.616109117624461 0 0 0.69093767665252193 0.34932093800911024 0 1:-0.134615 2:-0.705882 3:-0.638554 4:-0.953988 5:-0.762611 6:-0.867596 7:-0.331787 8:-0.684211 9:-0.327273 10:-0.348837 11:-0.483871 
0.1987815091378097 1.2380481825099421 1.5331193121576008 0 0 0 1:-0.423077 2:-0.313725 3:-0.638554 4:-0.911043 5:-0.857567 6:-0.825784 7:-0.415313 8:-0.865433 9:-0.490909 10:-0.651163 11:0.290323 
3.105743475663199 0.50380503615792505 0 0.08251422789497502 0.060279772537366653 0 1:-0.365385 2:-0.803922 3:-0.686747 4:-0.978528 5:-0.810089 6:-0.874564 7:-0.712297 8:-0.788317 9:-0.418182 10:0.209302 11:-0.387097 
2.0099119994887293 0 0 0 0 0 1:-0.461538 2:-0.470588 3:-0.650602 4:-0.576687 5:-0.792285 6:-0.637631 7:-0.220418 8:-0.53769 9:-0.181818 10:-0.162791 11:-0.709677 
4.2451979764578649 2.6687180411578795 0.20045147430550253 0 0 0 1:-0.326923 2:-0.72549 3:-0.39759 4:-0.59816 5:-0.762611 6:-0.623693 7:-0.164733 8:-0.526123 9:-0.0545455 10:0.0232558 11:-0.677419 
0.98311258847556127 0 0.032803246572563435 0.19200570882510579 0.036937417827629493 0 1:-0.519231 2:-0.764706 3:-0.301205 4:-0.97546 5:0.15727 6:-0.909408 7:-0.591647 8:-0.769038 9:-0.2 10:-0.511628 11:-0.354839 
10.508235405540958 1.6475463901477443 3.8682226503125947 0 0 0 1:-0.384615 2:-0.627451 3:-0.614458 4:-0.809816 5:-0.774481 6:-0.686411 7:-0.146172 8:-0.742047 9:-0.0727273 10:-0.604651 11:0.0967742 
2.3755300565315061 0.30298824159924553 0 0.062746369721011303 0.076324370616921974 0 1:0.0384615 2:-0.627451 3:-0.590361 4:-0.696319 5:-0.79822 6:-0.672474 7:0.0162413 8:-0.603239 9:-0.418182 10:-0.55814 11:-0.225806 
0.87599565389301814 0 0.016730273482489986 0.38455742455682262 0.080266123513141857 0 1:0.0384615 2:0.235294 3:-0.722892 4:-0.828221 5:-0.804154 6:-0.909408 7:-0.610209 8:-0.703489 9:-0.690909 10:-0.72093 11:-0.322581 
5.5466593180349406 0 7.0376865517234055 0.26205078421750522 0 0 1:-0.423077 2:-0.607843 3:-0.566265 4:-0.969325 5:-0.816024 6:-0.839721 7:-0.638051 8:-0.796029 9:-0.0727273 10:0.0232558 11:-0.258065 
6.5927969117156389 4.1299368342991496 0 0 0 0 1:-0.173077 2:-0.647059 3:-0.638554 4:-0.779141 5:-0.762611 6:-0.74216 7:-0.336427 8:-0.680355 9:-0.509091 10:-0.162791 11:-0.354839 
1.9236985304635492 0 0 0.63146364646378994 0.096573709441018521 0 1:-0.5 2:-0.72549 3:-0.614458 4:-0.650307 5:-0.661721 6:-0.616725 7:-0.308585 8:-0.533835 9:0.6 10:-0.511628 11:-0.677419 
7.286472555127312 0 0 0.51064671860077337 0.0053749534184616473 0 1:-0.307692 2:-0.529412 3:-0.337349 4:-0.509202 5:-0.721068 6:-0.644599 7:0.062645 8:-0.43744 9:-0.563636 10:-0.162791 11:-0.774194 
3.9823012495749066 0 0.58110972290506313 1.0581873928825214 0 0 1:-0.423077 2:-0.627451 3:-0.662651 4:-0.610429 5:-0.602374 6:-0.665505 7:-0.285383 8:-0.58396 9:-0.436364 10:-0.627907 11:-0.806452 
0 13.900367850192465 0 0 0 0 1:-0.269231 2:-0.764706 3:-0.626506 4:-0.97546 5:-0.774481 6:-0.728223 7:-0.382831 8:-0.757471 9:0.290909 10:-0.27907 11:-0.322581 
0 0.17629657250301753 0.56891368068503589 1.2268153615416371 0.080349674154150869 0 1:-0.134615 2:-0.196078 3:-0.481928 4:-0.941718 5:-0.839763 6:-0.790941 7:-0.50348 8:-0.718913 9:-0.0727273 10:-0.418605 11:-0.129032 
29.219319973677973 0 0 0 0 0 1:-0.423077 2:-0.627451 3:-0.578313 4:-0.779141 5:-0.768546 6:-0.484321 7:-0.12761 8:-0.661076 9:-0.0545455 10:-0.511628 11:-0.516129 
0 0 0 1.5999344730643716 0.32357022604508562 0 1:-0.115385 2:-0.764706 3:-0.674699 4:-0.825153 5:-0.768546 6:-0.804878 7:-0.37819 8:-0.634085 9:-0.0363636 10:-0.348837 11:-0.645161 
9.6483574889470844 0 0 0.081535889032481032 0 0 1:-0.211538 2:-0.509804 3:-0.686747 4:-0.981595 5:-0.792285 6:-0.853659 7:-0.563805 8:-0.765182 9:-0.145455 10:-0.255814 11:-0.193548 
42.791321309998835 0 0 2.4729207382207319 0 0 1:-0.288462 2:-0.411765 3:-0.39759 4:-0.625767 5:-0.804154 6:-0.616725 7:-0.187935 8:-0.564681 9:-0.327273 10:-0.44186 11:-0.677419 
1.7061698914336485 1.7603999821810212 0.31943135208844392 0.74091723649606456 0 0 1:-0.173077 2:-0.784314 3:-0.301205 4:-0.507669 5:-0.762611 6:-0.679443 7:-0.201856 8:-0.479853 9:-0.127273 10:-0.0697674 11:-0.645161 
0 8.2088471204053892 0 0 0 0 1:-0.269231 2:-0.843137 3:-0.506024 4:-0.960123 5:-0.774481 6:-0.825784 7:-0.341067 8:-0.745903 9:-0.127273 10:-0.27907 11:-0.322581 
0 13.375301444571713 0 0 0 0 1:-0.192308 2:-0.72549 3:-0.614458 4:-0.699387 5:-0.79822 6:-0.574913 7:-0.109049 8:-0.618662 9:-0.290909 10:-0.27907 11:-0.516129 
0 0 0.042748898671129458 0 0 0 1:-0.384615 2:-0.607843 3:-0.60241 4:-0.570552 5:-0.79822 6:-0.686411 7:-0.262181 8:-0.526123 9:0.127273 10:0.0465116 11:-0.741935 
0 0 0.015848457507820123 0.00083536014802188397 0 0 1:-0.115385 2:-0.764706 3:-0.542169 4:-0.656442 5:-0.727003 6:-0.658537 7:-0.2529 8:-0.487565 9:0.127273 10:0.395349 11:-0.709677 
0 0 0.63915613707043017 0.07442472301106022 0.015709284549097098 0 1:-0.115385 2:-0.764706 3:-0.542169 4:-0.656442 5:-0.727003 6:-0.658537 7:-0.2529 8:-0.487565 9:0.127273 10:0.395349 11:-0.709677 
0.22686933337705933 17.412424730989091 2.6606820348543878 0 0 0 1:-0.326923 2:-0.803922 3:-0.626506 4:-0.48773 5:-0.727003 6:-0.790941 7:-0.12761 8:-0.495277 9:-0.254545 10:-0.44186 11:-0.677419 
0.41158728380686721 1.3102025770668317 0 0 0 0 1:-0.384615 2:-0.607843 3:-0.60241 4:-0.570552 5:-0.79822 6:-0.686411 7:-0.262181 8:-0.526123 9:0.127273 10:0.0465116 11:-0.741935 
